842 100
60 -0.09540267288684845 0.06666166335344315 -0.032927993685007095 0.09354888647794724 0.0016872273990884423 -0.13399986922740936 0.20005784928798676 0.006525763310492039 0.10251671820878983 -0.12242764234542847 -0.0259530209004879 -0.18864142894744873 -0.03428659960627556 -0.1431654542684555 -0.23602049052715302 0.07178600877523422 -0.18519213795661926 -0.20263871550559998 -0.08275841176509857 -0.1685868799686432 -0.0654858872294426 -0.050315238535404205 -0.12947781383991241 0.24922394752502441 -0.042248137295246124 -0.08176175504922867 0.09650829434394836 -0.1026519387960434 0.07395223528146744 0.21921668946743011 0.15761218965053558 -0.28618037700653076 -0.019090985879302025 -0.03363877907395363 0.15790033340454102 -0.06055789813399315 -0.0014492010232061148 0.1498783975839615 -0.021072233095765114 -0.014052840881049633 0.011658483184874058 -0.06497013568878174 -3.74750787159428E-4 0.0951194018125534 0.23423179984092712 0.0010530117433518171 -0.07821580767631531 0.039734482765197754 0.03068307228386402 0.06950277835130692 -0.08825934678316116 0.18558551371097565 -0.12344827502965927 0.10309547185897827 0.1149841770529747 -0.013777417130768299 0.1857573240995407 0.2518984079360962 -0.04495689645409584 -0.08302855491638184 0.08550968766212463 -0.05156746134161949 0.08419661968946457 -0.03204825520515442 -0.01605987176299095 -0.02633809484541416 -0.2503814995288849 0.025338955223560333 -0.1818324327468872 0.013086925260722637 0.03733501210808754 0.007785269990563393 -0.1818089485168457 0.004385272040963173 0.20125168561935425 -0.002127848332747817 -0.13926762342453003 0.03995751962065697 -0.032364632934331894 -0.10828303545713425 -0.11035922169685364 6.155962473712862E-4 0.11646991968154907 -0.022694624960422516 0.028114749118685722 -0.042929019778966904 0.0688752606511116 0.05419282987713814 -0.07653938978910446 -0.0985446497797966 -0.025675944983959198 -0.05328745394945145 0.025336891412734985 0.11389737576246262 -0.046889401972293854 -0.04697289690375328 -0.22335965931415558 -0.055400412529706955 -0.016662441194057465 0.08279838413000107
691 -0.018928777426481247 -0.008991923183202744 0.027770770713686943 0.04302509129047394 -0.025724312290549278 -0.02456722967326641 -0.008104278706014156 -0.014763184823095798 0.0010588786099106073 0.012248530983924866 -0.03040221892297268 -0.03335095942020416 0.015228023752570152 -0.026998301967978477 -0.0043897912837564945 -0.014681673608720303 0.011273877695202827 -0.0016386723145842552 0.028099138289690018 0.002023328561335802 0.016306793317198753 0.02585466578602791 -0.015646984800696373 -0.0068887826055288315 0.01388255599886179 -0.05728444084525108 0.05287306010723114 0.010945684276521206 -0.016871221363544464 0.02087096869945526 0.019565746188163757 -0.028146205469965935 -0.023075517266988754 0.033693913370370865 -0.00592820206657052 -0.00672887871041894 -0.009742660447955132 0.05735061690211296 0.021705294027924538 -0.0191174428910017 -0.018417714163661003 -0.02741418220102787 0.025637023150920868 0.03755740448832512 0.0257630106061697 -0.015452757477760315 0.03806263580918312 0.005931439343839884 -0.029548313468694687 0.015018168836832047 -0.032380472868680954 0.008289167657494545 -0.054205235093832016 0.007001322228461504 0.014156623743474483 -0.011469828896224499 0.002737690694630146 0.003574334317818284 0.008051253855228424 9.262345265597105E-4 0.03539895638823509 0.008760091848671436 0.03403474763035774 0.00825459510087967 0.006404113955795765 0.012529694475233555 -0.02329792082309723 -0.009603365324437618 -0.04303114116191864 -0.012169710360467434 -0.0077638570219278336 0.040244027972221375 -0.04192962870001793 -0.017340367659926414 0.024474583566188812 0.019581923261284828 0.0035960061941295862 0.0034053348936140537 -0.012414718978106976 -0.019810279831290245 -0.02117014117538929 -0.0020939791575074196 0.008546869270503521 0.057135432958602905 -4.939728387398645E-5 -0.014436459168791771 -0.007577249314635992 0.03701562061905861 0.04251055419445038 0.01500934362411499 -0.013014649040997028 -0.002454370027408004 0.02728942036628723 0.03611963987350464 -0.022388098761439323 0.02577892132103443 -0.007241662126034498 -0.008252202533185482 0.00196237675845623 -0.01712822914123535
800 0.0068499245680868626 0.0016320620197802782 -0.001096733845770359 -0.007724042981863022 -0.00781274400651455 0.00208413228392601 -0.004807819612324238 -0.004961574450135231 -0.003800795879215002 0.005146901588886976 0.013849522918462753 -0.0025110722053796053 -0.0028510107658803463 0.009240958839654922 0.004119854420423508 -0.006065223831683397 -0.0011158575071021914 -0.0048189712688326836 -0.005931301973760128 3.036415437236428E-4 0.004546761512756348 0.007859267294406891 0.0019294250523671508 0.012321596965193748 0.004163246136158705 0.0020019994117319584 -0.010605379939079285 0.00935814157128334 0.0018768167356029153 -0.008497441187500954 -0.0030035690870136023 -0.0029800846241414547 0.0020770677365362644 -0.011678867973387241 0.003901552874594927 0.0016652059275656939 -0.005775931756943464 -0.007001145742833614 -0.009252399206161499 0.0022345788311213255 0.0012501655146479607 -0.0012166621163487434 0.0037894980050623417 3.685819683596492E-4 0.001044992241077125 -0.0016226000152528286 -4.5448029413819313E-4 -0.004570947028696537 9.191915160045028E-4 -0.0014962874120101333 0.007715330459177494 -0.006197487004101276 -0.004399361554533243 -0.0033378838561475277 0.0034730222541838884 -0.006983404513448477 -0.005586639046669006 -0.0021104556508362293 0.002025300869718194 -0.01083516888320446 -0.002210569102317095 -0.0016158343059942126 -0.011955290101468563 -0.0016613719053566456 0.001364824827760458 0.005203852895647287 -0.0013264052104204893 -0.0010399525053799152 0.00985244382172823 0.004829338751733303 0.003626774763688445 0.0052777728997170925 3.52430681232363E-4 0.0053581781685352325 0.0014543598517775536 -0.003335051005706191 -1.0354863479733467E-4 -0.0019848367664963007 -2.3122411221265793E-4 0.0029957122169435024 1.7568422481417656E-4 -0.008177717216312885 -0.0012231781147420406 -0.009862571023404598 -0.00735742412507534 -9.801313281059265E-4 -2.142653102055192E-4 -0.005594093352556229 -0.0017034346237778664 -0.002001827582716942 -2.9711006209254265E-4 -0.007941769436001778 0.007221387233585119 -0.005774710793048143 -0.0039460924454033375 2.8585828840732574E-4 -0.002280235756188631 -0.0011471330653876066 0.0027302608359605074 -0.006269788835197687
458 -0.0013354966649785638 -0.00932289194315672 0.0014439490623772144 0.06771156936883926 -0.02471669390797615 -0.04043165594339371 -0.008152741007506847 -0.004045340232551098 0.0030963756144046783 0.009429382160305977 -0.02789895422756672 -0.06319718062877655 -0.004039807245135307 -0.018969494849443436 -0.05374843254685402 -0.0366399884223938 -0.004296042490750551 -0.0149072902277112 0.050949517637491226 0.027360431849956512 0.0026569748297333717 0.05564212054014206 -0.0035190589260309935 0.04444417729973793 8.566563483327627E-4 -0.0876622200012207 0.03605573996901512 0.032599445432424545 -0.00282177422195673 0.011203103698790073 0.03780319541692734 -0.046542372554540634 -0.02673150785267353 0.012341993860900402 0.004663970321416855 0.013757642358541489 -0.01960008591413498 0.07356899231672287 0.0015070787630975246 -0.001157618360593915 -0.02634122222661972 -0.06654953211545944 0.03330516815185547 0.04062023386359215 0.05224296450614929 -0.028168458491563797 0.020417412742972374 0.02841448038816452 -0.055215246975421906 0.00919229257851839 -0.013022939674556255 0.008920912630856037 -0.06361095607280731 0.015115255489945412 0.031445883214473724 -0.003153423313051462 0.030649565160274506 -1.7347553512081504E-4 -0.010723146609961987 -0.05492828041315079 0.013649383559823036 0.003964258823543787 0.010086433961987495 -0.013522123917937279 0.02013823203742504 0.033927734941244125 -0.05822114273905754 -0.025482304394245148 -0.048000067472457886 -0.012047925963997841 0.020751826465129852 0.018565675243735313 -0.09603134542703629 -0.028013605624437332 0.05855127424001694 -3.702538087964058E-4 -0.002384041901677847 0.03912266343832016 0.002490769373252988 -0.029812445864081383 -0.06475528329610825 -0.027092304080724716 -0.007879097014665604 0.03963591530919075 -0.024380100890994072 0.002834708197042346 -0.0019621734973043203 0.036505285650491714 0.0332968533039093 0.04343412443995476 -0.023707807064056396 -0.03631410747766495 0.06055503338575363 0.030703190714120865 0.003588117426261306 0.023307370021939278 -0.09970998764038086 -0.004284458234906197 -0.023538874462246895 -3.3100449945777655E-4
433 -0.0243487898260355 -0.09429885447025299 0.010231828317046165 0.17999933660030365 -0.03252522274851799 -0.05634910613298416 0.04800168797373772 0.02353299781680107 0.010696765966713428 -0.037591829895973206 -0.10463014245033264 -0.09834105521440506 -0.03200345113873482 -0.09781798720359802 -0.05696947127580643 -0.009604030288755894 -0.007800254505127668 -0.03595731779932976 0.15657785534858704 0.0732257142663002 -0.04177619889378548 0.015374299138784409 -0.07347340881824493 0.11439903825521469 0.02585017681121826 -0.13747505843639374 0.11369045823812485 0.08069206029176712 -0.05038168653845787 0.1395985186100006 0.0956556499004364 -0.05823598429560661 -0.0629212036728859 0.06797228753566742 0.022100992500782013 -0.03051859326660633 0.03055168315768242 0.17126202583312988 0.023941462859511375 0.015655439347028732 -0.027463775128126144 -0.06617825478315353 0.10100481659173965 0.08271227031946182 0.07621783018112183 -0.005154612008482218 0.053015273064374924 0.04145245999097824 -0.11752284318208694 0.02918352000415325 -0.08540530502796173 -0.009573615156114101 -0.07296188175678253 0.00876353308558464 0.16896659135818481 0.020055217668414116 0.10256998240947723 -0.06499651819467545 0.05079567804932594 -0.14080427587032318 -0.03415928781032562 -0.01919601298868656 0.1753552407026291 0.03061089850962162 0.008283596485853195 0.04602186754345894 -0.07097852975130081 -0.05666918307542801 -0.07102171331644058 0.041619423776865005 -0.05893426015973091 0.06919896602630615 -0.15800268948078156 -0.09673307836055756 0.12372453510761261 0.05264833942055702 0.011537903919816017 0.0051054153591394424 -0.015116756781935692 -0.01930961012840271 -0.07712750881910324 0.0065363445319235325 -0.015533040277659893 0.11247865110635757 -0.09056396782398224 -0.06073804199695587 -0.015348569490015507 0.029475882649421692 1.3120152289047837E-4 -0.0459410734474659 -0.005931867752224207 -0.048514317721128464 0.09620242565870285 0.04184269532561302 -0.051565296947956085 0.07286133617162704 -0.1667478084564209 -0.06766335666179657 -0.07211657613515854 -0.007313637062907219
184 -0.06564994156360626 -0.022054072469472885 0.0329836905002594 -0.08203276246786118 0.15036696195602417 -0.027241721749305725 -0.01663180999457836 0.008584423922002316 0.416564017534256 -0.10931231081485748 -0.11320064961910248 0.004939887207001448 -0.0176955945789814 -0.037723857909440994 -0.34129631519317627 -0.07447688281536102 0.0019352189265191555 -0.03970284387469292 0.30610454082489014 -0.2377484142780304 -0.008225930854678154 -0.05855382978916168 0.24527661502361298 -0.1536063402891159 -0.384097695350647 -0.10184215754270554 0.07564174383878708 -0.26083749532699585 -0.29003316164016724 0.3936317265033722 -0.1136234700679779 0.13069882988929749 -0.020069358870387077 0.21850889921188354 -0.042192667722702026 0.21373872458934784 0.029106369242072105 0.5880839228630066 0.2845851182937622 4.2955318349413574E-4 -0.3065323829650879 -0.1385076642036438 -0.07907295227050781 0.08279891312122345 0.10620525479316711 0.05867529660463333 0.05069105699658394 0.2221873700618744 0.22810092568397522 0.005246501881629229 0.04962340369820595 0.1782938838005066 0.4505413770675659 -0.29720351099967957 0.029493244364857674 -0.1597009152173996 0.16446469724178314 0.1494920700788498 -0.28189700841903687 0.037917912006378174 0.05285220220685005 -0.0074258786626160145 -0.0023305315990000963 -0.09987352788448334 -0.07618343085050583 0.035596802830696106 0.1376510113477707 -0.1221577450633049 -0.24036805331707 0.11800200492143631 0.060960784554481506 0.035257406532764435 -0.24023376405239105 -0.17780467867851257 0.1331116408109665 0.45066478848457336 0.07047037035226822 -0.026866577565670013 0.07886925339698792 -0.19061066210269928 -0.488064706325531 0.36953702569007874 -0.10738382488489151 0.1941494643688202 0.32783088088035583 -0.19375915825366974 -0.2053041160106659 0.21310831606388092 -0.06539145112037659 -0.09041790664196014 -0.1854502558708191 -0.07627374678850174 0.07630626857280731 0.08663459867238998 0.06236724928021431 -0.06038900092244148 0.23981338739395142 -0.2872210443019867 -0.07797596603631973 -0.0820292979478836
686 -0.014749584719538689 -0.013665527105331421 0.026237430050969124 0.010248932987451553 0.014159669168293476 -0.016962923109531403 -0.0029023888055235147 -0.0021211400162428617 0.008060576394200325 -0.023096170276403427 -0.029644526541233063 -0.024382494390010834 0.0122841726988554 -0.0238972045481205 -0.02576605975627899 -0.0021050218492746353 -0.0011683573247864842 0.003392582293599844 0.024826934561133385 -0.0016017913585528731 0.009146040305495262 0.018443118780851364 -0.01485814992338419 0.011719824746251106 0.0022895862348377705 -0.029115263372659683 0.026706228032708168 -0.013020556420087814 -0.002300308318808675 0.05503710359334946 0.014331973157823086 -0.04102499037981033 -0.01478772796690464 0.031575266271829605 0.02060612291097641 0.0025892318226397038 -0.012071974575519562 0.06608216464519501 0.012320384383201599 -0.018751047551631927 -0.014766647480428219 -0.029255984351038933 0.023969782516360283 -0.003523175371810794 0.0187168400734663 -0.008881737478077412 0.007827822118997574 0.03165429085493088 -5.562496953643858E-4 0.04414656385779381 -0.03647812828421593 0.01276883389800787 -0.00867183692753315 0.007751048542559147 0.02071852795779705 -0.02120881900191307 0.032102420926094055 0.006562181748449802 0.00878732930868864 0.01688629761338234 0.02769526280462742 -0.004311928525567055 0.06543681770563126 0.016475528478622437 -0.0025989210698753595 4.742672899737954E-4 0.007649688050150871 -0.009173228405416012 -0.04790673777461052 -0.01613374799489975 0.0012315192725509405 0.007517616730183363 -0.03296403959393501 -0.0023579145781695843 0.02240394614636898 0.04188145324587822 0.00726601667702198 0.022130334749817848 -0.005079843569546938 -0.020605675876140594 -0.04005088657140732 0.014320341870188713 -5.83707180339843E-4 0.03246795013546944 0.015099451877176762 0.017904384061694145 -0.015617666766047478 0.04332974553108215 0.013565299101173878 -0.0029134023934602737 -0.012005477212369442 -0.010365855880081654 0.023614482954144478 0.011305859312415123 0.0015216125175356865 0.0016333528328686953 -0.016518710181117058 -0.016680384054780006 -0.014999105595052242 0.0024734484031796455
166 -0.07288621366024017 -0.11106333136558533 0.17096790671348572 0.04999286308884621 -0.1732621192932129 -0.22470489144325256 -0.14839079976081848 0.17909938097000122 -0.10723061114549637 0.1059015691280365 -0.1316298395395279 -0.026791391894221306 0.1280708760023117 -0.0747033879160881 -0.16120773553848267 -0.1449642777442932 0.006370590068399906 0.2697046101093292 0.11714304238557816 0.34934699535369873 0.02534380927681923 0.49782589077949524 0.10227785259485245 -0.2985420227050781 0.01099463365972042 -0.6434143781661987 0.4075099229812622 0.2643366754055023 -0.08056715875864029 0.009478693827986717 -0.0050240010023117065 -0.2514612674713135 -0.11414812505245209 0.08447971194982529 -0.2577604651451111 -0.13371819257736206 -0.3222227096557617 0.5246686935424805 0.029105359688401222 0.2132488191127777 -0.07257462292909622 -0.3329963982105255 0.2904791235923767 0.3306592106819153 -0.24557942152023315 -0.32146432995796204 0.37072107195854187 0.01780439168214798 -0.014337288215756416 0.07363156974315643 -0.1619192659854889 -0.11769282072782516 0.23073963820934296 -0.0733196884393692 0.12258370965719223 -0.054106928408145905 -0.05579088255763054 -0.0053581856191158295 0.15602938830852509 -0.17190054059028625 0.19212479889392853 -0.019867755472660065 -0.01742544397711754 0.16101035475730896 -0.2170076221227646 0.264207661151886 -0.1262904703617096 -0.03013875149190426 0.06207088753581047 -0.1492425948381424 -0.3590599000453949 0.3797954022884369 -0.056530874222517014 -0.1570776402950287 -0.06918588280677795 0.20089243352413177 0.39482367038726807 -0.07104354351758957 -0.08795762062072754 -0.28239867091178894 -0.22773759067058563 0.1401681751012802 0.16626006364822388 0.2072761058807373 -0.18929335474967957 -0.17970286309719086 -0.2017766833305359 0.20832425355911255 0.3550823926925659 -0.08466445654630661 -0.501196563243866 0.010948950424790382 0.3952794373035431 -0.23605051636695862 -0.28669473528862 -0.256735622882843 0.16516590118408203 0.11512846499681473 -0.13760852813720703 -0.3100849986076355
717 -0.00898486003279686 -0.01470824982970953 0.011385771445930004 0.023431723937392235 -0.003576503600925207 -0.01612219214439392 0.0027031991630792618 -1.2028135824948549E-4 0.01293970923870802 0.003233144758269191 -0.015727337449789047 -0.028717385604977608 -0.010160663165152073 -0.01914517767727375 -0.035507507622241974 0.0014333550352603197 -0.003586722072213888 -1.484148669987917E-4 0.03138070926070213 0.01467809733003378 -0.0065274653024971485 0.011015267111361027 -0.01739213615655899 0.015735050663352013 -0.0035155504010617733 -0.03046291321516037 0.02033398300409317 0.009577092714607716 8.337764302268624E-4 0.03517425060272217 0.01445893943309784 -0.026821767911314964 -0.007910734973847866 0.011478829197585583 0.015217687003314495 -0.008043460547924042 -0.003841232508420944 0.03641170263290405 0.005559294018894434 -0.02092416025698185 -0.001915041240863502 -0.02403104677796364 0.011613218113780022 0.0014888796722516418 0.011987858451902866 -0.00710704829543829 -0.0042627532966434956 0.02172824926674366 -0.01727883890271187 0.02136829122900963 -0.025600597262382507 0.005586851388216019 -0.004987770691514015 0.00430748425424099 0.04004954546689987 -0.00396330188959837 0.02007514424622059 0.0012346748262643814 0.006845999509096146 -0.02088438905775547 0.004963628947734833 -0.007014719769358635 0.042089253664016724 0.016045374795794487 0.020912213250994682 0.0156520064920187 -0.007008793298155069 -0.0037743982393294573 -0.00876880344003439 0.012451921589672565 -0.02354937605559826 2.005574497161433E-4 -0.04454837739467621 -0.013811088167130947 0.035688482224941254 0.0053360918536782265 0.005086259916424751 0.005149784963577986 -0.010279394686222076 -0.007772295735776424 -0.01646871492266655 -0.002202193718403578 -0.0055948831140995026 0.020098067820072174 -0.0075423321686685085 -0.003813453484326601 0.015304072760045528 0.01439705677330494 0.0017771846614778042 -0.01905173622071743 -0.01652066968381405 -0.02487681806087494 0.037139829248189926 0.009323799051344395 -0.006380096077919006 0.01976153254508972 -0.0027239681221544743 -0.01879529282450676 -0.0019297271501272917 -0.014005208387970924
185 -0.09176836907863617 -0.08050502836704254 0.07019935548305511 -0.07584824413061142 0.12802095711231232 0.04112856090068817 0.07703085243701935 0.017686469480395317 0.44569557905197144 -0.08474928885698318 -0.10946165025234222 -0.08683137595653534 -0.06501111388206482 -0.10572860389947891 -0.3583468794822693 -0.09925738722085953 -0.02117389813065529 -0.05957783758640289 0.37163829803466797 -0.28097856044769287 -0.008373000659048557 -0.12618272006511688 0.16751031577587128 -0.06034311279654503 -0.3829238712787628 -0.0957174226641655 0.07552612572908401 -0.2884005606174469 -0.282549649477005 0.468276709318161 -0.05935310199856758 0.1130339726805687 -0.00364213390275836 0.1657884269952774 -0.003342457814142108 0.1961437165737152 0.08354315906763077 0.6334623694419861 0.2517548203468323 -0.046642646193504333 -0.34014925360679626 -0.07370711117982864 -0.11391589045524597 0.03918236121535301 0.20287810266017914 0.09954032301902771 -0.004857888910919428 0.19149169325828552 0.2322179526090622 0.08455902338027954 0.030366333201527596 0.14879785478115082 0.390082985162735 -0.3169301152229309 0.07868298888206482 -0.18541201949119568 0.2476002424955368 0.19395163655281067 -0.22571328282356262 0.04174773395061493 0.04100307077169418 -0.026768984273076057 0.08864467591047287 -0.09191710501909256 -0.06745146214962006 0.0054745725356042385 0.20663130283355713 -0.1201733872294426 -0.2528589069843292 0.17166082561016083 0.007578813936561346 -0.025352783501148224 -0.1922733038663864 -0.1866152435541153 0.09179459512233734 0.4461648166179657 0.03530203551054001 -0.013072080910205841 0.08478804677724838 -0.17765648663043976 -0.4621466100215912 0.3448985517024994 -0.1150892823934555 0.13874505460262299 0.2964867055416107 -0.24870428442955017 -0.22863630950450897 0.1862564980983734 -0.09537982195615768 -0.14367401599884033 -0.15020959079265594 -0.09758063405752182 0.1056000366806984 0.0965271070599556 0.01817690022289753 -0.06479967385530472 0.2189614474773407 -0.36880388855934143 -0.1583530753850937 -0.06676393002271652
34 -0.004199204966425896 0.01218368485569954 -0.07588786631822586 0.2760738134384155 -0.05796346813440323 -0.12445414811372757 -0.035677842795848846 -0.12997417151927948 0.055176667869091034 0.09069226682186127 -0.07119039446115494 -0.16880738735198975 -0.008435211144387722 -0.10628243535757065 -0.17645911872386932 -0.042171649634838104 0.034661080688238144 -0.14729563891887665 0.1698196977376938 -0.02619060128927231 -0.021127844229340553 1.9286714086774737E-4 -0.04070890694856644 0.07791127264499664 -0.0468350313603878 -0.04923157021403313 0.1528722047805786 0.10963845998048782 0.08642660826444626 0.001003594370558858 0.06625985354185104 0.022967800498008728 -0.12351543456315994 0.04676574096083641 -0.031116919592022896 0.110468290746212 -0.0663028433918953 0.1180168092250824 0.05874006077647209 -0.10400280356407166 -0.05523748695850372 -0.17591671645641327 0.0956106036901474 0.1953977793455124 0.08946853876113892 -0.00922782439738512 0.1294705867767334 0.04872157797217369 -0.07733263820409775 -0.03710347041487694 -0.033448226749897 0.10228832066059113 -0.19755113124847412 0.07052728533744812 0.059820547699928284 0.022739466279745102 0.02146637998521328 0.021436959505081177 -0.05516614392399788 -0.2326914370059967 -0.08132385462522507 0.0449664331972599 -0.019561054185032845 -0.04193734750151634 0.10970445722341537 0.04073809087276459 -0.16345767676830292 -0.03346677124500275 -0.15509094297885895 0.05529399216175079 -0.004057189449667931 0.04548398405313492 -0.303545206785202 -0.15843640267848969 0.2763141095638275 0.013347030617296696 -0.04978976771235466 0.0454995222389698 0.023080943152308464 -0.055625684559345245 -0.036459628492593765 0.009586780332028866 0.04240284115076065 0.07641687989234924 -0.09377117455005646 0.03267913684248924 0.10824072360992432 0.02408037893474102 0.07721075415611267 0.12221287935972214 0.03753340244293213 -0.010279810056090355 0.1913454681634903 0.12101171910762787 0.07014257460832596 0.15885372459888458 -0.19171011447906494 0.02630012109875679 0.10368288308382034 0.032255448400974274
645 -0.01831405982375145 -0.012416120618581772 0.017946189269423485 0.0043194591999053955 -0.015376782976090908 -0.025022121146321297 -0.017176875844597816 0.022263098508119583 -0.011997516267001629 0.006864639930427074 -0.01535727921873331 -0.00595550611615181 0.02518557943403721 -0.004235582891851664 -0.011000778526067734 -0.004519721958786249 -0.012088707648217678 0.026396390050649643 0.0019952168222516775 0.023144500330090523 0.0011325899977236986 0.04333190992474556 0.0010684599401429296 -0.03497898206114769 0.002260432578623295 -0.06948813796043396 0.04692801833152771 0.01904921978712082 -0.011248777620494366 0.01080420520156622 -8.788573904894292E-5 -0.0266330037266016 -0.010554942302405834 0.010598421096801758 -0.016909701749682426 -0.015563193708658218 -0.04378627613186836 0.04731393977999687 0.002176054986193776 0.027346862480044365 -0.00691776629537344 -0.025625446811318398 0.03316614404320717 0.029734529554843903 -0.028431957587599754 -0.03178033232688904 0.03310146555304527 -0.008721010759472847 0.008641044609248638 0.013945025391876698 -0.01606696844100952 -0.021034706383943558 0.01614684984087944 -7.168966694734991E-4 0.010398320853710175 -0.012537846341729164 -0.012961621396243572 0.011561581864953041 0.020893339067697525 0.0038627954199910164 0.025987593457102776 -0.0016493630828335881 0.00839024968445301 0.012964382767677307 -0.030896227806806564 0.01748642697930336 -0.008018233813345432 -0.0039062313735485077 -0.0027631206903606653 -0.005038060713559389 -0.040759433060884476 0.04864994063973427 0.004509412683546543 -0.011482475325465202 -0.005908819381147623 0.03804726526141167 0.024794207885861397 -0.006890345364809036 -0.016110647469758987 -0.0336555540561676 -0.015027279034256935 0.011377227492630482 0.024688811972737312 0.015093866735696793 -0.02193986438214779 -0.029186896979808807 -0.02068890444934368 0.020529327914118767 0.040355078876018524 -0.01734871417284012 -0.0503336563706398 0.011433806270360947 0.030621804296970367 -0.025189397856593132 -0.04527833312749863 -0.030187740921974182 0.01599252223968506 0.011906030587852001 -0.018406465649604797 -0.043312542140483856
142 -0.019509056583046913 -0.016048384830355644 -0.09538926929235458 0.32289615273475647 0.028520172461867332 -0.22535057365894318 -0.10773465782403946 -0.1629953533411026 0.16232262551784515 0.08716428279876709 -0.05242077261209488 -0.19871081411838531 -0.01393660344183445 -0.09082828462123871 -0.23387141525745392 -0.3649369478225708 0.005508234724402428 -0.22829706966876984 0.20624959468841553 0.11014162003993988 0.039767298847436905 0.04851192608475685 0.19743922352790833 0.09635293483734131 -0.04276736453175545 -0.14002633094787598 0.09917432069778442 0.10639148950576782 0.1516273021697998 0.14730152487754822 0.01987372152507305 0.044982824474573135 -0.16759394109249115 0.029563216492533684 0.14532415568828583 0.19619035720825195 -0.19122125208377838 0.1814568191766739 -0.061475969851017 0.063899926841259 -0.03554188087582588 -0.12766402959823608 0.054001014679670334 0.08473991602659225 0.04159606993198395 0.1415555328130722 0.10252010077238083 -0.023296719416975975 0.06047331541776657 0.13298022747039795 -0.13689038157463074 -0.0922996923327446 -0.2256133258342743 0.016333624720573425 0.24698598682880402 -0.012678212486207485 -0.19753900170326233 -0.0401042215526104 -0.0189253780990839 -0.15717630088329315 0.06848441809415817 0.10583748668432236 -0.002052213065326214 -0.08194002509117126 0.15667153894901276 0.12430223077535629 -0.18629108369350433 0.016594190150499344 -0.20983093976974487 0.14729253947734833 -0.0068430351093411446 -0.05313428118824959 -0.19809046387672424 -0.23733188211917877 0.23813296854496002 0.17756585776805878 -0.011505059897899628 0.14506548643112183 0.05536225810647011 0.014576546847820282 -0.1764768660068512 -0.08335552364587784 0.07430294156074524 -0.13677944242954254 -0.14905104041099548 -0.02239428274333477 -0.018507899716496468 0.09684128314256668 0.10781770199537277 0.006057484075427055 0.12027620524168015 7.27415201254189E-4 0.3045314848423004 0.15679778158664703 0.046377070248126984 0.07658834010362625 -0.18686464428901672 0.02427421696484089 0.06701350212097168 -0.22039496898651123
940 -0.009797033853828907 -0.0013570773880928755 -0.0039922394789755344 0.0034736476372927427 0.003007363062351942 0.0021514121908694506 7.053909357637167E-4 8.76575184520334E-4 -0.0048008146695792675 -0.003530690213665366 -0.004073077347129583 -0.005771121010184288 0.006686978042125702 -0.007719982881098986 0.002776897745206952 0.0038152276538312435 -0.004738727584481239 -2.6255601551383734E-4 0.001396183972246945 -0.004933726973831654 6.358863320201635E-4 4.06662467867136E-4 0.004020503722131252 1.764899934642017E-4 -0.002259820932522416 0.0031688264571130276 0.005000290926545858 1.5202815120574087E-5 0.003985180053859949 0.002076946897432208 0.004641537554562092 -0.0024590766988694668 -0.005357653368264437 0.006549816578626633 -5.614510155282915E-4 0.003601639298722148 -0.004496151581406593 0.00942293368279934 -0.0010756653500720859 0.001069708145223558 -0.004785802680999041 -0.009468983858823776 0.004326479509472847 0.004066632594913244 0.001254222821444273 -0.0019844959024339914 0.007995279505848885 0.0029503710102289915 -0.005539011210203171 0.0010308553464710712 -0.009220518171787262 7.317642448469996E-4 -0.008138133212924004 0.004851317033171654 -0.0021476333495229483 -0.002443626755848527 0.0029165991581976414 -0.0015168468235060573 0.006475657224655151 -0.005999904125928879 -0.0018328577280044556 -0.0023164127487689257 0.01047991868108511 -8.172100933734328E-6 -0.006466444116085768 0.0036899589467793703 0.004336154088377953 -0.0015169172547757626 -0.004303827881813049 -1.1171221558470279E-4 -0.0016917064785957336 0.004853750579059124 -0.01110813021659851 -0.0010467561660334468 -0.0012043851893395185 0.005052424501627684 -0.002326624235138297 1.397595915477723E-4 0.0017695282585918903 0.007842736318707466 -0.009101217612624168 0.007357950322329998 -0.0031967926770448685 -0.0050110467709600925 0.009643908590078354 2.4324661353603005E-4 -0.0073280637152493 0.00242071645334363 0.007362497970461845 0.00448999460786581 -0.0062226359732449055 0.005030635744333267 0.002850733697414398 0.0013299768324941397 0.003861343953758478 0.004015857819467783 -0.010856634937226772 0.002523158909752965 -0.006503716576844454 0.0028581651858985424
268 -0.06369838118553162 -0.09615585952997208 0.05835828185081482 0.15296801924705505 0.05625106766819954 0.08390165120363235 0.11337810754776001 0.1305903196334839 -0.03864719346165657 -0.09892012178897858 -0.026438873261213303 -0.1255190670490265 -0.10671989619731903 -0.15401947498321533 -0.07641883939504623 0.09846912324428558 -0.13464759290218353 -0.008865961804986 0.17535541951656342 0.06351445615291595 -0.054420821368694305 -0.004438645672053099 -0.1649722009897232 0.09943054616451263 0.014860671944916248 -0.07259764522314072 0.13141772150993347 -0.003282069694250822 -0.03730672225356102 0.2630871534347534 0.0992872342467308 -0.14658485352993011 -0.029560543596744537 -0.006443851161748171 0.019780589267611504 -0.12594449520111084 0.012228140607476234 0.214066281914711 -0.008562014438211918 -0.03438949212431908 0.047486525028944016 -0.1093323603272438 0.08955325186252594 -0.026994632557034492 0.1577661633491516 0.0826122835278511 -0.02279873564839363 0.09205345809459686 -0.05128249526023865 0.07297445833683014 -0.16142840683460236 0.07804479449987411 -0.029318811371922493 0.08415970206260681 0.1565100997686386 -0.06371496617794037 0.24067220091819763 0.020575983449816704 0.1728343963623047 -0.0579809695482254 -0.052882544696331024 -0.05772329494357109 0.32194122672080994 0.13877952098846436 -0.03796100616455078 0.0070505524054169655 0.018598107621073723 0.02928476594388485 -0.11402958631515503 0.05066468194127083 -0.09606718271970749 0.0682285726070404 -0.04689234122633934 -0.0056893774308264256 0.0061462013982236385 0.06023888662457466 -0.020553259178996086 0.016161644831299782 -0.1681790053844452 -0.023896848782896996 -0.012549986131489277 -0.06741346418857574 -0.05722903832793236 0.08469170331954956 -0.06036460027098656 -0.02517949417233467 -0.013215597718954086 0.084684818983078 -0.057681187987327576 -0.1734217256307602 0.08723834156990051 -0.07321278750896454 -0.020692937076091766 0.05635187402367592 -0.02741493284702301 0.025216612964868546 -0.1032324880361557 -0.14390060305595398 -0.07725880295038223 0.006043076515197754
69 0.026083478704094887 -0.04038979485630989 -0.048962898552417755 0.22571276128292084 -0.025121815502643585 -0.09226614236831665 0.008611655794084072 -0.05529629439115524 0.09590695798397064 0.06342367827892303 -0.14907856285572052 -0.21805088222026825 0.00930892676115036 -0.08312860131263733 -0.16551309823989868 -0.07357855141162872 0.022917771711945534 -0.06934922188520432 0.15632715821266174 0.00968431681394577 0.01686915196478367 0.04862893745303154 -0.07423052936792374 0.0436006635427475 -0.15535993874073029 -0.07336511462926865 0.21021172404289246 0.12185999751091003 0.011455378495156765 0.10782177001237869 0.05830671265721321 0.02647349238395691 -0.1369234174489975 -0.006274889688938856 -4.863400827161968E-4 0.09921736270189285 -0.11189969629049301 0.2307579219341278 0.02535616047680378 -0.06697643548250198 -0.06398393958806992 -0.21810640394687653 0.1046663373708725 0.11739184707403183 0.12479904294013977 -0.06154182553291321 0.057698771357536316 0.13728958368301392 0.011512154713273048 0.03101307339966297 -0.048034150153398514 0.09435760974884033 -0.07613254338502884 -0.008465423248708248 0.08575259894132614 0.027257537469267845 0.08405294269323349 0.06383020430803299 -0.09694596379995346 -0.14834089577198029 -0.07009927183389664 0.04381169006228447 0.00575093412771821 -0.008903580717742443 0.06132497638463974 0.03783981502056122 -0.12322690337896347 -0.010823845863342285 -0.18928396701812744 0.12297175079584122 0.021052105352282524 -0.012866662815213203 -0.3069339394569397 -0.13427241146564484 0.20970427989959717 0.09296813607215881 -0.03761421516537666 0.06091877073049545 0.02455020695924759 -0.12710286676883698 -0.1435627043247223 0.08670242875814438 -0.002615592209622264 0.12093231081962585 -0.057411838322877884 -0.052144575864076614 0.014289384707808495 0.07959167659282684 0.1348840296268463 0.14309827983379364 0.020451750606298447 -0.014936462976038456 0.15774619579315186 0.05458762124180794 0.004288486670702696 0.13699698448181152 -0.20061726868152618 -0.07445091009140015 -0.02197658084332943 0.00460792938247323
487 -0.05371357128024101 -0.004942673724144697 0.032121170312166214 0.08649110049009323 -0.010607863776385784 -0.04537084326148033 -0.02952123060822487 -0.03169842064380646 0.001225366722792387 -0.01272258535027504 -0.04987914487719536 -0.04623799026012421 0.03751268610358238 -0.01962580904364586 -0.02559472620487213 -0.05976167693734169 0.008642393164336681 -0.026016322895884514 0.03312190622091293 -0.001157241640612483 0.018974946811795235 0.039608292281627655 -0.0013513644225895405 0.053660791367292404 0.02091543935239315 -0.08788853883743286 0.04216153174638748 0.017763745039701462 0.002779909875243902 0.023509109392762184 0.027029946446418762 -0.07804133743047714 -0.04435347020626068 0.043713029474020004 0.026841958984732628 0.041327103972435 -0.006614570040255785 0.10092446208000183 0.027617378160357475 -0.01194988377392292 -0.028492499142885208 -0.04402656853199005 0.022118475288152695 0.04961329698562622 0.03307848423719406 -0.018818635493516922 0.03152042254805565 -0.0050108726136386395 -0.05326832830905914 0.05001285672187805 -0.0717230960726738 -0.001324881217442453 -0.06877031922340393 0.005020663142204285 0.01911384053528309 -0.019575608894228935 0.00656903674826026 -0.023971907794475555 -0.014897671528160572 -0.022381020709872246 0.0688692107796669 -0.006360427010804415 0.036396726965904236 -0.010682038962841034 0.052694424986839294 0.041418906301259995 -0.045357007533311844 -0.016550850123167038 -0.09641043841838837 -0.03666527196764946 0.01127588003873825 0.030162794515490532 -0.07034231722354889 -0.07002244144678116 0.07783691585063934 0.008601603098213673 0.006702767219394445 0.04765389487147331 -0.003013051813468337 -0.019027898088097572 -0.057609256356954575 -0.015581644140183926 0.008408437483012676 0.06685721129179001 0.008785158395767212 0.0038181794807314873 -0.008054050616919994 0.04016270861029625 0.009305832907557487 0.031402647495269775 -0.01966201700270176 0.0028869241941720247 0.04592808336019516 0.07318202406167984 -0.005443902686238289 0.024900171905755997 -0.07344614714384079 -0.030612213537096977 0.004966323263943195 0.01423917431384325
572 -0.01126854307949543 -0.014658058062195778 0.005216553807258606 0.04446772113442421 0.004941693507134914 -0.006533052306622267 -0.0077950116246938705 0.004844845272600651 0.009954706765711308 0.01142449676990509 -0.025631248950958252 -0.03263179957866669 0.0022021890617907047 -0.02492106892168522 -0.027374567463994026 3.7728226743638515E-4 0.008616781793534756 -0.002772888168692589 0.023572279140353203 -0.002845057751983404 -0.008484537713229656 2.202293835580349E-4 -0.015960775315761566 0.020734112709760666 -0.002073833951726556 -0.037379465997219086 0.03715535253286362 0.00805646926164627 -0.006938448175787926 0.03270363435149193 0.001815054565668106 -0.018419673666357994 -0.01145258080214262 0.018228480592370033 -0.005085276905447245 3.4719594987109303E-4 0.011049690656363964 0.057021476328372955 0.022976554930210114 -0.012275010347366333 -0.009349317289888859 -0.02313080243766308 0.017292989417910576 0.018803631886839867 0.022075993940234184 -0.008720406331121922 0.01871979609131813 0.027341073378920555 -0.016215473413467407 0.013728208839893341 -0.02840491756796837 0.017499057576060295 0.003737984923645854 -0.002392678754404187 0.03163765370845795 -0.016821451485157013 0.018183406442403793 0.0021112686954438686 0.017422892153263092 -0.03760359063744545 0.0038146835286170244 0.003956976812332869 0.045948244631290436 0.012319400906562805 -0.001110503333620727 0.01997595839202404 -0.004446889739483595 -0.007213732227683067 -0.015388134866952896 -0.001460636151023209 -0.02588610164821148 0.0114006781950593 -0.046693041920661926 -0.018517248332500458 0.03459034860134125 0.017699601128697395 0.0057569402270019054 9.84563259407878E-4 -0.01077233161777258 -0.017384126782417297 -0.03147774934768677 0.01379847526550293 -0.01624225080013275 0.0388253815472126 -0.00155195826664567 -0.007467250339686871 -0.0011556860990822315 0.01404239796102047 0.0018275405745953321 -0.01487380638718605 -0.016283327713608742 -0.027164286002516747 0.023152420297265053 0.005845437757670879 -0.009645838290452957 0.028676088899374008 -0.0072348774410784245 -0.013182475231587887 0.0014843125827610493 -0.0024661801289767027
666 -0.004612196236848831 0.0010054153390228748 0.0027845543809235096 0.0012960517778992653 0.002215700689703226 0.0049516018480062485 0.0033278828486800194 0.0038513171020895243 -0.0013413188280537724 -0.0022616442292928696 -3.88170185033232E-4 -0.00111826928332448 -5.047103622928262E-4 -7.375308778136969E-4 0.003416299819946289 -0.003395774634554982 -1.8731236923485994E-4 0.0014548217877745628 -0.0017681416356936097 0.003943772986531258 -0.001925914315506816 0.00234736199490726 0.0021828878670930862 -0.0038913500029593706 -0.0020408276468515396 -0.004056962672621012 0.0018459403654560447 0.004220074042677879 0.0013684607110917568 -6.527861696667969E-4 0.0028117597103118896 -0.0018649962730705738 -0.0033876588568091393 7.485186797566712E-4 -0.0038537951186299324 -0.0015638524200767279 0.0019453632412478328 0.00296339625492692 -0.00482650101184845 9.741717367433012E-4 0.0033099281135946512 0.0037853324320167303 -0.004365736152976751 0.0023243515752255917 0.004945577587932348 0.004144699778407812 0.004815982189029455 -5.246102809906006E-4 0.0020261371973901987 -0.0026527689769864082 -0.004149426240473986 0.0013726359466090798 0.0035527467261999846 0.0025270467158406973 -0.002967600477859378 0.0034253806807100773 -0.004711536690592766 -0.004687062464654446 4.3962299241684377E-4 0.003485361346974969 -0.0016323826275765896 -0.003935630898922682 9.602904319763184E-4 -0.0036386740393936634 0.002268871758133173 -0.004442261066287756 0.0048109982162714005 0.003012386616319418 -9.397718240506947E-4 0.001401887508109212 -0.002259790198877454 -0.0028869910165667534 -0.0033157318830490112 0.0023791783023625612 -0.002253250451758504 -0.0042993235401809216 -0.004829558543860912 -6.143474602140486E-4 0.0027503175660967827 0.0012656396720558405 -0.003424631431698799 -0.001310265390202403 -0.002672801725566387 0.0021440088748931885 0.0023734169080853462 0.00448450306430459 -0.0027294086758047342 0.0030473596416413784 9.023344609886408E-4 0.0022894239518791437 0.001735389232635498 8.968460606411099E-4 0.004898874554783106 0.002447057282552123 -0.002054623095318675 -0.0021453085355460644 -0.002684424165636301 -7.749164360575378E-4 -0.0029181980062276125 7.661998097319156E-5
30 0.260353684425354 0.005643115844577551 0.00439423369243741 0.04684668034315109 -0.08491131663322449 -0.1532358080148697 -0.2941186726093292 0.03911608085036278 -0.09380728006362915 0.11226803809404373 -0.28067874908447266 -0.13277684152126312 0.03580041974782944 -0.024167893454432487 -0.26293230056762695 -0.192403182387352 0.16565369069576263 -0.15253178775310516 0.07620184123516083 0.08607332408428192 0.0026997122913599014 0.1263723522424698 0.21349535882472992 0.06475702673196793 0.08918976038694382 -0.29367315769195557 0.22010734677314758 0.2879430055618286 0.10882662981748581 0.15624627470970154 0.15465828776359558 -0.07663729041814804 -0.14114081859588623 -0.07151845842599869 -0.14041723310947418 0.16467498242855072 -0.31668567657470703 0.17899402976036072 0.09016400575637817 -0.04080546274781227 0.020125294104218483 -0.1030217632651329 0.2744661569595337 0.1622437685728073 -0.07952234894037247 -0.13805828988552094 0.1696520894765854 0.16439257562160492 -0.007940028794109821 -0.115854412317276 -0.09491284936666489 0.15119703114032745 0.12315133213996887 0.0021183027420192957 -0.033514540642499924 0.1028824970126152 0.03830476477742195 -0.07898826152086258 0.038943272083997726 -0.36975088715553284 0.2013082355260849 0.0929834172129631 0.049541182816028595 0.12373130768537521 -0.1174519956111908 0.057289622724056244 -0.31651556491851807 -0.07296179980039597 -0.06767243146896362 -0.14245401322841644 -0.14894384145736694 0.13806657493114471 -0.1911124885082245 -0.26539087295532227 0.3247171938419342 0.004272066988050938 0.11881203949451447 0.0017782056238502264 0.03840380907058716 -0.14160549640655518 0.06937204301357269 0.15808705985546112 0.21585269272327423 0.09685283899307251 -0.03612210229039192 -0.01574707217514515 0.07341010123491287 0.15608084201812744 0.28406065702438354 0.14300434291362762 0.037687964737415314 0.07758530229330063 0.4371938705444336 0.050291433930397034 -0.036026377230882645 -0.10541124641895294 0.3028358221054077 0.211448535323143 0.06812714040279388 -0.13278184831142426
677 0.0021472913213074207 -0.021105993539094925 0.02882385440170765 0.04756072163581848 -0.0010632581543177366 -0.026963885873556137 0.007684754207730293 0.006544078234583139 0.013461682014167309 -0.015920862555503845 -0.02872762270271778 -0.03536369279026985 0.010266746394336224 -0.021968889981508255 -0.030488669872283936 0.025721192359924316 -0.017730893567204475 0.0038620666600763798 0.02211647480726242 0.013000128790736198 -0.010732511058449745 0.02685503661632538 -0.05042187497019768 0.019755037501454353 -0.00594570254907012 -0.04851434379816055 0.052340317517519 0.03020903840661049 -0.020816197618842125 0.08167718350887299 0.008919622749090195 -0.047625016421079636 -0.03700757026672363 0.03484099358320236 0.021174225956201553 -0.013701863586902618 -0.036880552768707275 0.05530266463756561 -0.0013878062600269914 -0.026550764217972755 -0.003668207675218582 -0.03534010425209999 0.021692128852009773 0.008925546891987324 0.007093136664479971 -0.022251157090067863 0.007124057970941067 0.04078731685876846 -0.020750774070620537 0.033745571970939636 -0.04088837653398514 0.01703636161983013 -0.03874417021870613 0.025040239095687866 0.040633805096149445 -0.014863342046737671 0.038292549550533295 0.006615808699280024 -8.857307839207351E-4 0.014976407401263714 0.01716040074825287 0.00835417304188013 0.08871867507696152 0.020070968195796013 0.02511897310614586 0.0046925172209739685 -0.015881938859820366 0.006111250724643469 -0.04442523047327995 0.012912667356431484 0.002989410189911723 0.0018231527647003531 -0.05471758916974068 5.576987750828266E-4 0.04353721812367439 0.032429344952106476 0.007813170552253723 0.005493050441145897 -0.020437084138393402 -0.034097809344530106 -0.037429556250572205 -0.00896441750228405 0.005341741722077131 0.03360384330153465 -0.010786454193294048 0.01822665147483349 0.009880597703158855 0.051622424274683 0.03292209282517433 -0.023049233481287956 -0.004747738596051931 -0.029075514525175095 0.051730234175920486 -0.004636506084352732 -0.010316235944628716 0.015491964295506477 -0.009436913765966892 -0.04061567410826683 -0.010703997686505318 -0.01277929823845625
482 -0.029014909639954567 -0.004739231429994106 0.0400884672999382 0.0694505125284195 -0.0016425655921921134 0.0062530189752578735 -0.01732545718550682 0.013197311200201511 -0.010623530484735966 -0.011122506111860275 -0.008478359319269657 -0.04987975209951401 0.0178220234811306 -0.019938604906201363 -0.031949568539857864 0.023759787902235985 -0.006467686966061592 0.019053785130381584 0.0451761893928051 0.01095682755112648 0.008661518804728985 0.032576460391283035 -0.0805971547961235 0.04963456466794014 -0.019547533243894577 -0.025747669860720634 0.0520249679684639 0.03669515624642372 -0.0014057973166927695 0.06646506488323212 0.015455225482583046 -0.09822318702936172 -0.04322283715009689 -0.016415096819400787 0.010905380360782146 -9.282681276090443E-4 -0.028104087337851524 0.06811707466840744 -0.01241189893335104 -0.04236621409654617 0.0077758245170116425 -0.06490658968687057 0.0331919826567173 -0.0025856452994048595 0.044812463223934174 -0.013278242200613022 -0.02204875275492668 0.012819414027035236 -0.011708696372807026 0.02801385335624218 -0.05808623880147934 0.022539783269166946 -0.02765556238591671 0.06380120664834976 0.023307066410779953 -0.020582279190421104 0.07593009620904922 0.013779550790786743 -0.015071067959070206 -0.01062475424259901 0.054208192974328995 -0.010723648592829704 0.06746378540992737 0.05648839846253395 0.012421761639416218 0.014085378497838974 -0.021826891228556633 0.03509589657187462 -0.07081717252731323 0.013298084028065205 -0.021472960710525513 0.03822524473071098 -0.04794163256883621 -0.004936719313263893 0.024208981543779373 0.01404411718249321 -0.012415348552167416 0.0350305438041687 -0.07788322120904922 -0.05578984320163727 0.021392066031694412 -0.024521641433238983 -0.018435610458254814 0.08700583130121231 -0.004569608718156815 -0.0016961091896519065 0.04098523408174515 0.02975168079137802 -0.012797233648598194 -0.016703829169273376 -0.0012035280233249068 -0.02689148485660553 0.007897230796515942 0.014887548051774502 -0.010678424499928951 0.014451134018599987 -0.011111637577414513 -0.05404554679989815 0.015262460336089134 -0.002903509885072708
662 -0.029863787814974785 -0.028942806646227837 0.033039361238479614 0.07638219743967056 -0.016776112839579582 0.00667021656408906 -0.013484956696629524 0.03096124343574047 0.012842986732721329 0.015119969844818115 -0.016994334757328033 -0.044743962585926056 -0.002363730687648058 -0.02774009481072426 -0.04180106148123741 0.01000908948481083 -0.013858364894986153 0.028000332415103912 0.07965750992298126 0.047346122562885284 -0.012478264980018139 0.04809655249118805 -0.046254802495241165 0.00789093691855669 -0.037317752838134766 -0.06717520207166672 0.07835180312395096 0.037193626165390015 -0.026364589110016823 0.07545050978660583 0.012585122138261795 -0.07049589604139328 -0.02531912364065647 0.006647903937846422 0.00489494763314724 -0.021643763408064842 -0.026289217174053192 0.11833780258893967 0.010133659467101097 -0.013353538699448109 -0.00211540050804615 -0.06717556715011597 0.02460465207695961 0.03761320933699608 0.046529438346624374 -0.012919345870614052 0.013342007994651794 0.022848481312394142 -0.032978009432554245 0.004213627427816391 -0.05866116285324097 0.0372953787446022 -0.008102110587060452 0.03451959043741226 0.03401144593954086 -0.019285140559077263 0.05600079521536827 -8.930908516049385E-4 0.007844900712370872 -0.03833021596074104 0.033178504556417465 -0.014735089614987373 0.06350863724946976 0.03338908404111862 -0.0012956794817000628 0.0294924508780241 -0.02815098688006401 0.015562880784273148 -0.04327075555920601 0.011742721311748028 -0.034600794315338135 0.05105619877576828 -0.05680302157998085 -0.025435030460357666 0.028262300416827202 0.019988732412457466 -0.006454737391322851 0.011073223315179348 -0.06084340065717697 -0.04424123093485832 -0.015289879404008389 -0.01056817825883627 -0.03442054241895676 0.08301413804292679 -0.014088675379753113 -0.02762416936457157 0.0037305804435163736 0.029479341581463814 0.012277512811124325 -0.029590468853712082 -0.029061907902359962 -0.045460306107997894 0.04146500676870346 -0.005414894316345453 -0.01238982006907463 0.010470172390341759 0.004521411377936602 -0.041504763066768646 -0.0010127669665962458 -0.031147433444857597
375 0.04191939905285835 -0.06496678292751312 -0.014865449629724026 0.08467146009206772 -0.03231557086110115 -0.03330525383353233 0.08935533463954926 0.049470074474811554 0.050104912370443344 0.03144276142120361 -0.03426610305905342 -0.16065935790538788 -0.05245722830295563 -0.09366582334041595 -0.0666295662522316 0.04726773127913475 -0.020431721583008766 -0.032747406512498856 0.08028633892536163 0.007879222743213177 -0.029751166701316833 0.0037981015630066395 -0.09123298525810242 0.034399840980768204 0.00917834509164095 -0.09381125867366791 0.1340838223695755 0.02697041630744934 0.009374000132083893 0.13832756876945496 0.10339967906475067 -0.0862211138010025 -0.03133150562644005 0.008833646774291992 -0.01973954401910305 -0.10055676847696304 -0.014707252383232117 0.16155187785625458 0.017602762207388878 -0.07471910864114761 0.08055750280618668 -0.047936439514160156 0.047398924827575684 0.06314228475093842 0.10371701419353485 0.040325816720724106 0.034302521497011185 0.045802537351846695 -0.06713388115167618 0.02154955081641674 -0.060526300221681595 0.042977552860975266 -0.11942412704229355 0.023545851930975914 0.06652132421731949 0.012738336808979511 0.04870305955410004 0.02468026988208294 0.08078416436910629 -0.03852440416812897 -0.035403911024332047 -0.03479393199086189 0.141342431306839 0.037581317126750946 0.023326769471168518 0.02388257160782814 -0.053570911288261414 8.640378364361823E-4 -0.09518670290708542 0.06976035237312317 -0.059161968529224396 0.05424778163433075 -0.0825473740696907 -0.04879043251276016 0.12019865959882736 0.01672746054828167 -0.07269791513681412 0.011782766319811344 -0.0719185620546341 -0.02711632288992405 0.018751107156276703 -0.03638026863336563 -0.032167088240385056 0.06196008622646332 -0.07522028684616089 -0.01535800565034151 0.051277514547109604 0.02667413279414177 -0.029138097539544106 -0.07422327995300293 0.098447784781456 -0.021107492968440056 0.022756583988666534 0.06990210711956024 -0.06303049623966217 0.03524107486009598 -0.12063916027545929 -0.08440902829170227 -0.06746504455804825 -0.01026192307472229
186 -0.06340137869119644 -5.958019755780697E-4 0.03918645903468132 -0.06394295394420624 0.15199506282806396 0.018526146188378334 -5.739072803407907E-4 -0.006276261992752552 0.3067701756954193 -0.055161889642477036 -0.08314640820026398 -0.025278761982917786 -0.08352682739496231 -0.10406423360109329 -0.36483749747276306 -0.11921477317810059 -0.007891564629971981 -0.028155192732810974 0.38145309686660767 -0.2606234848499298 -0.01113484613597393 -0.12587566673755646 0.15910175442695618 -0.0991232842206955 -0.3384757339954376 -0.12059037387371063 0.12502048909664154 -0.2500978112220764 -0.29562312364578247 0.41112208366394043 -0.06422654539346695 0.12929938733577728 -0.016970818862318993 0.1620788276195526 -0.04841488599777222 0.16234901547431946 0.036631323397159576 0.47533249855041504 0.2511252462863922 -0.024545026943087578 -0.3132479190826416 -0.12023786455392838 -0.07827091217041016 0.07954384386539459 0.22403481602668762 0.028709540143609047 -0.032665759325027466 0.13231909275054932 0.23467163741588593 0.0994296669960022 0.04955234006047249 0.16196171939373016 0.43339964747428894 -0.29440391063690186 0.008630184456706047 -0.1734747439622879 0.22724789381027222 0.20535063743591309 -0.2339254915714264 0.037846192717552185 -0.010983375832438469 -0.0018158565508201718 0.022851603105664253 -0.05557627975940704 -0.06642671674489975 -0.05517499893903732 0.15829147398471832 -0.08802811056375504 -0.2079169750213623 0.15634509921073914 0.0386928953230381 0.013841674663126469 -0.1531636118888855 -0.16225343942642212 0.07331091165542603 0.31080836057662964 0.03242505341768265 -0.01022027526050806 0.042700111865997314 -0.17412316799163818 -0.35876554250717163 0.27728283405303955 -0.012764962390065193 0.11322469264268875 0.25265762209892273 -0.1696399450302124 -0.18715974688529968 0.13198627531528473 -0.11096431314945221 -0.04759844020009041 -0.1869918555021286 -0.0826018899679184 0.08009730279445648 0.08014506101608276 0.02529236488044262 -0.11317970603704453 0.19631075859069824 -0.25872859358787537 -0.10234223306179047 -0.02607083134353161
257 -0.10156921297311783 -0.054416459053754807 0.07476022839546204 0.1534890979528427 0.023929622024297714 0.08242958039045334 0.005052938126027584 0.10151967406272888 -0.03395485132932663 -0.06762784719467163 -0.09439779818058014 -0.17301352322101593 -0.004612536169588566 -0.12933704257011414 -0.08755453675985336 0.06650413572788239 -0.08695780485868454 -0.006941799074411392 0.08347122371196747 1.1749200348276645E-4 -0.0028401194140315056 -0.002109822817146778 -0.18063828349113464 0.11353893578052521 -0.0331985242664814 -0.12123014032840729 0.216732457280159 0.027793366461992264 -0.018751049414277077 0.258450984954834 0.06360803544521332 -0.2562131881713867 -0.041079968214035034 -0.023547669872641563 0.014581998810172081 -0.0958612710237503 -0.02972622588276863 0.2697000205516815 0.011316153220832348 -0.06356801837682724 0.05418545380234718 -0.15354681015014648 0.1169852614402771 0.002527085365727544 0.14499089121818542 0.003081824164837599 -0.014334463514387608 0.003950304351747036 0.038665469735860825 0.12424438446760178 -0.2551819384098053 0.1316118687391281 -0.018857086077332497 0.10057339072227478 0.10868200659751892 -0.06332471966743469 0.20591486990451813 0.09665191173553467 0.06845392286777496 -4.961749655194581E-4 0.09959200024604797 -0.0373191237449646 0.2662423849105835 0.1547834575176239 -0.014285958372056484 0.04732260853052139 -0.02291327528655529 0.07431454211473465 -0.15679332613945007 0.02637653984129429 -0.1247515082359314 0.04592248797416687 -0.017469018697738647 0.006395419128239155 0.006108931265771389 0.04082033783197403 -0.03392408415675163 0.038686685264110565 -0.17291679978370667 -0.11664295941591263 0.01802051067352295 -0.0063330973498523235 0.012386073358356953 0.1465732455253601 0.028284266591072083 -0.0736720934510231 0.006440055090934038 0.09354418516159058 -0.049284640699625015 -0.1520526111125946 -0.004141309764236212 -0.022122368216514587 -0.002863848814740777 0.05017056688666344 -0.08447609096765518 -0.03946978971362114 -0.014239540323615074 -0.13355249166488647 -0.02121373638510704 -0.002049776026979089
840 0.005087757483124733 -0.006875078193843365 0.005771622061729431 0.02460613287985325 0.0014834890607744455 -0.01444295234978199 0.015209883451461792 4.8553338274359703E-4 7.860888727009296E-4 -0.008175285533070564 -0.008221568539738655 -0.018550796434283257 -0.0062645734287798405 -0.012664185836911201 -0.027080878615379333 -0.003020534059032798 -0.003249747445806861 -0.005370999686419964 0.020845485851168633 0.010128223337233067 -0.002137830713763833 0.023191731423139572 -0.011306841857731342 0.025864074006676674 -0.007550776936113834 -0.024032121524214745 0.031200189143419266 0.023433387279510498 5.851591704413295E-4 0.019761579111218452 0.012599870562553406 -0.025051197037100792 -0.012627202086150646 -0.011348249390721321 -0.00421591242775321 0.00886607076972723 -0.0045219906605780125 0.028935978189110756 0.001865200698375702 0.004771600477397442 -0.002187497215345502 -0.020356107503175735 0.025667309761047363 0.014693084172904491 0.01741606742143631 0.0021939529106020927 0.010039158165454865 0.003138403408229351 -0.007621372118592262 -0.009032800793647766 -0.0026308547239750624 0.0025063029024749994 1.7718528397381306E-5 0.022056173533201218 0.005642117001116276 4.375448916107416E-4 0.03058607317507267 0.0024509986396878958 -0.014914621599018574 -0.02386992610991001 0.003402473870664835 0.001344233169220388 -0.003953204490244389 0.01440330408513546 0.0013836437137797475 0.008184022270143032 -0.026284947991371155 0.011194207705557346 -0.02097151055932045 0.007841072976589203 -0.00387278338894248 0.00540592335164547 -0.042397938668727875 -0.02103886380791664 0.010801969096064568 0.006236675661057234 0.00813575740903616 0.012248185463249683 -5.191784002818167E-4 -0.023784929886460304 -0.019909556955099106 0.0016868109814822674 0.019526490941643715 0.01716335117816925 -0.012893060222268105 -0.012636834755539894 0.0010114393662661314 0.011848441325128078 0.005359093192964792 -0.0014454335905611515 0.0029433113522827625 -0.013638227246701717 0.03222519904375076 -0.004773623310029507 0.0036412705667316914 0.008403855375945568 -0.01239426527172327 -4.533707397058606E-4 0.0054275523871183395 -5.913556087762117E-4
232 0.061742812395095825 0.0138174993917346 0.025142041966319084 -0.17029084265232086 0.22195930778980255 0.10926595330238342 0.007886831648647785 0.07481107860803604 0.39200472831726074 -0.0787326917052269 -0.08932642638683319 -0.12867030501365662 -0.10636074841022491 0.016880512237548828 -0.5118530988693237 -0.12023652344942093 -0.027667932212352753 -0.059975747019052505 0.35753336548805237 -0.3529181480407715 -0.04612617567181587 -0.10494723916053772 0.23322053253650665 -0.133159801363945 -0.402560830116272 -0.14140033721923828 0.1281713992357254 -0.28285956382751465 -0.3311138153076172 0.4483732581138611 -0.09144513309001923 0.13493406772613525 -0.023431405425071716 0.13023380935192108 -0.12736542522907257 0.3150184154510498 0.010426566004753113 0.5027554035186768 0.28612610697746277 -0.04792727530002594 -0.2541813850402832 -0.1784636527299881 -0.10156919807195663 0.05440228432416916 0.18928709626197815 0.08228610455989838 -0.0459744855761528 0.1813598871231079 0.32822415232658386 0.11807664483785629 0.037733111530542374 0.22800910472869873 0.5509607791900635 -0.35171177983283997 -0.07845569401979446 -0.1507447063922882 0.32741081714630127 0.20130467414855957 -0.2887934446334839 0.055721577256917953 0.018943283706903458 -0.009961983188986778 -0.04502445459365845 -0.03391629830002785 -0.07999332249164581 -0.09714943915605545 0.2409900724887848 -0.18565616011619568 -0.3281857967376709 0.22883620858192444 0.018788324669003487 -0.0767751932144165 -0.10404123365879059 -0.23974257707595825 0.09433755278587341 0.3939048647880554 0.012643719092011452 0.00525696761906147 0.10157399624586105 -0.2544299364089966 -0.36205142736434937 0.3439643085002899 -0.026864580810070038 0.10536117851734161 0.3000923991203308 -0.15654286742210388 -0.07538663595914841 0.22451123595237732 -0.14187723398208618 -0.025747396051883698 -0.08333314210176468 -0.008379857055842876 0.11772319674491882 0.16819120943546295 0.07206261157989502 -0.11492002010345459 0.19250968098640442 -0.26910048723220825 -0.06517588347196579 0.08825600892305374
139 -0.480150043964386 0.16921097040176392 0.23695752024650574 0.19575121998786926 -0.0281149223446846 -0.06471149623394012 0.13947710394859314 -0.39314723014831543 0.08740933984518051 0.014045787043869495 -0.08438670635223389 0.2336515337228775 0.0634179636836052 -0.27594006061553955 -0.1035667434334755 -0.1023748442530632 0.14133374392986298 0.12742412090301514 0.1377626657485962 0.11515261977910995 -0.06507591158151627 0.18595315515995026 -0.11219414323568344 0.053683508187532425 0.2501225471496582 0.04765385016798973 -0.07406211644411087 -0.07712586969137192 0.10506965219974518 -0.036480166018009186 -0.22764120995998383 -0.1357821673154831 -0.2857467830181122 0.20369406044483185 0.24635998904705048 0.16061411798000336 0.21281744539737701 0.138597771525383 0.1605295091867447 0.05222388356924057 -0.3762381374835968 0.12459319084882736 -0.2578156888484955 0.060688529163599014 0.23685400187969208 0.0387597493827343 0.05281315743923187 0.02822486124932766 -0.26523303985595703 0.144974023103714 -0.2987328767776489 -0.11707153916358948 -0.29158177971839905 0.18809975683689117 -0.17299430072307587 0.09170681238174438 0.2359963208436966 -0.009339770302176476 -0.19228775799274445 0.0772240087389946 0.4684596359729767 0.13378413021564484 0.04449402540922165 -0.00869099609553814 0.06228972598910332 -0.14888852834701538 0.19472643733024597 -0.06342900544404984 -0.4303625226020813 -0.10685239732265472 0.158990740776062 -0.028753550723195076 0.02374824695289135 -0.2152826488018036 -0.10423553735017776 -0.022788846865296364 0.026156408712267876 0.07642383873462677 -0.12458379566669464 -0.04428797587752342 -0.2669034004211426 -0.21923446655273438 0.049318742007017136 0.15902137756347656 -0.07843636721372604 -0.04708656668663025 -0.10999079048633575 0.3913514316082001 0.19802534580230713 0.18308758735656738 -0.2504604756832123 -0.11187806725502014 0.14363211393356323 0.017901001498103142 -0.1863737404346466 -0.029177846387028694 -0.07120801508426666 -0.07327413558959961 0.06279132515192032 0.26314064860343933
359 -0.2175169587135315 0.1552673727273941 0.020560545846819878 0.318731427192688 0.17790153622627258 0.14440438151359558 -0.10428441315889359 0.11820445954799652 -0.11189035326242447 -0.07967901229858398 0.08929990977048874 -0.013754419051110744 -0.1313582807779312 -0.2514946162700653 -0.15447461605072021 0.19817228615283966 -0.13428889214992523 0.0046009463258087635 0.20831286907196045 -0.019247030839323997 -0.15025196969509125 -0.13854695856571198 -0.31617847084999084 0.17131775617599487 8.414387702941895E-4 -0.01900653727352619 0.05544596165418625 -0.024349505081772804 0.09877420216798782 0.23044569790363312 -0.07889614999294281 -0.24021092057228088 -0.0676734670996666 0.03747253865003586 -0.05272609367966652 -0.1916513741016388 0.14422112703323364 0.19047507643699646 0.0013174288906157017 -0.07984653115272522 -0.08467432856559753 -0.12121358513832092 0.06729426234960556 0.04478069767355919 0.18347729742527008 -0.04285231977701187 -0.10872501134872437 0.10014571249485016 0.011841176077723503 0.14720891416072845 -0.28510066866874695 0.22337380051612854 0.21678921580314636 0.12344524264335632 0.30571913719177246 -0.15385326743125916 0.24405927956104279 0.050407908856868744 0.26943376660346985 -0.36319905519485474 -0.08561655879020691 -0.0060052587650716305 0.45817986130714417 0.250514417886734 -0.06227541342377663 0.07392445206642151 0.05154421180486679 0.07361156493425369 0.1278146505355835 -0.09610780328512192 -0.17710398137569427 0.17325890064239502 -0.031361475586891174 0.12599435448646545 0.08053360134363174 -0.06907838582992554 0.04414375498890877 -0.06092604249715805 -0.3082183599472046 -0.046512048691511154 0.05467195436358452 -0.06333141773939133 -0.19588491320610046 0.19393578171730042 0.03637656196951866 0.10251662135124207 0.12307288497686386 -0.049225304275751114 -0.34529978036880493 -0.2671327292919159 -0.15274040400981903 -0.2418414205312729 -0.09908633679151535 -0.024201486259698868 0.04599121958017349 -0.02485336735844612 -0.022858044132590294 -0.04226120561361313 0.06553658097982407 0.0877428650856018
861 0.0021192245185375214 0.0015323320403695107 0.008882015012204647 0.003207641653716564 -0.013170013204216957 -0.011040283367037773 -0.006799415219575167 -0.0016797478310763836 -8.799924980849028E-4 0.003942553885281086 2.1946290507912636E-4 -0.006677375175058842 0.0022910190746188164 0.006147344596683979 -0.004609367344528437 -0.004378048237413168 -0.0015595812583342195 -0.003236292162910104 0.001781896105967462 -0.0011086646700277925 -0.0023702254984527826 0.005663632415235043 3.010546788573265E-5 0.007312226574867964 -0.002738323761150241 -0.005811142735183239 -0.003351709106937051 0.004121354315429926 0.006400947459042072 -8.847573772072792E-4 0.004052328877151012 -0.005401157774031162 -0.006309657823294401 0.004031036980450153 -7.349798688665032E-4 0.0038581527769565582 -0.0023093223571777344 0.004667164757847786 -0.0012360549299046397 0.002747480059042573 -0.005969301797449589 -4.1847163811326027E-4 0.0027656457386910915 0.0014680157182738185 -0.00658857636153698 -0.0034867944195866585 0.0037087593227624893 0.0013782215537503362 0.001262827543541789 0.004185323137789965 -0.0037805107422173023 0.002215486951172352 -0.01283600926399231 0.003196411533281207 0.008881159126758575 -0.003676149994134903 -0.0023267967626452446 0.0033483384177088737 -0.0018805887084454298 -0.001246413215994835 7.753276731818914E-4 -6.231735460460186E-4 -0.0010666591115295887 -0.002160753356292844 0.006155046634376049 0.004882990848273039 -0.006973540876060724 -0.0021606129594147205 0.002672357950359583 -0.0021812221966683865 -0.005356485489755869 -0.005510180257260799 -7.04638659954071E-4 0.0014381830114871264 0.004675738979130983 -0.0036647014785557985 2.6434194296598434E-5 9.199578780680895E-4 0.005890509579330683 0.0017338825855404139 -0.012820469215512276 -7.589429151266813E-5 -4.230812191963196E-5 -0.005541124381124973 1.253893133252859E-4 -0.005362221971154213 -0.006669892929494381 0.0024680267088115215 0.009778173640370369 -0.002214831067249179 -0.00962437316775322 -0.00751261692494154 0.0075739482417702675 -0.004970290698111057 0.0040706489235162735 0.00547231687232852 0.0020296352449804544 0.006966290529817343 -0.004251223523169756 -0.007182788103818893
523 -0.0429866798222065 -0.0195170845836401 0.025667445734143257 0.048819947987794876 0.015130476094782352 0.00293821282684803 -0.008557758294045925 0.01069131400436163 0.023985274136066437 -0.018240036442875862 -0.036699652671813965 -0.019715208560228348 9.887405904009938E-4 -0.03946656733751297 -0.06294824182987213 0.009068124927580357 -0.022724922746419907 0.01287856139242649 0.08827105164527893 -0.005408613942563534 -0.022603904828429222 -5.214105476625264E-4 -0.028682436794042587 0.004881179891526699 -0.046738237142562866 -0.04982718452811241 0.04863864555954933 -0.005421181675046682 -0.03894272446632385 0.09317019581794739 -0.014766644686460495 -0.017687153071165085 -0.023269878700375557 0.033187467604875565 0.01798548735678196 0.013465614058077335 -0.00965027417987585 0.09932674467563629 0.021554309874773026 -0.008282218128442764 -0.05090562254190445 -0.03866535425186157 0.009945128113031387 0.03860412538051605 0.027777105569839478 -0.03260750323534012 0.008689815178513527 0.039446137845516205 -0.002999077085405588 0.044296491891145706 -0.036090802401304245 0.02678517997264862 0.05244441702961922 4.886563401669264E-4 0.051129050552845 -0.03736969828605652 0.06771460175514221 0.011633963324129581 -0.006583246868103743 -0.03837102651596069 0.0050728823989629745 -0.006904363166540861 0.07015275210142136 0.022791627794504166 -0.010010096244513988 0.003128928132355213 0.013607043772935867 -0.007040406111627817 -0.027949808165431023 0.014845531433820724 -0.024276576936244965 0.0096878157928586 -0.06208503618836403 -0.025528309866786003 0.02877175249159336 0.061253100633621216 0.022125283256173134 -0.007127421908080578 -0.012516500428318977 -0.052511464804410934 -0.06647635996341705 0.03385654464364052 -0.021932270377874374 0.05202406272292137 0.012867871671915054 -0.029207026585936546 -0.02004106342792511 0.03875218704342842 0.015891363844275475 -0.023067090660333633 -0.06884676963090897 -0.03841392323374748 0.05074473097920418 -0.01867489516735077 0.0020392131991684437 0.011170612648129463 -0.001593192107975483 -0.06386276334524155 -0.02295313961803913 -0.004307752009481192
779 -0.023161064833402634 -0.01007378101348877 0.031163571402430534 0.041643381118774414 -0.007307826075702906 -0.036799509078264236 0.010985804721713066 -0.02324175462126732 0.007485537324100733 -0.0026232637465000153 -0.03271111845970154 -0.018851768225431442 0.015191765502095222 -0.035475023090839386 -0.006231591105461121 -0.0021200331393629313 0.03012942336499691 -0.012997898273169994 0.016600770875811577 0.006285908166319132 0.011659489013254642 0.010982883162796497 -0.024298029020428658 0.0419749952852726 0.019512109458446503 -0.032249193638563156 0.03359527140855789 0.014191747643053532 0.002058170037344098 0.02677997201681137 0.028951220214366913 -0.0356597900390625 -0.027185367420315742 0.03592928871512413 0.019149307161569595 0.007202880922704935 0.010319758206605911 0.0615476630628109 0.026150746271014214 -0.019623639062047005 -0.014161380007863045 -0.024705149233341217 0.03161299228668213 0.03161637857556343 0.027910498902201653 -0.003209460526704788 0.024443713948130608 0.025138836354017258 -0.03170107677578926 0.006677854340523481 -0.029784105718135834 0.02296634390950203 -0.03419001027941704 0.027662355452775955 0.0250331349670887 -0.006931067444384098 0.02813304215669632 0.009885771200060844 -0.01714020036160946 -0.031133156269788742 0.02107113040983677 -0.0033785952255129814 0.04733281210064888 0.010607942007482052 0.005043462850153446 0.007824787870049477 -0.027091115713119507 5.466747097671032E-5 -0.0345941036939621 -0.02373550646007061 0.01296447217464447 0.028535660356283188 -0.061039336025714874 -0.00925054308027029 0.04535258188843727 -1.1980422277702019E-4 0.007912854664027691 0.008035531267523766 -0.007265882100909948 -0.016783351078629494 -0.04436403885483742 0.01593020185828209 -0.00460693147033453 0.06917288154363632 0.015285632573068142 0.009189639240503311 0.005289331544190645 0.03025263175368309 0.006999770645052195 9.072431712411344E-4 -0.014020755887031555 -0.031110012903809547 0.015595555305480957 0.017052559182047844 -0.00314553314819932 0.046209048479795456 -0.01909949816763401 -0.01589926704764366 0.00457425182685256 0.01032457035034895
244 0.03061554953455925 -0.08193900436162949 0.011402949690818787 0.13419832289218903 -0.08958908915519714 -0.11280284821987152 -0.08795347809791565 0.03524954989552498 -0.06759518384933472 0.0826558768749237 -0.1843421757221222 -0.14062827825546265 0.04864276945590973 -0.11565983295440674 -0.09076648205518723 -0.12702858448028564 0.12082995474338531 0.0071379682049155235 0.07772200554609299 0.19724607467651367 0.09388282895088196 0.19545117020606995 0.06805068254470825 0.03071277029812336 0.09728946536779404 -0.2713131010532379 0.2356071174144745 0.1963506042957306 0.026026051491498947 0.079292893409729 0.11874507367610931 -0.20446465909481049 -0.07275712490081787 -0.0404202863574028 -0.10165146738290787 -0.014393031597137451 -0.12440276890993118 0.32438912987709045 0.043140243738889694 -0.006360332947224379 0.034489717334508896 -0.1945234090089798 0.20299123227596283 0.04068221151828766 0.035947877913713455 -0.07933327555656433 0.21397697925567627 -0.0071632093749940395 -0.09079604595899582 -0.034983325749635696 -0.18386408686637878 -0.009213042445480824 -0.07041232287883759 -0.003353498876094818 0.09334739297628403 0.021398406475782394 0.006048635579645634 -0.057697247713804245 0.07001986354589462 -0.18306826055049896 0.1320682317018509 0.005313733126968145 0.08656531572341919 0.09365686774253845 -4.962247330695391E-4 0.20136640965938568 -0.20354552567005157 0.055307917296886444 -0.06729421019554138 -0.06119692698121071 -0.18744933605194092 0.12381105870008469 -0.225486621260643 -0.13771121203899384 0.1055055782198906 0.0540042519569397 0.14106304943561554 0.09195252507925034 -0.040819186717271805 -0.07455375045537949 0.016382358968257904 0.07117966562509537 0.1281549036502838 0.1870892196893692 -0.12278562039136887 -0.07213183492422104 -0.0657539814710617 0.04557495191693306 0.18128861486911774 0.044537343084812164 -0.08033014088869095 0.023604126647114754 0.2849360704421997 0.0033293976448476315 -0.06801437586545944 -0.029044529423117638 8.648050716146827E-4 0.088884137570858 0.005651235114783049 -0.13138365745544434
449 -0.016880055889487267 -0.013422044925391674 0.011570161208510399 0.05952538549900055 3.074356645811349E-4 -0.010190238244831562 -0.00935844611376524 0.011495448648929596 0.009723758324980736 -0.0095463115721941 -0.011025294661521912 -0.035121116787195206 -0.00940844789147377 -0.040720134973526 -0.05684497207403183 0.001568360486999154 -0.02063879743218422 0.008160755969583988 0.08405549824237823 0.029303623363375664 -0.023906320333480835 0.038927171379327774 -0.012036905623972416 0.004116946831345558 -0.00808260403573513 -0.0776764303445816 0.04726303368806839 0.019617171958088875 -0.007784455083310604 0.052834656089544296 -0.008209954015910625 -0.03516741842031479 -0.025255074724555016 0.03326771408319473 -0.0339675098657608 -0.008520988747477531 0.00170443719252944 0.11225662380456924 0.015575471334159374 0.010835515335202217 -0.04503970965743065 -0.053751811385154724 0.04304289445281029 0.04635130986571312 0.008159304037690163 -0.014157941564917564 0.046144887804985046 0.021817877888679504 -0.021052133291959763 0.023369383066892624 -0.033416617661714554 6.588383112102747E-4 0.013150294311344624 0.006436084862798452 0.06347045302391052 -0.046029962599277496 0.04451803117990494 -0.019078997895121574 0.030143622308969498 -0.07596655935049057 -0.009507686831057072 0.005326996557414532 0.07432502508163452 0.03514138609170914 -0.009904134087264538 0.03973476588726044 0.0043698083609342575 -0.003645949065685272 -0.02460911124944687 0.005967661738395691 -0.049582671374082565 0.044713348150253296 -0.05643026530742645 -0.03907904028892517 0.02471201680600643 0.06144054979085922 0.03702472150325775 7.192825432866812E-5 -0.029763784259557724 -0.04508966580033302 -0.05843133106827736 0.0014681548345834017 -0.036507051438093185 0.0673411637544632 -0.035474129021167755 -0.023900557309389114 -0.020834097638726234 0.04123201593756676 -0.01014345046132803 -0.04656999930739403 -0.03992682322859764 -0.056308601051568985 0.060197096318006516 -0.007998775690793991 0.00747755728662014 0.015349257737398148 -0.034746456891298294 -0.029769357293844223 -0.00856320932507515 -0.017440248280763626
15 -0.19971957802772522 -0.10263621062040329 0.31164348125457764 0.22365324199199677 -0.07378912717103958 -0.23132814466953278 0.19300390779972076 -0.2958025336265564 0.2828630208969116 0.17625848948955536 0.0843692272901535 -0.2531813979148865 0.15712803602218628 -0.23515862226486206 0.09683646261692047 0.01515119057148695 0.002043048618361354 -0.22425687313079834 0.1686883419752121 -0.04360495135188103 0.13629019260406494 -0.05430229380726814 -0.2884959280490875 0.2767100930213928 0.054772377014160156 0.2753751277923584 0.07471595704555511 0.21288949251174927 0.17915090918540955 -0.01773969829082489 0.02360416390001774 -0.041259098798036575 -0.27895402908325195 -0.11654505133628845 -0.22430406510829926 0.007075051311403513 -0.09619560837745667 0.42935341596603394 -0.05579458922147751 -0.3055016100406647 -0.4268483519554138 0.027372807264328003 0.09073282033205032 -0.17427003383636475 -0.0503767728805542 -0.012370455078780651 0.15522576868534088 0.2629855275154114 0.08486399799585342 -0.15771184861660004 0.2135503888130188 -0.0044164094142615795 -0.3379115164279938 -0.22047586739063263 0.33156901597976685 -0.039348069578409195 -0.005625234916806221 0.2180631011724472 0.13387401401996613 -0.17038202285766602 0.22782571613788605 0.24436324834823608 0.07263423502445221 -0.009786324575543404 -0.04192119836807251 0.3738035261631012 -0.22725261747837067 0.04538091644644737 -9.656808688305318E-4 -0.07795099914073944 0.008993986994028091 0.29894229769706726 -0.30216485261917114 -0.0377805195748806 0.14903004467487335 0.25765737891197205 0.17565715312957764 0.079127237200737 -0.2548578679561615 0.01607632078230381 -0.029826359823346138 0.10531674325466156 0.42604339122772217 -0.07395513355731964 -0.1686479151248932 0.05528438091278076 -0.08897656202316284 -0.03730558604001999 0.050837911665439606 -0.05416339635848999 0.3018949627876282 0.04658648744225502 0.09734077751636505 0.08537741750478745 -0.25973737239837646 0.028454836457967758 0.28427502512931824 0.17937153577804565 -0.11133100837469101 -0.3285938799381256
850 -0.0031241574324667454 -0.007819502614438534 0.014800009317696095 0.020246585831046104 -0.0011209486983716488 -0.01351290475577116 -0.005459759384393692 -0.011263187043368816 0.00966941099613905 -0.013314155861735344 -0.024570997804403305 -0.023734139278531075 -0.0028458295855671167 -0.019257932901382446 -0.014902026392519474 0.0028369890060275793 0.006341747939586639 -0.006977837532758713 0.03151886537671089 -0.009436259977519512 0.0059738000854849815 -9.493845282122493E-4 -0.010670466348528862 0.005067821126431227 -0.01539103128015995 -0.020810741931200027 0.02578216977417469 0.0032713355030864477 -0.01603783667087555 0.034702204167842865 0.008032559417188168 -0.014495287090539932 -0.015151060186326504 0.020591557025909424 0.0037792681250721216 0.0076898387633264065 -0.003479460719972849 0.04807939752936363 0.019792724400758743 -0.0201606173068285 -0.0281369611620903 -0.025283588096499443 0.02043350227177143 0.0040070354007184505 0.024888796731829643 -0.008656670339405537 0.016187168657779694 0.018404820933938026 0.0030628780368715525 0.017031030729413033 -0.016612961888313293 0.025732645764946938 -0.006468553561717272 -0.0016679788241162896 0.011603173799812794 -0.02149665169417858 0.02171182818710804 0.019183870404958725 -0.007071136496961117 -9.851505747064948E-4 0.007950914092361927 0.018078751862049103 0.022608472034335136 -0.0016816998831927776 0.0034441545139998198 0.0062530688010156155 -0.005715375766158104 -0.002812303602695465 -0.028879672288894653 -0.0014189796056598425 0.006824299693107605 0.013111055828630924 -0.03004392609000206 -9.327939478680491E-4 0.015583176165819168 0.022092143073678017 0.011381984688341618 0.007529900409281254 7.181569235399365E-4 -0.018659280613064766 -0.03280329331755638 0.016875777393579483 -0.0033813845366239548 0.03316861018538475 0.019448207691311836 -1.035305904224515E-4 -0.006968195084482431 0.03390737250447273 0.018253153190016747 0.006519412621855736 -0.0028008813969790936 -0.010712752118706703 0.01458000112324953 0.01904148794710636 0.007751608733087778 0.011436600238084793 0.001014338806271553 -0.011406135745346546 -0.002153372159227729 -0.0077140904031693935
363 -0.024988815188407898 -0.10420111566781998 0.020561572164297104 0.14795096218585968 0.00992658268660307 0.07893964648246765 0.09845621883869171 0.17071835696697235 -0.042661383748054504 -0.08225885778665543 -0.08407355844974518 -0.23128317296504974 -0.07234104722738266 -0.18499445915222168 -0.12507911026477814 0.14064162969589233 -0.1325942724943161 0.0021240718197077513 0.17812320590019226 0.06706588715314865 -0.04968725144863129 0.017079198732972145 -0.21522274613380432 0.09008252620697021 -0.024987567216157913 -0.12028609961271286 0.24665425717830658 0.05841687321662903 -0.02874104492366314 0.3533315062522888 0.13672636449337006 -0.23985034227371216 -0.027742736041545868 -0.03784440830349922 0.020326927304267883 -0.19626925885677338 -0.054029449820518494 0.24686919152736664 -0.019708294421434402 -0.09181415289640427 0.10908519476652145 -0.16195163130760193 0.12988761067390442 -8.480394899379462E-5 0.1787692755460739 0.026549233123660088 9.104950586333871E-4 0.044193167239427567 -0.037599943578243256 0.09837885946035385 -0.21450558304786682 0.1424577683210373 -0.08032111823558807 0.10515858232975006 0.1442491114139557 -0.03546652942895889 0.2524336874485016 0.05205169692635536 0.1821509301662445 -0.06558623909950256 -0.027663251385092735 -0.04108716547489166 0.3643086552619934 0.16559965908527374 -0.014108601957559586 0.003523007733747363 -0.040605586022138596 0.04514046385884285 -0.11514538526535034 0.08456002175807953 -0.1738816797733307 0.061576612293720245 -0.08894001692533493 0.00250733713619411 0.04337994381785393 0.049013447016477585 -0.03588443621993065 0.029010282829403877 -0.1842140406370163 -0.0657031312584877 0.09686283022165298 -0.02970249205827713 0.009167290292680264 0.09513600915670395 -0.060824934393167496 -0.03213682025671005 0.035066843032836914 0.08569866418838501 -0.024154944345355034 -0.1842149794101715 0.062238551676273346 -0.04221498221158981 0.03706676885485649 0.014437663368880749 -0.04856536164879799 -0.053848978132009506 -0.1290813535451889 -0.10835297405719757 -0.07082793116569519 0.012990284711122513
131 0.368916779756546 -0.04027120769023895 -0.06930743157863617 0.010200905613601208 0.10121596604585648 0.20249131321907043 0.10196951776742935 0.256609171628952 0.10364989936351776 -0.08332086354494095 0.01610780879855156 -0.3343743681907654 -0.19262100756168365 -0.02481944113969803 -0.2487267404794693 0.38798031210899353 -0.07190415263175964 -0.024103788658976555 -0.14380624890327454 0.025224128738045692 -4.4539237933349796E-6 0.17068350315093994 -0.25841039419174194 0.022402893751859665 -0.2064448446035385 0.12403051555156708 0.38732677698135376 0.1369776427745819 -0.0935230627655983 0.4314013719558716 0.06312272697687149 -0.4690801799297333 0.03591930493712425 -0.1412695348262787 -0.013868126086890697 -0.112606942653656 -0.16337622702121735 0.04724195599555969 -0.21152415871620178 -0.51017165184021 0.3304841220378876 -0.36755409836769104 -0.05555873364210129 -0.31497707962989807 -0.04617604240775108 0.1389044225215912 -0.16982394456863403 0.06850123405456543 -0.010909579694271088 0.11394573748111725 -0.2445620894432068 0.27712902426719666 -0.3223286271095276 0.10305137932300568 -3.3624438219703734E-4 -0.005026573780924082 0.2782593369483948 0.07513756304979324 0.13203056156635284 0.38301488757133484 0.1087748259305954 0.05992722883820534 0.4135293960571289 0.1987154483795166 0.3993813395500183 -0.06670667231082916 -0.0013041808269917965 0.12249761819839478 -0.31030550599098206 0.3649161458015442 -0.22372569143772125 -0.09562152624130249 -0.22991620004177094 0.0739949569106102 0.19410614669322968 0.2733725607395172 0.01349587831646204 0.0537053607404232 -0.23259393870830536 0.03267945349216461 0.2659691572189331 -0.15227173268795013 -0.02910478226840496 0.03612899035215378 -0.05063767731189728 0.23095126450061798 0.4581999182701111 0.29694581031799316 0.030787982046604156 -0.4360778033733368 0.10199738293886185 -0.10059167444705963 0.33115044236183167 0.053460635244846344 0.22913677990436554 -0.05981683358550072 0.208662211894989 -0.22870643436908722 0.4386879801750183 0.16096021234989166
306 -0.11874662339687347 -0.11995252221822739 0.08625272661447525 0.28816187381744385 0.08038389682769775 0.13943617045879364 0.06595049798488617 0.23417989909648895 -0.15615904331207275 -0.18782179057598114 -0.07995365560054779 -0.08741401135921478 0.02556876465678215 -0.14055155217647552 0.012155954726040363 0.0839686319231987 -0.11440310627222061 0.05867208540439606 0.15644267201423645 0.1575644165277481 -0.041871242225170135 0.012842451222240925 -0.25504282116889954 0.20955637097358704 0.0378800593316555 -0.07504162192344666 0.10590623319149017 0.009919830597937107 -0.049944840371608734 0.4003443419933319 0.1444912850856781 -0.28773191571235657 -0.07260780781507492 -0.04319983348250389 0.21599547564983368 -0.12120825052261353 -0.07504365593194962 0.10790728032588959 -0.08865402638912201 0.04482003673911095 0.18249385058879852 -0.1944953203201294 0.10821200907230377 -0.10089821368455887 0.2667728662490845 -0.016001194715499878 -0.17733411490917206 0.00427353335544467 -0.14806224405765533 0.1520708203315735 -0.30559343099594116 0.05034760385751724 0.003897998481988907 0.1688198745250702 0.15129470825195312 0.0034661442041397095 0.3029535710811615 -0.0741765946149826 0.08931555598974228 -0.0036767874844372272 0.036404840648174286 -0.11716383695602417 0.4212465286254883 0.17513850331306458 -0.02410946600139141 -0.04597720131278038 -0.012808025814592838 0.05570072680711746 -0.13608501851558685 0.07269074022769928 -0.1329515129327774 0.08512909710407257 0.00487090740352869 0.01530274748802185 0.059841256588697433 -0.017540208995342255 -0.0982213020324707 0.07366738468408585 -0.2714822590351105 -0.021157169714570045 0.16105404496192932 -0.13043628633022308 -0.039334576576948166 0.15198874473571777 -0.04225727915763855 -0.012210141867399216 0.061602309346199036 -0.04397713765501976 -0.15376918017864227 -0.17658428847789764 0.010701886378228664 -0.01589084416627884 -0.1417878270149231 0.008469014428555965 -0.0896521508693695 -0.05224577710032463 -0.2272380292415619 -0.2978680431842804 -0.1194520965218544 0.0911724641919136
793 0.002667358610779047 -0.00681885052472353 0.007233762182295322 0.027401817962527275 -0.010556860826909542 -0.011987442150712013 -0.002522476250305772 -0.0029630959033966064 0.006286769174039364 -0.004893082194030285 -0.012653781101107597 -0.03709491714835167 4.876380553469062E-4 -0.009235595352947712 -0.0356006883084774 9.906794875860214E-4 -1.6267015598714352E-4 -0.013134649023413658 0.036639757454395294 -0.001850692555308342 -0.010366937145590782 0.01328818779438734 -0.020612530410289764 0.025270432233810425 -0.015951426699757576 -0.035377420485019684 0.024442128837108612 0.026436371728777885 -0.01052362285554409 0.011869609355926514 0.009008255787193775 -0.02281709387898445 -0.02259407564997673 4.973731702193618E-4 1.1594034731388092E-4 0.008176467381417751 -6.785792065784335E-4 0.024623606353998184 -4.6137283788993955E-4 -0.0012853816151618958 -0.011522255837917328 -0.02357538975775242 0.021077077835798264 0.011601990088820457 0.014485145919024944 -0.012718157842755318 -0.0016824592603370547 0.006395617499947548 -8.327149553224444E-4 0.005564250983297825 0.0013492110883817077 0.00729744415730238 -0.012445230036973953 0.0016745793400332332 0.025295473635196686 -0.008424447849392891 0.02380688488483429 0.0017472016625106335 -0.011364810168743134 -0.03492383658885956 0.006134269759058952 0.015310175716876984 0.006319418549537659 0.004607019480317831 0.004808943718671799 0.019866615533828735 -0.02365223318338394 -0.009548706002533436 -0.01927756704390049 0.008900715969502926 -0.01132933609187603 0.0037017990835011005 -0.04173266515135765 -0.0189776923507452 0.02386488951742649 0.009836575947701931 0.0027289509307593107 0.004801540169864893 -0.0030438213143497705 -0.018410956487059593 -0.01112724281847477 0.0020022038370370865 0.004941103048622608 0.019795294851064682 -0.009613478556275368 -0.01668182946741581 0.014475164003670216 0.012543834745883942 0.006092696450650692 -0.0033923080191016197 -0.005045874044299126 -0.02219136245548725 0.02840656228363514 0.01204516738653183 -0.0021318322978913784 0.015542677603662014 -0.01656465418636799 -5.382196977734566E-4 0.0022471160627901554 -0.01423939410597086
270 -0.04330858215689659 -0.16493499279022217 -0.016605570912361145 0.28511133790016174 0.0056382399052381516 0.026032164692878723 0.15482565760612488 0.09403064101934433 0.006685787346214056 -0.026264803484082222 -0.06689854711294174 -0.11892583221197128 -0.09974933415651321 -0.20474687218666077 -0.04671986773610115 0.11604656279087067 -0.10988188534975052 -0.02859976515173912 0.26986339688301086 0.11715206503868103 -0.10972563922405243 -0.048661008477211 -0.1802368015050888 0.05463376268744469 0.0362958163022995 -0.057053182274103165 0.19403062760829926 0.04594916105270386 -0.0655147135257721 0.2844253182411194 0.11514265835285187 -0.06408865749835968 -0.03628353774547577 0.033702552318573 -0.007678826339542866 -0.19948333501815796 0.03982381522655487 0.21939462423324585 0.03254476934671402 -0.031073886901140213 0.04691991209983826 -0.056858256459236145 0.10974625498056412 0.03964950516819954 0.13777685165405273 0.11816270649433136 0.09128842502832413 0.07715538889169693 -0.20385652780532837 -0.07919217646121979 -0.09894193708896637 0.04149008169770241 -0.12613418698310852 0.0749267116189003 0.19714494049549103 0.03505224362015724 0.15205927193164825 -0.05737575516104698 0.19105669856071472 -0.15029045939445496 -0.12883712351322174 -0.039925117045640945 0.3351125121116638 0.08618751168251038 -0.03759231045842171 0.024762572720646858 -0.08158300071954727 -0.020754484459757805 -0.06152108311653137 0.10228345543146133 -0.1070021465420723 0.13533468544483185 -0.1526208221912384 -0.065707266330719 0.11141344159841537 0.08175645768642426 -0.05096070095896721 -0.018405018374323845 -0.1391015350818634 0.028146449476480484 0.0662422627210617 -0.045233823359012604 -0.011276341043412685 0.10045727342367172 -0.1760803908109665 -0.031369756907224655 -0.020577671006321907 0.007525652647018433 -0.011913243681192398 -0.1630224585533142 0.1334511935710907 -0.029452932998538017 0.02948060631752014 0.034932587295770645 -0.0724751353263855 0.06340391933917999 -0.16825781762599945 -0.10383737087249756 -0.1013505831360817 -0.03648311272263527
384 -0.0393560491502285 -0.006738063879311085 0.1551467925310135 0.1333712488412857 -0.038612090051174164 -0.1016872227191925 -0.033181026577949524 -0.10595131665468216 -0.05389523506164551 -0.07902833819389343 -0.08617862313985825 -0.036354824900627136 0.061365608125925064 -0.02122367173433304 -0.0217269379645586 -0.10515361279249191 0.10938391089439392 1.3776250125374645E-4 0.08601570129394531 -0.0017109863692894578 0.07177185267210007 0.10451160371303558 -0.022424845024943352 0.1796744167804718 0.13267403841018677 -0.14976638555526733 -0.05664168670773506 0.037711337208747864 -0.011447085067629814 0.04537874460220337 0.0569053515791893 -0.1773258000612259 -0.10156803578138351 0.13713860511779785 0.12795737385749817 0.15141944587230682 0.048398457467556 0.0868169441819191 0.07190120965242386 -0.04683154821395874 -0.11681392043828964 -0.032050132751464844 0.03825267031788826 0.04532370716333389 0.13829028606414795 -0.02146117575466633 0.05167117714881897 -0.04092467203736305 -0.19046160578727722 0.06866580247879028 -0.08656945824623108 -0.05316359922289848 -0.220100536942482 0.07697972655296326 -0.06470323354005814 -0.1236438974738121 0.09540187567472458 -0.10755283385515213 -0.09212373197078705 -1.4711821859236807E-4 0.17129381000995636 0.005518636200577021 0.108997642993927 -0.045376915484666824 0.06570672243833542 0.008807532489299774 -0.04198342561721802 -0.03111882694065571 -0.2336186021566391 -0.14888623356819153 0.12352747470140457 0.10633178800344467 -0.12480855733156204 -0.10760462284088135 0.10953032970428467 0.0014532889472320676 0.04570905864238739 0.14808498322963715 0.03250567987561226 -0.03722548484802246 -0.11597993224859238 -0.01894637942314148 -0.06357280910015106 0.18610040843486786 0.08345077931880951 0.10305941104888916 -0.033969663083553314 0.12437472492456436 0.015349425375461578 0.08842795342206955 -0.019427772611379623 -0.05865507945418358 0.036224544048309326 0.1204829141497612 0.06328705698251724 0.08689175546169281 -0.12771610915660858 -0.03502294793725014 0.011733907274901867 0.0744275450706482
568 -0.006889629177749157 -0.017457548528909683 0.009694617241621017 0.03594020754098892 -0.009203009307384491 -0.026807229965925217 0.02820289507508278 -0.019787216559052467 0.029970768839120865 0.02047966979444027 -0.026250189170241356 -0.051321517676115036 -0.02719579078257084 -0.03536532446742058 -0.04143964871764183 -0.0014106706948950887 0.01186695508658886 -0.03883033245801926 0.027087315917015076 0.006103903986513615 0.0010636287042871118 0.018814196810126305 -0.011345580220222473 0.02825349010527134 0.0069015054032206535 -0.0318276509642601 0.033661577850580215 0.012904026545584202 0.004294613376259804 0.010223686695098877 0.021486196666955948 -0.019476475194096565 -0.024863146245479584 0.008631372824311256 -0.02382386289536953 0.002489041071385145 0.016359183937311172 0.09241490811109543 0.03802577778697014 -0.025205500423908234 -0.013992788270115852 -0.04002571478486061 0.01767878234386444 0.006945972330868244 0.0476536899805069 0.014179510064423084 0.03473231941461563 0.030438268557190895 0.0018165598157793283 -0.0023646887857466936 -0.01733795367181301 0.038036271929740906 -0.04050534963607788 -0.007926949299871922 0.03593466058373451 -0.009355895221233368 0.010051816701889038 0.03460698574781418 0.005603644531220198 -0.033260706812143326 0.012235265225172043 0.030064105987548828 0.01429895218461752 0.002097173361107707 0.01961549185216427 0.04617876186966896 -0.02582450769841671 0.00392934400588274 -0.02979184500873089 -3.0240853084251285E-4 -0.011259718798100948 0.01407717540860176 -0.06139989197254181 -0.029475649818778038 0.030532050877809525 0.021074237301945686 0.014149853028357029 0.018633462488651276 -0.012222054414451122 -0.019689509645104408 -0.0336109921336174 0.003144297283142805 0.0045785377733409405 0.0387117937207222 -0.012371879070997238 -0.005600793287158012 0.0034232502803206444 0.02468707412481308 -0.004727654624730349 -0.00722191296517849 0.022786565124988556 -0.019997507333755493 0.028732437640428543 0.040606528520584106 -0.009046943858265877 0.02961663529276848 -0.01814042590558529 -0.0038910708390176296 -0.001877017319202423 -0.010308745317161083
367 -0.00593980448320508 -0.052706278860569 -0.01277757529169321 0.19401657581329346 -0.02516821399331093 -0.024889767169952393 0.06896526366472244 0.014473004266619682 0.004560181405395269 0.01393117569386959 -0.039107467979192734 -0.16241364181041718 -0.0343458391726017 -0.15496021509170532 -0.06446100026369095 0.056598298251628876 -0.06325962394475937 -0.020923344418406487 0.2048991471529007 0.02166028507053852 -0.07020482420921326 -0.02106289006769657 -0.14294090867042542 0.058512263000011444 0.03984968736767769 -0.09956922382116318 0.12826111912727356 0.029984336346387863 -0.017204876989126205 0.2039576917886734 0.08116407692432404 -0.05791492015123367 -0.03754099830985069 0.0396023727953434 -0.009286126121878624 -0.11494236439466476 -0.014650233089923859 0.13467934727668762 -0.0028372432570904493 -0.06484222412109375 -0.018245205283164978 -0.03821971267461777 0.04134196788072586 0.07821493595838547 0.10402234643697739 0.008803823962807655 0.05371396988630295 0.01917935535311699 -0.1399303823709488 0.05052429810166359 -0.05145150423049927 0.014337989501655102 -0.17930759489536285 0.018048333004117012 0.11049523949623108 -0.04178663715720177 0.06906124204397202 -0.02761593461036682 0.13299013674259186 -0.08799298107624054 -0.0891890823841095 -0.015118418261408806 0.23461095988750458 0.027892569079995155 0.011943225748836994 -0.009854457341134548 -0.031277820467948914 -0.033793043345212936 -0.07310405373573303 0.07420280575752258 -0.08021073788404465 0.08898792415857315 -0.11650284379720688 -0.07373324036598206 0.11926602572202682 0.06782420724630356 -0.06371758878231049 0.012166566215455532 -0.07842108607292175 -0.02295214682817459 0.05285140872001648 -0.052387356758117676 -0.0010621820110827684 0.05387026444077492 -0.15358014404773712 0.006315704435110092 -0.015129663050174713 0.008315653540194035 -0.0038762709591537714 -0.061942942440509796 0.0571209155023098 -0.011903324164450169 0.06055884063243866 0.055700235068798065 -0.06034718081355095 0.03746054694056511 -0.21030181646347046 -0.07811248302459717 -0.08033830672502518 0.004231879021972418
327 -0.00546538271009922 -0.0730871930718422 -0.010531925596296787 0.11637412756681442 -0.022998612374067307 -0.011016910895705223 0.029727987945079803 0.06291545927524567 -0.02583087608218193 -0.010073128156363964 -0.08595042675733566 -0.10944827646017075 -0.07177046686410904 -0.11265227943658829 -0.08222948759794235 -0.010727937333285809 -0.020317317917943 -0.014906182885169983 0.15944914519786835 0.06979351490736008 -0.014530093409121037 0.01372483465820551 -0.06793186068534851 0.049120254814624786 0.01331846322864294 -0.11020218580961227 0.12055564671754837 0.0685805082321167 -0.0221652090549469 0.11931532621383667 0.091321662068367 -0.05066898837685585 -0.039303794503211975 -0.016147322952747345 -0.03518945723772049 -0.05984525755047798 -0.009870786219835281 0.15813156962394714 0.01294068992137909 -0.007339488249272108 0.001612311927601695 -0.08875787258148193 0.10412194579839706 0.04162152484059334 0.09278222918510437 -0.0025758668780326843 0.047854918986558914 0.049906082451343536 -0.05358574911952019 0.023442883044481277 -0.08225365728139877 0.009087936021387577 -0.016397980973124504 -0.017860393971204758 0.13594989478588104 0.02179797925055027 0.11149471998214722 -0.012924452312290668 0.11806454509496689 -0.13521403074264526 -0.05432664230465889 -0.02882176637649536 0.14441895484924316 0.06648550182580948 -0.03375369310379028 0.024530984461307526 -0.06264285743236542 -0.04146575555205345 -0.04133044183254242 0.05836733430624008 -0.10752670466899872 0.08177722990512848 -0.11157308518886566 -0.08259108662605286 0.0633898451924324 0.030396301299333572 0.022774146869778633 0.005234099924564362 -0.054870523512363434 -0.01587621308863163 0.0029882960952818394 -7.866731029935181E-4 3.84596933145076E-6 0.07251637428998947 -0.07985903322696686 -0.058029402047395706 -0.014883548952639103 0.01977727748453617 0.025680463761091232 -0.045011889189481735 0.010170169174671173 -0.01591222733259201 0.06577921658754349 0.03315425291657448 -0.060956522822380066 0.009033221751451492 -0.08131039887666702 -0.04731661081314087 -0.07111833244562149 -0.026248984038829803
98 -0.08323082327842712 -0.07717398554086685 0.017498789355158806 0.3015594482421875 -0.013253917917609215 -0.032703641802072525 -0.0027983158361166716 2.4247194232884794E-4 0.004250229801982641 -0.047859787940979004 -0.07564576715230942 -0.14298145473003387 0.014404630288481712 -0.13384275138378143 -0.10404977202415466 -0.05364500358700752 -0.05406688153743744 -0.08852844685316086 0.24846738576889038 0.07382162660360336 0.004276345483958721 -0.0018013549270108342 -0.09170909970998764 0.15764805674552917 -0.1009238138794899 -0.037210069596767426 0.18426230549812317 0.13271000981330872 0.028582585975527763 0.20442020893096924 0.08387572318315506 -0.05346451699733734 -0.14194552600383759 0.019992992281913757 0.05333271250128746 0.06999940425157547 -0.1332695633172989 0.212995246052742 0.002450154395774007 0.011993582360446453 -0.05067576840519905 -0.2644776701927185 0.13729655742645264 0.13633932173252106 0.13884009420871735 -0.022403256967663765 0.015957091003656387 0.03154435381293297 -0.024459686130285263 0.06987033039331436 -0.1547873169183731 0.07192089408636093 -0.03851570188999176 0.07206995040178299 0.13862629234790802 0.02631825953722 0.20127233862876892 0.023373175412416458 -0.06847065687179565 -0.14440929889678955 -0.055704426020383835 -0.01492136251181364 0.1051981970667839 0.03142935782670975 0.06716350466012955 0.015150313265621662 -0.10252052545547485 0.008549020625650883 -0.1775164008140564 0.09612173587083817 -0.04602305591106415 0.028900587931275368 -0.2004018872976303 -0.15333473682403564 0.1723349243402481 0.02450667880475521 0.00409921258687973 0.037782732397317886 -0.08219489455223083 -0.03724503144621849 -0.05927751213312149 -0.004701278638094664 0.13350681960582733 0.04403296113014221 -0.027005231007933617 -0.029210736975073814 0.03607732057571411 0.02645988203585148 0.021604377776384354 -0.017334559932351112 -0.011803972534835339 0.0362272746860981 0.08971787244081497 0.03481907397508621 -0.008121748454868793 -4.545825067907572E-4 -0.1386561393737793 -0.12640830874443054 -0.01183201465755701 0.03063141368329525
