842 100
60 -0.008578555658459663 0.20176969468593597 -0.1732063740491867 -0.047343507409095764 -0.009549091570079327 -0.20210355520248413 0.19113212823867798 0.07616851478815079 -0.1296227127313614 0.03299843519926071 -0.1172417402267456 -0.03420393541455269 0.06859210878610611 -0.03984943404793739 -0.1591658890247345 -0.07475873827934265 0.048910725861787796 0.11810963600873947 0.05790449678897858 -0.06902928650379181 0.166965052485466 -0.013503572903573513 -0.0010508964769542217 0.09255286306142807 0.10860589891672134 0.16330134868621826 0.3924924433231354 0.10054191201925278 0.0591290183365345 0.060467429459095 0.13608066737651825 -0.06615318357944489 0.04269284009933472 -0.18733040988445282 0.08400929719209671 0.15228065848350525 0.09887973219156265 -0.08809500932693481 -0.10400648415088654 0.1362723708152771 0.27614960074424744 0.14553971588611603 -0.20975983142852783 0.014340447261929512 0.07839006185531616 -0.07324086129665375 -0.12119057774543762 0.019623324275016785 -0.07855542004108429 -0.11076945811510086 0.15631693601608276 -0.049693215638399124 0.0702139288187027 0.02014036476612091 -0.22715961933135986 0.1151069924235344 0.03542478755116463 0.1847904473543167 0.09960582107305527 -0.17174772918224335 -0.017092501744627953 0.06994445621967316 -0.061976976692676544 0.004508300218731165 -0.03514574468135834 0.0227863397449255 0.005647735204547644 -0.0484141930937767 -0.0945248156785965 0.026312943547964096 0.22089287638664246 0.10957813262939453 -0.1003812849521637 0.12397191673517227 0.08029267191886902 0.054182544350624084 -0.0916452631354332 -0.039160385727882385 -0.003359573893249035 0.3352663815021515 -0.18048693239688873 -0.018177136778831482 0.2755472958087921 0.11527007073163986 -0.014299554750323296 0.14196769893169403 0.16817866265773773 -0.013198379427194595 0.02919176034629345 0.11744228005409241 0.19387133419513702 -0.05171108618378639 -0.07244783639907837 -0.10403944551944733 0.022161303088068962 -0.10870219022035599 -0.021124161779880524 0.08685270696878433 -0.141044482588768 0.034128159284591675
691 0.035640183836221695 -0.01510483119636774 -0.00662641879171133 -0.006616536062210798 -0.016056334599852562 -0.04431302100419998 0.014686143025755882 -0.0037408089265227318 0.003507019020617008 0.004083079751580954 5.1108532352373E-4 -0.016322020441293716 0.004203344229608774 -0.013546498492360115 -0.0271531380712986 0.016959024593234062 -0.015779443085193634 0.0038610268384218216 0.003092257771641016 0.03150411695241928 -0.007080314215272665 -0.03856629878282547 -0.003940453752875328 0.029754377901554108 8.265376673080027E-4 -2.8687360463663936E-4 0.013943145051598549 -0.010887415148317814 -0.015874771401286125 -0.00420760503038764 0.01710236258804798 -0.012690164148807526 0.01123580802232027 0.021202832460403442 0.01651311293244362 0.0088660828769207 0.021911298856139183 0.0034093854483217 -0.005095936823636293 -2.3448621504940093E-4 0.026006951928138733 0.013378688134253025 0.013826563023030758 0.00644878763705492 0.0015540674794465303 -0.008707182481884956 0.015422808937728405 0.02656904235482216 -0.007765802089124918 -0.002339244121685624 -0.00763330003246665 -0.0037042719777673483 0.010951950214803219 0.013487322255969048 -0.01826636679470539 -5.925949662923813E-4 0.015730392187833786 0.013975010253489017 0.008120754733681679 -0.017891008406877518 0.005659016780555248 5.273536080494523E-4 -0.016593530774116516 -0.014799682423472404 -0.028761180117726326 0.012022529728710651 0.006072592921555042 -1.2005503958789632E-4 0.011729958467185497 0.017645712941884995 0.033051975071430206 0.006395380012691021 0.022327618673443794 0.011881516315042973 0.04079224169254303 -0.003090465674176812 0.013635784387588501 -0.013739567250013351 -0.018075795844197273 0.028528958559036255 0.010603697970509529 -0.024891089648008347 0.00492432527244091 0.01059521920979023 -0.03770631179213524 -0.016448888927698135 9.149377583526075E-4 -0.00329201715067029 0.0018817512318491936 0.03102823719382286 0.02959531918168068 -0.013479352928698063 -0.023217186331748962 -0.003531710710376501 0.010551044717431068 0.021428804844617844 0.008724742569029331 4.1837457683868706E-4 -0.013051568530499935 0.01914305053651333
800 0.008268209174275398 -0.008924680761992931 0.012726676650345325 -0.002014883328229189 0.001333456253632903 -0.0062181842513382435 -0.012021693401038647 -0.006654280703514814 0.0024809769820421934 0.005067401099950075 0.0017427694983780384 0.005885017570108175 0.0027598878368735313 -0.004910476505756378 7.892446592450142E-4 -0.0017533027566969395 0.005559345707297325 -0.012721349485218525 0.008847609162330627 0.005099102854728699 -0.0017510619945824146 -0.01288661826401949 0.0037060831673443317 -0.010065277107059956 -0.0073065306060016155 -3.568786196410656E-4 -0.0177612267434597 -0.003177945502102375 -0.0056597082875669 0.005335288122296333 -0.0055853999219834805 0.019115278497338295 0.002252733800560236 -5.427345167845488E-4 0.003170163370668888 0.001974707003682852 -0.002582745160907507 -0.0010191448964178562 0.01779058948159218 0.009816532954573631 0.003517178585752845 0.006383233703672886 -0.006027278024703264 -0.003198192687705159 -0.001860300311818719 -1.9482758943922818E-4 0.01773783564567566 0.003496759105473757 -0.007778080180287361 -2.772898296825588E-4 -0.01599823497235775 9.007193148136139E-4 -0.0031622883398085833 -0.005698572378605604 -0.010354313999414444 0.001367413904517889 -3.1238188967108727E-4 0.006001932546496391 -0.005674824584275484 7.525694090873003E-4 -0.007635875605046749 -0.0038605444133281708 0.003114105435088277 -3.184174420312047E-4 -0.0015311422757804394 -0.002157454378902912 -0.009218871593475342 -0.003451479133218527 0.007267847657203674 0.002228293800726533 -0.0026047949213534594 -3.3170636743307114E-4 -9.198780171573162E-4 0.0014396518236026168 0.005582847632467747 0.003472665324807167 -0.0052941590547561646 -0.007921498268842697 0.0030756164342164993 0.00678951945155859 -0.006885203532874584 -0.0016574158798903227 -0.0012085610069334507 0.004297101870179176 -0.013504579663276672 0.004894791636615992 -0.006052813492715359 0.003900260431692004 -0.004554529674351215 -0.002165022771805525 0.0020617058034986258 -0.002990925684571266 0.005022494122385979 0.011177659034729004 0.006988706532865763 -0.0016263972502201796 -0.0028685112483799458 -9.868526831269264E-4 0.011298274621367455 0.006786569952964783
458 0.052823517471551895 -0.001679650042206049 -0.05447563901543617 -0.014804491773247719 -0.03867574408650398 -0.06237053498625755 0.06221598759293556 -0.007879910990595818 -0.022605624049901962 -0.021472269669175148 0.006919549778103828 -0.005955695174634457 0.008376998826861382 -0.030332695692777634 -0.019250348210334778 0.025744222104549408 -1.6215708456002176E-4 0.009723118506371975 -0.019741171970963478 0.038975510746240616 -0.0021449928171932697 -0.03272395581007004 0.0014680171152576804 -0.012807060964405537 -7.808973896317184E-4 0.013894953764975071 0.06599737703800201 -0.002803752664476633 2.2499970509670675E-4 0.009761085733771324 0.016558652743697166 -0.003969945479184389 0.0036099161952733994 -0.022840231657028198 0.007349818479269743 0.01586155779659748 -0.005962496157735586 -0.0037436443381011486 0.0206872820854187 0.02128172479569912 0.06211727112531662 0.019088052213191986 -0.020348036661744118 -9.813618380576372E-4 -0.002333453157916665 -0.05245133489370346 0.025121139362454414 -0.0073576318100094795 -0.028886640444397926 -0.06288475543260574 0.014532744884490967 0.04350652918219566 0.06753752380609512 0.0026674792170524597 -0.037268057465553284 0.04298403486609459 0.017810653895139694 0.04663490504026413 -0.023536333814263344 0.005575254559516907 -0.027841629460453987 -0.027179434895515442 -0.026564231142401695 0.009402524679899216 -0.060093849897384644 0.030775563791394234 0.013649925589561462 0.017340941354632378 0.03652348741889 0.04941730946302414 0.07130713015794754 0.05635175108909607 0.021823685616254807 0.03784973546862602 0.05545329302549362 -0.019752226769924164 0.007382826879620552 -0.02107914164662361 0.001919038244523108 0.09367022663354874 -0.015657471492886543 -0.02285923808813095 -2.3656101257074624E-4 0.008302376605570316 -0.013319961726665497 0.030249128118157387 0.05704932287335396 0.011555733159184456 0.006959826219826937 0.07639198750257492 0.06547275930643082 -0.007324249483644962 0.059336110949516296 0.04628697782754898 0.053074147552251816 0.024409743025898933 -0.015395020134747028 0.004304780159145594 -0.04709208011627197 0.01908092387020588
433 -0.09491094201803207 0.11043628305196762 -0.08414816111326218 0.06192611902952194 -0.005261564627289772 -0.10963305085897446 0.10723453760147095 0.01392890140414238 -0.05442825332283974 -0.018872927874326706 0.07695571333169937 0.025126677006483078 -0.02723434381186962 -0.02752739191055298 -0.06277301907539368 0.025797424837946892 -0.053510621190071106 0.032881420105695724 -0.02310325764119625 -0.00833800621330738 0.12941761314868927 0.06870315223932266 0.09088703989982605 0.11812840402126312 -0.0015143046621233225 0.00514395534992218 0.16971372067928314 0.032511211931705475 0.045051537454128265 -0.025876175612211227 0.031213397160172462 -0.11866743862628937 0.014237583614885807 -0.18245108425617218 0.04626533389091492 -0.0828317329287529 0.06682705879211426 0.11516270041465759 -0.03302033245563507 0.06664588302373886 0.15310710668563843 -0.05185401812195778 -0.14047332108020782 0.028854642063379288 -0.002418975345790386 -0.04991869628429413 -0.05264810100197792 -0.08225127309560776 -0.007442947011440992 -0.1363896131515503 -0.036599744111299515 0.058107491582632065 0.17365969717502594 0.042396560311317444 -0.0686383992433548 0.11197103559970856 -0.0020878990180790424 0.11284643411636353 0.04205773398280144 -0.013005395419895649 -0.048356469720602036 0.009345216676592827 -0.030941631644964218 -0.035497963428497314 -0.03881378471851349 -0.05067263916134834 0.06242654472589493 -0.036395732313394547 0.02998107671737671 0.08735713362693787 0.1203782707452774 0.07306544482707977 0.02384342812001705 0.14232757687568665 -0.04506012052297592 0.007570785935968161 -0.034051790833473206 0.07545768469572067 -0.016056790947914124 0.16735094785690308 -0.06227526068687439 -0.08001014590263367 0.07960384339094162 2.6598668773658574E-4 0.03106505610048771 0.02044573426246643 0.0661100372672081 -0.0359620563685894 0.005961029790341854 -0.0939919650554657 0.03404175862669945 -0.11341872066259384 0.10227430611848831 0.014517173171043396 0.06616796553134918 -0.056014079600572586 0.04271802306175232 -0.04074568301439285 -0.08282666653394699 -0.01380101963877678
184 -0.008953775279223919 -0.008914547972381115 -0.2253812551498413 0.3263985216617584 0.23293495178222656 -0.16226083040237427 0.1347953975200653 -0.29404908418655396 -0.296461284160614 -0.24181608855724335 -0.25730401277542114 0.13726164400577545 0.19492603838443756 -0.029158305376768112 -0.11482458561658859 0.035914838314056396 0.05683324486017227 2.789887075778097E-4 0.1304873675107956 0.3696261942386627 0.06828788667917252 0.11328930407762527 0.1335701197385788 -0.20408502221107483 0.07947686314582825 -0.023994456976652145 0.2795700132846832 -0.08052544295787811 0.06320235878229141 -0.14719507098197937 -0.005601671524345875 -0.20813706517219543 -0.2294541299343109 -0.23960378766059875 -0.2936617136001587 0.0327424481511116 -0.29568493366241455 -0.23623080551624298 0.25793981552124023 0.14815403521060944 0.2087174504995346 0.1271393746137619 0.01436567585915327 0.01864830031991005 -0.0882725939154625 -0.257344126701355 0.022387158125638962 -0.019336067140102386 -0.19154119491577148 -0.0032540170941501856 0.5516210794448853 0.6142148971557617 0.25558915734291077 0.01942724548280239 -0.13715898990631104 0.23536916077136993 0.013351427391171455 0.25678372383117676 -0.2944963276386261 0.044463325291872025 -0.1792268604040146 -0.06496822834014893 0.18461455404758453 -0.03394157439470291 0.04878745228052139 0.05962155759334564 -0.041600972414016724 0.34443071484565735 -0.05483168736100197 0.007231163326650858 0.07352305948734283 0.25996750593185425 0.3247729539871216 -0.03322982415556908 0.35502535104751587 -0.01797143742442131 -0.09538135677576065 -0.13079331815242767 0.05668595805764198 -0.07894095033407211 0.19133822619915009 0.06837388873100281 0.06656289845705032 0.11569684743881226 0.126960888504982 0.0058565582148730755 0.28937041759490967 -0.006923453416675329 0.09581758826971054 0.14254559576511383 0.07303529977798462 0.2026967853307724 0.31201329827308655 0.18145327270030975 0.32751792669296265 -0.1683303564786911 0.10524088144302368 -0.1077260747551918 -0.15005359053611755 0.06639627367258072
686 0.054510150104761124 -0.016698751598596573 -0.021535633131861687 0.0034757747780531645 -0.006620311178267002 -0.042455680668354034 0.027951465919613838 -0.007624240592122078 -0.0065119084902107716 -0.02130993828177452 0.012933255173265934 -0.015132447704672813 0.018797291442751884 -0.01978107914328575 -0.02184629999101162 0.03152801841497421 -3.567502717487514E-4 -0.016803892329335213 0.008416232652962208 0.04477117583155632 -0.0015942230820655823 -0.03993610292673111 0.011732886545360088 0.015844885259866714 -0.0031035086140036583 -0.0012483610771596432 0.022819388657808304 -0.016755348071455956 -0.0038331320974975824 -4.896934260614216E-4 0.01730596274137497 -8.415632182732224E-4 8.190970402210951E-5 0.004096298012882471 -3.339065588079393E-4 -0.014384801499545574 0.004832777660340071 -1.1860247468575835E-4 0.01943719945847988 0.0026725917123258114 0.0350838229060173 0.026429040357470512 0.001772701391018927 0.0047889286652207375 -0.015818992629647255 -0.03218817710876465 0.03145186975598335 0.008206876926124096 -0.012465850450098515 -0.019182899966835976 0.0044528888538479805 0.0263214111328125 0.048469509929418564 0.005816447548568249 -0.033170998096466064 0.01944456808269024 0.0023478944785892963 0.03842855989933014 -0.01138056255877018 -0.010284698568284512 -0.034816160798072815 0.011348731815814972 -0.0011128023033961654 -0.005302101839333773 -0.029249807819724083 0.025910157710313797 0.015973148867487907 0.010689166374504566 0.015870416536927223 0.03141278773546219 0.041286151856184006 0.05197839438915253 0.04384122043848038 0.023319900035858154 0.03836044296622276 3.5225696046836674E-4 0.001274065114557743 0.002982411766424775 -0.031261056661605835 0.04557430371642113 0.020220227539539337 -0.031075336039066315 -0.005516253411769867 0.0034090986009687185 -0.014671465381979942 -0.0036846583243459463 0.01284127775579691 0.00378595432266593 -0.023457681760191917 0.027807531878352165 0.05022912845015526 -0.010554201900959015 0.016050372272729874 0.022319458425045013 0.03807085379958153 0.009580266661942005 0.0034137244801968336 -0.007517882157117128 -0.03836439549922943 8.734684670343995E-4
166 -0.2989376485347748 0.009493027813732624 -0.49666258692741394 -0.03926811367273331 0.10070795565843582 0.03474840894341469 0.33267882466316223 -0.25370505452156067 0.1463005095720291 -0.15173804759979248 -0.09856428951025009 0.07306715846061707 -0.2261127084493637 -0.21986649930477142 -0.09868210554122925 0.015449396334588528 0.15078432857990265 0.011308564804494381 -0.004283392336219549 0.1648806631565094 0.019851313903927803 -0.12876299023628235 0.05537812411785126 -0.2409774661064148 -0.14770746231079102 -0.019624881446361542 0.1605023443698883 0.19429782032966614 -0.2084561288356781 -0.31845757365226746 -0.2854471802711487 -0.15909188985824585 0.30792349576950073 -0.11008422821760178 -0.21328330039978027 -0.38542190194129944 0.037364520132541656 -0.043516118079423904 0.0033778944052755833 0.04892166331410408 0.1631428748369217 -0.2710622251033783 0.14795994758605957 0.510845422744751 -0.12369099259376526 -0.3888109028339386 -0.21471163630485535 -0.5132864713668823 0.1200295239686966 -0.46449220180511475 -0.05625502020120621 0.2654000222682953 0.3306843936443329 0.0512261837720871 -0.02202187106013298 0.17774447798728943 0.1357773244380951 -0.12200091779232025 -0.2779703438282013 0.2593766152858734 0.1461186408996582 -0.2789607346057892 0.27397292852401733 -0.234633207321167 -0.2886866629123688 0.06896967440843582 0.3173573315143585 0.20582148432731628 -0.15290479362010956 0.06373057514429092 0.18159547448158264 0.4048733711242676 -0.187849760055542 0.03743250295519829 0.18440142273902893 0.1299639642238617 -0.28615131974220276 0.015761692076921463 -0.3294127881526947 0.012462823651731014 -0.3208543062210083 0.1054486334323883 -0.1738499104976654 -0.08169560879468918 0.045740678906440735 0.10393663495779037 0.232889324426651 0.41209325194358826 -0.1322205364704132 0.0382760614156723 0.18110154569149017 0.13251636922359467 0.30522462725639343 -0.14658471941947937 0.21814148128032684 -0.07694168388843536 -0.13283272087574005 -0.0763857290148735 -0.35925039649009705 -0.1678641140460968
717 -0.005225227214396 0.010085927322506905 -0.028954312205314636 0.006145250517874956 -0.002983083948493004 -0.012865644879639149 0.020277194678783417 -0.012273285537958145 -0.016607630997896194 -0.010253324173390865 0.0039239004254341125 -0.0020757850725203753 -0.016980459913611412 -2.0166378817521036E-4 -0.012295312248170376 3.2121111871674657E-4 -0.009039860218763351 0.00561253447085619 -0.004985381383448839 0.019327286630868912 0.01432223990559578 -0.004494898486882448 0.015766236931085587 0.030604219064116478 0.003267873777076602 -0.0011986785102635622 0.028203701600432396 -8.419268415309489E-4 0.005073109176009893 -0.01285860687494278 0.010288418270647526 -0.037146344780921936 -0.0021504408214241266 -0.014669040217995644 6.841635331511497E-5 -0.012892946600914001 -0.0020313726272433996 0.008311168290674686 -0.004324272740632296 0.019744716584682465 0.010385314002633095 0.005524085834622383 -0.024928422644734383 -0.002788576064631343 0.02194080874323845 -0.012095252051949501 0.010468743741512299 0.004232780076563358 -0.004629181697964668 -0.007472846657037735 -0.006327706854790449 0.005776975303888321 0.02897326461970806 0.015397037379443645 -0.03102204203605652 0.006018148735165596 -0.008335767313838005 0.017273476347327232 -0.008481212891638279 -0.024446751922369003 0.005965806543827057 0.0073148333467543125 -0.014749698340892792 -0.009596276096999645 -0.014737823978066444 -0.009619001299142838 -0.0074331266805529594 0.010277382098138332 -0.011447684839367867 0.023642148822546005 0.020177152007818222 0.013912083581089973 0.0054421192035079 0.01430379319936037 0.016147075220942497 -0.005422941409051418 0.0074644628912210464 0.009593104012310505 5.016240174882114E-4 0.025099359452724457 0.014075729064643383 -0.03577741980552673 0.0067318943329155445 0.013034800067543983 -0.0022255622316151857 0.005196947604417801 6.504817865788937E-4 -0.005979579407721758 -0.010434133931994438 0.0069786435924470425 0.005285636056214571 -0.016288885846734047 -0.010887113399803638 -0.003900662763044238 -0.0035768873058259487 0.013208700343966484 0.004138170275837183 0.001295959809795022 -0.00466022826731205 0.005577136296778917
185 -0.1281963586807251 0.06131107360124588 -0.237620547413826 0.2907652258872986 0.152587428689003 -0.1710624247789383 0.1664106696844101 -0.24359284341335297 -0.33478420972824097 -0.2628198266029358 -0.22994913160800934 0.13493892550468445 0.11887943744659424 0.00871896743774414 -0.07519841939210892 0.010572136379778385 0.11528682708740234 0.09346503764390945 0.11806703358888626 0.29485246539115906 0.059804148972034454 0.14796233177185059 0.08004671335220337 -0.0695742592215538 0.11535508930683136 6.063872715458274E-4 0.4138256013393402 -0.07581783086061478 0.11497620493173599 -0.10259606689214706 -0.0047552864998579025 -0.20107990503311157 -0.2338685840368271 -0.24296920001506805 -0.2509991228580475 0.04649845138192177 -0.2665698826313019 -0.21608707308769226 0.20420174300670624 0.18843619525432587 0.06899675726890564 0.011934942565858364 0.010060638189315796 0.04080181568861008 0.010475588031113148 -0.21479317545890808 -0.04090062528848648 0.06221254914999008 -0.16008026897907257 -0.019950317218899727 0.5325733423233032 0.47643452882766724 0.2989976108074188 0.041536979377269745 -0.10836219042539597 0.146892711520195 -0.018555764108896255 0.23426087200641632 -0.24736648797988892 0.0682060569524765 -0.050956543534994125 -0.07382800430059433 0.08219261467456818 -0.11308054625988007 0.061340250074863434 -0.01969328336417675 -0.11820497363805771 0.33928531408309937 -0.10129541158676147 0.039783187210559845 0.11111809313297272 0.24282599985599518 0.2483913004398346 0.010155199095606804 0.3342263400554657 -0.06134359538555145 -0.15279436111450195 -0.10181038826704025 0.10499922186136246 -0.0615769661962986 0.14422161877155304 0.10352262854576111 0.0635727047920227 0.1316167712211609 0.11982905864715576 0.020013965666294098 0.24930918216705322 0.01638416387140751 0.05106259509921074 0.12239331752061844 0.11240626871585846 0.1338808387517929 0.2915961742401123 0.15734878182411194 0.2790674567222595 -0.07983388006687164 0.117645263671875 -0.025012243539094925 -0.14109885692596436 0.10457117110490799
34 -0.1349370777606964 0.18918976187705994 -0.026795942336320877 0.12316115200519562 0.020322320982813835 -0.09349104017019272 0.09881733357906342 0.006520347204059362 -0.08349590748548508 0.09987130016088486 -0.07149399071931839 0.06853565573692322 0.10455254465341568 0.06530486047267914 -0.07880105823278427 -0.11109175533056259 0.01829995959997177 0.14008738100528717 0.04210377112030983 -0.023296745494008064 0.16518384218215942 -0.010689658112823963 0.020174570381641388 0.018980909138917923 0.037189461290836334 0.1497233659029007 0.20495186746120453 0.16920702159404755 0.029639460146427155 0.04240678250789642 0.10014219582080841 -0.06906948238611221 0.022143561393022537 -0.24259817600250244 0.1125168427824974 5.473754717968404E-4 0.08868397772312164 -0.011369170621037483 -0.1486678123474121 0.09592439979314804 0.2913547158241272 0.049116261303424835 -0.103362075984478 -0.005961897782981396 -0.010238475166261196 -0.09052852541208267 -0.06389740854501724 -0.08228271454572678 -0.20009703934192657 -0.07475363463163376 0.009088970720767975 -0.029329786077141762 0.09850391000509262 0.032795485109090805 -0.1402311623096466 0.1356276422739029 0.07305676490068436 0.15079393982887268 0.14679889380931854 -0.11836640536785126 0.09176920354366302 -0.006095574237406254 0.082818903028965 -0.040212757885456085 -0.045068129897117615 -0.14027021825313568 0.07177785038948059 -0.11978834122419357 -0.08231457322835922 -0.05909765884280205 0.24601781368255615 0.022282157093286514 -0.1204686388373375 0.0990150198340416 0.015716109424829483 0.022511329501867294 -0.07364396005868912 -0.12944312393665314 0.12242656946182251 0.3451024889945984 -0.23306095600128174 -0.06558218598365784 0.25196802616119385 0.21563853323459625 -0.09447339922189713 0.14046917855739594 0.1624581217765808 -0.14800716936588287 0.08930407464504242 0.13259156048297882 0.23938746750354767 -0.0972338393330574 -0.1832387000322342 0.008460325188934803 0.12515921890735626 -0.07421354949474335 0.007418225985020399 -0.018894042819738388 -0.11696875095367432 0.17551127076148987
645 -0.03100300207734108 2.3952577612362802E-4 -0.06388863921165466 -0.009743806906044483 0.011408629827201366 -0.009402461349964142 0.045177821069955826 -0.030527915805578232 0.040406908839941025 -0.0254356786608696 -0.006440691649913788 0.0026450948789715767 -0.03905158117413521 -0.024648161605000496 -0.03783927857875824 0.011699222959578037 0.016467686742544174 0.006103211082518101 0.01508555468171835 0.020698491483926773 0.01727987267076969 -0.01641744375228882 0.008384288288652897 -0.029351450502872467 -0.019245140254497528 -0.0011390746803954244 0.006490932311862707 0.022210869938135147 -0.02452983520925045 -0.04628950357437134 -0.06323857605457306 -0.029485711827874184 0.04932467266917229 -0.019101403653621674 -0.03267832100391388 -0.07519654184579849 0.007528375368565321 0.010567559860646725 0.017025403678417206 0.013274664990603924 0.013776357285678387 -0.041857656091451645 0.021184751763939857 0.08187009394168854 -0.029828613623976707 -0.05038673058152199 -0.02358858659863472 -0.08755761384963989 0.04094485566020012 -0.05855417624115944 -0.01448898483067751 0.024174975231289864 0.06153737008571625 0.004786109551787376 -0.007751318160444498 0.025798803195357323 0.019791901111602783 -0.016153259202837944 -0.04356472194194794 0.03983874246478081 0.026805896311998367 -0.03147158399224281 0.044161830097436905 -0.04508916288614273 -0.026274094358086586 0.0241301991045475 0.0512741282582283 0.02375241182744503 -0.022633681073784828 0.020757324993610382 0.00813572108745575 0.06828667223453522 -0.020068006590008736 0.017997540533542633 0.021921491250395775 0.02228339947760105 -0.0613502599298954 0.02346600778400898 -0.05949404835700989 -0.022179115563631058 -0.022696547210216522 0.027085332199931145 -0.024075884371995926 -0.01828911155462265 0.02376585826277733 -0.00853458046913147 0.039286088198423386 0.05077943578362465 -0.031908147037029266 -0.03559369593858719 0.013310878537595272 0.020561644807457924 0.06707900017499924 -0.02342045120894909 0.03560570999979973 -0.021058155223727226 -0.0023498553782701492 -0.011915468610823154 -0.06315402686595917 -0.03234357759356499
142 -0.742397665977478 -0.16308417916297913 0.14296020567417145 -0.013500590808689594 0.019088327884674072 -0.11137503385543823 0.018498651683330536 -0.12426415830850601 -0.023740997537970543 0.03992395102977753 0.0786043182015419 -0.0491383820772171 0.01073260884732008 0.03901161625981331 0.09590902924537659 -0.060871098190546036 0.19805359840393066 0.122237429022789 0.09746161103248596 -0.0980738177895546 -0.04007028788328171 -0.11831546574831009 -0.11510937660932541 -0.0405266210436821 0.012691497802734375 0.060415737330913544 0.20830616354942322 0.024349253624677658 0.1426941156387329 0.12276755273342133 0.025828752666711807 0.07226294279098511 0.006269295699894428 -0.17928318679332733 0.06888751685619354 -0.1159631609916687 -0.016176605597138405 0.02702062763273716 -0.016829103231430054 -0.08071760088205338 0.11580167710781097 -0.09426409751176834 0.1792116016149521 -0.08618081361055374 -0.07335664331912994 -0.11500677466392517 -0.1710377335548401 0.19277136027812958 -0.22641120851039886 -0.2598550319671631 -0.11134003102779388 -0.08414051681756973 0.099501833319664 -0.20220224559307098 -0.047668419778347015 0.12676668167114258 0.06481119990348816 -0.015279273502528667 -0.03217864781618118 0.00535530736669898 0.2445107400417328 -0.10298729687929153 -0.04778235778212547 -0.1971730887889862 -0.32566505670547485 -0.0776759535074234 -0.10457274317741394 -0.14702722430229187 0.06244787946343422 0.07333395630121231 0.08907807618379593 0.002733797300606966 -0.008000127971172333 0.15912991762161255 0.29587945342063904 -0.02215966023504734 -0.09364728629589081 -0.30594831705093384 0.3489168882369995 0.26979246735572815 -0.27458110451698303 -0.05434880033135414 0.01600959710776806 0.15825185179710388 -0.29316189885139465 0.15975971519947052 0.24540096521377563 -0.22265644371509552 0.014527697116136551 0.11122986674308777 0.09453044831752777 0.30690786242485046 0.09503438323736191 0.427136093378067 0.31327831745147705 0.14847467839717865 -0.21499252319335938 -0.10273496061563492 0.05442718788981438 0.36505571007728577
940 0.0026446834672242403 0.0018759594531729817 -0.0029238879214972258 0.005040792282670736 -0.0022978601045906544 -0.0037908104714006186 0.010470510460436344 0.004158533178269863 -8.442943217232823E-4 3.4912797855213284E-4 0.003469241550192237 -0.0013714341912418604 0.006829085294157267 0.0031582831870764494 8.393750176765025E-4 -0.0029995266813784838 0.006199078634381294 0.0036909054033458233 0.003893509041517973 0.005074846558272839 -0.007983825169503689 -0.00827792752534151 0.001527710584923625 -0.0023289634846150875 0.004897772334516048 2.3393267474602908E-4 -0.0035761359613388777 0.0010636806255206466 4.6448729699477553E-4 0.009328647516667843 0.002132635796442628 -0.0066473279148340225 0.0013249723706394434 -0.005336502566933632 -0.0012005252065137029 -0.0054277353920042515 0.0025697415694594383 -0.0014364290982484818 -0.007492659613490105 -0.0028924711514264345 0.0016804401529952884 -0.0017593795200809836 0.001284478115849197 -0.0014313003048300743 -0.0019808406941592693 -0.014267627149820328 -0.0039588408544659615 -0.007996148429811 -0.004353049211204052 2.909507311414927E-4 0.004406036343425512 1.6628879529889673E-4 0.014016781002283096 0.0028114723972976208 2.2286245075520128E-4 0.006294545251876116 -8.355185855180025E-5 0.0028125676326453686 0.005394474137574434 -0.0048926579765975475 0.003883198369294405 -0.002191181993111968 0.002924637869000435 0.0012297072680667043 -0.005914716981351376 0.0026618288829922676 0.004273248370736837 7.405724609270692E-4 0.002607928356155753 0.004703458398580551 0.006872986443340778 0.015131310559809208 -0.0071053272113204 0.006707345135509968 -0.002493608044460416 0.0011518956162035465 0.002522070426493883 0.002881821244955063 -3.230939619243145E-4 0.004064525943249464 -0.0050354162231087685 0.0017856372287496924 0.003013629699125886 0.004521938506513834 0.0043428330682218075 0.007369586732238531 0.0017856770427897573 -0.0034053323324769735 -0.004064204171299934 0.003248899709433317 0.008195387199521065 -3.0979543225839734E-4 -0.0013315490214154124 -0.0038716704584658146 0.013175743632018566 9.750924073159695E-4 5.101760616526008E-4 -0.002186120254918933 0.0011215098202228546 -0.0016086319228634238
268 0.04663395509123802 0.04283544421195984 -0.07384403049945831 0.007649173494428396 -0.1594671607017517 -0.17245826125144958 0.11484233289957047 -0.03890163078904152 -0.08361171931028366 -0.11002550274133682 0.05890235677361488 -0.08173607289791107 -0.07046878337860107 -0.06021279841661453 -0.09923946112394333 0.057538483291864395 -0.05551370605826378 -0.04749458655714989 -0.09802208840847015 0.11325500160455704 0.16308477520942688 -0.06684708595275879 0.12505850195884705 0.20004911720752716 -0.004635861609131098 -0.014582769945263863 0.14158320426940918 -0.06564860045909882 0.0700889602303505 -0.10065936297178268 0.09012120217084885 -0.233468696475029 -0.03744213283061981 -0.09784230589866638 0.0691559910774231 -0.0375821627676487 0.01569201983511448 0.13606150448322296 -0.08966738730669022 0.10993903875350952 0.17154604196548462 0.019316721707582474 -0.19599099457263947 0.0074411313980817795 0.15060602128505707 -0.02810695953667164 0.12106528878211975 0.038343820720911026 0.053788550198078156 -0.16272324323654175 -0.024343494325876236 0.08160910755395889 0.12214357405900955 0.11841314285993576 -0.18153633177280426 0.06640144437551498 -0.045046400278806686 0.1461513787508011 -0.04536985233426094 -0.169925719499588 -0.08389576524496078 0.0409369058907032 -0.09908218681812286 -0.0043706875294446945 -0.12713149189949036 0.02578982710838318 -0.029719512909650803 0.058189813047647476 0.02353036403656006 0.21045765280723572 0.07050169259309769 0.024145066738128662 0.0365346297621727 0.17105092108249664 0.0827362909913063 0.0156681127846241 0.08271611481904984 0.0794840008020401 -0.02081630378961563 0.23551993072032928 0.07958944886922836 -0.2895030379295349 0.11322011053562164 -0.012409405782818794 -0.13151860237121582 -0.006584244314581156 -0.05107172578573227 0.011737581342458725 0.041090160608291626 -0.06213243305683136 0.08969689905643463 -0.17041005194187164 -0.07010650634765625 0.1037854328751564 -0.024613305926322937 0.029433205723762512 -0.004712223540991545 -0.08041148632764816 -0.06919755786657333 4.848498501814902E-4
69 -0.07878178358078003 0.1252453625202179 -0.1053406372666359 0.0909658744931221 0.04691171273589134 -0.09811393171548843 0.12431108951568604 0.016902264207601547 -0.0870572179555893 0.08148684352636337 -0.08614692091941833 0.06111753731966019 0.11732066422700882 0.03997189551591873 -0.10851351916790009 -0.025418465957045555 0.02254520170390606 0.10436620563268661 -0.007058313582092524 -0.024571450427174568 0.14300134778022766 0.027696674689650536 0.018597383052110672 1.8235962488688529E-4 0.05283563584089279 0.14019837975502014 0.24671676754951477 0.13249751925468445 0.05189752206206322 0.007098129950463772 0.022005844861268997 -0.05593792721629143 0.03731560707092285 -0.23008598387241364 0.0397784486413002 0.04151642695069313 0.025953272357583046 -0.11222394555807114 -0.0819617509841919 0.11458957195281982 0.20380032062530518 0.05323728173971176 -0.1088000014424324 0.04696591943502426 -0.06027751415967941 -0.13862545788288116 -0.09942375123500824 -0.10052061080932617 -0.17039722204208374 -0.1435791403055191 0.11244834959506989 0.07877154648303986 0.16204512119293213 0.03162837028503418 -0.1007990911602974 0.10082291811704636 0.02860688976943493 0.11372552067041397 0.048868175595998764 -0.04907899722456932 0.04296938329935074 -0.005951056256890297 0.12861812114715576 -0.02954494208097458 -0.03082328848540783 -0.056256964802742004 0.014802943915128708 -0.0034338021650910378 -0.09591753780841827 -0.060583360493183136 0.2871682345867157 0.155648335814476 -0.09806384146213531 0.05124391242861748 0.06310105323791504 0.022819658741354942 -0.11895482987165451 -0.07401798665523529 0.07970219850540161 0.29328203201293945 -0.27345308661460876 0.014917600899934769 0.212478905916214 0.22495384514331818 0.045603491365909576 0.14252518117427826 0.22579240798950195 -0.14371371269226074 -0.004373510368168354 0.21935845911502838 0.29569289088249207 -0.043670639395713806 -0.046207088977098465 0.036059509962797165 0.1579524278640747 -0.11966929584741592 -0.0125278877094388 -0.016231302171945572 -0.18333299458026886 0.05423272028565407
487 0.010885540395975113 0.00672315526753664 -0.046923357993364334 -0.029707422479987144 0.01265034545212984 -0.02970840036869049 0.04446453973650932 0.005534841679036617 -0.037666164338588715 0.018950868397951126 0.03833534196019173 -0.020118873566389084 -0.01713748462498188 -0.0025477763265371323 -0.02295086160302162 0.03782205656170845 0.036530446261167526 -0.005055492743849754 0.01906600594520569 0.016155922785401344 -0.04585433006286621 -0.005254849791526794 -0.001197258592583239 0.02399887703359127 0.01573399268090725 8.924410212785006E-4 0.05606323853135109 -0.0018925935728475451 0.0021622623316943645 0.007072152569890022 0.06708930432796478 -1.822971971705556E-4 -0.014484042301774025 0.012166035361588001 -0.0025849316734820604 0.034168291836977005 0.031887464225292206 0.001040154485963285 0.014433168806135654 -0.03725523501634598 0.011636693961918354 0.026616211980581284 -0.039469487965106964 -0.03276193141937256 -0.009335312061011791 -0.012711889110505581 -0.018086303025484085 0.03073272854089737 -0.015563283115625381 -0.012199162505567074 0.006797034293413162 0.020453419536352158 0.025114156305789948 0.03275499492883682 -0.052970144897699356 0.031980328261852264 -0.012727566063404083 0.032709620893001556 -0.020671255886554718 -0.01719999685883522 -0.016809258610010147 0.024057136848568916 -0.04045119509100914 -7.828859379515052E-4 -0.031492847949266434 -0.024642005562782288 0.003704061731696129 -0.005844410974532366 -0.010972900316119194 0.03434567525982857 0.04052722454071045 0.020343085750937462 0.039866894483566284 0.008467938750982285 0.04126038774847984 -0.024025648832321167 0.025430994108319283 -0.026363322511315346 -9.056193084688857E-5 0.07656688988208771 -0.03405280411243439 -0.044756948947906494 0.01874634437263012 0.03639983385801315 -0.007932123728096485 0.018956569954752922 0.03820333629846573 -0.0028375019319355488 -0.015323123894631863 0.07870103418827057 0.010305938310921192 -0.017666583880782127 0.004724379163235426 1.8020905554294586E-4 0.021442143246531487 0.055043864995241165 -0.005607279017567635 0.010021834634244442 0.02871513180434704 0.0258167814463377
572 0.002319673541933298 0.024372750893235207 -0.027727775275707245 0.03025064803659916 0.00988764688372612 -0.016688687726855278 0.02331731840968132 -0.02243754453957081 -0.026123344898223877 -0.02179090306162834 -0.014321054331958294 0.015207589603960514 0.0069419024512171745 -0.011432759463787079 -0.0044190832413733006 -0.00905534252524376 0.01623416692018509 -0.004136421252042055 0.013919896446168423 0.01336747407913208 0.00188085762783885 -0.004011265933513641 0.020206136628985405 -0.030666016042232513 0.003754993202164769 0.0019151184242218733 0.010944819077849388 0.003510085865855217 -0.011336926370859146 -0.007481403183192015 0.007556854747235775 -0.002988046733662486 -0.00671368557959795 -0.029283463954925537 -0.014034908264875412 -0.015214886516332626 -0.008862381801009178 -0.0019087442196905613 -0.004422471392899752 0.009130124934017658 0.028742710128426552 -0.002009378047659993 0.003486491972580552 -0.007147491443902254 -0.014195944182574749 -0.03543021157383919 -0.0034281089901924133 -0.02868083491921425 -0.014829973690211773 -0.003803774481639266 0.002778326626867056 0.03306524455547333 0.018816621974110603 0.0034580500796437263 -0.010496173985302448 0.03171263262629509 0.005434720311313868 0.025149883702397346 -0.002498038113117218 -0.004737085197120905 -0.001931045320816338 -0.022182641550898552 0.009671425446867943 -0.02033170685172081 -0.02075720764696598 -0.0042379205115139484 0.01551302894949913 0.009517095983028412 -0.0013081772485747933 0.022082587704062462 0.026937099173665047 0.008644040673971176 0.011532149277627468 0.004993715789169073 0.0157563928514719 0.01287864614278078 -0.010940625332295895 -0.018938375636935234 -0.0038420078344643116 0.02257499285042286 0.003665832569822669 -0.010010354220867157 -0.004577192943543196 -0.002486338373273611 -0.011484557762742043 0.010608956217765808 0.01967858523130417 0.01610449329018593 0.006364715285599232 0.008339954540133476 0.013751709833741188 -7.969358703121543E-4 0.014872211031615734 -0.00702352449297905 0.020691746845841408 -0.001699106185697019 0.004563530907034874 -0.007714459206908941 -0.006314901169389486 0.010585838928818703
666 -0.004923613741993904 -0.0032684768084436655 0.001962333219125867 -0.0011629584478214383 -7.11992965079844E-4 -0.002090898109599948 0.00481760036200285 -6.264016265049577E-4 1.6484022489748895E-4 -6.955540156923234E-4 -0.003262512618675828 0.00468217208981514 -0.0011363453231751919 0.00294529739767313 0.004964698571711779 -0.0011731126578524709 0.003987408243119717 -0.0021192918065935373 7.373184198513627E-4 -0.0038824868388473988 -0.001520094578154385 0.0018721234519034624 -1.7000705702230334E-4 0.0028377503622323275 -3.600895433919504E-5 8.061277912929654E-4 -6.295376806519926E-4 4.788380756508559E-4 0.0033949052449315786 -0.0010835587745532393 0.0032577950041741133 0.0021375787910073996 0.0038480223156511784 0.004096695687621832 0.003274647518992424 -3.339785325806588E-4 0.0017023426480591297 0.004735446069389582 -0.002092371229082346 -0.004120020195841789 0.0012843268923461437 -2.5106369866989553E-4 -0.0046348790638148785 0.00469573400914669 0.0012652111472561955 0.0029721332248300314 0.0028488016687333584 0.0025688481982797384 0.002689042128622532 0.0033330898731946945 0.003571635577827692 -0.0016146731795743108 0.0046772402711212635 1.9325673929415643E-4 -0.0028778782580047846 -1.9422173500061035E-4 5.347842234186828E-4 0.0012437188997864723 -0.0018135654972866178 0.004655186086893082 0.0035692108795046806 -0.0023030105512589216 0.00430360296741128 -0.0016576653579249978 0.001745216897688806 -0.0040871198289096355 0.00492333946749568 -0.0027696150355041027 7.355493144132197E-4 0.004247893113642931 0.004586258437484503 0.0026161582209169865 -0.002658919198438525 0.002802991308271885 -0.0032602502033114433 0.0043528382666409016 5.735135055147111E-4 -0.0034785920288413763 -0.0013092068256810308 -0.00498525844886899 0.0015188336838036776 0.0014951360644772649 5.147194606252015E-4 0.0035356844309717417 -0.002394893439486623 0.004308012779802084 0.004808600060641766 -0.0027080115396529436 0.003669219557195902 -0.0025956842582672834 -0.004881066270172596 -2.42241017986089E-4 -0.0030378419905900955 -0.0020709612872451544 -0.004136744886636734 -0.00204026373103261 0.0034089309629052877 0.0017691535176709294 -9.389427141286433E-4 0.002313346369192004
30 -0.07285574823617935 -0.13890999555587769 -0.19578006863594055 -0.23241527378559113 -0.01818007230758667 0.2099532037973404 0.06835170835256577 -0.09648993611335754 0.24926365911960602 0.2089110016822815 0.1681772917509079 0.12817904353141785 0.04653575271368027 0.08502297848463058 0.12750770151615143 0.11295595020055771 0.09380496293306351 0.2216103971004486 0.06133304908871651 0.06240140646696091 -0.0011231921380385756 -0.2610635459423065 0.026562081649899483 -0.0990995466709137 -0.20936690270900726 -0.004272010177373886 0.16897176206111908 0.2403869479894638 -0.09265866130590439 -0.009184898808598518 -0.2357698231935501 0.10076874494552612 0.09676003456115723 -0.054061368107795715 -0.07363247126340866 -0.19633160531520844 -0.04869234561920166 0.09956149756908417 0.07846395671367645 0.04050910100340843 0.288623571395874 -0.2776498794555664 0.0439373254776001 0.23894111812114716 -0.03570123761892319 -0.3123260736465454 -0.10716952383518219 -0.22395049035549164 -0.38946157693862915 -0.2847576439380646 -0.08939631283283234 -0.008809769526124 0.3119434416294098 0.09335389733314514 -0.027475427836179733 0.09051823616027832 0.19137515127658844 -0.194756418466568 -0.15556679666042328 0.13294090330600739 0.12373321503400803 0.01514255627989769 -0.10369527339935303 -0.07494458556175232 -0.15314075350761414 -0.1021958440542221 0.31408998370170593 -0.08896012604236603 -0.040465857833623886 -0.02673238515853882 0.06895951926708221 0.2985342741012573 -0.12734316289424896 0.036760203540325165 0.07185957580804825 -0.04095523804426193 -0.10778480023145676 0.09082306921482086 0.04662500321865082 0.045295488089323044 -0.26818186044692993 0.16519694030284882 -0.23962844908237457 -0.02218916267156601 -0.002903430489823222 0.19828462600708008 0.10490778833627701 -0.0011247314978390932 -0.03853030502796173 0.2739623486995697 0.3517113924026489 -0.054252080619335175 0.18307463824748993 0.15373454988002777 0.07639212906360626 0.2799757421016693 0.15143349766731262 0.1997479647397995 -0.4490104615688324 0.1223231703042984
677 -0.0014860407682135701 0.0037313809152692556 -0.032189320772886276 0.004277197644114494 -0.023781800642609596 -0.04817947745323181 0.044038742780685425 -0.013949651271104813 -0.013799776323139668 -0.019070230424404144 0.011211715638637543 -0.009940951131284237 -0.008954041637480259 -0.012197460047900677 -0.020328853279352188 0.017816979438066483 -0.02009330317378044 0.005941068287938833 -0.005549382884055376 0.04307056963443756 0.03607160970568657 -0.022393502295017242 0.017766093835234642 0.04999464377760887 -0.01633836142718792 0.005280645564198494 0.05024869740009308 -0.0067413984797894955 0.0037942808121442795 -0.018929481506347656 0.010598316788673401 -0.035838864743709564 0.005917272064834833 -0.018356844782829285 0.015591885894536972 -0.012077298015356064 0.016159065067768097 0.02117653749883175 0.005830569192767143 0.025773363187909126 0.04361211135983467 0.007438213098794222 -0.034938082098960876 0.01741291768848896 0.016916189342737198 -0.018657192587852478 0.018170945346355438 -0.00350741995498538 -0.003702887101098895 -0.04814404994249344 -0.007992250844836235 0.011407295241951942 0.047566670924425125 0.018476411700248718 -0.03895451873540878 0.022129522636532784 0.0013398620067164302 0.020277943462133408 -0.009894662536680698 -0.007807735353708267 -0.009529078379273415 0.00341214332729578 -0.015077334828674793 -0.0187855064868927 -0.03198431432247162 -0.0025520725175738335 0.005205647554248571 8.101636776700616E-4 0.008895724080502987 0.02816825732588768 0.03351445496082306 0.019200263544917107 0.011271044611930847 0.03809075430035591 0.022998332977294922 0.006429779343307018 -0.0013694101944565773 0.015824489295482635 -0.015124875120818615 0.05389300733804703 -0.008331621065735817 -0.042731668800115585 0.014895554631948471 0.004370908252894878 -0.030685091391205788 0.001118059502914548 0.005339363589882851 -0.00247988011687994 -0.003580839838832617 -0.0075898063369095325 0.039936307817697525 -0.02346852235496044 -0.005898918956518173 0.016790006309747696 0.01528580766171217 0.011730695143342018 0.015366104431450367 -0.0012312288163229823 -0.038030851632356644 0.007979716174304485
482 0.044332630932331085 -0.014271566644310951 -0.0379265658557415 0.010508530773222446 -0.03602355346083641 -0.06401718407869339 0.0370987243950367 -0.04355053976178169 -0.023319724947214127 -0.05635528266429901 0.011024273931980133 -0.04607180133461952 -0.040374506264925 -0.028159797191619873 -0.051478058099746704 0.059760820120573044 -0.005074875429272652 -0.003752665827050805 -0.026829460635781288 0.048111170530319214 0.052153609693050385 -0.02854970283806324 0.06397552788257599 0.09866199642419815 -0.00794179830700159 0.01585831306874752 0.07598116993904114 -0.03196949511766434 0.037734098732471466 -0.06705562770366669 0.04212675243616104 -0.10502955317497253 -0.007408778183162212 -0.03213005140423775 0.018194252625107765 -0.028767036274075508 0.011772858910262585 0.024741919711232185 -0.00606840243563056 0.052543606609106064 0.06883080303668976 0.04454738274216652 -0.07274448126554489 0.0277880746871233 0.05716145038604736 -0.025684215128421783 0.032326601445674896 0.04375038295984268 -0.014974969439208508 -0.09132585674524307 -6.492985994555056E-4 0.061663947999477386 0.06811200082302094 0.054911985993385315 -0.10456310957670212 0.010072900913655758 -0.03344574570655823 0.06129202991724014 -0.052188754081726074 -0.048068393021821976 -0.027144601568579674 0.02236073836684227 -0.03904564306139946 -0.030077356845140457 -0.052547637373209 0.014863807708024979 -0.00682071503251791 0.05385724455118179 -0.0053886184468865395 0.09490130096673965 0.012054645456373692 0.03222423419356346 0.035019539296627045 0.029014699161052704 0.05946892127394676 -0.006990492809563875 0.013023830950260162 0.02897574007511139 -0.005176756996661425 0.1131022721529007 0.00426061125472188 -0.08248794823884964 0.04254884272813797 0.04337753355503082 -0.046684134751558304 0.031786758452653885 -7.54289940232411E-5 0.03352992981672287 0.020365048199892044 0.03147862106561661 0.061251312494277954 -0.03942667692899704 -0.03331761062145233 0.059441350400447845 0.016201280057430267 0.02204105630517006 -0.0032950397580862045 -0.024603789672255516 -0.06505425274372101 -0.0017412060406059027
662 -0.009728772565722466 0.0255755428224802 -0.09020071476697922 0.05049827694892883 -0.030111810192465782 -0.06756007671356201 0.0854254961013794 -0.05853336676955223 -0.025552799925208092 -0.06565991789102554 0.001073362655006349 -9.354283683933318E-4 -0.035595741122961044 -0.04790988191962242 -0.04850547015666962 0.016285166144371033 -0.002218681387603283 0.03630402311682701 0.008759983815252781 0.06508281826972961 0.04952000081539154 -0.022939948365092278 0.05761229991912842 0.07280097901821136 -0.02552761696279049 -0.012937351129949093 0.0890178382396698 0.00928142387419939 0.004330165218561888 -0.047080930322408676 0.011353102512657642 -0.11617381125688553 -0.003288285806775093 -0.05059203878045082 -0.0013143543619662523 -0.06490570306777954 0.02119850553572178 0.04948579892516136 -0.004172517452389002 0.06548627465963364 0.07545411586761475 -0.013304472900927067 -0.052008725702762604 0.03889220580458641 0.051902640610933304 -0.07146292924880981 -0.00298768631182611 -0.03233370929956436 -0.01208676490932703 -0.08539910614490509 -0.0027563890907913446 0.049250658601522446 0.11680883914232254 0.056644290685653687 -0.10793393105268478 0.052315980195999146 0.0024699533823877573 0.06302332878112793 -0.05154119431972504 -0.05741189047694206 0.0038936103228479624 0.019132712855935097 -0.04237598553299904 -0.061924345791339874 -0.07347669452428818 -0.018021216616034508 0.019329313188791275 0.03636402636766434 -0.025145163759589195 0.09314295649528503 0.047332800924777985 0.04710741713643074 0.01938777044415474 0.057312142103910446 0.05637979134917259 0.0037103004287928343 -0.012065907008945942 0.038922104984521866 -0.012457664124667645 0.0875382050871849 0.019821656867861748 -0.06825371086597443 0.015700431540608406 -0.006824424024671316 -0.03986317291855812 0.017424022778868675 0.021056370809674263 0.023594524711370468 7.486862596124411E-4 0.0018626475939527154 0.03897079452872276 -0.04445180669426918 0.007699933834373951 0.0033237356692552567 0.012969517149031162 0.03557468578219414 0.024293793365359306 -0.003177121514454484 -0.07310207933187485 0.031406957656145096
375 -0.008525367826223373 -0.008927649818360806 -0.07217960804700851 0.0013657155213877559 -0.025417529046535492 -0.11070014536380768 0.08560655266046524 -0.05951114371418953 -0.019928177818655968 -0.05498657748103142 0.01989413984119892 -0.016108036041259766 -0.12094060331583023 0.02836548537015915 -0.11012665182352066 0.05588395893573761 -0.039068952202796936 0.06743316352367401 0.008098224177956581 0.08913169056177139 0.13833026587963104 -0.011515384539961815 0.05913182348012924 0.16342145204544067 0.017281295731663704 0.06380044668912888 0.12393716722726822 0.002723761135712266 0.04472991079092026 -0.06065443530678749 0.05376596376299858 -0.17988604307174683 0.002386975334957242 -0.08113006502389908 0.09307562559843063 -0.0799521803855896 0.05337578058242798 0.06912129372358322 0.01227781642228365 0.12829147279262543 0.11724721640348434 0.07181238383054733 -0.13408006727695465 0.037363119423389435 0.05545728653669357 -0.016222849488258362 0.053660787642002106 0.0105959577485919 -0.03401923552155495 -0.11748749017715454 -0.0704595148563385 0.003343446645885706 0.13598494231700897 0.053729161620140076 -0.19068942964076996 -0.009000841528177261 -0.05480383709073067 0.12694978713989258 -0.008332897908985615 -0.049760300666093826 0.0449063703417778 0.021724238991737366 -0.03700553998351097 -0.0787922814488411 -0.0653982013463974 -0.034862689673900604 -0.03119957074522972 0.003525742795318365 0.014767377637326717 0.07544556260108948 0.052111200988292694 0.020196856930851936 0.02834571711719036 0.08687172830104828 0.04193561524152756 -0.05067269876599312 0.012041481211781502 0.0068961018696427345 0.03390958160161972 0.18313585221767426 -0.025189323350787163 -0.12055430561304092 0.0676790326833725 0.15151268243789673 -0.11476626992225647 0.02897123247385025 0.05647701770067215 -8.377804770134389E-4 0.026122447103261948 0.008161735720932484 0.06871627271175385 -0.05575009062886238 -0.07738353312015533 0.02763025276362896 0.014173513278365135 0.06170258671045303 0.018634773790836334 0.023726413026452065 -0.05774402245879173 0.07444022595882416
186 -0.08288589864969254 -0.05070950463414192 -0.12182390689849854 0.2235577255487442 0.15708601474761963 -0.08787249773740768 0.046487633138895035 -0.26490309834480286 -0.2620927393436432 -0.2376171201467514 -0.13460947573184967 0.0887303575873375 0.09272617101669312 -0.004886670503765345 -0.05072067305445671 0.09941431879997253 4.112909664399922E-4 -0.023566123098134995 0.050097063183784485 0.23607194423675537 0.03920150175690651 0.12379031628370285 0.15945672988891602 -0.1256663054227829 0.037019167095422745 -0.07073253393173218 0.20873478055000305 -0.11964476853609085 0.1010468453168869 -0.18255476653575897 -0.088508740067482 -0.2321350872516632 -0.26325833797454834 -0.23260527849197388 -0.24343787133693695 -0.024025611579418182 -0.28294214606285095 -0.1335083693265915 0.19464024901390076 0.22384867072105408 0.14873741567134857 0.019546126946806908 -0.06984583288431168 0.057115331292152405 -0.05586179718375206 -0.22762440145015717 0.0435587614774704 -0.04319552332162857 -0.15688160061836243 -0.033359963446855545 0.39630451798439026 0.5436097979545593 0.3069973289966583 0.08373358100652695 -0.010508400388062 0.18504764139652252 0.012172042392194271 0.20817416906356812 -0.23296678066253662 0.03749578818678856 -0.13601060211658478 -0.10450493544340134 0.08869002759456635 -0.0780714675784111 0.04922940582036972 0.027480976656079292 -0.11177563667297363 0.35007816553115845 -0.045600470155477524 0.09830639511346817 0.05219972878694534 0.24975666403770447 0.28884080052375793 0.012297193519771099 0.312514066696167 -0.09527110308408737 -0.0657191202044487 -0.09930974245071411 0.08598803728818893 -0.08352034538984299 0.16522647440433502 0.014522329904139042 -0.011235238052904606 0.08323723822832108 0.11740429699420929 0.016269518062472343 0.24210304021835327 -0.001858272822573781 0.12056252360343933 0.12813465297222137 0.006686794571578503 0.10243488103151321 0.3379330635070801 0.2945554256439209 0.2646995484828949 -0.09842882305383682 0.08540525287389755 -0.1460268348455429 -0.11128875613212585 7.961077499203384E-4
257 0.02864416316151619 0.10506903380155563 -0.14545388519763947 0.084202341735363 -0.018787981942296028 -0.23095835745334625 0.1691242754459381 -0.03468736633658409 -0.06301421672105789 -0.07259922474622726 5.600111908279359E-4 -0.018690157681703568 -0.08985453099012375 -0.11810145527124405 -0.1425570696592331 0.08124145865440369 -0.02436402626335621 0.032700616866350174 0.015244366601109505 0.056587204337120056 0.0966171845793724 -0.0015625362284481525 0.12523309886455536 0.13639143109321594 -0.0030314549803733826 0.018953999504446983 0.22682318091392517 -0.013553332537412643 0.001450862386263907 -0.09226904064416885 0.04935619607567787 -0.21367351710796356 0.01078768353909254 -0.1867174655199051 0.03000583127140999 -0.12815435230731964 0.11552048474550247 0.07500384747982025 -0.06943224370479584 0.10246676951646805 0.23594781756401062 0.0077065941877663136 -0.102773018181324 0.061799392104148865 0.027755506336688995 -0.09162230789661407 -0.03613928332924843 -0.08557555079460144 0.039163738489151 -0.1731315404176712 -0.029951075091958046 0.07757380604743958 0.1733139306306839 0.0818101167678833 -0.15208163857460022 0.12491109222173691 -0.002411596244201064 0.1472446471452713 0.02396988496184349 -0.07297560572624207 -0.0260740015655756 0.020133113488554955 -0.077766552567482 -0.15652140974998474 -0.20359915494918823 2.3361342027783394E-4 0.08994898945093155 0.06020919606089592 0.04680939391255379 0.19696831703186035 0.16808362305164337 0.06787941604852676 0.0959540456533432 0.11157768219709396 0.08415073901414871 0.015393544919788837 -0.06888087093830109 0.0330263152718544 -0.07245003432035446 0.2450314611196518 0.01511433906853199 -0.1794910877943039 0.0795932486653328 0.003966919612139463 -0.05325595661997795 0.03615013509988785 0.1198345273733139 0.054950691759586334 0.04777998477220535 -0.043149981647729874 0.08625880628824234 -0.13925136625766754 0.034813910722732544 -0.027169667184352875 0.06918344646692276 -0.026980310678482056 0.037103429436683655 -0.05301084741950035 -0.1434788703918457 0.00929223746061325
840 -0.01688062585890293 -0.01202485617250204 -0.014927917160093784 0.006759607698768377 -0.009862634353339672 -0.016193369403481483 0.008581440895795822 -0.005267505533993244 -0.00934174656867981 0.0025540736969560385 -0.0063811736181378365 -4.5149121433496475E-5 -0.002727094106376171 0.007604948710650206 0.010433059185743332 0.007604194339364767 -0.0010382147738710046 0.0018150010146200657 -0.007525274064391851 -0.0034671917092055082 0.020383872091770172 8.00750742200762E-4 0.014109304174780846 0.0032410756684839725 -0.00889572873711586 0.005521646700799465 0.0271967314183712 0.007581476122140884 0.006228234618902206 -0.015120644122362137 -0.006985790096223354 -0.001634111162275076 -5.4693082347512245E-6 -0.024951234459877014 0.006845696363598108 -0.007724457420408726 0.006188808474689722 -6.328100571408868E-4 -0.0013847023947164416 0.016195856034755707 0.014954966492950916 0.0021362074185162783 -0.024539032950997353 0.006373063661158085 0.014538896270096302 -0.016203291714191437 0.008005442097783089 0.006944853346794844 -0.015459930524230003 -0.03915416821837425 0.003510142210870981 0.013208745047450066 0.01946359872817993 0.00585559569299221 -0.016154514625668526 0.009325429797172546 -0.005164385307580233 0.0075491261668503284 -0.01963980682194233 0.0019590742886066437 -0.007828613743185997 0.0012382264249026775 -0.002179311355575919 -0.0016549706924706697 -0.01546468585729599 -0.019787900149822235 -0.009956720285117626 0.0062813423573970795 3.78213357180357E-4 0.012537726201117039 0.0175190307199955 -0.0026363455690443516 -0.01422950904816389 0.00764422258362174 0.010232222266495228 0.008433014154434204 -0.013385262340307236 -0.009779808111488819 0.018566874787211418 0.03665944188833237 -0.020009927451610565 -0.01372507680207491 0.020950330421328545 0.017767084762454033 -0.009465370327234268 0.021862704306840897 0.011467445641756058 0.004006743431091309 0.005607227794826031 0.006722676567733288 0.036109812557697296 -0.0178342517465353 -0.00350752379745245 0.031156955286860466 0.009753506630659103 -7.465528324246407E-4 -0.0018541190074756742 -0.00679250992834568 -0.02283891662955284 0.01550984475761652
232 -0.035276979207992554 -0.050386328250169754 -0.20255406200885773 0.3217729330062866 0.18175570666790009 -0.144619882106781 0.04714933782815933 -0.2249627411365509 -0.3471238911151886 -0.3137468099594116 -0.28856757283210754 0.05956147611141205 0.24363012611865997 0.1298891305923462 -0.15160837769508362 0.11641891300678253 0.029183458536863327 0.017316767945885658 0.3061128556728363 0.42467209696769714 0.17182007431983948 -0.006916521117091179 0.1740703582763672 -0.0845557153224945 0.18694418668746948 -0.0354764461517334 0.39841416478157043 -0.19797386229038239 0.13874761760234833 -0.19518078863620758 -0.19102467596530914 -0.2732100784778595 -0.3507970869541168 -0.25293558835983276 -0.35050931572914124 -0.034063033759593964 -0.43555083870887756 -0.20154434442520142 0.33144688606262207 0.3837372064590454 0.15470477938652039 0.12249725311994553 -0.0286593995988369 0.1586209535598755 0.05063426494598389 -0.27353212237358093 0.1460248976945877 0.0658932700753212 -0.14669401943683624 0.09986061602830887 0.6399108171463013 0.4522790014743805 0.38440394401550293 0.17536762356758118 -0.06833706796169281 0.17451275885105133 0.03916308283805847 0.3220505118370056 -0.33413106203079224 -0.12079214304685593 -0.1857006549835205 -0.017279770225286484 0.04313836991786957 -0.11710215359926224 0.2414957731962204 0.08667010813951492 -0.1788167804479599 0.3756366968154907 -0.18926651775836945 0.04853463172912598 0.019573507830500603 0.3976602852344513 0.3190292418003082 0.07062212377786636 0.4053458273410797 0.027725519612431526 -0.20362156629562378 -0.05946625769138336 0.059834063053131104 -0.2615267038345337 0.4085789620876312 0.07553377002477646 0.0992729663848877 0.2186460793018341 0.09830387681722641 -0.04847210273146629 0.19521382451057434 0.08131621778011322 0.08245773613452911 0.03875735029578209 0.18677659332752228 0.09603600203990936 0.2879774272441864 0.3700638711452484 0.32784387469291687 -0.24942095577716827 0.34703636169433594 -0.1499442607164383 -0.2942739427089691 0.06128156557679176
139 0.1595849245786667 0.059651635587215424 -0.15039241313934326 -0.11686249077320099 0.08878088742494583 -0.16936004161834717 -0.06308698654174805 0.11561007797718048 0.13501885533332825 0.21728621423244476 0.19739629328250885 -0.12655231356620789 0.1665477156639099 0.010961969383060932 -0.11857327818870544 0.36154690384864807 -0.01454494334757328 -0.05509999021887779 0.057351984083652496 0.0912359431385994 -0.18377265334129333 0.023534411564469337 0.06824417412281036 -0.0033480548299849033 0.20182488858699799 -0.026823241263628006 0.12877514958381653 -0.1782151162624359 -0.21305707097053528 0.027858318760991096 0.22120548784732819 0.015525877475738525 -0.006811581552028656 0.0808231383562088 -0.001262300182133913 0.19673480093479156 -0.11868935078382492 -0.1985263228416443 -0.22413167357444763 -0.26177847385406494 0.12359675019979477 -0.036968715488910675 0.13993994891643524 -0.18748366832733154 -0.2146160900592804 -0.04023700952529907 -0.31094664335250854 0.3326629400253296 0.010238613933324814 0.006770538166165352 0.04088205471634865 -0.061667751520872116 -0.16104236245155334 0.08744560927152634 0.13632649183273315 -0.06243668869137764 -0.007665080484002829 -0.0751970037817955 -0.02654978632926941 0.005362906958907843 -0.25322359800338745 0.08504486083984375 -0.16307023167610168 0.018586205318570137 -0.1926000714302063 0.29798904061317444 0.18805351853370667 -0.18429966270923615 0.10594464838504791 0.06444863229990005 0.19873535633087158 0.0929635688662529 0.2239581048488617 -0.03990272060036659 0.1822739839553833 0.1602327972650528 0.15526071190834045 -0.18796925246715546 0.00454754801467061 0.10053561627864838 -0.06652360409498215 0.028705734759569168 -0.030009567737579346 -0.10157117247581482 -0.15650677680969238 -0.015318362973630428 0.034893058240413666 0.012627091258764267 0.06552334874868393 0.30551111698150635 -0.001112287282012403 0.06310170143842697 0.1597422957420349 0.007640266790986061 0.010829897597432137 0.09544078260660172 0.10149792581796646 0.11437547951936722 0.014648349024355412 0.05744783952832222
359 -0.15607066452503204 0.19712801277637482 -0.28629299998283386 0.2659430503845215 0.04091348499059677 0.1330762356519699 0.1715945452451706 -0.2559093236923218 -0.23877421021461487 -0.37619972229003906 -0.14070673286914825 0.04621491953730583 0.03590914234519005 -0.18708907067775726 0.11866990476846695 -0.17788778245449066 -0.0689711943268776 0.0032651270739734173 -0.049680158495903015 0.045219458639621735 0.17457520961761475 0.03816273435950279 0.17862465977668762 -0.08755894750356674 -0.03319340944290161 0.013967800885438919 0.08412173390388489 0.05804498493671417 -0.07525744289159775 -0.19881564378738403 0.12628208100795746 -0.2254958301782608 -0.2153731882572174 -0.18386434018611908 0.10505148023366928 -0.09804444760084152 0.010762015357613564 0.02588769607245922 -0.33586418628692627 0.3367707431316376 0.38561901450157166 -0.080392986536026 0.0752112865447998 0.13313044607639313 0.060449760407209396 -0.12929470837116241 0.09000552445650101 -0.1593448966741562 -0.13249121606349945 0.11697933077812195 -0.10638401657342911 0.13248604536056519 0.18954694271087646 0.14081315696239471 -0.03913041949272156 0.239638090133667 0.22025182843208313 0.42533737421035767 0.18365271389484406 -0.1770147830247879 0.007899357937276363 -0.24217258393764496 -0.04128133878111839 -0.1503177285194397 -0.049701787531375885 -0.09311362355947495 0.29253190755844116 -0.12315930426120758 -0.039512813091278076 0.17174690961837769 0.21303550899028778 -0.008910081349313259 0.0963759794831276 0.2206001877784729 0.029484661296010017 -0.09258855879306793 0.07507018744945526 -0.02589443139731884 -0.14880329370498657 0.12780286371707916 0.13894960284233093 -0.19022487103939056 -0.03770754858851433 -0.018387971445918083 -0.3302135169506073 0.08013216406106949 -0.17226384580135345 0.16826070845127106 0.18762408196926117 -0.049394093453884125 -0.06217510625720024 -0.24489173293113708 -0.24091199040412903 -0.16423965990543365 0.01241462491452694 0.027973119169473648 0.08716276288032532 -0.098849356174469 0.007133579347282648 -0.04439990967512131
861 0.006697425153106451 -4.1986885480582714E-4 0.0029254399705678225 0.006008211523294449 -0.004599537700414658 -0.015620101243257523 0.004054330289363861 -0.011887786909937859 1.6359426081180573E-4 -0.006645990069955587 0.0014514081412926316 0.0072699193842709064 0.0012375814840197563 -0.007902675308287144 -0.0019768979400396347 -0.0031832971144467592 0.0038691838271915913 -0.007085059303790331 0.007301964797079563 0.010099798440933228 0.00459176953881979 -0.010002383962273598 0.016771934926509857 0.002019831445068121 -0.005620328243821859 -0.005323268007487059 -0.013473156839609146 -0.0015088762156665325 -0.010688145644962788 0.006438633427023888 0.0014897002838551998 0.0012284209951758385 0.0042747557163238525 0.005416430998593569 -0.00705416314303875 -0.007074166554957628 0.004863351583480835 0.012566483579576015 0.001124358968809247 0.012181798927485943 0.003197282087057829 0.00609159842133522 -0.0076647112146019936 -0.011813761666417122 0.004297585692256689 -0.011594879440963268 0.01603476144373417 0.0023371134884655476 -0.001631090766750276 0.009987374767661095 -0.014289475977420807 0.010145006701350212 1.0197190567851067E-4 0.005031620152294636 -0.016503863036632538 0.002347540110349655 0.010805143043398857 0.0072529804892838 -0.007828433997929096 -0.019935745745897293 -0.004314392805099487 0.005507715977728367 -0.008503923192620277 -0.005493244156241417 -0.012213580310344696 0.005997937638312578 -0.013509690761566162 -0.0035455867182463408 -0.0038316063582897186 0.013628747314214706 0.0019272314384579659 0.004248037468641996 0.010648563504219055 0.0017379457131028175 0.010646411217749119 0.006911855190992355 0.0025646076537668705 0.0016595781780779362 -0.013513045385479927 0.0028841414023190737 0.007396872155368328 -0.00804571621119976 -0.0062275356613099575 -0.002838416490703821 -0.011460136622190475 -0.009934967383742332 -9.85606573522091E-4 8.18127766251564E-4 -0.011073466390371323 -0.001163019798696041 -0.006924268789589405 0.0058454591780900955 0.004782938398420811 -0.009837840683758259 0.0020761326886713505 0.008813401684165001 0.004624814726412296 0.0095478231087327 0.00595754524692893 0.00888262689113617
523 -0.027734389528632164 0.030229851603507996 -0.035311877727508545 0.04836925119161606 0.012577632442116737 -0.00823904201388359 0.025904037058353424 -0.02967934124171734 -0.03000977262854576 -0.03596995770931244 -0.019479839131236076 -0.0021687792614102364 0.02215457707643509 -0.03612969443202019 -0.004592446144670248 -0.014270610176026821 0.0038397936150431633 -0.007439655717462301 -0.0026633478701114655 0.006698504090309143 0.03935616463422775 0.008258556015789509 0.01765846461057663 0.005753786768764257 0.004490850493311882 9.887217311188579E-4 0.03904389962553978 0.0045006489381194115 0.0037182981614023447 -0.015400047414004803 0.007590227760374546 -0.02174573577940464 -0.016280407086014748 -0.0409693568944931 -0.005573908798396587 5.418382352218032E-4 -0.022095875814557076 -0.0222617220133543 -0.03347417712211609 0.02837066352367401 0.0478125661611557 -0.02906147390604019 7.878863834775984E-4 0.015670550987124443 -0.0017289700917899609 -0.027365026995539665 -0.01593654230237007 -0.02247292920947075 -0.004796297755092382 -0.025658244267106056 0.029594786465168 0.04053451493382454 0.031595706939697266 0.013098848052322865 -0.01394101232290268 0.03253670036792755 0.012404306791722775 0.03830234333872795 -0.010190276429057121 -0.012050666846334934 -0.011107208207249641 -0.0057349540293216705 0.00552508607506752 -0.008714471943676472 -0.02180330827832222 3.579072072170675E-4 0.02604425698518753 -0.003552730195224285 -0.007385158445686102 0.01343892328441143 0.052574578672647476 0.025908755138516426 0.012393642216920853 0.0353136770427227 0.018865831196308136 0.005355907138437033 -0.005336073227226734 0.025974247604608536 -0.022219764068722725 0.013135426677763462 -0.0010146703571081161 -0.009434949606657028 0.004863962531089783 -0.021062079817056656 -0.007492573466151953 0.008053784258663654 -0.0184556283056736 -0.008636953309178352 -0.006624841131269932 -0.012849535793066025 0.02790265530347824 -0.0211161058396101 0.02168337069451809 -0.009397679008543491 0.002302544191479683 -0.017969995737075806 0.0204000286757946 -0.017400654032826424 -0.014907333999872208 -0.012323297560214996
779 -0.0014021730748936534 -0.014881594106554985 -0.03502870351076126 0.0018966688076034188 0.014091311022639275 -0.014621522277593613 0.03198760002851486 0.004690474830567837 -0.024224620312452316 -0.01532187033444643 0.006193467881530523 -0.011757509782910347 -0.011559872888028622 -0.0046915230341255665 -0.006709110923111439 0.023420531302690506 -0.006958950310945511 5.717644817195833E-4 0.0010634515201672912 0.02956993505358696 -0.006912156939506531 0.011443385854363441 0.005025463178753853 0.015545866452157497 0.020648345351219177 0.0034317306708544493 0.034248970448970795 -0.01044878177344799 -0.009047815576195717 -0.009594766423106194 0.021789832040667534 -0.0158836729824543 -0.025285324081778526 -0.0041937455534935 0.02856365591287613 -0.003975810017436743 0.010275169275701046 -0.019474027678370476 -0.00522538460791111 0.008229776285588741 0.021782752126455307 0.007717558182775974 -0.0027467531617730856 -0.0034149151761084795 -0.007940608076751232 -0.009381747804582119 0.015577172860503197 0.005894023459404707 -0.012327175587415695 -0.011825721710920334 -0.0016377377323806286 -0.008429058827459812 0.03634098172187805 0.012294583022594452 -0.0099272346124053 0.015268689952790737 -0.0075814248993992805 0.05170828849077225 0.004414016380906105 -0.008513547480106354 -0.015028920955955982 -0.003860021708533168 -0.02095852419734001 -0.018574034795165062 -0.03522852808237076 -0.011889335699379444 0.020745785906910896 -0.0026211601216346025 0.02828877605497837 0.015537338331341743 0.05651872977614403 0.006450571119785309 0.03483804315328598 0.014287259429693222 0.02523978240787983 -0.015914006158709526 0.006195759400725365 -0.026879683136940002 0.006341779138892889 0.03387559577822685 0.004398784600198269 -0.03241410106420517 -0.0030986997298896313 0.03972554951906204 -0.03660768270492554 -0.0027494016103446484 0.01734958216547966 -0.006891791708767414 0.006164766848087311 0.02901160530745983 0.030371060594916344 -0.0320020392537117 -0.013597474433481693 0.01601416990160942 0.02392626367509365 0.02337539941072464 0.011674151755869389 -0.00899020116776228 -0.006126622669398785 0.014220116659998894
244 -0.16443872451782227 0.06967038661241531 -0.2505686581134796 -0.03084034100174904 0.037347450852394104 -0.07995131611824036 0.2500631809234619 0.04383818805217743 0.07708621770143509 0.07335121184587479 0.017308233305811882 0.11326556652784348 -0.013245935551822186 -0.17554350197315216 -0.12709946930408478 -0.009247983805835247 0.019599873572587967 0.14580854773521423 -0.026421621441841125 -0.04526197165250778 0.10241473466157913 0.023177411407232285 0.028776342049241066 -0.011981758289039135 -0.12413975596427917 0.042730141431093216 0.24851740896701813 0.263799786567688 -0.07941976189613342 -0.06068247929215431 -0.15080951154232025 -0.04429584741592407 0.2809411585330963 -0.22287355363368988 0.04586298391222954 -0.20051908493041992 0.1902666538953781 0.08202102035284042 -0.09898202121257782 0.04754680022597313 0.20755980908870697 -0.23665526509284973 -0.00621761754155159 0.1867971271276474 -0.044794633984565735 -0.19321735203266144 -0.243755042552948 -0.41296783089637756 -0.005590730346739292 -0.39436227083206177 -0.1519620418548584 -0.002453995170071721 0.240840345621109 -0.0023613031953573227 -0.06622274219989777 0.15792715549468994 0.06724648922681808 -0.04099434241652489 -0.05231892690062523 0.14170129597187042 0.06376980245113373 0.024791894480586052 0.07279521971940994 -0.1419980674982071 -0.31244155764579773 -0.011943197809159756 0.26779723167419434 -0.03600650653243065 0.03066752292215824 0.009092030115425587 0.29477083683013916 0.14862479269504547 -0.11346319317817688 0.1023549884557724 0.043278709053993225 0.13018237054347992 -0.21389366686344147 0.10738001763820648 -0.07382821291685104 0.2689518332481384 -0.26538392901420593 0.016481172293424606 -0.02158556692302227 -0.063789963722229 0.01612602360546589 0.053712330758571625 0.19831566512584686 -0.019983958452939987 -0.15232910215854645 0.02114076167345047 0.28073614835739136 -0.14419060945510864 0.28256624937057495 -0.10327361524105072 0.09514110535383224 -0.057983215898275375 -0.030547816306352615 5.270098918117583E-4 -0.29245659708976746 0.006797876209020615
449 -0.026051092892885208 -0.0012413059594109654 -0.07658110558986664 0.031098365783691406 -0.0036604804918169975 -0.04578534513711929 0.06568104028701782 -0.04251111298799515 -0.04321051761507988 -0.047880664467811584 0.004737521056085825 -0.018229980021715164 0.00465431809425354 -0.00878374557942152 -0.025637561455368996 0.03699313849210739 0.006194079294800758 -0.015922825783491135 0.009612403810024261 0.045943424105644226 0.037053246051073074 -0.01544821448624134 0.018844565376639366 0.017988979816436768 0.015865178778767586 -0.017929742112755775 0.08782801777124405 -0.004831333644688129 0.008359663188457489 -0.049058180302381516 0.019509343430399895 -0.05176996812224388 -0.02491903491318226 -0.040472403168678284 -0.020852170884609222 -0.006097899284213781 -0.02263520658016205 0.0015089705120772123 -0.007772113662213087 0.019975213333964348 0.0751190260052681 -0.03478601574897766 -0.006653683725744486 0.056141648441553116 -0.03691143915057182 -0.045420948415994644 3.725636925082654E-4 -0.014885406009852886 -0.00578668899834156 -0.06785325706005096 0.045885760337114334 0.07035651803016663 0.07731429487466812 0.03163142129778862 -0.028857076540589333 0.052395615726709366 0.036415696144104004 0.06301338970661163 -0.03286625072360039 0.013799026608467102 -0.023798484355211258 -0.03728685528039932 -0.0011848976137116551 -0.033510901033878326 -0.02815202996134758 0.01422613114118576 0.06083667650818825 0.005518220830708742 -0.008375009521842003 0.04669324681162834 0.06414560973644257 0.07494424283504486 0.048308614641427994 0.07579614222049713 0.06384669244289398 1.7962505808100104E-4 -0.01695157401263714 0.008705135434865952 -0.04070018604397774 0.03982960060238838 -0.008016915991902351 -0.024950744584202766 0.03108847700059414 -0.0010371265234425664 -0.018645986914634705 -0.0016642638947814703 0.029260262846946716 0.013411716558039188 -4.3539947364479303E-4 0.019028306007385254 0.040034521371126175 -0.022692011669278145 0.06388566642999649 0.025975976139307022 0.052317019551992416 0.001858763163909316 0.02833128534257412 -0.02592925727367401 -0.044136375188827515 -0.0036134030669927597
15 -0.11837292462587357 0.04819153621792793 0.010896729305386543 0.18871107697486877 0.24076443910598755 -0.19683986902236938 -0.026709137484431267 -0.11223049461841583 0.19725985825061798 0.28234222531318665 -0.04471483826637268 0.2707347273826599 0.017873490229249 -0.1085677370429039 0.21845504641532898 -0.28588131070137024 -0.04594248905777931 0.21182027459144592 0.0562451109290123 0.24690352380275726 -0.3398691713809967 -0.06492467224597931 0.3002925515174866 0.06953166425228119 -0.13584087789058685 0.11796379834413528 0.11045555770397186 0.05521877110004425 -0.056904956698417664 0.1834089457988739 0.17131617665290833 -0.059616945683956146 0.04187556728720665 -0.043688755482435226 0.10922456532716751 -0.12002468854188919 0.35179147124290466 -0.01523024681955576 0.145303875207901 0.017742646858096123 0.35963842272758484 0.10879318416118622 0.05370829999446869 0.1034083366394043 0.21406610310077667 -0.31752705574035645 -0.19114628434181213 0.17827564477920532 -0.22306422889232635 -0.06126919388771057 -0.026421448215842247 0.03140833601355553 -0.07302545756101608 -0.37195539474487305 -0.014782506972551346 0.12725335359573364 0.2667314410209656 -0.004715475253760815 0.33999305963516235 -0.08453401178121567 -0.11932465434074402 0.04670325294137001 0.10559460520744324 0.016232263296842575 -0.06452351063489914 -0.3270636200904846 0.10128887742757797 0.06531241536140442 0.08478260040283203 0.05066327750682831 -0.04507610201835632 -0.18602485954761505 -0.1252857893705368 -0.21869821846485138 0.20230445265769958 0.2155400663614273 -0.09861331433057785 -0.20510168373584747 -0.030498510226607323 0.05210234597325325 -0.35647502541542053 -0.0166697409003973 -0.26295197010040283 -0.11038141697645187 -0.23388707637786865 0.16078878939151764 0.12402591854333878 0.1853761374950409 0.26532790064811707 -0.13665689527988434 -0.026225900277495384 0.22915512323379517 -0.09324811398983002 0.08436492085456848 0.1879660189151764 -0.04434945806860924 -0.3014537990093231 0.02403132990002632 -0.35097452998161316 0.16149838268756866
850 -3.8797815795987844E-4 0.005821588449180126 -0.00119549292139709 -0.0033361241221427917 -0.016492199152708054 -0.015315873548388481 0.010984704829752445 8.543858421035111E-4 -0.0022273845970630646 0.002455337205901742 0.004140944220125675 0.0013074877206236124 0.0022703572176396847 -0.005713865626603365 -0.0073689245618879795 -0.0027206335216760635 0.0011387169361114502 0.004210326354950666 -0.007241921033710241 0.0044150883331894875 0.0062384880147874355 -0.018012939020991325 -5.30649907886982E-4 0.003694784827530384 -0.004273741971701384 -0.003478272818028927 0.001111931400373578 -0.002812958788126707 -0.008927278220653534 0.0019355968106538057 0.0026753477286547422 -0.004699641838669777 0.002329319017007947 -0.006263441406190395 -0.0012465124018490314 -0.008391046896576881 0.010594704188406467 0.016700072214007378 -0.0034059793688356876 0.0017918582307174802 0.013760392554104328 0.0010225429432466626 -0.0021738121286034584 0.0017904529813677073 0.0077107567340135574 -0.010730738751590252 0.008960295468568802 0.003623270895332098 -0.007106654345989227 -5.697433953173459E-4 -0.005434698425233364 0.004590211436152458 0.012314018793404102 0.012924096547067165 -0.009672810323536396 0.01084697712212801 0.00603979267179966 0.004102365113794804 0.0021312686149030924 -0.01877511478960514 0.007380858063697815 3.59109602868557E-4 -0.01198749989271164 0.0022788422647863626 -0.0044099269434809685 0.005231520161032677 -0.005115469917654991 -0.006009339354932308 7.690117345191538E-4 0.012740553356707096 0.01600619964301586 0.0157291442155838 -8.230889798142016E-4 0.014462976716458797 0.00555875850841403 -0.0031406763009727 0.010377975180745125 -5.124084418639541E-4 -0.0126654002815485 0.02351418510079384 0.007692738901823759 -0.013839139603078365 0.008725358173251152 0.0028612110763788223 -0.0025901091285049915 0.00505870021879673 0.009188855066895485 0.0027868563774973154 0.003469042479991913 0.006063477136194706 0.009744931943714619 -0.004251536913216114 -0.00801305752247572 0.005098987836390734 0.004183913581073284 0.004496145993471146 0.002906434703618288 0.0020881386008113623 -0.0044398680329322815 0.005519704427570105
363 0.0430859737098217 0.06163707375526428 -0.11683491617441177 -0.015017994679510593 -0.11750100553035736 -0.1497383862733841 0.11763779819011688 -0.04805012047290802 -0.013486351817846298 -0.15848180651664734 0.0748044103384018 -0.13041742146015167 -0.12791533768177032 -0.08044188469648361 -0.20475228130817413 0.06732261180877686 -0.06528773158788681 0.01633535698056221 -0.0835299864411354 0.09833869338035583 0.20975030958652496 -0.1370372176170349 0.1329493373632431 0.25190991163253784 0.014462560415267944 0.06780500710010529 0.20734365284442902 -0.04037167504429817 0.04206771403551102 -0.1399955302476883 0.0537034273147583 -0.29028311371803284 0.09533310681581497 -0.10431231558322906 0.1489560455083847 -0.17488792538642883 0.05719828978180885 0.17483170330524445 -0.11115970462560654 0.1436000019311905 0.216014564037323 0.034820303320884705 -0.19112533330917358 0.0974942296743393 0.15836845338344574 -0.024229921400547028 0.10213781148195267 -0.0190151184797287 0.05798749998211861 -0.22428473830223083 -0.1324753761291504 -0.026683928444981575 0.22813820838928223 0.14887216687202454 -0.2527737021446228 0.08103708177804947 -0.06430674344301224 0.17004680633544922 -0.022260168567299843 -0.187270388007164 -0.019809385761618614 0.08228276669979095 -0.10324481874704361 -0.050339143723249435 -0.16146761178970337 0.07954958081245422 0.02351030521094799 0.007861722260713577 0.014663114212453365 0.16183814406394958 0.06761624664068222 0.12533196806907654 0.016463611274957657 0.19499552249908447 0.02289690636098385 -0.057278528809547424 0.07379823923110962 0.13635167479515076 -0.05147388577461243 0.3114970028400421 0.07501869648694992 -0.26800620555877686 0.13399985432624817 0.08584868907928467 -0.10864181071519852 0.026441460475325584 -0.0159345343708992 0.04356261342763901 0.017460033297538757 -0.05116906762123108 0.09828174114227295 -0.16044212877750397 -0.09313903003931046 -0.015200340189039707 0.01175439078360796 0.03830810636281967 -0.002305997535586357 -0.06688329577445984 -0.13658514618873596 -0.01066400483250618
131 0.16550186276435852 -0.3701019287109375 0.0036651690024882555 -0.013522261753678322 -0.25100597739219666 -0.13681849837303162 -0.1150692030787468 -0.11330875754356384 0.0767376646399498 -0.14017748832702637 0.12073243409395218 -0.2054007202386856 -0.04445715621113777 0.041060201823711395 -0.057501666247844696 0.16334685683250427 -0.21453458070755005 -0.17678320407867432 -0.11328327655792236 0.13010652363300323 0.21444430947303772 -0.3098747134208679 0.25645673274993896 0.3530643880367279 -0.20175805687904358 0.018050339072942734 0.24692310392856598 -0.056131280958652496 0.15136638283729553 -0.32161346077919006 0.057156503200531006 -0.23001736402511597 0.2047235071659088 0.0743686854839325 0.18329986929893494 -0.12432496249675751 0.08208121359348297 0.37716972827911377 0.11631281673908234 0.2655682861804962 0.03839987516403198 0.17693111300468445 -0.32822561264038086 0.18831858038902283 0.3620946407318115 0.08537624776363373 0.3738454282283783 0.3578360080718994 -0.18549244105815887 -0.25882333517074585 -0.2695770561695099 0.03003471903502941 0.13460643589496613 0.18028084933757782 -0.3144553601741791 -0.08632434904575348 -0.06988738477230072 0.02984423004090786 -0.17335425317287445 -0.234066441655159 -0.046065907925367355 0.1500834822654724 -0.15421730279922485 0.012693668715655804 -0.03148927912116051 0.14105913043022156 -0.17104363441467285 0.1145889163017273 -0.11021367460489273 0.19601096212863922 -0.23012597858905792 0.03482669219374657 0.004045715555548668 0.16001516580581665 0.24825133383274078 -0.07459937036037445 0.11372436583042145 0.15333035588264465 0.04808409884572029 0.4006933867931366 0.03723619878292084 -0.41235581040382385 0.25852152705192566 0.28389859199523926 -0.32422176003456116 0.09714045375585556 0.003468385199084878 0.13007226586341858 0.0634114146232605 0.2134416699409485 0.1907801479101181 -0.026883522048592567 -0.29725223779678345 0.32337823510169983 -0.043554238975048065 0.11685045808553696 -0.024877995252609253 -0.0779847800731659 -0.21917669475078583 0.04725956916809082
306 0.12603889405727386 0.08767490833997726 -0.15626342594623566 -0.027312779799103737 -0.13510802388191223 -0.2104010283946991 0.19938881695270538 0.05453311279416084 -0.11853354424238205 -0.09873753786087036 0.13838480412960052 -0.0635821521282196 -0.14859963953495026 -0.05868645757436752 -0.18402619659900665 0.14961311221122742 -0.05508570373058319 0.037100985646247864 -0.10631601512432098 0.05413941666483879 0.17927497625350952 0.08370840549468994 0.16064250469207764 0.31431469321250916 0.05782052129507065 0.021493151783943176 0.2140403836965561 -0.04434923827648163 0.13106313347816467 -0.05789773911237717 0.1390061229467392 -0.30558961629867554 -0.03800787031650543 -0.1935717761516571 0.10719222575426102 -0.08575113117694855 0.07001595944166183 0.1926349550485611 -0.0580693818628788 0.09001827985048294 0.1411343365907669 0.04328446462750435 -0.3048402965068817 -0.06374991685152054 0.14276373386383057 -0.03688015043735504 0.017811574041843414 0.005593529436737299 0.06589318066835403 -0.2130066454410553 -0.044415105134248734 0.07193728536367416 0.24281030893325806 0.10897079855203629 -0.2782400846481323 0.07723315060138702 -0.16661077737808228 0.2374803125858307 -0.037266165018081665 -0.1353653371334076 -0.15795357525348663 0.12580524384975433 -0.18234647810459137 -0.014204196631908417 -0.1301126778125763 0.004326400812715292 0.007733876351267099 0.04979357495903969 0.11258722096681595 0.27908942103385925 0.11629555374383926 0.05294015631079674 0.08506382256746292 0.1808159202337265 -0.025715192779898643 -0.03482790291309357 0.0833635926246643 0.17589479684829712 0.03861817345023155 0.322369784116745 0.06591285765171051 -0.24043971300125122 0.14330129325389862 0.03605539724230766 0.00502428226172924 0.004379830788820982 0.01578754372894764 -0.028980646282434464 -0.015435900539159775 -0.08943644911050797 0.06860408931970596 -0.2251998633146286 0.06219429522752762 0.07649065554141998 0.020342471078038216 0.02199530228972435 0.034012921154499054 -0.03815462812781334 -0.09249789267778397 -0.03281561657786369
793 -0.0041765496134757996 0.010816654190421104 -0.01696029305458069 -0.001860231626778841 -0.001242630067281425 -0.0290271807461977 0.015686001628637314 0.003972761798650026 -0.002226847456768155 0.0020780470222234726 -0.003929296508431435 -0.0037576279137283564 -0.003606859827414155 0.005273822229355574 -0.004097094759345055 -0.001939601032063365 -0.006883771624416113 -0.0060915774665772915 0.008797014132142067 -0.005798608064651489 0.02243237942457199 -0.013340004719793797 0.009223095141351223 0.003190950257703662 -0.0025538657791912556 0.0011410186998546124 0.017123838886618614 0.01183885894715786 0.0077934423461556435 -0.004794389009475708 1.8035195535048842E-4 -0.010046212933957577 -0.005567914806306362 -0.023473002016544342 0.005870751105248928 -0.004208419006317854 0.003912695217877626 0.006452799774706364 -0.004042365588247776 0.016251340508461 0.009271714836359024 0.011104072444140911 -0.026026403531432152 0.010831059888005257 0.004919088911265135 -0.02062908746302128 0.013725168071687222 0.008925579488277435 -0.011256628669798374 -0.007108064368367195 -0.003216514363884926 0.009966070763766766 0.01502294559031725 0.011592487804591656 -0.02344830147922039 0.005048047285526991 0.0043288166634738445 0.01811334677040577 -0.010450145229697227 -0.022780459374189377 -0.007636480964720249 -0.003549394430592656 -0.0011609006905928254 -0.007133770734071732 0.0028464829083532095 -0.009571574628353119 -0.009427983313798904 -3.432843368500471E-4 -0.011907263658940792 0.028012366965413094 0.006756232585757971 0.010765200480818748 -0.008154770359396935 0.018160199746489525 0.010350944474339485 0.01022550743073225 -0.019114941358566284 3.573368303477764E-4 6.891353987157345E-4 0.01594204641878605 -0.012092582881450653 -0.013793978840112686 0.02391859143972397 0.02375163696706295 -0.005848229397088289 0.004078616388142109 0.01343685295432806 0.004260166082531214 -0.004640569444745779 0.004297768697142601 0.018222885206341743 -4.727765917778015E-5 -0.00761205330491066 0.01201263815164566 0.006582357455044985 -0.008849184028804302 0.0029609797056764364 0.0010601920075714588 -0.01821337826550007 0.006216350477188826
270 0.027158498764038086 0.02522440068423748 -0.07144550234079361 0.0489911288022995 -0.04941798746585846 -0.07338808476924896 0.07559037208557129 -0.0071210237219929695 -0.018404264003038406 -0.008309407159686089 0.08012287318706512 -0.018869178369641304 -0.14063720405101776 0.011111177504062653 -0.10592956840991974 0.05173000693321228 -0.11910013109445572 0.10342200845479965 -0.06812138110399246 0.08663825690746307 0.11162807047367096 0.04997960850596428 0.15005262196063995 0.20465907454490662 -0.0033118792343884706 0.013607175089418888 0.175348699092865 0.01600574515759945 0.10044646263122559 -0.11567910015583038 0.059126097708940506 -0.3167719841003418 -0.011350516229867935 -0.14822247624397278 0.11391279846429825 -0.19725455343723297 0.12085289508104324 0.1958330124616623 -0.054926853626966476 0.06494124978780746 0.19009779393672943 0.03455766662955284 -0.20885466039180756 0.07606109976768494 0.16190201044082642 -0.01552223414182663 -0.004040680360049009 -0.054848719388246536 0.01644868031144142 -0.19766268134117126 -0.059074148535728455 -0.009198219515383244 0.22372668981552124 0.08928332477807999 -0.15290620923042297 0.11104664206504822 -0.06547081470489502 0.15710175037384033 0.04693923518061638 -0.08696113526821136 -0.05573485046625137 0.10197047144174576 -0.06625427305698395 -0.026783866807818413 -0.07272528856992722 -0.09530505537986755 0.0961732268333435 0.03785902261734009 0.044129159301519394 0.1406327784061432 0.015824470669031143 -5.770438001491129E-4 0.01887519471347332 0.08668031543493271 -0.011279560625553131 -0.04977710172533989 0.047942571341991425 0.06845911592245102 0.09753195196390152 0.22624987363815308 0.0049989051185548306 -0.22609810531139374 0.09488675743341446 0.07027444243431091 -0.06838992238044739 0.061478208750486374 0.02194199338555336 0.012112634256482124 0.15167519450187683 -0.09587831795215607 0.020796524360775948 -0.20733742415905 -0.05897226929664612 0.12781839072704315 0.049368347972631454 0.002287232782691717 -0.038132522255182266 -0.1597825139760971 -0.15770217776298523 0.03085208870470524
384 0.28512585163116455 -0.11391261219978333 -0.03310732543468475 -0.13628427684307098 0.02639434114098549 -0.1737496554851532 0.09713087975978851 0.11451406031847 -0.033174511045217514 0.12248315662145615 0.03808458894491196 -0.07394461333751678 0.1488019973039627 -0.09534385800361633 -0.09726887196302414 0.1547396332025528 0.013152029365301132 -0.1612541526556015 -0.077311672270298 0.04453615844249725 -0.09725360572338104 -0.07489566504955292 -0.040167927742004395 0.0032771944534033537 0.10808368027210236 0.024999329820275307 0.06161218136548996 -0.033929817378520966 -0.06252256035804749 0.06746742874383926 0.20826706290245056 0.12388352304697037 0.002701125806197524 0.0951324999332428 0.09107058495283127 0.30559462308883667 0.007128279190510511 -0.18109624087810516 -0.12315204739570618 -0.09561463445425034 0.09049887955188751 0.07716104388237 0.03607115522027016 -0.13598820567131042 -0.1474313735961914 -0.01854339987039566 0.07891451567411423 0.1145617663860321 -0.01299374457448721 -6.97022071108222E-4 0.04345927760004997 0.07245542854070663 -0.08056046813726425 0.0032383149955421686 -0.020461412146687508 -0.02074291929602623 0.05542776733636856 0.1109340637922287 0.05900885909795761 -0.07993621379137039 -0.14634186029434204 0.05648623779416084 -0.012655121274292469 0.07245496660470963 -0.20491765439510345 0.1391395479440689 0.08147970587015152 -0.0750797688961029 0.11341442912817001 0.04358573630452156 0.3444403409957886 0.02532980777323246 0.16672594845294952 0.011115814559161663 0.20589913427829742 0.04073911905288696 0.13299091160297394 -0.08613073080778122 -0.11741594970226288 0.21785742044448853 -0.057652201503515244 -0.19234319031238556 0.03658004105091095 0.030118761584162712 -0.10745123773813248 -0.07635880261659622 0.013134890235960484 -0.1762760877609253 -0.13180556893348694 0.3246195316314697 0.24828527867794037 -0.08967777341604233 -0.04324652999639511 -0.049704015254974365 0.0011923182755708694 0.10188689827919006 -0.012855236418545246 0.01821579784154892 0.07407982647418976 -0.020579952746629715
568 -0.042785968631505966 0.03626277670264244 -0.04989418014883995 0.0705074667930603 0.02576530911028385 -0.04284587502479553 0.05381493270397186 -0.014945806004106998 -0.05741794779896736 -0.018994823098182678 -0.017618758603930473 0.03253619745373726 0.03815770149230957 -0.022433362901210785 -0.00813367497175932 -0.012268101796507835 -0.016611957922577858 0.019251840189099312 0.012399301864206791 0.07232635468244553 0.011632377281785011 0.019199419766664505 0.03995133563876152 0.013531781733036041 -0.022701412439346313 0.003200152888894081 0.07186778634786606 0.019265485927462578 -0.03120931051671505 -0.017953038215637207 0.01368473656475544 -0.032137975096702576 -0.009076600894331932 -0.05736491084098816 -0.004525385797023773 -0.020095543935894966 0.04107946902513504 0.010887003503739834 0.01504171546548605 0.012874117121100426 0.04247897490859032 -0.02224641479551792 0.004851633682847023 -0.008169709704816341 -0.024356013163924217 -0.04191561043262482 -0.025811074301600456 -0.022635681554675102 -0.05174270272254944 -0.009132766164839268 0.007651550229638815 0.04510125517845154 0.06829775869846344 0.023173950612545013 3.54545540176332E-4 0.06652870029211044 0.012453502044081688 0.03259805589914322 -0.015555908903479576 0.0121019147336483 -0.019298655912280083 -0.006831509992480278 -0.006693133153021336 -0.04711683839559555 -0.02215653471648693 -0.0321662537753582 0.017904508858919144 0.013384765945374966 -0.01532246358692646 0.005590480752289295 0.08119277656078339 7.034913869574666E-4 0.0371675044298172 0.0022554765455424786 0.03820017725229263 0.028205350041389465 -0.0463942289352417 -0.03997315838932991 0.004764384124428034 0.051622696220874786 -0.01039098110049963 -0.023485826328396797 0.024131419137120247 0.01633949764072895 -0.017971940338611603 0.0037971006240695715 0.057135678827762604 -0.025731917470693588 -0.0034080934710800648 0.022098945453763008 0.03223177418112755 -0.039561327546834946 0.022269021719694138 0.009208566509187222 0.0626048743724823 -0.02267138846218586 0.04306095466017723 -0.018061500042676926 -0.027194907888770103 0.048713911324739456
367 0.02183457463979721 0.04088950529694557 -0.05580347776412964 0.04622948542237282 -0.04456625133752823 -0.08728901296854019 0.059804365038871765 -0.04808948561549187 -0.020624449476599693 -0.056982770562171936 0.03240525722503662 -0.0286901593208313 -0.07291725277900696 -0.02929072640836239 -0.08171679079532623 0.003322138451039791 -0.053876493126153946 0.05911402776837349 -0.06363952904939651 0.1033821851015091 0.10325121134519577 -0.08339019119739532 0.12533235549926758 0.17526483535766602 0.008184695616364479 0.09153308719396591 0.13906969130039215 0.006538093090057373 0.03505522757768631 -0.0826781764626503 0.0876879170536995 -0.21889016032218933 0.03603916987776756 -0.07921392470598221 0.13693998754024506 -0.11177951097488403 0.0779944360256195 0.10351134836673737 -0.0938265398144722 0.12674523890018463 0.17417924106121063 0.03256485238671303 -0.101953886449337 0.07318452000617981 0.13252626359462738 -0.03754650801420212 0.04223209246993065 0.02982560358941555 -0.0488026961684227 -0.12601079046726227 -0.11438976973295212 2.9068885487504303E-4 0.13499592244625092 0.08289928734302521 -0.1489877998828888 0.05280092731118202 -0.003674633800983429 0.1441725492477417 0.07025402784347534 -0.1372411698102951 0.004693265073001385 0.03046274185180664 -0.025776712223887444 -0.04407677426934242 -0.08074028789997101 -0.037462130188941956 0.03061065450310707 0.008515550754964352 2.1456932881847024E-4 0.095004603266716 0.08409734070301056 0.015666332095861435 -0.02629515714943409 0.10189950466156006 0.05279122292995453 -0.046274907886981964 0.05262957885861397 0.01688694767653942 0.012082989327609539 0.2506321966648102 -0.024576619267463684 -0.18390001356601715 0.07249533385038376 0.13197924196720123 -0.15832461416721344 0.053856972604990005 -0.0015198286855593324 0.023780636489391327 0.0741925910115242 0.04063524678349495 0.11744068562984467 -0.12485366314649582 -0.16030000150203705 0.04938807338476181 0.04437757655978203 0.036147743463516235 -0.03204759210348129 -0.05611405521631241 -0.1067928820848465 0.04863612726330757
327 -0.07400404661893845 0.1108340248465538 -0.1718810796737671 0.03402930870652199 0.02950775995850563 -0.11783882975578308 0.13029874861240387 -0.03338877484202385 -0.040158361196517944 -0.0066086119040846825 0.030021529644727707 0.03116367757320404 -0.0663638561964035 -0.023905182257294655 -0.053242042660713196 -0.001370544545352459 -0.0629543736577034 0.030387649312615395 -0.049827951937913895 0.03549724072217941 0.11389074474573135 0.028840765357017517 0.1172269731760025 0.08943098038434982 -0.002861231565475464 0.02299010567367077 0.2100287228822708 0.044292151927948 -0.005318479612469673 -0.07535970956087112 0.03279314562678337 -0.17155694961547852 0.022164177149534225 -0.18438975512981415 0.03562058135867119 -0.0747504010796547 0.0739506259560585 0.05919104069471359 -0.04535769671201706 0.0868285596370697 0.21427221596240997 -0.013912440277636051 -0.18722207844257355 0.08567174524068832 0.022279592230916023 -0.11644012480974197 -0.03719785809516907 -0.08022183179855347 -0.02052266336977482 -0.16911903023719788 0.002699916483834386 0.09686257690191269 0.18972617387771606 0.05131550878286362 -0.10533244907855988 0.12304848432540894 0.03172158822417259 0.1090143471956253 0.02249557338654995 -0.054208796471357346 -0.04759964346885681 -0.016071774065494537 0.0062885708175599575 -0.025755712762475014 -0.04656843841075897 -0.07608623057603836 0.06181422993540764 0.009503468871116638 -0.02377442643046379 0.08982942998409271 0.13200713694095612 0.11880132555961609 -0.019649688154459 0.10931842029094696 0.004365098662674427 0.01686222106218338 -0.01675785705447197 0.03872107341885567 -0.05218547582626343 0.1774999052286148 -0.13228477537631989 -0.11121512949466705 0.08329659700393677 0.035326872020959854 0.019554760307073593 0.07141492515802383 0.10992410033941269 0.03347156196832657 0.04498729854822159 -0.0265378188341856 0.03168848529458046 -0.07161128520965576 0.031922902911901474 -0.03272997587919235 0.04368690028786659 -0.0422942154109478 -0.0044607799500226974 -0.015055526979267597 -0.13758710026741028 -0.028454957529902458
98 -0.09215486794710159 0.0943160280585289 -0.09522345662117004 0.11712046712636948 0.06687847524881363 -0.0709562599658966 0.09451638162136078 -0.010660093277692795 -0.08025846630334854 0.06684592366218567 -0.029594896361231804 -0.00525308633223176 0.062810979783535 0.005979147739708424 -0.08022967725992203 -0.05761392414569855 -0.016948094591498375 0.09426533430814743 -0.008588346652686596 -0.017556017264723778 0.10876056551933289 -0.0024879530537873507 0.04941422492265701 0.06930218636989594 0.07477188855409622 0.09828811138868332 0.2561359703540802 0.10603693127632141 0.03958657756447792 0.032480694353580475 0.04373122751712799 -0.09207610785961151 0.043629925698041916 -0.19645962119102478 0.08139747381210327 0.021090403199195862 0.04778505489230156 -0.08002135902643204 -0.12172133475542068 0.0855785384774208 0.2697937786579132 0.028495054692029953 -0.14082033932209015 0.043563876301050186 0.012816385366022587 -0.12756693363189697 -0.12102203071117401 -0.09872982650995255 -0.0887664258480072 -0.17720310389995575 0.05554095655679703 0.013010699301958084 0.16579419374465942 0.037643663585186005 -0.10800045728683472 0.14019812643527985 0.026006227359175682 0.12442194670438766 0.051218122243881226 -0.13096100091934204 -0.01321173831820488 0.0594298429787159 0.014935098588466644 0.01390522439032793 -0.09213697165250778 -0.08335792273283005 0.0452355295419693 -0.07448261231184006 -0.06304671615362167 -0.040766485035419464 0.278106689453125 0.11882412433624268 -0.07097397744655609 0.07491454482078552 0.04073742777109146 0.041047003120183945 -0.01652182638645172 -0.01415127981454134 0.056135378777980804 0.27807390689849854 -0.23297730088233948 -0.10583899915218353 0.11308997869491577 0.12240159511566162 -0.033356986939907074 0.16399246454238892 0.10174969583749771 -0.13419461250305176 0.03689023479819298 0.11758588999509811 0.21602776646614075 -0.09934446215629578 -0.08148151636123657 0.0203675776720047 0.06499997526407242 -0.07632405310869217 -0.016709348186850548 -0.059398017823696136 -0.10184577107429504 0.06589861214160919
