842 100
60 -0.3383258283138275 0.06444643437862396 0.05340051278471947 -0.11652635037899017 0.02769695408642292 -0.015890533104538918 -0.03750770539045334 -0.051024436950683594 0.034187834709882736 -0.014573959633708 0.003542221849784255 -0.022642437368631363 0.051005128771066666 0.062444932758808136 -0.044833626598119736 -0.023244788870215416 -0.05660917982459068 -0.1534864902496338 -0.015394316054880619 -0.05881020426750183 -0.07743215560913086 -0.3352604806423187 0.0669938325881958 0.027038803324103355 0.17585691809654236 -0.03489624336361885 0.20314516127109528 0.06207089498639107 0.1256265938282013 -0.00910158921033144 -0.013333427719771862 -0.08748042583465576 0.11896556615829468 -0.02493511512875557 0.1754932403564453 -0.06747518479824066 -0.010114436969161034 0.009716088883578777 -0.17356599867343903 5.282373167574406E-4 0.15713903307914734 0.1006874144077301 -0.10499284416437149 -0.1345496028661728 -0.11320515722036362 -0.025669531896710396 -0.047638505697250366 -4.95364423841238E-4 -0.0019943539518862963 0.06287004053592682 -0.030402954667806625 0.039106328040361404 -0.0375467948615551 0.029227279126644135 0.13580560684204102 0.06869136542081833 -0.020231623202562332 -0.2344556450843811 -0.023722073063254356 -0.21154552698135376 -0.09308644384145737 -0.14036601781845093 0.13133122026920319 0.025844495743513107 -0.04332657903432846 0.13632822036743164 0.027444668114185333 0.18447573482990265 -0.006357930600643158 0.06776714324951172 -0.056227412074804306 0.05534237250685692 0.0951932743191719 -0.0754067450761795 0.12593954801559448 -0.04589236527681351 -0.008497104980051517 -0.09274912625551224 -0.1727791428565979 0.043471645563840866 -0.055874813348054886 -0.01206632237881422 0.03277341648936272 0.029276926070451736 -0.011218523606657982 0.06142118573188782 -0.03169109672307968 0.07568725198507309 -0.028277909383177757 -0.0186480525881052 0.0029885831754654646 -0.09008104354143143 0.1347755342721939 -0.0857270359992981 -0.019724145531654358 -0.06180914491415024 0.012908249162137508 0.03469708189368248 0.27806907892227173 -0.24354416131973267
691 -0.013960921205580235 0.03645843639969826 0.00776011124253273 -0.0011225135531276464 -0.0039629945531487465 -0.013988620601594448 -0.0012530811363831162 0.011377044953405857 0.017834629863500595 -0.0028914830181747675 0.016870934516191483 0.03779927268624306 -0.011398681439459324 0.027879290282726288 0.007309173233807087 -0.017663557082414627 0.013815861195325851 -0.0022451269906014204 0.0261390320956707 -0.0015474667306989431 0.021000836044549942 -0.0032923882827162743 0.004765591584146023 0.005960819311439991 -0.006531292572617531 -0.015634963288903236 0.0035725918132811785 0.013266763649880886 -0.0030337832868099213 0.0027018317487090826 0.010704086162149906 -0.03812672570347786 0.013067858293652534 -0.04486427828669548 -0.008584757335484028 0.03763798996806145 -0.030108051374554634 -0.01616431586444378 -0.0048374575562775135 -0.012447490356862545 0.028032217174768448 -0.020886680111289024 0.025269946083426476 4.166193539276719E-4 0.02513858489692211 -0.006618017330765724 0.009515296667814255 -0.013961777091026306 0.011571280658245087 0.007041380275040865 0.03430316969752312 0.01608392409980297 0.002057691803202033 -0.05433676391839981 0.014787878841161728 0.011620069853961468 -0.011277377605438232 -0.0050311279483139515 -0.01114532258361578 -2.7235932066105306E-5 -0.021292034536600113 0.023384546861052513 -0.002835735445842147 0.02440093271434307 -0.006683663930743933 -0.007592407986521721 -0.0030619825702160597 0.06821823120117188 0.003228425281122327 0.02288704179227352 -0.019637834280729294 0.011457650922238827 0.03355449065566063 0.013211458921432495 0.010215593501925468 -0.027306029573082924 0.011873775161802769 -0.01520266942679882 -0.011983594857156277 0.01635671779513359 0.022085657343268394 0.009216859005391598 0.0043074400164186954 -0.0064592137932777405 -0.001399452448822558 0.01810285821557045 -0.0025364779867231846 -0.007019825279712677 -0.018445512279868126 0.009558095596730709 0.013565259985625744 -0.010444858111441135 0.006891467142850161 -0.030128810554742813 -0.009804591536521912 0.0017090359469875693 -0.0037034638226032257 -0.0150618776679039 0.008601845242083073 -0.03812548518180847
800 0.0053178127855062485 0.003955536056309938 -0.004290659446269274 -0.0015305462293326855 -0.0074904365465044975 0.012594143860042095 0.016140904277563095 -5.045556463301182E-5 -5.871551111340523E-4 -0.005681341979652643 0.01149706169962883 0.003791526425629854 0.0066276658326387405 2.7185375802218914E-4 0.00585478451102972 0.004059893544763327 0.00789070874452591 0.0013569300062954426 0.0020848740823566914 -0.00655017327517271 0.010084768757224083 -0.0077709536999464035 0.012023364193737507 -0.0017427918501198292 -0.003788607195019722 0.004736561328172684 0.0039749713614583015 0.0050467150285840034 -0.0046522123739123344 0.008200813084840775 -0.001951548969373107 -0.011415073648095131 -0.009953952394425869 -0.004728084430098534 -0.01168972346931696 0.00633180933073163 -0.005879100412130356 0.00727639626711607 9.019540157169104E-4 -0.0043654777109622955 -0.0016455978620797396 -0.005824210122227669 0.0058289263397455215 -0.009827224537730217 -0.002043857704848051 0.0018693716265261173 0.010894153267145157 -0.0015982778277248144 0.009736401960253716 -0.0036616509314626455 -0.002150140702724457 -0.00972718559205532 0.0033450310584157705 -0.01268905308097601 0.00940707977861166 0.006162230856716633 0.004663086496293545 -0.006739458534866571 -0.0022674258798360825 0.002594136167317629 -0.00526366988196969 -4.024198278784752E-4 -0.0019369629444554448 0.004972934722900391 -0.007623149082064629 -4.2323721572756767E-4 0.0013562357053160667 0.0035606601741164923 0.010174835100769997 0.00824460294097662 0.003412990365177393 -0.008188867941498756 0.0015419870615005493 8.572033257223666E-4 0.004682525992393494 -0.008600492030382156 0.0017017521895468235 -0.004757447633892298 -0.005421702284365892 0.00985931046307087 -0.004206949844956398 -0.005862564779818058 0.00391338812187314 0.007105652242898941 0.005760257598012686 0.004328660201281309 0.002797731664031744 -0.00556129589676857 -0.010508406907320023 0.0012697592610493302 -0.004746662452816963 -0.0023374068550765514 -0.006029435433447361 -0.01036824006587267 0.0029946810100227594 -0.003043294418603182 -0.020126478746533394 0.002457097638398409 -0.0014240103773772717 0.006604659371078014
458 -0.0038888852577656507 0.029135365039110184 0.024199964478611946 0.05400845408439636 -0.029341919347643852 -0.023364685475826263 0.01974247209727764 -0.02763722836971283 0.030456481501460075 -0.028246987611055374 -0.005911859218031168 0.019462430849671364 0.001560791744850576 0.014073919504880905 -0.035307448357343674 0.001723787747323513 0.013104510493576527 -0.010899106971919537 -0.02151615172624588 -0.04152172431349754 0.01786375418305397 -0.09283255785703659 0.030169397592544556 -0.015940848737955093 0.026005614548921585 -0.015745585784316063 0.04097604751586914 -7.104096002876759E-4 -0.002685108222067356 -0.02524348720908165 -0.008218031376600266 -0.01080684456974268 -0.007530783768743277 -0.0077140191569924355 -0.02765929140150547 0.0026953325141221285 -0.013519790023565292 -0.023715170100331306 -0.016579020768404007 0.0030339586082845926 0.015340318903326988 0.032339874655008316 -0.0030256633181124926 -0.016301434487104416 -0.002622501691803336 0.0016902423230931163 0.012706371955573559 -0.04817890003323555 0.003819504752755165 0.01090243086218834 -0.03135158494114876 -0.0028577595949172974 -0.011128191836178303 -0.018468625843524933 0.035671740770339966 0.011856715194880962 0.015897255390882492 -0.03545822575688362 -0.042525339871644974 -0.05439960956573486 -0.028661059215664864 -0.03523091971874237 0.041337378323078156 0.0242066141217947 -0.006518064998090267 0.0210233423858881 0.0026472751051187515 0.030330395326018333 -0.02362845465540886 -0.004842156544327736 -0.01563728228211403 0.00834723562002182 -6.010254728607833E-4 -0.012233145534992218 0.042551204562187195 -0.06347477436065674 0.01924862712621689 -0.053825341165065765 -0.013398443348705769 0.045701269060373306 0.012997784651815891 -0.045564036816358566 0.03954390436410904 0.004544825758785009 0.014009235426783562 0.011551544070243835 -0.05379963666200638 0.01758461259305477 -0.007106433622539043 0.011202637106180191 0.038601428270339966 0.008363104425370693 0.020522411912679672 -0.060286350548267365 0.006405061110854149 -0.014914579689502716 -0.025587283074855804 -0.0027590645477175713 0.07063104212284088 -0.042356595396995544
433 -0.012240058742463589 0.028678879141807556 0.07851611822843552 0.02429415099322796 -0.1435825526714325 -2.9321605688892305E-4 0.057165369391441345 -0.1671840101480484 0.07699502259492874 -0.0667433962225914 -0.06410394608974457 0.05954247713088989 -0.039985764771699905 -0.004295975901186466 -0.01790834777057171 0.024152006953954697 0.03733191639184952 -0.06065098196268082 -0.018951665610074997 0.008286531083285809 0.009123924188315868 -0.1731094866991043 0.03109712526202202 -0.04012327641248703 0.06678835302591324 -0.03556516766548157 0.13073879480361938 0.0596683993935585 0.04947871342301369 -0.050222013145685196 0.010332857258617878 -0.03608356788754463 0.09879708290100098 0.019649188965559006 -0.02743954211473465 -0.014852914027869701 -0.05015777051448822 -0.04231547936797142 -0.04747075214982033 -0.01842339150607586 0.11610966920852661 0.00923013687133789 0.0069598546251654625 -0.11540459841489792 -0.082771435379982 0.010582633316516876 0.015221277251839638 0.023327790200710297 -0.015402634628117085 0.011339650489389896 -0.09061381965875626 0.005694898311048746 -0.030115149915218353 0.03131607919931412 0.1323194056749344 0.0034717945381999016 -0.07777023315429688 -0.13904686272144318 -0.0024286992847919464 -0.07739627361297607 -0.12101087719202042 -0.08834351599216461 0.06403465569019318 0.03742057457566261 -0.06591847538948059 0.03343376889824867 0.06942131370306015 0.06918726861476898 -0.019815606996417046 0.0692727342247963 -0.01213259156793356 0.0910017192363739 0.0032072465401142836 -0.08476296067237854 0.1452777087688446 -0.01771320216357708 -0.014300432056188583 0.03295920789241791 -0.1390504091978073 0.1031607985496521 -0.03558333218097687 -0.08912823349237442 0.07892604172229767 0.024485228583216667 0.0695965364575386 0.1625823974609375 -0.10412313789129257 0.031836699694395065 -0.07075628638267517 -0.02642878144979477 0.004717723466455936 -0.15765149891376495 -0.05486166849732399 -0.17967207729816437 -0.010628049261868 -0.06060284003615379 -0.15158364176750183 0.008387788198888302 0.186063751578331 -0.15997080504894257
184 0.06159408390522003 -0.5527122616767883 0.004878950770944357 0.36781051754951477 1.63521763170138E-4 0.12018796056509018 0.2016291618347168 -0.007683002855628729 0.060373347252607346 -0.13512936234474182 -0.18121694028377533 -0.0014690542593598366 0.23459690809249878 -0.18136806786060333 -0.1199449971318245 -0.11776827275753021 0.15983377397060394 -0.11921656131744385 -0.22361907362937927 -0.3639589548110962 -0.19971421360969543 -0.45918017625808716 -0.014137999154627323 -0.008708295412361622 0.08880425244569778 0.07962850481271744 0.16366681456565857 0.16169902682304382 -0.04987064749002457 -0.1910732388496399 -0.4146774113178253 0.04875592887401581 -0.0551944263279438 -0.02649175561964512 -0.24350550770759583 -0.16998828947544098 -0.05032315477728844 -0.04083529859781265 -0.19361412525177002 -0.04468442499637604 -0.1297975778579712 0.3150913715362549 0.05459846928715706 -0.1103479415178299 -0.30783501267433167 -0.07987242937088013 -0.05048762261867523 -0.07827017456293106 -0.1383335441350937 -0.050164833664894104 -0.3594968318939209 -0.1425793468952179 0.014695682562887669 0.003931690938770771 0.2142709493637085 0.003047753358259797 -0.06602662801742554 -0.03254323825240135 -0.13918247818946838 -0.1503993719816208 0.016061492264270782 -0.2194584310054779 7.939899223856628E-4 0.17935173213481903 -0.09301982820034027 0.3098340630531311 -0.25318780541419983 -0.05187737196683884 -0.236497700214386 -0.15290266275405884 -0.02956758812069893 0.11621346324682236 -0.008834620006382465 0.09305637329816818 -0.032024480402469635 -0.30470338463783264 0.04673987999558449 -0.2869266867637634 -0.10677367448806763 0.07815773785114288 0.16046898066997528 -0.0634823888540268 0.2195596843957901 -0.04367333650588989 0.15036939084529877 -0.2994759678840637 -0.28221946954727173 0.10878895968198776 0.1002899780869484 0.2939313054084778 0.27386313676834106 0.033501796424388885 0.19015905261039734 -0.06202066317200661 0.0652056634426117 -0.09249487519264221 -0.27321451902389526 -0.2728273272514343 -0.1384957730770111 -0.19226576387882233
686 -0.0014326692325994372 0.025601042434573174 -0.0048443470150232315 -0.001094186445698142 0.004664371721446514 0.012029728852212429 -0.0012200262863188982 0.0051416209898889065 -0.0054913535714149475 -0.013829079456627369 0.013071894645690918 0.02307065576314926 -0.007509427610784769 -0.0010769353248178959 -0.0016936218598857522 -0.012202179059386253 0.011105175130069256 -0.016607165336608887 4.6326519805006683E-4 -0.01394712459295988 0.01782565750181675 -0.007012702990323305 0.01848231442272663 -0.0011953877983614802 -0.004541766829788685 -0.013320663943886757 -0.006433840841054916 -0.007107892539352179 -0.007372897118330002 -0.005104269366711378 -0.011321994476020336 -0.0035904485266655684 -0.008456286042928696 -0.017657389864325523 -0.009989370591938496 0.011334407143294811 -0.0057524507865309715 -0.019602470099925995 -0.015485298819839954 0.004230736754834652 0.010958346538245678 -0.00793445948511362 0.002308149356395006 0.009928984567523003 -4.8448017332702875E-4 0.010999464429914951 0.014823160134255886 -0.02875181846320629 -7.128934521460906E-5 0.01662309095263481 0.006764322519302368 0.01974923349916935 -0.00814418401569128 -0.0130852609872818 0.020697003230452538 0.017099853605031967 1.3623190170619637E-4 7.487765396945179E-4 -0.02242901921272278 -0.018646812066435814 0.0015906337648630142 -2.9018864734098315E-4 0.004650049842894077 0.02394537627696991 0.005680717062205076 -0.020840084180235863 -0.014056665822863579 0.030825693160295486 0.006124211475253105 -0.019400347024202347 0.005077769514173269 0.0012367807794362307 9.702472016215324E-5 -0.011203359812498093 0.014036587439477444 -0.03911551460623741 0.007524614222347736 -0.041357554495334625 0.00614505959674716 0.03837369754910469 -0.0010292741935700178 -0.01717163808643818 0.002108597196638584 0.010886498726904392 -0.008922631852328777 0.022234061732888222 -0.0010374917183071375 0.015551650896668434 -0.014171196147799492 0.008885465562343597 0.00960495974868536 0.013054114766418934 0.005944516975432634 -0.04163366183638573 0.006156980060040951 -0.004821090959012508 -0.010298144072294235 -0.0036979957949370146 0.0034191119484603405 -0.018504872918128967
166 0.0626199021935463 -0.669447660446167 0.15088284015655518 0.31921523809432983 -0.4271143078804016 0.08074188977479935 0.23535417020320892 -0.3013169765472412 0.23244409263134003 0.0674654170870781 0.14687438309192657 0.0015036597615107894 0.02067241072654724 0.13924722373485565 0.2726740539073944 -0.04305357113480568 -0.1561102569103241 0.011177551932632923 0.2119864672422409 0.05314399302005768 -0.1342494785785675 -0.0885840430855751 0.08138179779052734 -0.19061100482940674 0.19867485761642456 -0.45233187079429626 -0.12315168231725693 0.08800876885652542 0.11158787459135056 -0.12576167285442352 -0.27669981122016907 -0.34932681918144226 -0.32608744502067566 0.39503851532936096 -0.5312691926956177 0.04908556118607521 -0.40079614520072937 -0.1568094938993454 0.13656896352767944 0.05967036262154579 -0.03738084062933922 0.22766457498073578 0.22658880054950714 -0.05509316176176071 0.08372381329536438 -0.36566630005836487 -0.01392864529043436 -0.0586397685110569 0.09849181771278381 0.07916004955768585 -0.2995164692401886 0.15362000465393066 -0.015227008610963821 -0.15989261865615845 0.17601241171360016 -0.01671970821917057 0.08537916839122772 0.11459756642580032 -0.08741618692874908 -0.11525087058544159 -0.18620476126670837 -0.00507367542013526 -0.049522969871759415 0.3882143497467041 0.23593026399612427 0.07739581912755966 -0.0867270827293396 -0.3162132501602173 -0.08385069668292999 0.042523715645074844 -0.009944193065166473 -0.4460808336734772 0.2235317975282669 -0.19781938195228577 0.11430573463439941 -0.5138696432113647 0.029064368456602097 -0.04952652379870415 0.020506497472524643 0.16680777072906494 -0.12471045553684235 -0.2858617305755615 0.06727336347103119 0.249368816614151 0.3778358995914459 0.1248527392745018 -0.1901150643825531 -0.013086405582726002 0.14641644060611725 0.12349390983581543 0.22917206585407257 -0.3128662705421448 -0.07746247202157974 -0.09996623545885086 0.0970853716135025 -0.11094717681407928 -0.2998531460762024 0.008744963444769382 0.6085537672042847 -0.1319826990365982
717 -0.05004522204399109 -0.008284448646008968 0.022130480036139488 -0.00698092021048069 -0.013026420958340168 0.004478384740650654 -0.004785153549164534 -0.0023520137183368206 0.02624446339905262 0.008737652562558651 -0.014570818282663822 0.014310888946056366 0.004010510630905628 4.096736665815115E-5 0.01804465241730213 0.006379939615726471 0.0167192742228508 -0.01965799741446972 0.00613281037658453 -0.006648762617260218 0.0019808970391750336 -0.03532136231660843 0.018245521932840347 0.01038443949073553 0.00829016137868166 -0.008582815527915955 0.0178699791431427 0.008318552747368813 0.02089511603116989 -0.004667111672461033 0.003912273794412613 -0.034067343920469284 0.018108811229467392 -0.01689552515745163 -7.366720819845796E-5 0.006710964720696211 -0.008395514450967312 -0.003628382459282875 -0.007716471329331398 -0.018803661689162254 0.024028247222304344 -0.013842178508639336 0.0025419709272682667 -0.024976765736937523 -0.01879476197063923 -0.005239706486463547 -0.005828460678458214 0.0034226488787680864 9.717187494970858E-4 -0.0017934462521225214 6.545997457578778E-4 0.003367474302649498 -0.01900567300617695 -0.0212269127368927 0.019992046058177948 0.008113586343824863 -0.01674557663500309 -0.04592755436897278 -0.010775305330753326 -0.0027765908744186163 -0.024814212694764137 -0.005921891424804926 0.0186093021184206 0.006835504900664091 0.005581652745604515 -0.007196039892733097 0.003435318125411868 0.05363713204860687 0.005190177820622921 0.02029920369386673 -0.009614984504878521 0.01359023991972208 0.016577571630477905 0.006387689616531134 0.02855844609439373 -0.005331639666110277 0.017568286508321762 -0.009690905921161175 -0.01987505704164505 0.007729195058345795 -0.01238932739943266 0.012321163900196552 0.007629829458892345 0.01003920566290617 0.01358968485146761 0.020266134291887283 -0.02443864196538925 0.010239659808576107 -0.025008270516991615 0.025465840473771095 -0.002033288823440671 -0.043477803468704224 0.0044722044840455055 -0.030848262831568718 -0.007401742972433567 -0.016098355874419212 -0.010546596720814705 -0.013762780465185642 0.028177578002214432 -0.03322060406208038
185 0.0281614288687706 -0.46663397550582886 0.02600264362990856 0.29692941904067993 -0.05331949144601822 0.1711072474718094 0.22902782261371613 -0.06049128994345665 0.038646381348371506 -0.18206557631492615 -0.14770449697971344 0.02799806371331215 0.27339982986450195 -0.1876659095287323 -0.11295101046562195 -0.12177138030529022 0.1461629867553711 -0.1709437519311905 -0.25391921401023865 -0.291476309299469 -0.21301451325416565 -0.5000864267349243 -0.03577152639627457 -0.02629697695374489 0.13178077340126038 0.09714075922966003 0.15194857120513916 0.15632519125938416 -0.04870928078889847 -0.13009488582611084 -0.41503462195396423 0.09484679251909256 0.012584866024553776 -0.08249786496162415 -0.17686304450035095 -0.19422748684883118 -0.0780782625079155 -0.008347280323505402 -0.27785348892211914 -0.04645075276494026 -0.10409601032733917 0.31037604808807373 0.01741570048034191 -0.11970265954732895 -0.3410060405731201 -0.07516036182641983 -0.0069334981963038445 -0.037193663418293 -0.17198652029037476 -0.050413213670253754 -0.38487839698791504 -0.1692861020565033 0.013624347746372223 0.0541871152818203 0.23487789928913116 0.002931008581072092 -0.07061111927032471 -0.05748419463634491 -0.1074833795428276 -0.10461089760065079 0.03175989165902138 -0.2633253335952759 0.016645260155200958 0.2240983098745346 -0.12811611592769623 0.2991137206554413 -0.2883160710334778 0.012978272512555122 -0.17826949059963226 -0.10028325021266937 -0.01640499383211136 0.13587245345115662 0.007082375697791576 0.05485347658395767 -9.82056837528944E-4 -0.2988567352294922 0.058926764875650406 -0.2906598746776581 -0.16181521117687225 0.08967313915491104 0.153664693236351 -0.0455157570540905 0.18641920387744904 -0.08174242824316025 0.16482166945934296 -0.26021525263786316 -0.26745906472206116 0.16372515261173248 0.10252807289361954 0.2615199685096741 0.20357318222522736 0.03679811209440231 0.1911032795906067 -0.11150505393743515 0.10482887178659439 -0.07139364629983902 -0.2820802330970764 -0.1883387416601181 -0.09388726204633713 -0.23179510235786438
34 -0.19737310707569122 0.15262746810913086 0.09459210932254791 0.02368721179664135 0.05760950967669487 -0.03007611259818077 -0.021007029339671135 0.015623055398464203 0.057478081434965134 0.040673211216926575 -0.010758627206087112 -0.22011607885360718 0.07970593124628067 0.15615257620811462 0.0805574357509613 0.05624166503548622 -0.10440711677074432 -0.13586199283599854 -0.06874332576990128 -0.09686775505542755 -0.129853755235672 -0.1867077350616455 0.10496456921100616 0.06105358526110649 0.2174045741558075 -0.08527277410030365 0.10899682343006134 0.23569974303245544 0.1556871086359024 0.01367392111569643 -0.11447951197624207 0.03908698633313179 -0.008840860798954964 0.02127394638955593 0.13190048933029175 -0.13307252526283264 -0.0421564020216465 -0.020738635212183 -0.24226555228233337 0.1164235845208168 0.16165466606616974 0.042052704840898514 -0.12974336743354797 -0.2123468518257141 -0.12624941766262054 -0.07557923346757889 -0.12465301901102066 0.017782580107450485 0.04852638021111488 -0.025856688618659973 -0.13260628283023834 0.11637035012245178 0.1262645572423935 0.12417293339967728 0.10943655669689178 0.020222825929522514 0.026986287906765938 -0.09906022995710373 0.05454016104340553 -0.2596150040626526 -0.08534379303455353 -0.23680764436721802 0.3311495780944824 0.07896289229393005 0.011702537536621094 0.2472594529390335 -0.01758241280913353 0.13673052191734314 -0.06890127807855606 -0.016960211098194122 -0.19435355067253113 -0.007135128136724234 0.03610137850046158 -0.10214568674564362 0.05685197189450264 -0.13723330199718475 -0.09872401505708694 -0.11286939680576324 -0.09152168035507202 0.05574113875627518 -0.07587020099163055 0.11479229480028152 0.0864642783999443 0.12934647500514984 0.04247693344950676 0.14717569947242737 0.034740984439849854 0.009423417039215565 -0.04473523050546646 -0.08148754388093948 0.0325818732380867 -0.13321487605571747 0.1740291267633438 -0.003600496333092451 -0.0656525045633316 -0.07361221313476562 -0.03346053138375282 0.08720839023590088 0.21425843238830566 -0.17873726785182953
645 0.023655720055103302 -0.1531684845685959 -0.010230290703475475 0.049089767038822174 -0.08204379677772522 0.0040921964682638645 0.05980497971177101 -0.07494454830884933 0.023281021043658257 0.016822468489408493 -0.005455700680613518 0.023210197687149048 0.008059868589043617 0.010211139917373657 0.04874803125858307 0.006971500348299742 -0.020042676478624344 0.013117537833750248 0.034466784447431564 -0.010224602185189724 -0.018185269087553024 -0.0036263992078602314 0.007849710993468761 -0.021936921402812004 0.030395343899726868 -0.0801323652267456 -0.01932222954928875 0.03154522180557251 0.01915999874472618 -0.012502472847700119 -0.06058987230062485 -0.07365205138921738 -0.05154462158679962 0.05296095833182335 -0.09170360118150711 0.021713197231292725 -0.0878339484333992 -0.021185437217354774 0.01990390382707119 0.0035550359170883894 -4.7268785419873893E-4 0.016894670203328133 0.05651090666651726 -0.022443067282438278 0.0027824793942272663 -0.03964552283287048 0.018049025908112526 1.4909185119904578E-4 -0.0017500771209597588 -0.010017036460340023 -0.060446903109550476 0.018550153821706772 -0.0061483243480324745 -0.03505715727806091 0.026101404801011086 0.012604226358234882 -0.007079386152327061 0.014436139725148678 -0.009145429357886314 -0.008669912815093994 -0.03595886379480362 -0.008406088687479496 -0.04182877764105797 0.07314988225698471 0.012193341739475727 0.019224869087338448 -0.035959843546152115 -0.07673473656177521 -0.015235169790685177 0.012850744649767876 0.0024372455663979053 -0.041106030344963074 0.02444920502603054 -0.04521030932664871 0.031077485531568527 -0.08848606795072556 -0.002497835550457239 0.0027100746519863605 -0.010250394232571125 0.04682415351271629 -0.011609423905611038 -0.036916784942150116 0.016054436564445496 0.03168220818042755 0.05344252660870552 0.015398232266306877 -0.02421964704990387 -0.02005629800260067 0.03944907709956169 0.02620641142129898 0.0339592769742012 -0.05335940420627594 -0.009222246706485748 -0.046115390956401825 0.02861485444009304 -0.012572021223604679 -0.06417718529701233 4.143432597629726E-4 0.09885071218013763 -0.012977820821106434
142 0.19341056048870087 0.2562033236026764 0.3156876564025879 -0.05256669223308563 0.10422251373529434 0.25351136922836304 0.07334427535533905 0.06051132082939148 -0.02683454193174839 -0.06945298612117767 0.10033523291349411 -0.01836707629263401 0.007319965865463018 0.32983556389808655 -0.3931809067726135 -0.10966022312641144 -0.14590780436992645 -0.01818813756108284 -0.25382325053215027 -0.16014990210533142 -0.07525953650474548 -0.02142142504453659 -0.0049712988547980785 0.05117003619670868 0.15188851952552795 -0.12711285054683685 1.2378250539768487E-4 0.050564009696245193 0.31944453716278076 -0.29742318391799927 -0.15765933692455292 0.04776369407773018 0.07621326297521591 0.1835884004831314 0.0020084877032786608 0.25667649507522583 0.11258189380168915 0.14832891523838043 0.08570539206266403 -0.05242014676332474 -0.21499799191951752 0.1610044687986374 0.0762242004275322 -0.07469971477985382 0.06535656750202179 0.00501833762973547 0.04516996815800667 -0.2277149260044098 0.06264211982488632 -0.007615199312567711 7.564367115264758E-5 -0.23475831747055054 0.1914983093738556 0.21399609744548798 0.06891334801912308 -0.11678678542375565 0.07878730446100235 0.12873685359954834 -0.05610496550798416 -0.22332829236984253 -0.006946149747818708 -0.046028442680835724 0.4114852547645569 0.006299951113760471 -0.15789930522441864 0.5903408527374268 -0.21428242325782776 0.29813307523727417 -0.2311384230852127 0.08822464197874069 -0.18331274390220642 -0.12640441954135895 -0.04146616533398628 -0.1542353630065918 0.2957253158092499 -0.21650198101997375 -0.12752804160118103 -0.13326242566108704 -0.17322415113449097 -0.21951019763946533 -0.28682219982147217 0.08797915279865265 0.11885352432727814 0.050177283585071564 -0.1728343516588211 0.11372017115354538 -0.026044195517897606 -0.045171964913606644 0.14548394083976746 0.05478939786553383 0.1976143717765808 -0.2571861445903778 -0.06352062523365021 -0.006773195695132017 -0.2176523059606552 -0.2852911055088043 0.1185242235660553 0.20200392603874207 0.2793843150138855 -0.19202594459056854
940 -0.010329735465347767 0.010704219341278076 0.0011666167993098497 -0.0028591924346983433 -0.0017961973790079355 -0.006341914646327496 0.006437284406274557 0.0036584713961929083 -0.0021926062181591988 -0.00609864154830575 -6.537832668982446E-4 -0.0034326945897191763 -0.006209865212440491 0.005958055146038532 0.005292821209877729 0.0026218658313155174 -8.544857701053843E-5 -0.008067121729254723 -0.008170321583747864 -6.980263278819621E-4 -0.00117928022518754 -0.005898439325392246 -1.6130448784679174E-5 0.002019986044615507 0.004893635865300894 -0.008401934057474136 -0.001576004782691598 2.755870809778571E-4 -5.981232970952988E-4 -0.002099623903632164 -0.005010001361370087 0.00495773833245039 -9.349999018013477E-4 -0.0019692489877343178 -0.0024632620625197887 -0.0027692485600709915 0.0016927981050685048 -0.0028600385412573814 -0.006462519522756338 0.0028539695776998997 0.0023590070195496082 -0.0011655923444777727 -0.002981443190947175 -0.002018510363996029 0.006665990687906742 -0.005295932292938232 -0.001042658812366426 0.0047477660700678825 0.003360717324540019 0.006488458253443241 -0.002017607679590583 -0.0028009354136884212 -9.927034843713045E-4 0.0029375343583524227 -0.0017817581538110971 0.007339067757129669 -4.078998463228345E-4 0.004814233165234327 0.004492803011089563 0.0038731361273676157 -0.005486466456204653 -0.0060730441473424435 0.005535799078643322 0.007306945044547319 0.004662216175347567 1.5568852541036904E-4 -5.024147103540599E-4 0.012403587810695171 0.00914833601564169 -0.0017926142318174243 -0.0038575520738959312 -0.002366601722314954 0.0015090140514075756 -0.002917208941653371 0.0012013453524559736 -0.006077572237700224 -0.0065289936028420925 -0.008131067268550396 -0.005412367172539234 0.0077882190234959126 -0.008074622601270676 -0.001412040088325739 0.006032073870301247 -0.0010524416575208306 -0.0057200100272893906 0.006702940911054611 -0.004788330290466547 6.165803060866892E-4 -0.0021873197983950377 -0.005068772006779909 0.006060309708118439 0.005304968915879726 0.009581008926033974 -0.011779912747442722 -4.167573060840368E-4 -0.0033955699764192104 -0.0052451929077506065 0.005669790785759687 0.0011132844956591725 -0.0013101903023198247
268 -0.1715993881225586 0.037167444825172424 -0.08885839581489563 -0.06771919876337051 -0.0527271144092083 0.07326152920722961 0.07317644357681274 0.09210483729839325 0.10018550604581833 -0.012340044602751732 -0.03572019934654236 0.16237707436084747 -0.026520319283008575 -0.08423645794391632 0.053393639624118805 0.06275284290313721 0.1321999877691269 -0.05867468938231468 0.13909834623336792 -0.044474340975284576 0.1455049365758896 -0.17932656407356262 0.1442674696445465 -0.016080021858215332 -0.01633940450847149 -0.014581998810172081 0.13111546635627747 0.11533339321613312 0.023123009130358696 0.019247859716415405 0.05594853311777115 -0.20630612969398499 -0.045373786240816116 -0.1483897715806961 -0.08806560188531876 0.020103348419070244 -0.054614122956991196 -0.04304533451795578 -0.0229824036359787 -0.13390354812145233 0.11255667358636856 -0.15918773412704468 -0.008015461266040802 -0.19311800599098206 -0.07496931403875351 0.09573588520288467 0.08556605130434036 0.0027459810953587294 0.05894764885306358 0.018038194626569748 0.025758987292647362 0.04576656594872475 -0.051127828657627106 -0.15964871644973755 0.19071818888187408 0.13130442798137665 -0.07791855931282043 -0.20121917128562927 -0.1318376064300537 -0.09327186644077301 -0.11201602965593338 0.035619258880615234 0.033816248178482056 0.02359021268785 -0.12105537950992584 -0.0526382140815258 0.05161284655332565 0.33766424655914307 0.05919501185417175 0.06415306776762009 0.01641901582479477 0.0912136659026146 0.07695648074150085 -0.06477945297956467 0.1372300535440445 -0.13867340981960297 0.019952157512307167 -0.08314148336648941 -0.08712105453014374 0.2467222809791565 -0.055626895278692245 0.009766411036252975 0.027496838942170143 0.12456316500902176 0.005466214381158352 0.1090480387210846 -0.08663957566022873 -0.046282436698675156 -0.18843290209770203 0.10727386921644211 0.042803578078746796 -0.14673574268817902 -0.08461654186248779 -0.3467727601528168 0.002333112759515643 -0.061743080615997314 -0.20115257799625397 -0.13702446222305298 0.030241992324590683 -0.18723046779632568
69 -0.1902778148651123 0.08627992868423462 0.13795879483222961 0.018494870513677597 -0.0037159218918532133 0.11606243997812271 0.012859700247645378 -0.01494400855153799 0.06298701465129852 0.01536801178008318 0.06347727030515671 -0.18865956366062164 0.14146235585212708 0.121864452958107 0.10357031971216202 0.0044726962223649025 -0.03876584395766258 -0.1652028113603592 -0.042768530547618866 -0.11882344633340836 -0.11693012714385986 -0.2681877613067627 0.1752423197031021 0.07126521319150925 0.20523108541965485 -0.12315483391284943 0.17841529846191406 0.21106846630573273 0.12636953592300415 -0.09424552321434021 -0.1439821571111679 -0.006252959370613098 -0.07801511138677597 -0.014582032337784767 0.025231558829545975 -0.07685089111328125 -0.007022974546998739 -0.08540986478328705 -0.18649570643901825 0.0991150513291359 0.08329414576292038 0.11180146783590317 -0.12888824939727783 -0.21432633697986603 -0.16628912091255188 -0.15461689233779907 -0.10189688205718994 9.99015523120761E-4 0.06899979710578918 -0.0224775318056345 -0.13219816982746124 0.05102744698524475 0.11823247373104095 0.07005678862333298 0.21642795205116272 -0.0180168766528368 0.05990198254585266 -0.11556781083345413 0.014420460909605026 -0.278994619846344 -0.07278117537498474 -0.22611188888549805 0.30357176065444946 0.09256148338317871 -0.008439491502940655 0.25559109449386597 -0.05081798508763313 0.1616055965423584 -0.0813194140791893 0.020544007420539856 -0.1981084942817688 -0.04385636746883392 0.04686371237039566 -0.05089433118700981 0.11059636622667313 -0.19945810735225677 -0.015048417262732983 -0.16022180020809174 -0.17311809957027435 0.07466979324817657 -0.11240971833467484 0.10967040061950684 0.1232014149427414 0.11541547626256943 0.07606972008943558 0.13235583901405334 -0.007548472844064236 0.031277235597372055 -0.0954018160700798 0.010965881869196892 0.07011690735816956 -0.23186853528022766 0.1777765303850174 -0.058392420411109924 -0.09469370543956757 -0.1308080106973648 -0.10740603506565094 0.009616057388484478 0.23811176419258118 -0.18393830955028534
487 -0.025525111705064774 0.06856779009103775 0.012467906810343266 0.014538309536874294 0.0034852519165724516 -0.016218969598412514 -0.006269262172281742 -0.027988016605377197 -0.007423709146678448 -0.02803484909236431 0.022091154009103775 0.019161462783813477 -0.021550262346863747 0.020962297916412354 -0.06169600784778595 -0.008831544779241085 0.01970139518380165 -0.03392224386334419 -0.018010005354881287 -0.040681980550289154 -0.013361162506043911 -0.08763891458511353 0.013251394964754581 -0.006852063816040754 0.014094951562583447 -3.704233677126467E-4 0.024144751951098442 0.001364097697660327 -0.012120915576815605 -0.02693897671997547 -0.020986462011933327 0.020339850336313248 0.008489487692713737 -0.04053696244955063 0.01298396848142147 0.011152664199471474 0.03548091650009155 -0.012981303967535496 -0.010216443799436092 0.006689786445349455 0.01820235326886177 0.022093281149864197 -0.009771635755896568 -0.005342831835150719 0.017626218497753143 0.021235210821032524 0.01855907402932644 -0.05440268665552139 0.01884917914867401 0.038938701152801514 0.010716099292039871 0.04297012835741043 -0.02959173545241356 -0.00762964366003871 0.04418635740876198 -0.001145693939179182 0.01084455382078886 -0.027103401720523834 -0.04892412945628166 -0.05827846750617027 -0.020852793008089066 0.006958299782127142 0.03233567625284195 0.035751618444919586 -0.029954943805933 0.005369266029447317 -0.003574258415028453 0.06025645509362221 -0.009162334725260735 -0.0017925831489264965 0.0069106933660805225 -0.002434509340673685 0.01511829812079668 -0.009983371943235397 -0.01196566317230463 -0.03749778866767883 -0.02902703918516636 -0.04826554283499718 -0.020342828705906868 0.011897098273038864 0.008272052742540836 -0.02855164371430874 0.03200996294617653 0.043666284531354904 -0.010635964572429657 0.010045423172414303 -0.016839077696204185 0.04016704484820366 -0.009412752464413643 -0.006608800496906042 -6.836758693680167E-4 0.04661636799573898 0.04194394871592522 -0.009659519419074059 -0.009177240543067455 -0.03940970078110695 0.01236326526850462 0.005558046046644449 0.011619169265031815 -0.07665369659662247
572 -0.02401799149811268 -0.047918740659952164 0.015892313793301582 0.03254292905330658 -0.02655857801437378 -2.7352431789040565E-4 0.008017812855541706 -0.008445010520517826 0.026567813009023666 0.008763708174228668 -0.021967122331261635 -0.009594728238880634 0.012674440629780293 0.0029774752911180258 0.009263486601412296 0.010101408697664738 4.624759603757411E-4 -0.012432265095412731 -0.014144295826554298 -0.013185888528823853 -0.027257222682237625 -0.03714703768491745 -0.0029081155080348253 -0.008645528927445412 0.011127881705760956 -0.010713828727602959 0.005501310806721449 0.020360972732305527 0.007646012119948864 -0.012509528547525406 -0.029690472409129143 -0.011741472408175468 -0.004747625440359116 0.021582627668976784 -0.021628735587000847 -0.010252613574266434 -0.019907524809241295 6.091531249694526E-4 0.001779654179699719 -0.007114360574632883 -0.0026264844927936792 0.02452705055475235 -8.435027557425201E-4 -0.011568917892873287 -0.025212813168764114 -0.013163271360099316 -0.010657532140612602 0.007467974908649921 0.0031420879531651735 -0.0034460704773664474 -0.040271028876304626 -0.004986215382814407 6.644315435551107E-4 -0.004627341404557228 0.014253436587750912 0.005452348850667477 -0.001125324866734445 -0.007035284303128719 -0.001109281787648797 -0.012962281703948975 -0.006154701113700867 -0.020249636843800545 0.01154027134180069 0.016948837786912918 0.011419929563999176 0.01612965390086174 -0.0150296650826931 0.010003848932683468 -0.016004126518964767 0.0043957773596048355 -0.01587553322315216 -0.011579417623579502 -0.0012355223298072815 -0.008946520276367664 0.011903444305062294 -0.03422439843416214 0.006739242002367973 -0.019988076761364937 -0.0035462086088955402 0.01093183271586895 0.003470799420028925 -0.01550009660422802 0.017634587362408638 0.013487925752997398 0.029611557722091675 -0.005257794633507729 -0.02616518922150135 0.01826474443078041 -0.006374266929924488 0.020688101649284363 0.015573144890367985 -0.03532699868083 0.0037508048117160797 -0.01743566058576107 -8.1545056309551E-4 -0.017318524420261383 -0.02652384527027607 -0.00994474533945322 0.020451748743653297 -0.017363281920552254
666 -1.544526166981086E-4 -0.0028675305657088757 7.537758210673928E-4 0.00477164750918746 -0.0016322657465934753 0.003146215109154582 -0.004665748681873083 -0.003772377735003829 -0.0032545728608965874 0.0036659829784184694 0.0020753860007971525 -0.0027187708765268326 0.0039311666041612625 -2.775001630652696E-4 -0.004907921422272921 0.0034491538535803556 0.0031785189639776945 -0.0028735059313476086 -0.004847436677664518 -0.003152034943923354 -9.855121606960893E-4 -0.0033812271431088448 -0.004608878865838051 0.0033963315654546022 -0.0020390183199197054 0.0046995566226542 0.0011101722484454513 0.002085964661091566 -0.003131092293187976 9.574532305123284E-5 8.939284016378224E-4 -0.004368651658296585 -0.0027916193939745426 0.0017389082349836826 0.001955643994733691 0.0042993794195353985 -0.0020641323644667864 0.0034233159385621548 0.0019602698739618063 0.0035983985289931297 -0.0040857973508536816 -0.0033197931479662657 -0.0019660962279886007 -0.00201436853967607 0.004787560552358627 -0.0034037805162370205 -1.5181005437625572E-5 0.004629783798009157 -0.0012910476652905345 0.0013649910688400269 2.3729265376459807E-4 0.0018478083657100797 -4.4011115096509457E-4 -0.0027051789220422506 6.539839669130743E-4 0.0033191435504704714 5.49661519471556E-4 7.213747594505548E-4 -0.004602835979312658 -6.337830564007163E-4 -0.004553620237857103 0.004789214581251144 -0.004201408009976149 0.0038551180623471737 0.0030722939409315586 1.8641531642060727E-4 0.0044868700206279755 -3.4230828168801963E-4 -0.003130919300019741 -0.004384796135127544 9.505557827651501E-4 -0.002670898335054517 0.0029020248912274837 0.0013362711761146784 0.0035821234341710806 -0.001145453192293644 -0.0018417653627693653 -0.004874681122601032 -0.003938658628612757 -0.002232844475656748 -0.004569871351122856 4.526209959294647E-4 -0.0022011492401361465 -0.004963542800396681 -0.0038799364119768143 0.004441890865564346 -0.0020938224624842405 0.0026344461366534233 -0.0021771120373159647 -0.003558170283213258 0.0028365517500787973 -0.0032934790942817926 0.0012285953853279352 -0.0011045619612559676 4.026389215141535E-4 0.004034597426652908 0.003506230190396309 -0.0014737346209585667 0.0030464590527117252 0.0018897205591201782
30 0.05552773177623749 0.2155197262763977 0.36548733711242676 0.24794311821460724 -0.1178053766489029 -0.27220475673675537 0.1309749037027359 -0.0570555217564106 -0.009184629656374454 -0.03567996248602867 0.14871689677238464 0.02444729022681713 -0.024653054773807526 0.35174810886383057 -0.010164989158511162 0.029701286926865578 -0.10428931564092636 0.1306125521659851 -0.04463127627968788 0.059126727283000946 0.1576802134513855 -0.07860641181468964 -0.10369651764631271 0.06667131185531616 -0.03999326750636101 -0.19423635303974152 -0.0848289504647255 -0.05535323545336723 0.18136228621006012 0.12624426186084747 -0.17965389788150787 -0.28264984488487244 0.06303772330284119 0.2724660634994507 -0.09901384264230728 0.10052435845136642 -0.19383889436721802 -0.12491223216056824 -0.056985754519701004 -0.030506817623972893 0.2592891752719879 -0.04149790108203888 0.36421242356300354 -0.04254752770066261 0.2602539360523224 -0.2526605725288391 0.06549440324306488 -0.2916824519634247 0.19806163012981415 -0.04184305667877197 -0.1529919058084488 0.07073565572500229 0.10357028990983963 -0.1112351194024086 -0.16071662306785583 -0.006864295341074467 0.060991644859313965 0.02062026970088482 0.004571772180497646 -0.04889331012964249 -0.13454245030879974 -0.16951777040958405 0.19852183759212494 0.30137941241264343 0.33637064695358276 0.1755542904138565 0.12865114212036133 -0.3469729423522949 -0.26430609822273254 -0.07309094816446304 -0.14598290622234344 -0.15217988193035126 0.10228455811738968 0.14335887134075165 0.14013279974460602 -0.17461226880550385 0.13491159677505493 0.07316172122955322 0.0030840029940009117 0.015297552570700645 -0.04282839223742485 0.01079027634114027 0.18158815801143646 0.04071279242634773 0.19944289326667786 0.030381839722394943 -0.2242504358291626 -0.2522197663784027 0.32793018221855164 -2.8563657542690635E-4 0.3354686498641968 0.006819652859121561 0.1019514799118042 0.03220885246992111 -0.20220039784908295 -0.047845739871263504 -0.19209909439086914 0.18299995362758636 0.5871448516845703 -0.06112879142165184
677 -0.039068084210157394 -0.00221049040555954 0.024979090318083763 -0.00613959738984704 -0.02325296401977539 0.008888518437743187 0.007386017125099897 0.0024250447750091553 0.03235940262675285 -0.01436149887740612 0.0018683000234887004 0.01473963726311922 8.819140493869781E-4 0.011627220548689365 0.013834548182785511 -0.013473098166286945 0.02022453211247921 -0.019562263041734695 0.017534326761960983 -0.018023233860731125 0.01328829675912857 -0.058868516236543655 0.00960951205343008 0.010415025986731052 0.008014358580112457 -0.012182028032839298 0.03112560510635376 0.040966276079416275 0.012799162417650223 -0.013917491771280766 -0.018588954582810402 -0.04187123849987984 0.010419784113764763 -0.026415878906846046 -0.011841407045722008 0.01544681005179882 -0.01859216019511223 -0.030451597645878792 -0.022951435297727585 -0.030491357669234276 0.04076540470123291 -0.008076774887740612 0.001266035484150052 -0.03747047856450081 -0.027283331379294395 -0.011697664856910706 0.005266612395644188 0.002206140896305442 0.015531749464571476 -0.006622770335525274 -0.015531421639025211 0.019674988463521004 -6.711744354106486E-4 -0.03168119117617607 0.06079241633415222 0.00931825116276741 -0.023937195539474487 -0.04500362277030945 -0.01636577397584915 -0.03595061972737312 -0.03613537549972534 -0.010164707899093628 0.020110832527279854 0.0315907821059227 -0.004343362059444189 0.009990142658352852 0.0035896245390176773 0.0746845230460167 1.5531539247604087E-5 0.025500310584902763 -0.024553149938583374 0.024821747094392776 0.030778303742408752 0.009997807443141937 0.03551763668656349 -0.0384930856525898 0.027657190337777138 -0.028972124680876732 -0.027752621099352837 0.04905504360795021 -0.004688443150371313 -0.004991037305444479 0.019025223329663277 0.02026691474020481 0.033136457204818726 0.03391505777835846 -0.03973473235964775 0.01086274441331625 -0.042213018983602524 0.03559784218668938 0.030190359801054 -0.0485701709985733 0.01964384876191616 -0.07064829766750336 -0.009754586033523083 -0.005423801951110363 -0.053524620831012726 -0.03698492795228958 0.043346650898456573 -0.04545150324702263
482 -0.07688482850790024 0.024838007986545563 0.004552620463073254 -0.019443213939666748 0.01669623889029026 0.033706605434417725 0.010741837322711945 0.03172217309474945 0.024962598457932472 -0.023796260356903076 0.028289269655942917 0.058354899287223816 0.009023280814290047 -0.015020922757685184 -0.026208356022834778 -0.021791094914078712 0.04525936767458916 -0.03994530811905861 0.05017797648906708 -0.025659874081611633 0.02889205329120159 -0.07288013398647308 0.027723168954253197 0.0014509386382997036 -0.010128436610102654 -0.0023266698699444532 0.0527864433825016 0.007727053016424179 -0.011145345866680145 0.006621931213885546 -0.007457310799509287 -0.07311564683914185 0.015623839572072029 -0.06824936717748642 -0.013115882873535156 0.0046911598183214664 -0.0198579840362072 -0.031364910304546356 -0.05494559928774834 -0.06876179575920105 0.05849972367286682 -0.01991662010550499 0.012386700138449669 -0.0261857807636261 -0.04154334217309952 0.029950035735964775 0.011073315516114235 -0.043738510459661484 -0.008142022415995598 0.025455322116613388 0.04107644036412239 0.027830269187688828 -0.008293526247143745 -0.0803707167506218 0.07874201238155365 0.026893936097621918 -0.032391682267189026 -0.07027850300073624 -0.06704054027795792 -0.04566555097699165 -0.03529023006558418 0.013185177929699421 0.008552685379981995 0.037159696221351624 -0.03386642038822174 -0.009350437670946121 0.003097312990576029 0.1407528519630432 -0.0010095553006976843 0.011057935655117035 0.01239344384521246 0.04343094676733017 0.04015398398041725 0.014115970581769943 0.028513828292489052 -0.056375592947006226 0.03240592032670975 -0.07245971262454987 -0.025957366451621056 0.05938463285565376 0.017502648755908012 0.0011423114920035005 0.008017405867576599 0.020305117592215538 0.009758006781339645 0.014962485991418362 -0.029991917312145233 0.010157320648431778 -0.05035744979977608 0.057250455021858215 0.026166630908846855 -0.03857576847076416 -0.02065681293606758 -0.10040958225727081 0.008534743450582027 -0.0017632946837693453 -0.02954293228685856 -0.04707891494035721 0.029509516432881355 -0.11555616557598114
662 -0.045880675315856934 -0.01565839722752571 0.03939398005604744 0.020099952816963196 -0.03445219248533249 0.027154937386512756 0.006252817343920469 -0.01593182235956192 0.021314291283488274 -0.013288881629705429 0.01183344330638647 0.025214971974492073 0.01802155189216137 0.004998346325010061 -0.00700486870482564 -0.006047362461686134 0.020475313067436218 -0.020627561956644058 -0.004328431561589241 -0.0010405601933598518 0.006004785653203726 -0.07867232710123062 0.006163840182125568 0.0014050656463950872 0.017305556684732437 -0.021603718400001526 0.024416625499725342 0.0028107238467782736 0.0026023685932159424 -0.012908203527331352 -0.019921565428376198 -0.04663659259676933 -0.005811489652842283 -0.02853700891137123 -0.032629337161779404 -0.004785902798175812 -0.006893163081258535 -0.04349004477262497 -0.03337335214018822 -0.02759716287255287 0.019645841792225838 0.020511889830231667 0.0013785583432763815 -0.004240837879478931 -0.04146347939968109 -0.005119337234646082 -0.008796333335340023 -0.016244983300566673 0.012608222663402557 0.010203592479228973 -0.01612069271504879 -4.399655881570652E-5 -0.014183922670781612 -0.03538520634174347 0.05544599890708923 0.014503906480967999 -0.014422214590013027 -0.0329277403652668 -0.03390737995505333 -0.043026745319366455 -0.02583494409918785 -0.011942528188228607 0.0294036902487278 0.029144084081053734 -0.01410012599080801 -0.009456557221710682 -0.007599091622978449 0.07191969454288483 -0.009687995538115501 -0.006087003741413355 -0.033403974026441574 0.02133714221417904 0.03149842098355293 0.016356268897652626 0.027982881292700768 -0.05019748955965042 0.044874899089336395 -0.05974310636520386 -0.019760271534323692 0.038236353546381 -0.00818618480116129 0.0035369121469557285 0.0059282416477799416 0.013108529150485992 0.03496279567480087 0.010864478535950184 -0.035111621022224426 0.02918664552271366 -0.027916688472032547 0.04231935739517212 0.02753547392785549 -0.04459045082330704 0.00532618397846818 -0.06715087592601776 -0.006744456943124533 -0.02002660185098648 -0.01984715647995472 -0.04113238304853439 0.07627034932374954 -0.07078783959150314
375 -0.024855971336364746 0.05703417584300041 0.043374963104724884 -0.0402170829474926 0.03712102770805359 0.035988591611385345 -0.0029701923485845327 0.054116979241371155 0.03312802314758301 -0.07980354130268097 0.021060513332486153 0.05832837149500847 0.03348664939403534 0.051218003034591675 -6.988574750721455E-4 -0.05469701811671257 0.07068784534931183 -0.01400228776037693 0.07445216923952103 -0.05487947165966034 0.07154222577810287 -0.09364590048789978 0.02460949495434761 0.026886891573667526 0.044553935527801514 0.037066973745822906 0.14648056030273438 0.1573949158191681 0.09023978561162949 -0.01540268212556839 0.01830272376537323 -0.07491029053926468 -0.02226049080491066 -0.06466663628816605 -0.011923681013286114 0.05046382173895836 -0.10856322199106216 -0.009336966089904308 -0.11362738907337189 -0.07390382885932922 0.09655369818210602 -0.0495620034635067 -0.005937041249126196 -0.17930257320404053 -0.07454264909029007 -0.0207347609102726 0.010816947557032108 -0.04589949548244476 0.0786566212773323 -0.049799516797065735 0.03309743106365204 0.05182508006691933 0.04204031825065613 -0.04992438480257988 0.16321508586406708 0.035831935703754425 -0.02673129364848137 -0.15246213972568512 -0.02498599886894226 -0.09708801656961441 -0.04827192798256874 -0.03347494825720787 0.08390001952648163 0.04912695661187172 -0.06349627673625946 0.06201059743762016 0.048997409641742706 0.22003164887428284 0.007759731728583574 0.05240914970636368 -0.04844949021935463 0.08592329174280167 0.09397541731595993 -0.046279262751340866 0.06426502764225006 -0.11326051503419876 0.026616917923092842 -0.06514384597539902 -0.07534049451351166 0.14148709177970886 -0.03226669132709503 0.010155903175473213 0.023433929309248924 0.08615580201148987 0.013918161392211914 0.12213528156280518 -0.08653704822063446 -0.06010843813419342 -0.10387556254863739 0.03991607576608658 0.030090784654021263 -0.15793277323246002 -0.08613069355487823 -0.13044336438179016 0.02284523844718933 0.045981861650943756 -0.1357792317867279 -0.06091582402586937 0.08012159168720245 -0.12858934700489044
186 0.059262171387672424 -0.4181371331214905 -0.019535446539521217 0.3758080303668976 -0.040354225784540176 0.17872066795825958 0.20705531537532806 -0.05930665135383606 0.03945795074105263 -0.16649363934993744 -0.13644205033779144 0.05280844494700432 0.23757579922676086 -0.19291383028030396 -0.13099215924739838 -0.09216263890266418 0.17669348418712616 -0.10782142728567123 -0.22786958515644073 -0.272582083940506 -0.14637494087219238 -0.3996620774269104 -0.038350660353899 -0.025612540543079376 0.09515824913978577 0.055111147463321686 0.12255760282278061 0.11114110052585602 -0.02041933499276638 -0.13546927273273468 -0.334759384393692 0.0580732561647892 -0.0697883889079094 -0.08270158618688583 -0.2847382426261902 -0.17858578264713287 -0.08684370666742325 -0.0954476147890091 -0.23368896543979645 -0.05581928417086601 -0.12352899461984634 0.2869722247123718 0.08335331082344055 -0.07307089120149612 -0.316656231880188 -0.06975734978914261 -0.044634200632572174 -0.06651619076728821 -0.13671675324440002 -0.06502734124660492 -0.3547055125236511 -0.12173417955636978 -0.013436664827167988 0.0017466702265664935 0.24608106911182404 0.009919743053615093 -0.10068277269601822 0.01259611826390028 -0.10311244428157806 -0.09553802758455276 -0.04227085039019585 -0.20441795885562897 0.022458668798208237 0.18163271248340607 -0.15769167244434357 0.24983961880207062 -0.2929031550884247 -0.006507182959467173 -0.18622659146785736 -0.19916702806949615 -0.056906264275312424 0.16961434483528137 -0.010373648256063461 0.04155567288398743 -0.018141254782676697 -0.3062765598297119 0.09738871455192566 -0.2623436450958252 -0.08448576182126999 0.09301861375570297 0.11561427265405655 0.018959859386086464 0.1718607097864151 -0.04044165089726448 0.12400563061237335 -0.20912936329841614 -0.24466079473495483 0.09435569494962692 0.10836096107959747 0.27449941635131836 0.23181100189685822 0.039200130850076675 0.08625488728284836 -0.09029802680015564 0.07872094213962555 -0.0774814710021019 -0.24897019565105438 -0.24153147637844086 -0.08995112031698227 -0.23787885904312134
257 -0.2097073495388031 -0.08046158403158188 0.024345094338059425 -0.025424813851714134 -0.14644818007946014 0.1160266250371933 0.09270868450403214 -0.05156923457980156 0.05921301618218422 -0.03376392647624016 0.010791138745844364 0.07470057159662247 -0.018420949578285217 -0.008501589298248291 0.010173199698328972 0.022527998313307762 0.014848987571895123 -0.14867107570171356 0.00923569593578577 0.017554648220539093 -0.07309067994356155 -0.25108394026756287 0.03859570994973183 -0.05919642373919487 0.01592513918876648 -0.10854048281908035 0.06432607769966125 0.09257058054208755 0.014400816522538662 -0.016560819000005722 -0.06728705018758774 -0.14897428452968597 0.062005072832107544 0.006128932815045118 -0.02779405191540718 -0.04941170662641525 -0.052229803055524826 -0.12037547677755356 -0.1090937927365303 -0.07122718542814255 0.10828163474798203 0.02655051276087761 0.028793320059776306 -0.053104959428310394 -0.1889759600162506 -0.0016656280495226383 0.033876050263643265 0.004212070722132921 -0.03549514338374138 0.0639570876955986 -0.09637721627950668 -0.001338351285085082 -0.030396265909075737 -0.09502243250608444 0.1793617606163025 0.08253735303878784 -0.13995732367038727 -0.16023680567741394 -0.032271936535835266 -0.09808403253555298 -0.07844644039869308 -0.08773097395896912 -0.0034938803873956203 0.10770328342914581 -0.05600106716156006 0.004330538213253021 0.033135611563920975 0.1857197880744934 0.003265501232817769 0.0360286571085453 -0.019245948642492294 0.07392963767051697 0.01710149273276329 -0.046324387192726135 0.0830240547657013 -0.15507741272449493 0.022228823974728584 -0.07759764790534973 -0.09950515627861023 0.21623529493808746 0.0062845922075212 -0.08297234028577805 0.06863560527563095 0.011405873112380505 0.15559546649456024 0.1280212551355362 -0.08989133685827255 0.044743213802576065 -0.19094295799732208 0.06785770505666733 0.059590622782707214 -0.21377071738243103 -0.0426187701523304 -0.26981809735298157 -0.004586185794323683 -0.08691905438899994 -0.190714493393898 -0.0881512239575386 0.19824226200580597 -0.26784220337867737
840 -0.01899753510951996 -0.016931084915995598 0.006186456419527531 -0.0010785532649606466 -0.013084815815091133 0.01040450669825077 0.01743023656308651 7.159856613725424E-5 0.008999723009765148 -0.010977175086736679 0.007707161828875542 0.018819916993379593 0.014322749339044094 -0.0021235558670014143 3.131038974970579E-4 0.0012270661536604166 0.005739616230130196 -0.003501690225675702 0.013725224882364273 -0.015549525618553162 -0.0025329634081572294 -0.04948119819164276 0.029166823253035545 7.138330256566405E-4 0.008702228777110577 -0.008762539364397526 0.022549262270331383 0.013423464260995388 0.015364333987236023 -0.0022106284741312265 -0.016057856380939484 -0.04071701690554619 -0.009663661010563374 0.006171043962240219 -0.014391875825822353 -0.005677083507180214 -0.00795096717774868 -2.0090796169824898E-4 -0.01411343365907669 -0.015929190441966057 0.017835339531302452 0.007980335503816605 0.005985619965940714 -0.029316041618585587 -0.019618598744273186 0.002654691692441702 -0.005513766780495644 0.0022483859211206436 0.0017453136388212442 9.307907894253731E-4 -0.012995374388992786 -0.0041302102617919445 1.7881992971524596E-4 -0.011993372812867165 0.025053219869732857 0.006682953331619501 -0.012960986234247684 -0.028419461101293564 -0.018761521205306053 -0.035298705101013184 -0.017684753984212875 -0.006847021169960499 0.021400829777121544 0.013797992840409279 -9.628614643588662E-4 0.01487911120057106 0.004905709531158209 0.029023854061961174 -0.015107408165931702 -0.004879156593233347 0.002527619944885373 -0.00638555409386754 0.027734538540244102 -0.0030303034000098705 0.01781136356294155 -0.02486111782491207 0.012089701369404793 -0.010843378491699696 -0.020978353917598724 0.01704995520412922 -0.01949143409729004 -0.0050543793477118015 0.00600794330239296 0.01032357756048441 0.01679377257823944 0.005078005604445934 -0.0020659107249230146 -0.0019178378861397505 0.005909863859415054 0.019318565726280212 0.011627264320850372 -0.028642874211072922 -0.010165415704250336 -0.026298092678189278 -0.004236126318573952 -0.014597389847040176 -0.02240191400051117 -0.01887555606663227 0.029269598424434662 -0.035555027425289154
232 0.06289041042327881 -0.5447626113891602 -0.1894867718219757 0.3265375792980194 0.023827726021409035 0.23575304448604584 0.30578067898750305 0.08791617304086685 -0.03249385207891464 -0.21862256526947021 -0.07772903889417648 0.1800796538591385 0.3835470974445343 -0.24636511504650116 -0.016766561195254326 -0.16211526095867157 0.2344599962234497 -0.04611298069357872 -0.2919684648513794 -0.4859773814678192 -0.08479749411344528 -0.4458372890949249 -0.0026938447263091803 0.06435324251651764 0.11262410879135132 0.05241462215781212 0.09267909079790115 0.2536511719226837 0.0656847208738327 -0.11213844269514084 -0.4193553626537323 -0.09728475660085678 -0.06777551025152206 -0.20002435147762299 -0.3639254570007324 -0.17625194787979126 -0.19415655732154846 0.0017225381452590227 -0.38424256443977356 -0.0535547137260437 -0.1534106731414795 0.1942979246377945 0.2569696605205536 -0.10122347623109818 -0.4296703040599823 -0.006064613349735737 -0.012463352642953396 -0.08641097694635391 -0.3150756359100342 -0.1502581536769867 -0.43310558795928955 -0.2293393313884735 0.08634088933467865 -0.0832648053765297 0.2303202599287033 0.14113958179950714 -0.24057546257972717 -0.022950859740376472 -0.09501300007104874 -0.07007630169391632 -0.029050622135400772 -0.3491569459438324 -0.07343275099992752 0.2821202278137207 -0.17694418132305145 0.34791871905326843 -0.5304023623466492 -0.07484561204910278 -0.17731131613254547 -0.2916433811187744 -0.08670422434806824 0.28556737303733826 -0.022368527948856354 0.08360008150339127 0.025591228157281876 -0.40312978625297546 0.23950640857219696 -0.3661688566207886 -0.014477519318461418 0.1809927076101303 0.24606850743293762 0.10733116418123245 0.12265884131193161 -0.14504310488700867 0.10515390336513519 -0.419443815946579 -0.18326736986637115 0.0023794781882315874 0.3119165301322937 0.5074447989463806 0.3031846582889557 0.08532430976629257 0.19604486227035522 -0.046057458966970444 0.16961348056793213 -0.0301898792386055 -0.3419978618621826 -0.34246811270713806 -0.15448132157325745 -0.16967424750328064
139 -0.35979288816452026 0.5110870599746704 -0.06466513127088547 0.06331978738307953 -0.014281180687248707 0.019383504986763 0.08078119903802872 -0.027402333915233612 0.0877235159277916 0.16396759450435638 0.18641260266304016 0.2181178629398346 -0.04029669612646103 -0.0759190022945404 -0.13532736897468567 -0.1818188577890396 -0.06064071133732796 -0.2318497747182846 -0.044919755309820175 -0.10634083300828934 -0.12746357917785645 -0.20462343096733093 -0.0562918595969677 -0.09056690335273743 0.06186481565237045 -0.16727258265018463 0.06256616860628128 -0.2600586712360382 -0.07957392930984497 -0.12184972316026688 -0.10492608696222305 0.002781640738248825 0.11345240473747253 -0.10554256290197372 0.061721738427877426 -0.08610394597053528 -0.09061700850725174 -0.18879194557666779 0.09665414690971375 -0.09741310775279999 0.110513836145401 0.17591410875320435 0.07909868657588959 0.3147732615470886 0.09240182489156723 -0.027687011286616325 -0.0030155794229358435 -0.38126879930496216 -0.0466451421380043 0.2868778705596924 0.05519973486661911 0.06854680925607681 -0.1635965257883072 -0.08548387140035629 0.056234728544950485 -0.0979587510228157 0.1709367036819458 -0.03763037547469139 -0.13141851127147675 -6.196714821271598E-4 0.06228482723236084 0.12161794304847717 0.03047296777367592 0.10185988247394562 0.06833140552043915 -0.03534014895558357 0.04718461260199547 0.07222627103328705 0.001852091634646058 -0.015791157260537148 0.17867420613765717 0.10479635000228882 -0.11630424112081528 0.03205114230513573 0.00765972537919879 -0.03702078387141228 -0.06396188586950302 -0.2074129432439804 0.0674600899219513 -0.15131665766239166 0.2757900357246399 0.00866702850908041 0.04673171788454056 -0.07739268243312836 -0.24205157160758972 -0.15677368640899658 0.0010279265698045492 0.11742792278528214 0.2397385984659195 -0.05740195885300636 0.1261417418718338 0.23161567747592926 0.010387182235717773 -0.0741388201713562 0.2166738361120224 0.08032088726758957 0.16360507905483246 0.1906956434249878 0.09233243018388748 -0.09443797916173935
359 -0.31505244970321655 -0.3665928840637207 0.024909870699048042 0.24916815757751465 -0.10786651819944382 -0.011921173892915249 -0.06997703015804291 0.03024640493094921 0.2105291187763214 0.10478804260492325 -0.252219557762146 -0.17878316342830658 -0.06082318350672722 -0.017287271097302437 0.05427888408303261 0.1696753054857254 -0.05981499329209328 -0.011989868246018887 -0.09586086124181747 0.0878242701292038 -0.018421757966279984 -0.08859547972679138 -0.029006388038396835 -0.05254736915230751 0.059609003365039825 -0.17964094877243042 -0.020946037024259567 -0.05116250365972519 0.1204545646905899 0.12759193778038025 -0.09712567925453186 -0.10704897344112396 0.11623164266347885 0.19461190700531006 -0.018745852634310722 -0.22779063880443573 -0.08140195161104202 -0.028306378051638603 -0.17680509388446808 -0.0896281898021698 0.17074258625507355 -0.07533625513315201 -0.1025460809469223 0.02148725651204586 -0.4464598596096039 0.12963345646858215 -0.13795243203639984 0.002060873433947563 -0.07070767134428024 -0.015305246226489544 -0.21822768449783325 -0.009373645298182964 0.007955741137266159 0.04975011944770813 -0.016078583896160126 0.12976694107055664 -0.15318547189235687 -0.1823624223470688 -0.06666640192270279 -0.10833514481782913 0.0025422871112823486 -0.23761366307735443 0.14176444709300995 -0.06533357501029968 0.1472022980451584 -0.09097743779420853 -0.006560592912137508 0.2612197995185852 -0.2241811901330948 -0.005262168124318123 -0.25729799270629883 0.20472387969493866 -0.24626952409744263 -0.17479583621025085 0.173661008477211 -0.11001322418451309 0.09075205773115158 -0.22732608020305634 0.31899768114089966 0.22314141690731049 0.052347201853990555 -0.12992912530899048 -0.016103249043226242 0.22551646828651428 0.1773078739643097 0.10281167924404144 -0.14865612983703613 0.2592599391937256 -0.4387643039226532 0.15964601933956146 -0.03973831981420517 -0.4618379473686218 -0.1749281883239746 -0.3390521705150604 0.09188957512378693 -0.1023515909910202 0.001347672427073121 -0.11050385981798172 0.03109610266983509 -0.20970280468463898
861 -0.006142737343907356 0.0015902819577604532 0.0063903783448040485 -0.0030538972932845354 0.0018255391623824835 3.265542909502983E-5 8.784853271208704E-4 0.006091577932238579 -0.0031563183292746544 0.0033508711494505405 0.001187077141366899 -0.003536687232553959 -0.002435615286231041 0.0037765412125736475 0.004130266141146421 -2.808918943628669E-4 -0.007184704300016165 -0.005108065903186798 -0.004009881988167763 0.004205832723528147 6.749541498720646E-4 0.005330596584826708 -0.001602347125299275 -0.0020687784999608994 -5.638787406496704E-4 -3.2287812791764736E-4 -0.005872855428606272 -0.0072801923379302025 -6.239293143153191E-4 3.422254230827093E-4 0.01011217013001442 3.9842422120273113E-4 1.1983560398221016E-4 0.0026834066957235336 -6.117795128375292E-4 0.0036646733060479164 -0.003956805448979139 0.008256111294031143 0.007639443967491388 0.0012931192759424448 -0.005889704916626215 0.007736674975603819 -0.0021190373227000237 0.00456082820892334 9.57725802436471E-4 -0.007234576158225536 0.008084380999207497 -0.00413977587595582 0.007553568109869957 8.94010066986084E-4 0.01152157410979271 -0.004477649461477995 -0.004955754615366459 -0.008903445675969124 -0.007470270153135061 -9.727948345243931E-4 0.005167493596673012 5.617033457383513E-4 7.48195219784975E-4 0.009436718188226223 0.004867623560130596 -0.0010191220790147781 -9.647987317293882E-4 -0.0019843527115881443 0.001437887316569686 0.0047886306419968605 0.0018483642488718033 0.0022208092268556356 0.007674855180084705 0.0021775425411760807 -0.0010498673655092716 -0.01102555263787508 0.005352652631700039 -0.005034805741161108 -0.003903024597093463 -0.012118767946958542 0.0033814592752605677 -0.002947755390778184 0.0022004786878824234 -0.00496515491977334 -0.0015205079689621925 0.0026720999740064144 -0.0015960787422955036 -0.0095401331782341 0.00362346600741148 -5.274835275486112E-4 -0.005346669815480709 0.005323045887053013 -0.002898560371249914 2.394593320786953E-4 -1.571624306961894E-5 -0.009208893403410912 -0.0021726239938288927 0.007990369573235512 -0.0017879139631986618 -0.0021334753837436438 -0.0023638640996068716 0.0063439407385885715 -0.0026267035864293575 0.011313879862427711
523 -0.03605670854449272 -0.03098551370203495 0.016144614666700363 0.013387449085712433 -0.022564129903912544 -1.6701160348020494E-4 0.0036007058806717396 -0.016302254050970078 0.007971016690135002 0.01445792056620121 -0.014813650399446487 0.008280453272163868 -0.004390474874526262 0.006863517686724663 0.004875802900642157 -0.0015021351864561439 0.00483523728325963 -0.008785426616668701 -0.007704622577875853 4.692253132816404E-4 -0.017191816121339798 -0.026645803824067116 0.017804935574531555 0.009214975871145725 1.5326752327382565E-4 -0.015869513154029846 -0.0014484807616099715 -0.012426341883838177 0.003571977373212576 -0.007410944905132055 -0.019251860678195953 -0.01879352517426014 0.006536354776471853 0.012873050756752491 0.0018431894714012742 -0.008518695831298828 4.804114578291774E-4 -0.0013352727983146906 0.004382415674626827 -0.005339955445379019 0.011965741403400898 0.00947016291320324 0.0068310825154185295 0.01567898690700531 -0.03730816766619682 -0.006149213761091232 -0.0018996186554431915 0.0020827753469347954 0.0024498365819454193 -3.842980950139463E-4 -0.0177068542689085 -0.010838706977665424 -0.017550095915794373 7.914912421256304E-4 0.012328999117016792 0.00511295348405838 -0.013113481923937798 -0.017677146941423416 -0.008754920214414597 -0.010567010380327702 -0.015331942588090897 -0.010094186291098595 0.008499599061906338 0.003402658272534609 0.015122540295124054 -0.007189360447227955 -0.002960711484774947 0.02129395306110382 -0.012203016318380833 0.007635525427758694 -0.01019102893769741 0.01170185673981905 -0.006530891638249159 0.011442062444984913 0.012283573858439922 -0.014877904206514359 0.024675248190760612 -0.019235113635659218 0.002374335192143917 8.805599063634872E-4 0.0035333482082933187 -0.01432130578905344 0.009991681203246117 0.01009771041572094 0.01950620673596859 0.0061559476889669895 -0.013034580275416374 0.031417883932590485 -0.0215607937425375 0.01850888505578041 -9.64286969974637E-4 -0.032324157655239105 0.007146983407437801 -0.017304718494415283 0.00244064349681139 -0.015244473703205585 -0.0035477166529744864 -0.022384827956557274 0.00793050043284893 -0.023120999336242676
779 -5.856105126440525E-4 0.021465716883540154 0.006754694972187281 0.014632919803261757 0.010721120983362198 0.005605264101177454 -0.01710907369852066 2.9794115107506514E-4 0.020048581063747406 -0.013179301284253597 0.020571501925587654 -0.002441337564960122 -0.009007337503135204 -0.004780251067131758 -0.01456139050424099 -0.01218084990978241 -0.006535946391522884 -2.9369298135861754E-4 0.0022904430516064167 -8.64547211676836E-4 0.023450110107660294 -0.02659294568002224 -0.016308141872286797 -0.01593206264078617 0.02603328973054886 -0.018774650990962982 0.012572822161018848 -0.011771878227591515 0.0031862561590969563 -0.01046367734670639 0.009836300276219845 -0.0073728482238948345 0.014330721460282803 -0.01575174555182457 -0.006064838729798794 0.0031319791451096535 8.140263962559402E-4 -0.020178407430648804 -0.03888030722737312 -0.010646210983395576 0.030087977647781372 0.006754742003977299 -0.005331129301339388 0.020934006199240685 -0.013060384429991245 0.019845960661768913 -0.01613096334040165 -0.027505915611982346 -0.00882587768137455 0.01915944740176201 0.010847534984350204 0.036271341145038605 0.02012636326253414 -0.011252455413341522 0.03286626562476158 0.004851209931075573 -0.0035463350359350443 -0.019889960065484047 -0.02633815072476864 -0.03847389295697212 -0.012121954001486301 -0.00596456415951252 0.01659557595849037 0.012540113180875778 0.005510534625500441 -0.016355078667402267 -0.007607130333781242 0.0379936546087265 -0.023644806817173958 -0.01188755314797163 -0.018572427332401276 0.024144960567355156 -0.015735937282443047 -0.009389459155499935 0.03780640289187431 -0.013186851516366005 0.024141181260347366 -0.02816527709364891 0.02540278434753418 0.03373107314109802 0.00927644595503807 -0.007388169411569834 0.006031793542206287 0.019420064985752106 0.012266754172742367 0.008936459198594093 -0.005641554947942495 0.020474575459957123 -0.016647130250930786 0.018127862364053726 0.01150278840214014 -0.010736431926488876 0.013002397492527962 -0.02469491958618164 0.015344277955591679 -0.008444145321846008 0.008927162736654282 -0.005456022918224335 0.027725674211978912 -0.04079621285200119
244 0.031440798193216324 -0.03669511899352074 0.26024889945983887 0.13101941347122192 -0.31454533338546753 -0.06071559339761734 0.1488126814365387 -0.37488263845443726 0.0811590701341629 -0.032646164298057556 0.10100294649600983 0.07508251070976257 -0.050466280430555344 0.1606164127588272 0.10991914570331573 -0.0027846761513501406 -0.0894736796617508 -0.047976307570934296 0.09207532554864883 0.11104616522789001 -0.07740149646997452 -0.13095000386238098 0.144419327378273 -0.032695166766643524 0.09802323579788208 -0.25505852699279785 0.03328433632850647 0.02263394370675087 0.0717906653881073 -0.05181971564888954 -0.13310319185256958 -0.18834805488586426 0.011368422769010067 0.23110990226268768 -0.23312197625637054 0.05215759575366974 -0.20842236280441284 -0.14851327240467072 0.020281409844756126 0.07111010700464249 0.22748440504074097 0.13022011518478394 0.16815826296806335 -0.1334773451089859 0.030705710873007774 -0.2465985119342804 -0.029214248061180115 0.020322874188423157 -0.008083576336503029 0.08953789621591568 -0.15293866395950317 0.1237577572464943 -0.003000248223543167 -0.03494669869542122 0.08357493579387665 -0.09426809847354889 -0.04251926392316818 -0.016265401616692543 -0.018221531063318253 -0.08195584267377853 -0.20238061249256134 -0.07167680561542511 0.10638344287872314 0.27357304096221924 0.1649126410484314 0.06632132083177567 0.06626203656196594 -0.18126292526721954 -0.07763946801424026 0.07098788022994995 0.020039096474647522 -0.25555598735809326 0.20698273181915283 -0.09398746490478516 0.14229632914066315 -0.15958143770694733 -0.019726883620023727 0.09185434877872467 -0.20379361510276794 0.051777761429548264 -0.09701479971408844 -0.14820805191993713 0.12381447851657867 0.062095921486616135 0.2284347116947174 0.24549470841884613 -0.04461711272597313 -0.014485422521829605 0.10824140906333923 -0.06573563069105148 0.05881540849804878 -0.2530531585216522 0.0032738361041992903 -0.08128102123737335 -0.06662192940711975 -0.1720372885465622 -0.15472997725009918 0.10570652782917023 0.4223717451095581 -0.23485153913497925
449 -0.05344494804739952 -0.07333527505397797 -0.007709043566137552 0.05287434905767441 -0.03903965651988983 0.015402879565954208 0.04859906807541847 -0.04160091280937195 0.030601078644394875 -0.011349041946232319 -0.004642233718186617 0.02989984303712845 -0.0035594196524471045 -0.01149023324251175 -0.009424583986401558 -0.018630700185894966 0.009980556555092335 -0.014547551982104778 -0.004033667966723442 -0.04401520639657974 -0.028523914515972137 -0.10477999597787857 0.0547381192445755 -0.019323809072375298 0.02364172413945198 -0.05925077572464943 0.03553275018930435 0.005548698361963034 -0.004121540579944849 -0.037664685398340225 -0.05589143559336662 -0.03866513445973396 -0.0036755194887518883 0.02383047714829445 -0.04935099929571152 -0.009208912961184978 -0.02764197252690792 -0.011986509896814823 -0.03177256137132645 -0.0031492060516029596 0.018137840554118156 0.03289655223488808 0.016955353319644928 -0.004033341072499752 -0.058155789971351624 0.004243110306560993 0.018945302814245224 -0.01865464448928833 -0.022674059495329857 0.013315882533788681 -0.05542523041367531 -0.020008042454719543 -0.017163202166557312 -0.01045995857566595 0.06439892202615738 0.011651229113340378 -0.012291709892451763 -0.03597339615225792 -0.03311561048030853 -0.05008039250969887 -0.0499650239944458 -0.02502991259098053 0.007494419813156128 0.037401340901851654 -0.011301620863378048 0.032419536262750626 -0.030791953206062317 0.03396117314696312 -0.041607845574617386 0.001504192827269435 0.0037123241927474737 0.01628747768700123 -0.004214814864099026 -0.017456604167819023 0.036100007593631744 -0.07436511665582657 0.013524800539016724 -0.04689923673868179 -0.0180432740598917 0.04344474524259567 0.021457312628626823 -0.05836935713887215 0.030244356021285057 0.02416258677840233 0.03520785644650459 0.002634709235280752 -0.03778161481022835 0.04798906296491623 -0.015626350417733192 0.041899897158145905 0.04792463034391403 -0.02131028100848198 0.02276749536395073 -0.06110423058271408 0.020882396027445793 -0.01895197480916977 -0.04645124822854996 -0.0318598598241806 0.032792478799819946 -0.06546274572610855
15 -0.3090992569923401 -0.18506892025470734 0.20416180789470673 -0.08470801264047623 0.1282682567834854 0.15339741110801697 0.18305887281894684 0.2657428979873657 -0.0467413067817688 0.0168070700019598 0.04549635946750641 -0.12564486265182495 0.029024994000792503 0.14224082231521606 -0.10157790780067444 0.13002930581569672 -0.3394838869571686 -0.14223605394363403 -0.11570291966199875 0.16481375694274902 -0.15495790541172028 -0.06550125777721405 -0.17270711064338684 -0.2041749805212021 -0.0677022710442543 0.15117381513118744 -0.18149840831756592 0.028622692450881004 0.10272009670734406 0.2769492566585541 -0.20986616611480713 0.13247616589069366 0.14841996133327484 0.21883048117160797 0.27417656779289246 -0.14326247572898865 -0.09320786595344543 0.2454894483089447 -0.1951945722103119 -0.29071006178855896 -0.019622739404439926 -0.003587170271202922 -0.06854338198900223 -0.2527819573879242 0.13679884374141693 -0.022089723497629166 0.1675150841474533 -0.1830953061580658 0.05196523666381836 0.05054071918129921 0.06925511360168457 -0.17624662816524506 0.07088379561901093 -0.032282713800668716 -0.2389337718486786 -0.01952173374593258 0.16534766554832458 -0.17867974936962128 -0.13443531095981598 0.25401440262794495 0.22705017030239105 -0.054558731615543365 0.24029770493507385 0.25334087014198303 0.1028616726398468 0.34863221645355225 0.1437326967716217 0.3203301727771759 0.01796896569430828 0.22248876094818115 0.09381882846355438 -0.31141218543052673 0.08902231603860855 -0.06963389366865158 -0.024434907361865044 -0.13764458894729614 -0.393920361995697 -0.13066451251506805 -0.14642910659313202 0.09479103237390518 -0.049074437469244 -0.09714704751968384 0.14415740966796875 -0.16522693634033203 0.3375602960586548 -0.05012884363532066 -0.169433131814003 0.08997151255607605 -0.09515240043401718 -0.06933929771184921 0.11475732177495956 -0.034767959266901016 0.25356316566467285 0.04591437429189682 0.02332565002143383 -0.23565256595611572 -0.06255777925252914 0.4523807764053345 0.09448576718568802 -0.1950107365846634
850 -0.013105305843055248 0.005906874313950539 -0.0039994241669774055 0.00604259455576539 -4.118286306038499E-4 -4.6667433343827724E-4 -0.00173460622318089 0.003971969708800316 -5.850950255990028E-4 -0.0051415059715509415 0.001448705093935132 0.010075250640511513 -0.0017161228461191058 -0.005903149954974651 -0.004123595543205738 -8.110820781439543E-4 0.0075905476696789265 0.003107046475633979 2.683177590370178E-4 0.0010070500429719687 0.007993358187377453 -0.009828380309045315 0.008506597951054573 -0.006846216041594744 2.908860333263874E-4 -0.006533915176987648 0.004593741614371538 -0.00805310532450676 0.0020682786125689745 0.00619211932644248 0.0014083348214626312 -0.00807134062051773 0.0011696915607899427 -0.006330023519694805 0.0029091257601976395 -0.006183779798448086 0.009085051715373993 8.821861702017486E-4 -0.006848771590739489 -0.005828347057104111 0.0019198179943487048 -4.800022579729557E-4 0.002778381574898958 -0.002965817227959633 -8.911127224564552E-5 0.015413937158882618 0.005200668703764677 0.004959139507263899 -0.0032333272974938154 0.0013931768480688334 -0.0013045156374573708 -0.012115377932786942 -0.005870001390576363 -0.002731952117756009 0.004383116494864225 0.00434732623398304 -1.3121883966960013E-4 -0.00324169616214931 -0.003805241547524929 -0.004191112704575062 -0.006389550864696503 -0.001489897957071662 0.0011002985993400216 8.446572464890778E-4 5.937123205512762E-4 -0.0031501995399594307 0.002590069780126214 0.01803365722298622 -0.006462336517870426 0.0023135454393923283 0.0017182189039885998 0.0026973732747137547 0.003184929955750704 -5.130802746862173E-4 0.0041693770326673985 -0.006505735218524933 0.009445840492844582 3.360832342877984E-4 -6.814424705225974E-5 0.0019849389791488647 -0.0028197425417602062 0.0022531957365572453 -2.5699817342683673E-5 0.00308917835354805 0.0030017769895493984 -0.008391129784286022 0.0023157508112490177 0.0049771759659051895 -0.006995475850999355 0.006425661034882069 0.003124510170891881 0.0020240149460732937 -0.002510795369744301 -0.011226021684706211 -0.008210512809455395 -0.003208778565749526 0.002454192377626896 -0.007098235655575991 -5.830758018419147E-4 -0.014568807557225227
363 -0.16071417927742004 0.08008614182472229 0.0253713708370924 -0.11174983531236649 -0.07766827940940857 0.11503308266401291 0.05389707535505295 0.023256991058588028 0.049035996198654175 -0.09371031820774078 0.005641244817525148 0.18563604354858398 0.004969580098986626 -0.007936731912195683 0.04206810146570206 -0.025808146223425865 0.1057325229048729 -0.1149498000741005 0.10460299253463745 -0.003561178222298622 0.07377468794584274 -0.18176718056201935 0.13993482291698456 0.01818169467151165 -0.023437343537807465 -0.06273196637630463 0.16184288263320923 0.13366711139678955 0.07186075299978256 -0.013651206158101559 0.03847270458936691 -0.20043520629405975 0.018632395192980766 -0.09644962102174759 -0.07515653222799301 0.02495945431292057 -0.08847399055957794 -0.13206325471401215 -0.09331702440977097 -0.11073089390993118 0.14166414737701416 -0.08524291217327118 0.0013913721777498722 -0.17345085740089417 -0.1942763328552246 0.015120081603527069 0.028364844620227814 0.024782098829746246 0.018521582707762718 0.0279266107827425 6.980737671256065E-4 0.001969018718227744 -0.032273340970277786 -0.12405089288949966 0.24799376726150513 0.0978953018784523 -0.1414741724729538 -0.18459853529930115 -0.02711137942969799 -0.07329770177602768 -0.10369876027107239 -0.012407122179865837 0.03169558197259903 0.03527933359146118 -0.0767705887556076 -0.03714974969625473 0.08380905538797379 0.3342709541320801 0.056682053953409195 0.04685678705573082 0.017021220177412033 0.11981410533189774 0.1138530746102333 -0.04991144686937332 0.12214036285877228 -0.13082469999790192 0.05037199705839157 -0.03646734356880188 -0.1602228432893753 0.25509020686149597 -0.0964781790971756 -0.012326768599450588 0.00940297357738018 0.04232216626405716 0.048074543476104736 0.24257133901119232 -0.0783310979604721 -0.050790589302778244 -0.18896925449371338 0.07168049365282059 0.0154908187687397 -0.3035944104194641 -0.2068450003862381 -0.34830209612846375 -0.029344499111175537 -0.016040891408920288 -0.1955748051404953 -0.11942914873361588 0.1701556295156479 -0.29982808232307434
131 -0.29984840750694275 0.42345166206359863 -0.0115736722946167 -0.159051775932312 0.2600539028644562 0.23480917513370514 -0.032018180936574936 0.5239766240119934 -0.10346423089504242 -0.1942899525165558 0.3245214521884918 0.11653846502304077 0.012190745212137699 0.11404319107532501 0.05435940623283386 -0.1778218001127243 0.24766388535499573 0.17494317889213562 0.2619984745979309 -0.053480904549360275 0.4676186442375183 -0.006837114691734314 0.10784581303596497 0.11656894534826279 -0.2091035097837448 0.03750789910554886 0.21494844555854797 0.2042965441942215 0.18329846858978271 0.038109440356492996 -0.03404056653380394 -0.32032930850982666 -0.12191327661275864 -0.1675679236650467 -0.08256839215755463 0.2003806233406067 -0.008569346740841866 0.00590055575594306 -0.15764862298965454 -0.25991469621658325 0.11605288088321686 -0.38107913732528687 0.09924131631851196 -0.3895624876022339 -0.00395386153832078 -0.023473482578992844 0.10701687633991241 -0.2114408314228058 0.2548843026161194 -0.049158886075019836 0.2671501338481903 0.05214886739850044 0.11463458836078644 -0.22125643491744995 0.25119414925575256 0.21053987741470337 0.04475241154432297 -0.21462947130203247 -0.07836440205574036 -0.1397695094347 -0.12104020267724991 0.09546763449907303 0.06605719774961472 0.015829628333449364 -0.05115816742181778 0.03801025077700615 0.06200535222887993 0.524355411529541 -0.04131617769598961 0.05856598541140556 -0.10402317345142365 0.11705342680215836 0.22628459334373474 0.10579840838909149 -0.016582639887928963 -0.11223305761814117 0.13420292735099792 -0.07781443744897842 0.011690454557538033 0.34973785281181335 -0.10358357429504395 0.13157662749290466 -0.053962066769599915 0.32094982266426086 -0.05568388104438782 0.12728454172611237 -0.06756455451250076 -0.2280532419681549 -0.32778841257095337 0.29532235860824585 0.18499237298965454 -0.21928225457668304 -0.19202035665512085 -0.32895201444625854 -0.1249442920088768 0.0046783010475337505 -0.22512342035770416 -0.26250600814819336 -0.20272254943847656 -0.15282627940177917
306 -0.1664891541004181 0.06669396907091141 0.007586236577481031 -0.12164458632469177 -0.10209432989358902 0.07515162229537964 0.039601366966962814 -0.09212404489517212 0.03811424970626831 -0.069940946996212 -0.1265488564968109 0.17467541992664337 -0.0673443004488945 -0.07181442528963089 -0.03346729651093483 0.05579371750354767 0.15100283920764923 -0.15591080486774445 0.010938095860183239 -6.473820540122688E-4 0.08752045780420303 -0.288339763879776 0.03448813408613205 5.81405300181359E-4 -0.012718875892460346 0.07281655073165894 0.19936305284500122 0.13402245938777924 0.10100861638784409 -0.05656953528523445 -0.008658668957650661 -0.1292407065629959 0.04368210211396217 -0.1032509133219719 -0.06462406367063522 0.004683488979935646 0.017221961170434952 -0.1559395045042038 -0.02480264939367771 -0.12562064826488495 0.144033282995224 -0.041915569454431534 -0.037873607128858566 -0.21961377561092377 -0.1692589819431305 0.03148027881979942 0.018515104427933693 0.04303876310586929 0.11221620440483093 0.06802239269018173 -0.048204097896814346 0.09433165937662125 -0.15395206212997437 -0.03168170154094696 0.2396867722272873 0.09990540146827698 -0.16074888408184052 -0.2451784461736679 -0.08538739383220673 -0.13320240378379822 -0.08350479602813721 -0.010365192778408527 0.061514850705862045 0.01654805615544319 -0.14580665528774261 -0.09551765024662018 0.10946168005466461 0.23275044560432434 0.08408018201589584 -0.00643492303788662 0.04531601816415787 0.1661146581172943 0.129192516207695 -0.08688362687826157 0.07757771760225296 -0.04434402287006378 -0.014368077740073204 -0.047375649213790894 -0.22052906453609467 0.26260724663734436 -0.16350145637989044 -0.039675068110227585 0.057491857558488846 0.133888840675354 0.03262586146593094 0.21341845393180847 -0.20086319744586945 -0.0020758332684636116 -0.16218702495098114 0.08217203617095947 0.010909294709563255 -0.24241946637630463 -0.17996440827846527 -0.3986292779445648 -0.06334660202264786 -0.04172841086983681 -0.2642788589000702 -0.16622547805309296 0.15264832973480225 -0.28004664182662964
793 -0.022673558443784714 0.004039715975522995 0.01152418926358223 -0.00825892947614193 -0.0050985366106033325 0.009906666353344917 -0.001662869704887271 -0.011578315868973732 -0.009144403971731663 0.0032364074140787125 0.014315582811832428 -0.00856488011777401 0.018832629546523094 0.004535726737231016 0.002029276452958584 0.001164888497442007 -0.0030581229366362095 -0.002393123460933566 -0.009728925302624702 -0.009362805634737015 -0.013848502188920975 -0.03322753310203552 0.013913491740822792 0.004837824963033199 0.015173142775893211 -0.002471164334565401 0.016179470345377922 0.006634517572820187 0.01399131678044796 -0.002966218627989292 -9.701792732812464E-4 -0.01114042941480875 3.8763764314353466E-4 -0.002962930127978325 0.0048866188153624535 -0.00805756263434887 -0.0018436559475958347 0.006449797656387091 -0.01712397113442421 0.006829765625298023 0.004809056408703327 0.006627003196626902 -0.0013702630531042814 -0.01061597652733326 -0.017154091969132423 -0.007837890647351742 -0.0041635846719145775 0.003680173773318529 -0.009029492735862732 -0.0058377813547849655 -0.007880409248173237 -0.0038337628357112408 0.0057829939760267735 0.006452444475144148 0.010527188889682293 0.0029618428088724613 -9.911907836794853E-4 -0.02185613475739956 -8.842391544021666E-4 -0.026610109955072403 -0.012660101987421513 -0.029156936332583427 0.01033226028084755 0.0074784113094210625 -0.006858390755951405 0.017357153818011284 -0.004277385771274567 0.0016139699146151543 -5.448966985568404E-4 5.740367341786623E-4 -0.019743625074625015 -8.146552136167884E-5 0.009011877700686455 -0.004363458603620529 0.013862802647054195 -0.011555963195860386 0.015417603775858879 -0.012183388695120811 -0.011142258532345295 -0.0012326661963015795 -0.008031606674194336 0.0017270809039473534 0.003749038325622678 0.0019391204696148634 0.013518919236958027 -4.822217160835862E-4 0.008303694427013397 0.010076329112052917 0.006807108409702778 0.003820404876023531 5.564633756875992E-4 -0.01712767221033573 0.01945360377430916 0.010017374530434608 -0.0052971551194787025 -0.008983640000224113 -0.0034532060381025076 -0.003422895446419716 0.026298407465219498 -4.5101321302354336E-4
270 -0.07969123870134354 0.035543691366910934 0.04779491201043129 -0.00899786688387394 -0.04286862909793854 0.014342299662530422 0.08793628215789795 0.06818849593400955 0.12549827992916107 -0.08452779054641724 -0.10383544862270355 0.030543433502316475 -0.030332665890455246 0.013551912270486355 0.044429898262023926 0.09533996880054474 0.019248617812991142 -0.039050567895174026 0.006319859065115452 0.02780955098569393 0.12733492255210876 -0.16794884204864502 0.051190149039030075 -0.016801591962575912 0.055622853338718414 0.020675785839557648 0.1461087316274643 0.21006640791893005 0.13816019892692566 0.0796758309006691 0.03313742205500603 -0.1428753137588501 0.08628586679697037 -0.02112722396850586 -0.015367952175438404 -0.08291574567556381 -0.06925533711910248 -0.008326886221766472 -0.1660584658384323 -0.09769316762685776 0.21839435398578644 -0.12674827873706818 -0.04361121729016304 -0.297458678483963 -0.10599955916404724 0.1007358580827713 -0.016194777563214302 0.06381210684776306 0.04096537083387375 0.024468768388032913 -0.09320168197154999 0.03021330013871193 0.06810622662305832 0.010327440686523914 0.10505310446023941 0.11359737813472748 -0.10960420966148376 -0.17846837639808655 -0.01671503484249115 -0.10757352411746979 -0.12119807302951813 -0.08925830572843552 0.16827061772346497 0.03190065175294876 -0.06484343856573105 0.050221845507621765 0.10013920068740845 0.29410654306411743 -5.546464235521853E-4 0.034770965576171875 -0.08000116050243378 0.08878447860479355 0.07530131191015244 -0.1163521409034729 0.14169760048389435 -0.04910346865653992 -0.06936472654342651 -0.002273075981065631 -0.1191186010837555 0.2695358395576477 -0.113191157579422 0.004720006138086319 0.029833244159817696 0.09494667500257492 0.07409918308258057 0.2114821970462799 -0.09996124356985092 -0.07639005035161972 -0.16638827323913574 0.0059746382758021355 0.01936996541917324 -0.24834099411964417 -0.1239279955625534 -0.3199988901615143 -0.03575030341744423 -0.10506589710712433 -0.2082756906747818 -0.04112452268600464 0.11650555580854416 -0.24420590698719025
384 -0.160981222987175 0.271077036857605 -0.023227136582136154 -0.018903030082583427 0.08997008949518204 -0.00584935350343585 -0.0863281786441803 -0.05625273287296295 -0.06203271076083183 0.007219693157821894 0.2381531000137329 0.0370267815887928 -0.03244263306260109 -0.05410725250840187 -0.23045913875102997 -0.07411904633045197 0.059023093432188034 -0.10409326106309891 0.08917845785617828 -0.11598420888185501 -0.030820200219750404 -0.26315808296203613 0.06830357015132904 -0.05023234710097313 0.016070757061243057 -0.0788758397102356 0.06841245293617249 -0.19862553477287292 -0.1860659420490265 -0.08065661042928696 -0.05524779483675957 0.06689459085464478 -0.07622022926807404 -0.1713900864124298 0.11042558401823044 0.059314072132110596 0.16591967642307281 -0.16793839633464813 -0.09704351425170898 -0.03392929956316948 0.09753771871328354 0.037258416414260864 -0.06845385581254959 0.1872662454843521 -0.009994743391871452 0.14338083565235138 0.057941414415836334 -0.28445670008659363 0.03203103691339493 0.1269174963235855 0.1105499416589737 0.25681376457214355 -0.06470099091529846 -0.04680118337273598 0.25350815057754517 -0.09362617135047913 0.12107320129871368 -0.10450851917266846 -0.21118812263011932 -0.31937175989151 -0.05072097107768059 0.07796941697597504 0.04749473184347153 0.07108858972787857 0.0019005662761628628 -0.09989278018474579 -0.009975666180253029 0.17987623810768127 -0.11043930053710938 -0.04247228801250458 0.09701232612133026 0.05764969810843468 -0.09620620310306549 0.04997061938047409 0.014606527984142303 -0.12818653881549835 0.07173475623130798 -0.2361794412136078 0.0422215610742569 0.02557002194225788 0.07975699007511139 -0.05838129296898842 0.08781550079584122 0.14387519657611847 -0.05003800988197327 0.00979555957019329 0.055161088705062866 0.20744219422340393 -0.04958571866154671 0.0010200133547186852 0.025471333414316177 0.3280429542064667 0.27153441309928894 -0.03998512402176857 8.291488047689199E-4 -0.02847813442349434 0.12277156859636307 0.016678793355822563 0.06288181990385056 -0.23451440036296844
568 7.350007072091103E-4 -6.356955855153501E-4 0.04146962985396385 0.053251780569553375 -0.008398513309657574 0.04254176467657089 0.024350719526410103 -0.010272571817040443 0.053416427224874496 -0.018062442541122437 0.01681089587509632 -0.018220994621515274 0.013814656063914299 0.01055487897247076 -0.010006582364439964 -0.010095241479575634 -0.011080702766776085 -0.03776479512453079 -0.0553557462990284 0.0072137764655053616 -0.009899655357003212 -0.08610885590314865 -0.023802824318408966 -0.0104763088747859 0.043535392731428146 0.009599174372851849 0.023157116025686264 0.01938311569392681 0.01746521145105362 -0.011643889360129833 -0.04947495833039284 0.0030491678044199944 0.03731801360845566 -7.13942339643836E-4 -0.029712023213505745 -0.04370729252696037 -0.018449774011969566 -0.020966853946447372 -0.0627676397562027 -0.01463708933442831 0.03312182426452637 0.05580005794763565 0.0027659989427775145 -0.006771637126803398 -0.04982408881187439 -0.02452521212399006 -0.03566195070743561 -0.028779679909348488 -0.01304558478295803 0.02276063710451126 -0.03843317925930023 -0.008805458433926105 0.030633805319666862 0.0062705292366445065 0.03248600661754608 -0.007807037327438593 -0.011302594095468521 -0.017875801771879196 -0.0359954796731472 -0.02579069323837757 -0.0017618027050048113 -0.05818946287035942 0.06678132712841034 0.052148934453725815 -0.0035736714489758015 0.02869711071252823 -0.03419811651110649 0.05191293731331825 -0.03653285279870033 -0.01173372007906437 -0.06133135035634041 0.015819918364286423 0.02053433656692505 0.003402397269383073 0.019110970199108124 -0.036660294979810715 0.017831651493906975 -0.08903433382511139 -0.011717703193426132 0.03617066144943237 0.02917497605085373 -0.012174256145954132 0.020541340112686157 1.0364755871705711E-4 0.06212663650512695 0.0091599952429533 -0.054559655487537384 0.04828960448503494 -0.027259541675448418 0.038273319602012634 0.02264961414039135 -0.06705781072378159 0.012812914326786995 -0.04762010648846626 0.01842930167913437 -0.014998911879956722 -0.04030165821313858 -0.012712888419628143 0.02756563387811184 -0.062202583998441696
367 -0.10854756087064743 0.1547042727470398 0.04898769408464432 -0.09118959307670593 0.009753470309078693 0.05868857353925705 -0.006709487177431583 0.08005468547344208 0.023697376251220703 -0.026585575193166733 0.004677445627748966 0.06532756984233856 -0.012172040529549122 0.06886735558509827 0.03424673527479172 0.02044585905969143 0.07249695807695389 -0.018131054937839508 0.09950900077819824 -5.490286275744438E-5 0.11471229791641235 -0.028856797143816948 0.07806552946567535 0.07372074574232101 -0.01911063678562641 -0.046412739902734756 0.09303689748048782 0.12280518561601639 0.07011754810810089 0.04560175538063049 0.02415475808084011 -0.13704800605773926 -0.048601411283016205 -0.08858522027730942 -0.020920947194099426 0.09049144387245178 -0.0881129801273346 -0.08326765149831772 -0.10573390126228333 -0.10497196018695831 0.1443205028772354 -0.1456078439950943 -0.022899242118000984 -0.15442803502082825 -0.11265669018030167 0.03773806244134903 0.05142596736550331 -0.03793204575777054 0.08601143956184387 -0.03247087821364403 0.06165726110339165 0.06183977052569389 0.04775790125131607 -0.09592687338590622 0.15040487051010132 0.06880783289670944 -0.06191053241491318 -0.14275497198104858 -0.05116132274270058 -0.09717730432748795 -0.03503749892115593 -0.007829931564629078 0.13136811554431915 0.04651308432221413 -0.049291402101516724 -0.025728417560458183 0.07257035374641418 0.3293158710002899 0.0255153588950634 0.027216238901019096 -0.05409353971481323 0.055784743279218674 0.08928023278713226 -0.06862731277942657 0.12328681349754333 -0.14662644267082214 0.037725090980529785 -0.12816764414310455 -0.04418255016207695 0.22174327075481415 -0.1175767183303833 0.040907762944698334 0.0017579399282112718 0.1165507584810257 -0.002268953248858452 0.224752739071846 -0.05125394091010094 -0.03668813407421112 -0.1907961070537567 0.03214244544506073 -0.0022210758179426193 -0.21801693737506866 -0.12518489360809326 -0.2835035026073456 -0.025732113048434258 -0.016390535980463028 -0.1073252484202385 -0.07886344194412231 0.10034607350826263 -0.18676872551441193
327 -0.12725870311260223 -0.1157621368765831 0.047475021332502365 0.04610367491841316 -0.11809471249580383 0.03324472904205322 0.08541115373373032 -0.07447943091392517 0.05691106617450714 -0.035036601126194 -0.06186173856258392 0.008562709204852581 0.024676069617271423 0.01988014578819275 0.062305327504873276 0.035331640392541885 0.007006505504250526 -0.06329915672540665 -0.05049050599336624 -0.006581490859389305 -0.022485997527837753 -0.19763092696666718 0.028005868196487427 -0.025538966059684753 0.05315142124891281 -0.06099454686045647 0.10334374755620956 0.08693554252386093 0.1264452338218689 -0.0443001314997673 -0.05609877035021782 -0.11013172566890717 -0.005719971843063831 0.05664106085896492 -0.07593599706888199 -0.05486050993204117 -0.061361588537693024 -0.06004604324698448 -0.05272183567285538 0.0012537871953099966 0.06590759009122849 0.05999283865094185 0.029287215322256088 -0.13979245722293854 -0.1115543320775032 -0.06750660389661789 -0.005276559852063656 -0.012912437319755554 0.065435491502285 0.0213455930352211 -0.13965635001659393 -0.006282315123826265 -0.04500269889831543 0.007892231456935406 0.0852571353316307 0.05294744670391083 -0.05166586488485336 -0.11747707426548004 0.0023838458582758904 -0.07144460082054138 -0.06122979149222374 -0.09482470899820328 0.052803512662649155 0.05517290160059929 0.004027645569294691 0.056267112493515015 0.027175774797797203 -1.0982905223499984E-4 -0.026351014152169228 0.012548604048788548 -0.06431674212217331 0.041322045028209686 0.0418938472867012 -0.0627419576048851 0.06801927089691162 -0.088387131690979 0.0026298253796994686 6.309543387033045E-4 -0.10495413839817047 0.13239818811416626 -0.06002791225910187 -0.041199732571840286 0.07796769589185715 0.059938278049230576 0.07440932840108871 0.08781791478395462 -0.1248583048582077 -0.03459419682621956 -0.06023193895816803 0.05187975615262985 0.034457411617040634 -0.2094258964061737 -0.07212811708450317 -0.14756301045417786 -0.02356378547847271 -0.06288378685712814 -0.18143875896930695 -0.041548579931259155 0.1939692199230194 -0.16694559156894684
98 -0.22226868569850922 0.12394428253173828 0.15733858942985535 -0.03594747185707092 -0.041847676038742065 0.030773542821407318 0.01724190078675747 -0.10435038805007935 0.0513194277882576 0.037534140050411224 -0.04440141096711159 -0.06216918304562569 0.03229593113064766 0.10931313037872314 0.07944078743457794 0.09107386320829391 -0.04272257909178734 -0.16468282043933868 -0.10370226949453354 -0.08300025016069412 -0.1033107116818428 -0.26738104224205017 0.20843039453029633 0.07846100628376007 0.18746018409729004 -0.08288097381591797 0.09793975204229355 0.15587809681892395 0.15378041565418243 -0.0389496311545372 -0.07956884801387787 -0.012408907525241375 0.04251484200358391 -0.014852453023195267 0.0654686912894249 -0.08846066147089005 0.01969660259783268 -0.04600024223327637 -0.13589012622833252 0.10608457028865814 0.1449969857931137 0.044551439583301544 -0.10106579959392548 -0.16787418723106384 -0.10358458012342453 -0.042953673750162125 -0.10886979103088379 0.06257797032594681 0.020265595987439156 0.029329391196370125 -0.1301630288362503 0.04470501467585564 -0.006487210746854544 0.050743743777275085 0.11251627653837204 0.02651405893266201 -0.0615050233900547 -0.16214396059513092 -0.016369124874472618 -0.21159590780735016 -0.15324100852012634 -0.18976990878582 0.3209303319454193 0.07104351371526718 -0.02418985404074192 0.15982316434383392 -0.014329138211905956 0.19381341338157654 -0.002891778014600277 -0.015126705169677734 -0.15603742003440857 -0.012040921486914158 0.07401275634765625 -0.06540322303771973 0.12748655676841736 -0.09811539202928543 -0.05118490383028984 -0.11202492564916611 -0.188115194439888 0.021862057968974113 -0.08882969617843628 0.10310796648263931 0.1387256383895874 0.06026658043265343 0.07286398112773895 0.1920444369316101 0.01613014005124569 0.06764543801546097 -0.08913486450910568 -0.015057601034641266 0.023790977895259857 -0.21079924702644348 0.19601884484291077 -0.08464773744344711 -0.12531419098377228 -0.18261803686618805 -0.07079470157623291 -0.0016986002447083592 0.19660566747188568 -0.19192750751972198
