842 100
60 -0.06178790330886841 0.15933376550674438 -0.1849880814552307 0.12710949778556824 0.03143489733338356 0.10655657202005386 -0.165207177400589 -0.22882843017578125 0.0882556289434433 0.10288616269826889 -0.10201561450958252 -0.014972005970776081 -0.062663733959198 0.20227205753326416 0.11606443673372269 0.0048092566430568695 -0.0628223791718483 -0.2728460133075714 -0.21375150978565216 -0.13419100642204285 0.1854887753725052 0.16215695440769196 0.06330765783786774 -0.1424730271100998 0.11520339548587799 -0.20444601774215698 0.014559931121766567 0.03806178644299507 0.18475407361984253 -0.22970286011695862 0.13257743418216705 0.0627518892288208 0.060192644596099854 0.08861745893955231 -0.0506623275578022 -0.10291483253240585 -0.18519282341003418 0.19991691410541534 0.18543869256973267 0.1431995928287506 -0.016488568857312202 0.21058973670005798 -0.3219664394855499 0.0538526326417923 0.13444511592388153 -0.21142221987247467 -0.08369030058383942 0.0509941540658474 0.003978043328970671 0.08064869046211243 0.1080477386713028 0.24952110648155212 -0.06202908605337143 -0.08200646191835403 0.072372205555439 0.19614103436470032 0.111663818359375 0.14683298766613007 -0.09403105080127716 0.012276499532163143 0.12290123850107193 -0.11157833784818649 -0.08999926596879959 -0.08432929217815399 -0.07590504735708237 0.10656373202800751 0.017080087214708328 -0.18606574833393097 -0.03289923444390297 -0.2235085666179657 -0.08359690755605698 -0.15437616407871246 -0.08733515441417694 0.1554829627275467 0.03692811354994774 -0.15773825347423553 0.3289244472980499 -0.011998231522738934 0.02854098752140999 0.12477695196866989 0.003157421015202999 0.16356781125068665 -0.2501048147678375 -0.17721876502037048 0.019408918917179108 0.0021213488653302193 -0.09956202656030655 0.2125098556280136 0.08946004509925842 -0.03836674615740776 0.030474858358502388 0.2270033210515976 -0.03727562725543976 -0.060468971729278564 -0.23818856477737427 -0.29036664962768555 -0.010776868090033531 -0.23727694153785706 -0.17344391345977783 -0.016418037936091423
691 0.11711982637643814 -0.03412984684109688 -0.02549033612012863 0.13867683708667755 0.007402524352073669 0.024305351078510284 0.06363096833229065 -0.04857209324836731 0.008835905231535435 0.02946695126593113 -0.06372536718845367 -0.02814284898340702 -0.04581604525446892 0.007683274801820517 0.009114204905927181 0.10520778596401215 -0.027315761893987656 -0.010908549651503563 -0.03079463727772236 -0.026573453098535538 -0.10100409388542175 -0.017705311998724937 0.06112412363290787 0.006153266876935959 0.013366475701332092 0.02895408123731613 0.004634719341993332 0.01023667398840189 -0.07536206394433975 -0.08875975012779236 -0.006986882071942091 -0.014929323457181454 0.03633475303649902 0.047920212149620056 -5.675372667610645E-4 -0.03948696330189705 0.0874510183930397 -0.08414924144744873 0.047648850828409195 -0.027738457545638084 -0.11437440663576126 0.10242357105016708 -0.0024794323835521936 -0.048599254339933395 -0.04082444682717323 -0.027420124039053917 -0.0037467454094439745 0.014874999411404133 0.04197990149259567 -0.09929019212722778 -0.006204882636666298 -0.0019409246742725372 0.18378408253192902 -0.004643877036869526 -0.031890980899333954 -0.04542779549956322 -0.002818615408614278 -0.043071549385786057 -0.07886400073766708 0.025381430983543396 -0.030017748475074768 -0.06293623149394989 -0.0772484689950943 -0.09605962038040161 0.03299034386873245 -0.022892743349075317 0.06505230069160461 -0.019523542374372482 -0.0549209900200367 -0.08230092376470566 0.10768178850412369 0.028670383617281914 -0.10482072085142136 -0.09936264157295227 0.06041457876563072 0.10995706915855408 -0.008860932663083076 0.08318906277418137 0.013264927081763744 0.009805792011320591 -0.011461116373538971 0.04717264696955681 -0.05140310898423195 0.09342963248491287 -0.047814738005399704 -0.06636251509189606 -0.05419740453362465 0.00405691284686327 -0.05654627084732056 0.040845226496458054 -0.05852578207850456 -0.0853828489780426 0.0011863064719364047 -0.10312862694263458 -0.06485211849212646 -0.12178301811218262 -0.06823784112930298 0.05824797973036766 0.08355105668306351 0.08415744453668594
800 0.017083609476685524 -0.009149743244051933 0.020986763760447502 0.05063999444246292 -0.012095600366592407 0.026993174105882645 0.003744518617168069 -0.01752404309809208 0.013347413390874863 0.03577519953250885 -0.014504303224384785 -0.008128373883664608 -0.02276248298585415 0.015484475530683994 -0.007916375994682312 0.031210366636514664 -0.005677718669176102 0.014171529561281204 -0.009005846455693245 -0.011714378371834755 -0.056685592979192734 -0.006053313612937927 0.013891173526644707 -0.008961504325270653 0.0037590553984045982 0.028913453221321106 -0.005643006879836321 -0.010608498007059097 -0.03497524932026863 -0.02976340241730213 -6.104463245719671E-4 -0.012522734701633453 -0.016216997057199478 0.028885308653116226 0.008186127990484238 0.014773435890674591 0.026776721701025963 4.788256483152509E-4 -0.008136753924190998 -0.017716562375426292 -0.016397010535001755 0.02713262289762497 -0.007399134803563356 -0.01691611483693123 0.01019130926579237 -0.0038128208834677935 0.0056731184013187885 0.013274104334414005 -0.012026329524815083 -0.031792424619197845 0.01209391187876463 0.004221667069941759 0.06497721374034882 0.006336475256830454 -0.02295355685055256 -0.02592489868402481 0.01236309576779604 -0.0015747139696031809 0.0033279969356954098 0.006750176195055246 -0.017649609595537186 -0.022116409614682198 -0.04614175483584404 -0.03628680855035782 -0.0034760679118335247 -0.014696636237204075 -0.011625690385699272 0.018391475081443787 -0.0302484892308712 -0.01949521340429783 0.026376627385616302 0.010072596371173859 -0.04670632630586624 -0.06297922134399414 7.364272605627775E-4 0.037175484001636505 0.0012846637982875109 0.04018276184797287 0.018887082114815712 -0.03740254417061806 0.0028362954035401344 0.02225947193801403 -0.012246783822774887 0.027644945308566093 -5.430341698229313E-4 -0.009935553185641766 0.016405053436756134 -0.03608091175556183 -0.019808009266853333 0.027947526425123215 -0.032775018364191055 -0.06583445519208908 0.009525617584586143 -0.03176078200340271 -0.020517535507678986 -0.0026068261358886957 -0.011269334703683853 -0.003156570717692375 0.010826865211129189 0.03658127784729004
458 0.14041252434253693 -0.07064107060432434 0.010099491104483604 0.13569869101047516 -0.005890955217182636 -0.08205439150333405 -0.08200090378522873 -0.009428010322153568 0.048740461468696594 0.030049771070480347 0.0039022848941385746 -0.0598050095140934 0.021770630031824112 0.07162107527256012 0.07632233947515488 0.052177030593156815 -0.08259492367506027 -0.03283951058983803 0.07500375807285309 -0.057007402181625366 4.3501961044967175E-5 0.03410244360566139 -0.008185469545423985 0.00806181225925684 0.02602255903184414 0.027957450598478317 -0.01225508376955986 0.025080358609557152 -0.01066299807280302 -0.029094504192471504 0.023528600111603737 -0.057529885321855545 0.02928539179265499 0.010948888957500458 0.012222088873386383 -0.009958126582205296 0.013844219036400318 -0.06395543366670609 0.0035863455850631 0.017736313864588737 -0.030438268557190895 -0.0026327110826969147 0.009022748097777367 -0.005455900449305773 -0.06534667313098907 -0.018180258572101593 0.015994040295481682 -0.05194854363799095 0.002536434680223465 -0.012860599905252457 0.038451071828603745 0.04201089218258858 0.09067440778017044 -0.04617401584982872 0.035206910222768784 0.039978332817554474 -0.05920068547129631 -0.027047667652368546 -0.10677117109298706 0.002930683083832264 -0.07700110971927643 -0.0306093730032444 -0.04230407997965813 -0.06960581243038177 0.0635010153055191 -0.00751948356628418 0.04673733562231064 -0.010468782857060432 -0.03147512674331665 -0.07240280508995056 0.04529472440481186 0.07908769696950912 -0.03364848345518112 -0.04417576268315315 0.07622399181127548 0.10918311029672623 0.09896735846996307 0.029476342722773552 -0.02505597472190857 0.053283222019672394 0.0660010278224945 0.024696283042430878 0.029982419684529305 0.035880979150533676 -0.03362897038459778 -0.05086898058652878 0.009721489623188972 0.0720793753862381 -0.05270124971866608 0.036567602306604385 0.04153230041265488 -0.0067689865827560425 -0.005340271163731813 -0.06114424765110016 -0.01966283842921257 -0.12268713116645813 -0.09075557440519333 -0.0014302313793450594 0.0701933428645134 -0.004595325328409672
433 0.10796161741018295 0.10209077596664429 0.0245123952627182 0.06881788372993469 -0.1701187789440155 -0.17216314375400543 -0.07233773171901703 -0.03693601116538048 0.14404718577861786 -0.07936753332614899 -9.22540610190481E-4 -0.06391707807779312 -0.02745130844414234 0.166589617729187 0.15695853531360626 0.04199289530515671 -0.17636780440807343 -0.020891543477773666 0.09639027714729309 0.0022458441089838743 -0.1342078149318695 0.10535875707864761 0.09357619285583496 -0.0768032819032669 0.20253372192382812 -0.02272171340882778 -0.08001469820737839 -0.09058910608291626 0.02650950662791729 -0.1824077069759369 -0.07543587684631348 0.07149888575077057 -0.03284294530749321 0.021413808688521385 -0.051057156175374985 -0.04114345833659172 -0.02776642143726349 0.04884043708443642 0.034134864807128906 -0.009947444312274456 0.017761360853910446 0.045320287346839905 0.07023113965988159 -0.024556435644626617 -0.08113814145326614 -0.07493869960308075 0.04940562695264816 -0.10631699860095978 -0.15122416615486145 0.08335641771554947 1.6865434008650482E-4 0.15440694987773895 0.22083459794521332 -0.1904274821281433 0.009233579970896244 -0.10050741583108902 -0.07481427490711212 -0.13897675275802612 -0.02298974245786667 0.09172125905752182 -0.22266221046447754 -0.192193403840065 -0.1886647343635559 -0.002451725536957383 -0.07086481899023056 0.031210530549287796 -0.2768840491771698 0.238191619515419 -0.04334249719977379 -0.09078120440244675 0.08294133096933365 0.1988043487071991 -0.12705491483211517 -0.24118836224079132 0.10838977247476578 0.1406523883342743 -0.16288262605667114 0.08404411375522614 -0.19256921112537384 -0.12852559983730316 -0.056299615651369095 0.15338149666786194 0.25551652908325195 0.08433838188648224 -0.007109824568033218 -0.24847564101219177 -0.13130418956279755 -0.10628540813922882 -0.20133338868618011 -0.03417803719639778 0.07747166603803635 -0.055717237293720245 -0.0943724662065506 -0.03488469123840332 -0.053159598261117935 -0.09416621923446655 -0.14075829088687897 -0.05258556455373764 -0.24392099678516388 0.009279528632760048
184 0.06841152906417847 -0.12616406381130219 0.30055302381515503 0.03525015339255333 0.06526640802621841 0.07490050792694092 -0.26707449555397034 0.14879263937473297 0.14494329690933228 0.38590380549430847 -0.1049395203590393 -0.14679215848445892 0.025454046204686165 0.23420248925685883 0.04832015186548233 -0.03254222124814987 0.08222083002328873 -0.1231570690870285 -0.006187662482261658 -0.061654333025217056 -0.1565065234899521 0.31632351875305176 -0.14570291340351105 0.14886033535003662 -0.4378480613231659 0.01493317261338234 0.01656811125576496 0.15524184703826904 -0.05347561091184616 0.2930576205253601 0.26355698704719543 -0.15639778971672058 -0.20900344848632812 0.19926463067531586 -0.2536095976829529 -0.15921643376350403 -0.20023159682750702 0.1498345136642456 0.1759050190448761 -0.07130465656518936 0.1998893767595291 0.059620440006256104 -0.1333930343389511 -0.08680763840675354 -0.154989093542099 0.15233898162841797 0.2062760293483734 -0.34863531589508057 -0.18454013764858246 0.12419631332159042 0.406004399061203 0.111656554043293 -0.31472885608673096 0.10038693249225616 0.2634165287017822 0.20575937628746033 -0.37045612931251526 0.18192654848098755 -0.12374291568994522 0.06552865356206894 -0.0537419356405735 -0.189994215965271 -0.07442531734704971 0.2094694972038269 -0.10266035050153732 -0.006212557666003704 0.09359591454267502 -0.1883353739976883 0.10621434450149536 -0.32479020953178406 0.06776989996433258 0.1421404331922531 0.15788286924362183 0.05572665482759476 0.09837843477725983 -0.2131405472755432 0.17911209166049957 -0.18938802182674408 -0.27662500739097595 0.21948960423469543 0.30635499954223633 -0.21035192906856537 0.08202813565731049 0.1345832645893097 -0.28749242424964905 0.12842971086502075 0.35086968541145325 0.006599934305995703 -0.07663419097661972 -0.15989911556243896 0.21108272671699524 -0.13517123460769653 0.06558509171009064 -0.1609984189271927 0.07296550273895264 -0.2089175432920456 -0.25213345885276794 -0.11890019476413727 0.13360562920570374 0.13503532111644745
686 0.04631585627794266 0.016219880431890488 -0.03323465585708618 0.054552264511585236 -0.003127666423097253 -0.04277462512254715 -0.020919207483530045 -0.011100567877292633 0.0186684038490057 0.017231479287147522 -0.022542595863342285 -0.020740384235978127 -0.005038440693169832 0.06788645684719086 0.022538138553500175 0.06832565367221832 -0.017823345959186554 -0.05625050142407417 -0.029846329241991043 -0.03329956904053688 -0.05558183789253235 0.021038666367530823 0.0060497247613966465 0.015611056238412857 0.03198755159974098 0.031788650900125504 0.03168227896094322 0.022155147045850754 -0.037487443536520004 -0.040040601044893265 0.06258049607276917 -0.016045888885855675 0.02988436073064804 0.011451538652181625 -0.030912350863218307 -0.05199478566646576 0.02657998912036419 -0.02256283536553383 0.006840365473181009 -0.010493042878806591 -0.01727701909840107 0.07562247663736343 -0.019004356116056442 -0.009147285483777523 -0.04351605847477913 -0.01454402506351471 -0.0021383832208812237 0.018876291811466217 -0.006065568421036005 -0.0740465596318245 0.030686918646097183 0.039967358112335205 0.06208117678761482 -0.020564893260598183 0.02352919988334179 5.849990411661565E-4 -0.020174840465188026 -0.0032953480258584023 -0.051114521920681 -0.001038464717566967 -0.03379903361201286 -0.06453540176153183 -0.037339985370635986 -0.043281588703393936 -0.00508141191676259 -0.001870242995209992 0.02429293841123581 -0.005552949383854866 -8.84969369508326E-4 -0.0781593844294548 0.020997921004891396 -0.012146479450166225 -0.06344152987003326 0.005145819392055273 0.008889726363122463 0.06259545683860779 0.07974559813737869 0.05201934650540352 -0.00985679030418396 0.04228252172470093 0.032804977148771286 -0.013674748130142689 0.004283670336008072 -0.002599161583930254 -0.025560978800058365 -0.022502867504954338 0.014297540299594402 0.04249018803238869 -0.008190758526325226 -0.010551628656685352 3.3927190816029906E-4 -0.013500704430043697 -0.005357278045266867 -0.0783127024769783 -0.07544732838869095 -0.07518013566732407 -0.04410848021507263 -0.016611112281680107 0.0177838783711195 0.016910506412386894
166 0.07411184906959534 0.2604531943798065 0.5343584418296814 0.047643665224313736 -0.30837011337280273 -0.07784400880336761 -0.30589616298675537 0.1514815241098404 -0.20382079482078552 0.4075030982494354 0.08658899366855621 -2.4301496159750968E-4 -0.10452920943498611 0.27639827132225037 -0.07480530440807343 -0.5159289836883545 -0.29908865690231323 0.131687730550766 0.03164210543036461 -0.08166327327489853 -0.4068956971168518 -0.416790634393692 0.056369930505752563 0.18728657066822052 -0.1480480432510376 0.2704400420188904 -0.048189323395490646 0.0037214846815913916 -0.6209248304367065 0.20725731551647186 0.19046355783939362 -0.1502121239900589 -0.12119694799184799 -0.2428642213344574 -0.1576072871685028 0.0022742953151464462 -0.4147356152534485 -0.17880572378635406 -0.2593466639518738 0.1200985461473465 -0.06298346072435379 0.31921863555908203 -0.04292069002985954 0.0796569362282753 -0.151580348610878 -0.05247194319963455 -0.39960595965385437 -0.28149959444999695 -0.25044822692871094 -0.24815630912780762 0.21633848547935486 -0.11751095205545425 -0.19076110422611237 -0.17602242529392242 -0.06107952818274498 -0.33039402961730957 -0.02927558124065399 0.17870041728019714 0.0558808296918869 -0.4341956079006195 -0.15589065849781036 -0.013772327452898026 0.13930253684520721 0.1800733357667923 -0.1524808257818222 -0.02189948409795761 0.12781858444213867 0.2158678025007248 -0.0010872945422306657 -0.14689019322395325 -0.08241763710975647 -0.21364851295948029 -0.2985277473926544 0.1733531802892685 -0.18855206668376923 -0.3009115159511566 0.19310101866722107 -0.01914197951555252 -0.08923102170228958 -0.00803699903190136 -0.012038566172122955 0.20699761807918549 -0.2656134068965912 0.043567344546318054 -0.07793721556663513 -0.11963029950857162 0.34146589040756226 -0.07201997935771942 0.3859778046607971 -0.04158789664506912 0.08522437512874603 -0.2571862041950226 -0.10173600167036057 0.1072358787059784 -0.08878962695598602 -0.17458797991275787 -0.2929033935070038 -0.006796242203563452 0.33068224787712097 -0.10582797229290009
717 0.03210467845201492 0.06508374959230423 -0.04659503698348999 0.019726252183318138 -0.060535334050655365 -0.025729302316904068 -0.012309237383306026 -0.05787142738699913 0.048749856650829315 0.007222285494208336 -0.037922460585832596 0.008602640591561794 0.0012265787227079272 0.0075685796327888966 0.053136467933654785 0.03548779711127281 -0.012620528228580952 0.002758914139121771 -0.026417072862386703 0.015449532307684422 -0.030646922066807747 0.04970013350248337 0.03336821869015694 -0.02886483632028103 0.0663963109254837 -0.0022672838531434536 -0.04891585186123848 0.00925357174128294 0.015484902076423168 -0.08663468062877655 -0.03252021595835686 0.04527580738067627 0.012977637350559235 0.015622712671756744 -0.014429853297770023 -0.0010571286547929049 0.017709068953990936 -0.004867663141340017 0.03164659067988396 -0.0032191346399486065 -0.005231931805610657 0.01044818852096796 0.006097195670008659 -0.041332829743623734 0.028466323390603065 -0.03599197790026665 0.005982444155961275 -0.026812266558408737 -0.03901957720518112 -0.014161168597638607 0.010278635658323765 0.06063252314925194 0.07396982610225677 -0.029262512922286987 -0.007376301102340221 0.011328961700201035 0.012075568549335003 -0.033016402274370193 -0.01911688596010208 0.026511700823903084 -0.06266912817955017 -0.030071722343564034 -0.059729523956775665 -0.011689869686961174 0.013961155898869038 0.0015078627038747072 -0.07818233966827393 0.036499183624982834 -0.036928921937942505 -0.053041476756334305 0.05083589255809784 0.061714597046375275 -0.04538945481181145 -0.08824470639228821 0.041536055505275726 0.00358050549402833 0.005821732338517904 0.06276463717222214 -0.058266740292310715 0.004051077179610729 -0.031198542565107346 -0.006036006845533848 0.024616124108433723 -0.0350131057202816 -0.0029174420051276684 -0.03407985344529152 -0.009195978753268719 0.005138660315424204 -0.050064582377672195 0.017936594784259796 -0.01887029968202114 0.022456767037510872 0.007179338950663805 -0.011522875167429447 -0.03433115407824516 -0.026344047859311104 -0.0682387426495552 -0.01495131105184555 -0.07063264399766922 0.038556892424821854
185 -0.045324862003326416 -0.023021109402179718 0.2801383137702942 0.036715880036354065 0.12601809203624725 0.05336318910121918 -0.40282636880874634 0.19389429688453674 0.0681999996304512 0.4248133599758148 -0.018111638724803925 -0.12837828695774078 0.09220096468925476 0.292331725358963 0.1615443229675293 0.013285845518112183 0.0598263181746006 -0.16029033064842224 -0.0036049748305231333 -0.0343424528837204 -0.10124018043279648 0.4485068619251251 -0.21657906472682953 0.13097256422042847 -0.312947541475296 -0.060178015381097794 0.08414117246866226 0.16735202074050903 0.09166815876960754 0.22751091420650482 0.25694745779037476 -0.1259383261203766 -0.25107628107070923 0.19538822770118713 -0.3220450282096863 -0.12098594009876251 -0.1959516406059265 0.13071002066135406 0.14900684356689453 -0.07102146744728088 0.2712726294994354 0.005571461282670498 -0.03183047100901604 -0.17144592106342316 -0.11183924227952957 0.03161592409014702 0.20793208479881287 -0.42513343691825867 -0.16093309223651886 0.26159483194351196 0.37156879901885986 0.14504274725914001 -0.37482696771621704 0.10306543111801147 0.3911418914794922 0.12984858453273773 -0.3475433588027954 0.053803347051143646 -0.11174522340297699 0.1648349016904831 -0.058182746171951294 -0.22473224997520447 -0.025977786630392075 0.22096291184425354 -0.10752987116575241 0.01915571093559265 -0.03715261071920395 -0.12977273762226105 0.0817159041762352 -0.32323703169822693 0.06735813617706299 0.2631300389766693 0.11493155360221863 0.03818070888519287 0.006137847434729338 -0.22821664810180664 0.21126505732536316 -0.27367791533470154 -0.41523465514183044 0.2817206084728241 0.17684099078178406 -0.12138397246599197 0.0868079885840416 0.07186107337474823 -0.26183193922042847 0.08395824581384659 0.2563576400279999 0.025230294093489647 -0.07170000672340393 -0.20110689103603363 0.15858231484889984 -0.1478370577096939 0.007111536338925362 -0.1505098193883896 0.10635031014680862 -0.2474314123392105 -0.3235754072666168 -0.07664446532726288 0.08442141115665436 0.0843290314078331
34 -0.014339219778776169 0.1926182359457016 0.022635433822870255 0.05586199834942818 0.05731708183884621 0.12046598643064499 0.03325656056404114 -0.06755576282739639 0.03530514985322952 0.04577500373125076 -0.0984799861907959 -0.17901360988616943 -0.023053904995322227 0.25579002499580383 0.1633148044347763 -0.1494395136833191 -0.14707763493061066 -0.17288602888584137 -0.11946087330579758 -0.14617134630680084 0.3706607222557068 0.11873354017734528 0.0033211233094334602 -0.23077544569969177 0.20573006570339203 -0.2235819399356842 -0.09465079754590988 0.026075314730405807 0.25996410846710205 -0.12348917871713638 0.1449350118637085 0.12053865939378738 0.15155740082263947 0.05948777496814728 -0.06796853989362717 -0.1466112583875656 -0.1993999034166336 0.18240942060947418 0.16972926259040833 0.1449642926454544 -0.01612776517868042 0.14206309616565704 -0.2404087781906128 0.06847678869962692 0.15627500414848328 -0.1617167592048645 -0.051931798458099365 0.1531536728143692 -0.04156189039349556 0.1634669154882431 -0.05911225825548172 0.17849838733673096 -0.04450732469558716 -0.002124576363712549 0.022787252441048622 0.13700976967811584 0.17698119580745697 0.11127930134534836 0.004625754430890083 -0.02799229510128498 0.17435863614082336 -0.04929772764444351 -0.11450361460447311 -0.0431026890873909 0.05733887851238251 -0.04177626967430115 -0.061872005462646484 -0.041699279099702835 0.0016043187351897359 -0.05484011769294739 -0.07880949974060059 0.02387741021811962 0.09094791114330292 0.18728041648864746 0.14854475855827332 -0.15255138278007507 0.210312157869339 -0.05946866050362587 0.1552286595106125 0.01711672730743885 -0.13259290158748627 0.31737348437309265 -0.1188642755150795 -0.19443869590759277 0.07386511564254761 0.013276932761073112 -0.14254923164844513 0.18797290325164795 0.11102064698934555 -0.09596522152423859 -0.0775999128818512 0.19314730167388916 0.08818747103214264 -0.023549895733594894 -0.20788638293743134 -0.23223777115345 0.14555945992469788 -0.20721866190433502 -0.11380389332771301 -0.04186922684311867
645 0.0024804030545055866 0.09874197095632553 0.11486979573965073 -0.04639967903494835 -0.05154770240187645 -0.05887944996356964 -0.1216982901096344 0.15273843705654144 -0.10266373306512833 0.12954767048358917 -0.019045885652303696 0.11690640449523926 -0.004258668515831232 0.05660906061530113 -0.011051745153963566 -0.16734915971755981 -0.08025118708610535 0.07761118561029434 0.036523040384054184 0.008228751830756664 -0.17260323464870453 -0.07463125139474869 0.06745760887861252 0.0668625459074974 -0.06898964941501617 0.04153672978281975 -0.02285914123058319 -0.06653526425361633 -0.20954523980617523 0.14146468043327332 0.020543158054351807 -0.050016552209854126 -0.05486530438065529 -0.08728566765785217 -0.0469198077917099 0.028329772874712944 -0.11706651747226715 -0.10026448220014572 -0.10110007226467133 0.020067157223820686 0.03565780818462372 0.07354199141263962 0.04370957240462303 0.04356611520051956 -0.061943504959344864 0.009431431069970131 -0.12339925765991211 -0.10188965499401093 -0.09406476467847824 -0.05536206066608429 0.1164463460445404 -0.04619452729821205 -0.1460280567407608 -0.07598507404327393 -0.01850281096994877 -0.20950010418891907 -0.04855755344033241 0.08432009071111679 0.058169662952423096 -0.11650782823562622 -0.07199953496456146 0.007045426871627569 0.06360100954771042 0.08095715194940567 -0.04635559394955635 -0.019628817215561867 0.0022309711202979088 0.0553363636136055 0.023279670625925064 -0.011620127595961094 -0.016205931082367897 -0.050713665783405304 -0.0917099341750145 0.11100311577320099 -0.18420852720737457 -0.09822335839271545 0.06192435324192047 -0.08882066607475281 -0.07378970831632614 -0.018102096393704414 0.07668763399124146 0.0676192045211792 -0.17054536938667297 -0.04584501311182976 -0.06698302179574966 0.017749790102243423 0.1873791515827179 -0.04766283929347992 0.1491735726594925 -0.03173986077308655 -0.04907176271080971 -0.13471254706382751 -0.03026985377073288 0.03760518878698349 0.07684391736984253 -0.05316268280148506 -0.03606515750288963 -0.05152372643351555 0.04162943735718727 -0.03981352597475052
142 0.14404666423797607 -0.17640036344528198 0.024020161479711533 0.0819256454706192 0.006221223622560501 -0.04845228046178818 0.15666714310646057 -0.5542811155319214 -0.08225202560424805 0.39115938544273376 0.09706409275531769 -0.12518934905529022 0.014346156269311905 0.06215836852788925 -0.043641094118356705 0.011760027147829533 0.03357643634080887 -0.239895761013031 -0.2729177176952362 -0.1568598598241806 0.16660171747207642 0.2830398380756378 -0.28484559059143066 0.13092362880706787 0.26939165592193604 -0.1892368644475937 0.1593216210603714 0.08539040386676788 0.03159157931804657 -0.08998963981866837 0.2899226248264313 -0.013201132416725159 -0.19340063631534576 -0.03330574557185173 0.15008024871349335 -0.05666457116603851 -0.4331853687763214 -0.10233139991760254 0.2508198022842407 0.19091317057609558 -0.13023042678833008 -0.064185231924057 0.21715006232261658 -0.017359716817736626 -0.1865217536687851 -0.1623592972755432 -0.23761014640331268 -0.20753012597560883 0.09440736472606659 0.2718176543712616 -0.22448013722896576 -0.04416967183351517 -0.33019426465034485 0.20081636309623718 0.2908727526664734 -0.19669906795024872 0.14209401607513428 -0.1299944370985031 -0.46335187554359436 -0.009946557693183422 0.2845079004764557 0.23929838836193085 -0.11490777879953384 0.05838548392057419 -0.5479332804679871 0.15172359347343445 -0.23067928850650787 0.1424555480480194 -0.013270222581923008 0.15122903883457184 -0.003998729400336742 0.06688029319047928 0.050169698894023895 0.1512802541255951 -0.019930724054574966 -0.252175897359848 0.26488497853279114 -0.2862175703048706 0.08693806082010269 -0.034768566489219666 -0.4042557179927826 0.05793273076415062 0.12796388566493988 -0.004867644980549812 0.050526343286037445 -0.22618453204631805 0.014733816497027874 0.26233312487602234 0.08053292334079742 0.1858794242143631 0.33596333861351013 -0.19482973217964172 0.02414294332265854 0.39426618814468384 -0.22499807178974152 -0.14764156937599182 0.07575211673974991 0.3238356411457062 0.1706869751214981 0.05190066248178482
940 0.005914137698709965 -0.019471576437354088 -0.003672566032037139 0.012938245199620724 0.0037143374793231487 -0.017587248235940933 -0.01001431792974472 -0.015399642288684845 0.011391057632863522 -0.0028465702198445797 -0.005484632216393948 0.01030823029577732 -0.021672114729881287 0.036893073469400406 0.021349631249904633 0.013118026778101921 -0.010842910967767239 -0.020103979855775833 -0.007018144242465496 -0.011881195940077305 -0.035527803003787994 0.026620715856552124 -0.005500431638211012 0.012351380661129951 0.04909530654549599 0.022188222035765648 0.004364630673080683 -0.0036966167390346527 -0.004061643034219742 -0.020504729822278023 3.1106703681871295E-4 0.01269939448684454 0.011313924565911293 0.022193796932697296 -0.008915041573345661 -0.0162386242300272 0.015218941494822502 0.009283671155571938 0.0036184603814035654 -0.00359189510345459 0.0134356077760458 0.051261402666568756 -0.023927057161927223 0.0035320804454386234 -0.006890320219099522 -0.006935618817806244 0.011239024810492992 -0.004618559032678604 -0.02643873542547226 -0.01631072536110878 0.005000615492463112 0.03127213194966316 0.03830116242170334 0.005936963949352503 0.008699237369000912 -0.0025492508430033922 0.010541318915784359 -0.040369775146245956 0.0015068737557157874 0.009326274506747723 -0.00948526244610548 -0.032481320202350616 -0.03125583007931709 9.099798044189811E-4 0.015030507929623127 0.005333873443305492 -0.011955376714468002 0.008815533481538296 -6.495491834357381E-4 -0.022828849032521248 0.007079732604324818 0.02179304137825966 -0.04472552239894867 -0.03389983996748924 -0.0020342872012406588 0.0426289401948452 -0.00898840930312872 0.028995143249630928 -0.017288727685809135 -0.018132155761122704 0.016157910227775574 0.0012980909086763859 0.019779089838266373 0.01882912963628769 0.006460079923272133 -0.018103960901498795 -0.003341757459565997 0.009059194475412369 -0.013016065582633018 -0.015381923876702785 -0.014261792413890362 0.031503159552812576 0.001662148511968553 -0.03894318267703056 -0.055955737829208374 -0.031177598983049393 -0.007326412945985794 0.020210381597280502 -0.03499060124158859 -0.013768717646598816
268 0.07688930630683899 -0.08072786778211594 -0.08101730793714523 0.33029478788375854 -0.17364363372325897 0.10135955363512039 0.0521881990134716 -0.3762173652648926 0.08838174492120743 0.13915270566940308 -0.013229871168732643 -0.06541438400745392 -0.14557094871997833 -0.044530004262924194 -0.016968954354524612 0.29496946930885315 0.10246933251619339 0.08760204166173935 -0.25560230016708374 -0.13288287818431854 -0.2003152221441269 0.006635782774537802 0.08644832670688629 -0.00154217635281384 0.11104854196310043 0.13249218463897705 -0.0773763582110405 0.018739165738224983 -0.12982428073883057 -0.4209919571876526 -0.02781377173960209 -0.04205178841948509 0.020123666152358055 0.07993435859680176 0.12118877470493317 -0.040967706590890884 0.27389076352119446 -0.04216639697551727 -0.03614061325788498 -0.0669514611363411 -0.1996506154537201 0.1309657096862793 0.04916652664542198 -0.3013286590576172 0.04106947407126427 -0.06266593188047409 0.07601866126060486 0.12890625 0.06370598822832108 -0.32844850420951843 -0.05485785752534866 0.14314047992229462 0.48351404070854187 -0.0477508082985878 -0.14571695029735565 0.019659170880913734 0.05737930163741112 -0.05981079488992691 -0.04525646194815636 0.047996245324611664 -0.04096657410264015 -0.09003350883722305 -0.2311183512210846 -0.27364030480384827 -0.028605565428733826 -0.03784865513443947 -0.02059503085911274 0.06859957426786423 -0.27473077178001404 -0.29212284088134766 0.1739189773797989 0.03623214364051819 -0.3537440001964569 -0.37201693654060364 0.19778643548488617 0.19698971509933472 0.060498133301734924 0.31822526454925537 0.06451606750488281 -0.19660255312919617 -0.08588533848524094 -0.06304515898227692 -0.11834648996591568 0.09484422951936722 -0.04750226438045502 -0.06959812343120575 -0.11362150311470032 -0.130593940615654 -0.186553955078125 0.10710813850164413 -0.06686411798000336 -0.15500664710998535 0.01696924865245819 -0.28250762820243835 -0.29153308272361755 -0.15311980247497559 -0.15598158538341522 -0.05301014333963394 0.07253697514533997 0.23358319699764252
69 -0.05177481099963188 0.20526470243930817 -0.016436399891972542 0.08332490921020508 -0.04227660223841667 0.18746396899223328 -0.07739134132862091 -0.06460139155387878 -0.05513681843876839 0.13384419679641724 -0.03694013133645058 -0.3208557069301605 -0.15257972478866577 0.2629763185977936 0.04855460301041603 -0.0651753693819046 -0.09567134827375412 -0.2472011297941208 -0.12000690400600433 -0.13392327725887299 0.3080673813819885 0.06903433054685593 0.005967780016362667 -0.1067175418138504 0.06110614165663719 -0.20609015226364136 -0.028681490570306778 0.08036210387945175 0.23274140059947968 -0.17066720128059387 0.14953970909118652 0.010079815983772278 0.13418886065483093 0.09167350083589554 -0.192107692360878 -0.15501071512699127 -0.28449150919914246 0.20217807590961456 0.14597401022911072 -0.002627395326271653 -0.05864785239100456 0.10636235028505325 -0.2643699049949646 -0.03943435847759247 0.14777183532714844 -0.16942735016345978 -0.018643805757164955 0.08477730304002762 -0.06574320793151855 0.14319413900375366 0.003511171555146575 0.23139968514442444 -0.20142309367656708 -0.022854607552289963 0.10550513118505478 0.16755303740501404 0.06678520143032074 0.1515795886516571 0.050725411623716354 0.0925392210483551 0.09595049917697906 -0.14650371670722961 -0.0013700011186301708 0.018427269533276558 -0.02026139199733734 0.005411633290350437 0.04523031413555145 -0.17757007479667664 0.01706867478787899 -0.07121403515338898 -0.0656920075416565 -1.4708348317071795E-4 0.0905504897236824 0.20516198873519897 0.123426154255867 -0.18763962388038635 0.21625864505767822 -0.06441748887300491 0.13998906314373016 0.11828873306512833 -0.13441471755504608 0.34050965309143066 -0.1205592080950737 -0.22356188297271729 0.007569868117570877 0.025784876197576523 -0.15658821165561676 0.14574652910232544 0.17406010627746582 -0.12228649109601974 -0.054026562720537186 0.1500254124403 -0.018671434372663498 -0.05955634266138077 -0.15587595105171204 -0.21476152539253235 0.04876730218529701 -0.19137918949127197 -0.0643598660826683 0.02538853883743286
487 0.044549986720085144 -0.002833388280123472 -0.11297149211168289 0.015551671385765076 -0.11386681348085403 -0.044569097459316254 -0.06029238924384117 -0.10487050563097 0.05466125160455704 -0.05032382532954216 -0.06564486771821976 0.03974571079015732 0.06854687631130219 0.031669747084379196 -0.013286167755723 0.07872521877288818 0.07035944610834122 -0.1271844506263733 -0.019733695313334465 0.04308054968714714 -0.04111974686384201 0.014548646286129951 0.0795525386929512 -0.018774401396512985 -0.04625952988862991 0.010355393402278423 -0.0393834263086319 0.03871583938598633 -0.020458325743675232 -0.09020354598760605 -0.021585814654827118 0.038274191319942474 0.042249809950590134 9.259075159206986E-4 0.023292699828743935 -0.03885764628648758 -4.869395343121141E-4 -0.03454887494444847 0.06279212981462479 0.007303680758923292 -0.09734653681516647 0.017602942883968353 -0.01899365521967411 -0.03261255472898483 -0.06019265204668045 0.0057825311087071896 -0.009866436943411827 -0.024543751031160355 0.060516588389873505 -0.0356302484869957 -0.010122752748429775 0.020488692447543144 0.04155810922384262 0.009659476578235626 0.00820988044142723 0.0488077774643898 -0.1025579422712326 -0.0036543100140988827 -0.09082596749067307 -0.0046903230249881744 -0.08736500889062881 -0.04553194344043732 -0.015970492735505104 -0.0729994848370552 -0.017435088753700256 0.042924705892801285 0.09057474136352539 -0.07961220294237137 0.05637267231941223 -0.08098603039979935 0.055651966482400894 -0.009908044710755348 -0.06439483910799026 -0.017949094995856285 0.10123023390769958 0.05736156553030014 0.03184711933135986 0.05147751048207283 -0.08375750482082367 0.07099449634552002 0.025393672287464142 -0.044535063207149506 0.06518327444791794 -0.035420626401901245 0.025935979560017586 -0.01734139397740364 0.013454513624310493 0.09637593477964401 -0.038180574774742126 0.11054134368896484 0.14962387084960938 0.07629018276929855 0.05619018152356148 0.05653061717748642 -0.06636014580726624 -0.043998733162879944 -0.0924253761768341 0.061916545033454895 -0.13829928636550903 0.009032746776938438
572 -0.0632549300789833 0.05193285644054413 0.08789931982755661 -0.0016688971081748605 0.004420147743076086 -0.01825045794248581 -0.05709816515445709 -0.006244870368391275 -0.010415773838758469 0.05550507456064224 0.04317757114768028 -0.006243046838790178 -0.07158741354942322 0.011474687606096268 0.03201352804899216 -0.01867060363292694 0.01913679949939251 0.03273380920290947 -0.034912072122097015 -0.01759962923824787 -0.033870846033096313 0.016286367550492287 -0.04162076488137245 0.059491582214832306 -0.006552109029144049 0.03144853562116623 0.01811942830681801 0.01644216664135456 -0.02788420021533966 0.01791529171168804 0.03447815403342247 -0.003713976126164198 0.004237259738147259 0.02905150316655636 -0.07919585704803467 -0.03825870528817177 -0.05057346820831299 0.03489498794078827 -0.007848399691283703 0.003398789092898369 0.037063781172037125 0.06431739032268524 -0.023996714502573013 -0.020143916830420494 0.0058846487663686275 -0.026790115982294083 -0.012775293551385403 -0.05379747599363327 -0.029976459220051765 0.0012467695632949471 0.052950169891119 0.025009412318468094 -0.05804773047566414 -0.023409714922308922 0.042655471712350845 0.019267519935965538 0.023220814764499664 0.003275567200034857 0.02069968916475773 -0.03196180611848831 0.01886925846338272 -0.010741515085101128 0.03431042283773422 0.08128537237644196 -0.020214777439832687 0.023565972223877907 0.003028532722964883 0.012570780701935291 -0.013258245773613453 -0.08595678955316544 -0.027196871116757393 -0.02626686356961727 -0.021996568888425827 0.00398123636841774 -0.026146188378334045 -0.0869869664311409 0.03924024477601051 -0.0025841533206403255 -0.05972681939601898 0.04778949171304703 0.0033107774797827005 -0.03669973835349083 -0.012415517121553421 0.021843044087290764 -0.02095205895602703 -0.01943068578839302 0.015535548329353333 -0.0196494460105896 0.03918008878827095 -0.03804432973265648 0.04310888424515724 0.04720575734972954 -0.05854733660817146 0.011876024305820465 -0.03874468430876732 -0.023633111268281937 -0.06823205202817917 -0.04526817053556442 0.02773372270166874 0.008293606340885162
666 -0.002249182900413871 -0.0017090800683945417 0.003381410613656044 8.379117934964597E-5 0.02364366129040718 -0.018454216420650482 0.004824322648346424 -0.011977408081293106 0.0045449878089129925 -0.008085975423455238 0.0037416405975818634 -0.002893934492021799 -0.0038395216688513756 0.003729576710611582 -8.378950296901166E-4 -9.358099196106195E-4 -0.0027475045062601566 0.007363737560808659 -0.0019498788751661777 -0.0015317436773329973 0.0037162653170526028 -0.004474395886063576 -0.0073448712937533855 0.013613209128379822 -0.010238119401037693 0.0017368725966662169 0.009206930175423622 0.02449764311313629 -0.008244752883911133 0.0023215943947434425 -0.0030083530582487583 0.0030105854384601116 0.002144115511327982 0.015826458111405373 -0.010157283395528793 -0.0023217457346618176 0.011335447430610657 0.010849438607692719 -0.006212169770151377 0.00670380424708128 -7.77640612795949E-4 0.011436425149440765 -0.006435586605221033 -7.053337176330388E-4 0.0056698499247431755 0.0013160810340195894 -0.009500782936811447 -0.01572638936340809 -0.0039014634676277637 -5.937735550105572E-4 0.007013649679720402 -1.4472095062956214E-4 -0.008936487138271332 -0.009286215528845787 0.0036865537986159325 0.0012042536400258541 0.0020249050576239824 -0.004563287831842899 -0.013088088482618332 -0.003804488107562065 0.002529464429244399 0.005419396795332432 -0.00563550740480423 0.012742909602820873 -0.0017855719197541475 0.015784967690706253 4.5306235551834106E-4 7.823894266039133E-4 -0.005153490696102381 -0.018624139949679375 -0.010595180094242096 -0.007920017465949059 0.010346861556172371 -0.010556697845458984 -0.004095974378287792 -0.010834679007530212 3.834860399365425E-4 0.00979218166321516 -0.011871926486492157 0.006188926752656698 0.011023040860891342 -0.004906995687633753 0.009197436273097992 0.00919384602457285 9.524786146357656E-4 -0.007676825392991304 -0.0025132293812930584 0.002555807586759329 -0.0019147321581840515 -0.010906752198934555 0.020100515335798264 0.018964041024446487 -0.01468905434012413 0.007787293754518032 -0.002667380729690194 0.001591759268194437 -0.019722022116184235 -0.008318089880049229 -0.003367961850017309 -0.014824754558503628
30 0.23963488638401031 0.270376592874527 0.1862143725156784 0.19622528553009033 -0.3895839750766754 -0.022664394229650497 -0.011050666682422161 0.17875751852989197 0.057015180587768555 -0.03433973342180252 0.2005213350057602 -0.1588636338710785 0.06623625755310059 0.32976868748664856 0.028564171865582466 -0.3041462302207947 -0.3322494924068451 -0.2814260423183441 0.11808906495571136 -0.11079026758670807 -0.1680711954832077 -0.38757091760635376 -0.05003146454691887 0.16733261942863464 0.17540450394153595 -0.3667071759700775 0.12942762672901154 0.05485311150550842 -0.08877502381801605 0.06820172816514969 0.1718592643737793 0.061567675322294235 0.24237942695617676 -0.24629628658294678 -0.1598515510559082 -0.23799970746040344 -0.08219105750322342 -0.01947908289730549 -0.18618345260620117 0.33981624245643616 -0.01860942505300045 0.16606715321540833 0.011393595486879349 0.1539412885904312 -0.24373236298561096 0.02166961133480072 -0.09149940311908722 0.05941682681441307 -0.008181573823094368 -0.07141175866127014 -0.01597609557211399 -0.08155645430088043 -0.22424601018428802 0.044036392122507095 0.1580290049314499 -0.21781106293201447 -0.25520554184913635 0.047526367008686066 -0.011015196330845356 -0.34359902143478394 -0.02604771964251995 0.22055548429489136 0.05217038840055466 -0.04462166503071785 -0.027813969179987907 0.05139858275651932 -0.014247329905629158 -0.09496176242828369 0.039408937096595764 -0.04708462581038475 -0.0037662337999790907 -0.14578159153461456 -0.24583134055137634 0.22797891497612 -0.12196628749370575 0.022727441042661667 0.11662812530994415 -0.33895307779312134 0.007571863941848278 -0.05459251254796982 -0.14283812046051025 0.14156025648117065 -0.1358240693807602 -0.036021638661623 -0.003777945414185524 -0.11675453931093216 -0.1569570004940033 -0.20672191679477692 0.5461032390594482 0.13308735191822052 0.2292589247226715 -0.2725527286529541 -0.014611841179430485 0.08068167418241501 0.024224761873483658 -0.06833946704864502 -0.06264955550432205 0.1321433037519455 0.23745447397232056 -0.21063227951526642
677 0.12762099504470825 -0.03775392100214958 -0.045712660998106 0.14140819013118744 0.002079616766422987 -0.016413690522313118 0.04359142482280731 -0.00932205282151699 0.03046739101409912 0.04840283840894699 -0.02903669700026512 -0.018047938123345375 -0.0034872291143983603 0.06580067425966263 0.024138780310750008 0.09312833845615387 -0.022645894438028336 -0.015667535364627838 -0.05269511044025421 -0.049417342990636826 -0.09602456539869308 0.02886858768761158 -0.01692613773047924 0.029259080067276955 0.08686389774084091 0.01327741239219904 0.03920745849609375 -0.012432693503797054 -0.06816685199737549 -0.052937284111976624 0.06639966368675232 -0.03283901885151863 0.0012360990513116121 0.03550807759165764 -0.008500603027641773 -0.0570681057870388 0.12187973409891129 -0.00942101888358593 -0.014907789416611195 0.011541556566953659 0.0018356780055910349 0.1380355954170227 0.008474952541291714 -0.0011912453919649124 -0.02526010572910309 -0.010676749050617218 -0.006055047269910574 0.0634617805480957 -0.015327820554375648 -0.12262146919965744 0.008884253911674023 0.03172870725393295 0.18033427000045776 -0.0029822757933288813 -0.01545720361173153 -0.05598466470837593 -0.023541703820228577 -0.0565921813249588 -0.055794235318899155 -0.0283761415630579 -0.010151962749660015 -0.06943721324205399 -0.09948288649320602 -0.07503080368041992 -0.008822734467685223 -0.01106205303221941 -0.028875431045889854 0.015445509925484657 -0.031086016446352005 -0.1313191056251526 0.07647747546434402 0.046221837401390076 -0.11357482522726059 -0.11538264155387878 0.04322642460465431 0.15088646113872528 0.09518293291330338 0.06300295889377594 0.01272615510970354 -0.055980853736400604 0.002594651421532035 0.012933216989040375 -0.012827219441533089 0.04607104882597923 -0.0344964824616909 -0.030841954052448273 0.011589155532419682 -0.03294163569808006 -0.06725611537694931 0.036020319908857346 -0.08102958649396896 -0.03401895612478256 0.011723695322871208 -0.12822562456130981 -0.1382160782814026 -0.06973870098590851 -0.0815986767411232 0.049476440995931625 0.04458726570010185 0.0695485919713974
482 0.13998113572597504 0.06406009942293167 -0.09348540753126144 0.15365244448184967 -0.010011747479438782 -0.011225068010389805 0.0173921138048172 -0.056203361600637436 0.06396185606718063 0.07404536008834839 -0.13894520699977875 -0.0025271878112107515 -0.08099573105573654 0.07431893050670624 0.06125738099217415 0.17735105752944946 0.026801249012351036 -0.08982216566801071 -0.06946948915719986 -0.06415268033742905 -0.08150150626897812 0.0887414887547493 0.05005576089024544 -0.011678531765937805 0.020134400576353073 0.026163171976804733 -0.05522036924958229 0.03856869414448738 -0.08683193475008011 -0.10396519303321838 0.028203440830111504 -0.026630841195583344 0.008715176954865456 0.11787062883377075 -0.013718265108764172 -0.03996565565466881 0.16199997067451477 -0.046237003058195114 0.05330270528793335 -0.006244208663702011 -0.03717223182320595 0.13626492023468018 -0.062045350670814514 -0.05282231792807579 -0.023612186312675476 -0.020564528182148933 0.026876293122768402 0.016762422397732735 -0.07119856774806976 -0.1172223910689354 0.10233349353075027 0.07991927862167358 0.15412521362304688 0.018833672627806664 0.018709346652030945 -0.0022848821245133877 -0.10992290824651718 -0.011293262243270874 -0.09916982799768448 0.035151802003383636 -0.09983880817890167 -0.13069355487823486 -0.16158756613731384 -0.04953249171376228 -0.014533904381096363 -0.004980552941560745 0.0337211899459362 -0.07735412567853928 -0.038083817809820175 -0.16882063448429108 0.12485910952091217 0.04702474921941757 -0.08732501417398453 -0.13502277433872223 0.08684161305427551 0.14031633734703064 0.12026692181825638 0.05738530308008194 -0.010672269389033318 0.016832144930958748 0.04100336134433746 0.0074151307344436646 -0.007170299533754587 0.044119782745838165 -0.1111711859703064 -0.026182660833001137 0.05683372914791107 0.025927357375621796 -0.08424711227416992 0.04808462783694267 -0.04683772474527359 -0.07135690748691559 0.019666794687509537 -0.11059306561946869 -0.08106696605682373 -0.09400858730077744 -0.08850906789302826 -0.022458234801888466 0.015826616436243057 0.11251671612262726
662 0.13120286166667938 -0.017389820888638496 -0.07796947658061981 0.19174407422542572 -0.0177911464124918 -0.04978596419095993 0.03534064441919327 -0.10265127569437027 0.05938873067498207 0.045001253485679626 0.016148488968610764 -0.036194849759340286 -0.11224137991666794 0.08216162770986557 0.023813437670469284 0.14203913509845734 0.008356442674994469 -0.01958257146179676 -0.06999018043279648 -0.05498969554901123 -0.13198202848434448 0.06111491471529007 0.03259233012795448 0.04708213359117508 0.0986773669719696 0.022214820608496666 0.05035342648625374 -0.02105656825006008 -0.12006105482578278 -0.16083531081676483 0.02443063259124756 0.017610859125852585 0.03753978759050369 0.08807241171598434 -0.011128365062177181 -0.10362781584262848 0.09247803688049316 -0.01267722062766552 0.027362221851944923 -0.030392559245228767 0.0033896213863044977 0.18550676107406616 -0.0071214912459254265 -0.08765488862991333 -0.027499904856085777 -0.05472632870078087 0.01798933930695057 0.005775405094027519 -0.06203891709446907 -0.11678983271121979 0.013108547776937485 0.10261303186416626 0.20494109392166138 -0.034626275300979614 -0.0017219210276380181 -0.053494613617658615 -0.002660245168954134 -0.08741095662117004 -0.06330244988203049 0.038275331258773804 -0.06875120103359222 -0.06388276815414429 -0.13903479278087616 -0.06570150703191757 -0.013502358458936214 -0.00392486434429884 -0.06621327251195908 0.044912006705999374 -0.08315101265907288 -0.16523052752017975 0.12021956592798233 0.07871995866298676 -0.19511134922504425 -0.181868314743042 0.030391767621040344 0.08600299805402756 0.031240155920386314 0.08141551911830902 -0.01346057839691639 -0.11429020017385483 -0.030488863587379456 -0.03318854048848152 -0.0014158367412164807 0.06110354885458946 -0.13243357837200165 -0.08771426975727081 -0.03912867233157158 -0.04839466139674187 -0.06913062185049057 0.009775944985449314 -0.09940481185913086 -0.016109446063637733 0.006272668018937111 -0.18464018404483795 -0.09595246613025665 -0.15325304865837097 -0.10399797558784485 0.034227438271045685 0.031037941575050354 0.11618968844413757
375 0.2919973134994507 0.08094567805528641 0.025313716381788254 0.35345107316970825 0.008478335104882717 0.1786009520292282 0.26739752292633057 -0.2186560034751892 0.13618728518486023 0.14107349514961243 -0.10477462410926819 -0.02610296756029129 -0.08013729751110077 -0.028564568608999252 -0.017438001930713654 0.22629350423812866 0.019272077828645706 -0.0724216103553772 -0.2104988694190979 -0.18278467655181885 -0.04303021356463432 0.09169697016477585 -0.036750223487615585 -0.15252649784088135 -0.06951946765184402 -0.0039645591750741005 -0.20216774940490723 0.0027115195989608765 -0.03655925765633583 -0.17816510796546936 0.05646131560206413 0.12318635731935501 0.06785988062620163 0.17205961048603058 -0.004794293083250523 0.02200240083038807 0.2423878312110901 0.06257300078868866 0.06868606805801392 -0.03264257311820984 -0.07924551516771317 0.169362410902977 -0.10720189660787582 -0.13325181603431702 0.1274096518754959 -0.062303684651851654 0.06215979903936386 0.11879854649305344 -0.029195135459303856 -0.19827045500278473 5.166188930161297E-4 0.023067401722073555 0.3880549967288971 0.12926189601421356 0.008641475811600685 -0.10893098264932632 0.09124566614627838 -0.028394168242812157 0.002789850812405348 -0.04021584987640381 0.16098333895206451 -0.17838340997695923 -0.3216744363307953 -0.09622343629598618 0.02877570316195488 -0.06317047774791718 -0.024527965113520622 0.09971723705530167 -0.1646638810634613 -0.06757480651140213 0.14528681337833405 0.1519075483083725 -0.0443667396903038 -0.31226712465286255 0.10901998728513718 0.09791059046983719 -0.05985965579748154 0.04727640375494957 0.09032026678323746 -0.08624310791492462 -0.16594065725803375 0.05683927237987518 -0.03141973912715912 0.07911001890897751 -0.03515288233757019 -0.027557779103517532 -0.05130466818809509 -0.12955625355243683 -0.19202813506126404 0.06856722384691238 -0.23039813339710236 -0.21392762660980225 0.13897261023521423 -0.14767830073833466 -0.08904856443405151 -0.04285942018032074 0.1013430505990982 0.020371126011013985 0.016270538792014122 0.35186275839805603
186 0.039720743894577026 -0.09085467457771301 0.3105439841747284 0.12102318555116653 0.046288397163152695 0.1688162088394165 -0.2847571074962616 0.12444734573364258 0.04631025344133377 0.49311038851737976 -0.08762001246213913 -0.1750907599925995 0.056432608515024185 0.26575979590415955 0.06733231246471405 -0.03272305056452751 -0.02272847481071949 -0.07894076406955719 0.07026712596416473 -0.14398975670337677 -0.20960278809070587 0.37542131543159485 -0.22026334702968597 0.1468946784734726 -0.35063737630844116 -0.10584308952093124 0.08240558207035065 0.06217573210597038 0.003155344631522894 0.2989462912082672 0.2609156370162964 -0.17504306137561798 -0.29880937933921814 0.18494300544261932 -0.26538482308387756 -0.15506599843502045 -0.2564924955368042 0.13352839648723602 0.1397387534379959 -0.07811795175075531 0.23452818393707275 0.055817194283008575 -0.03303205966949463 -0.154279425740242 -0.15047119557857513 0.018578650429844856 0.20857761800289154 -0.3568113148212433 -0.14749568700790405 0.2020777463912964 0.3325541615486145 0.11830411106348038 -0.303436815738678 0.0961744636297226 0.25526535511016846 0.15135374665260315 -0.27857592701911926 0.10730866342782974 -0.11941541731357574 0.14952118694782257 -0.02511575259268284 -0.21472403407096863 -0.06043092906475067 0.15216514468193054 -0.15998756885528564 -0.015536420978605747 -0.018040712922811508 -0.0817963108420372 0.058117933571338654 -0.257211297750473 0.07144717127084732 0.1751127988100052 0.035968612879514694 0.0201251357793808 0.028481921181082726 -0.1633409559726715 0.15317316353321075 -0.2622327506542206 -0.2984481155872345 0.18990874290466309 0.19289924204349518 -0.12278267741203308 0.0011697268346324563 0.22020067274570465 -0.22120806574821472 0.0528850257396698 0.2517354190349579 -0.030134180560708046 -0.10043232142925262 -0.14249968528747559 0.0998881459236145 -0.21625415980815887 0.018821746110916138 -0.12994267046451569 0.046769510954618454 -0.17209158837795258 -0.31165793538093567 -0.08381969481706619 0.10552558302879333 0.14385131001472473
257 0.18263743817806244 0.17496468126773834 0.03535178676247597 0.16404332220554352 -0.06669710576534271 -0.10114435106515884 -0.1453505903482437 -0.040197115391492844 0.11019568890333176 0.1116347685456276 -0.02309151366353035 0.06903504580259323 -0.09893395006656647 0.13855263590812683 0.2048371583223343 0.033890120685100555 -0.15710438787937164 -0.03493846207857132 -0.051963165402412415 -0.11965111643075943 -0.26831650733947754 0.11454930156469345 -0.01579158380627632 -0.005033742170780897 0.19424094259738922 0.07442335039377213 0.07698708027601242 0.0829438716173172 -0.026925554499030113 -0.18582506477832794 0.07068391889333725 0.06315223127603531 0.07020547240972519 0.12878693640232086 -0.24830618500709534 -0.05817270278930664 0.01048495527356863 0.013686379417777061 0.05511694774031639 0.012297498993575573 -0.049422938376665115 0.2706874907016754 -0.12614300847053528 0.0709579661488533 0.036018893122673035 -0.12325457483530045 -0.05105133354663849 -0.24699373543262482 -0.1045059934258461 -0.16135165095329285 0.1827859729528427 0.1028372272849083 0.20678895711898804 -0.16534356772899628 0.07478266209363937 -0.029200483113527298 -0.029570624232292175 -0.020744875073432922 -0.11252584308385849 0.030780160799622536 -0.14919428527355194 -0.14536018669605255 -0.14343897998332977 -0.0018345641437917948 -0.022207073867321014 0.1474258154630661 -0.040741752833127975 0.04942042753100395 -0.08338650315999985 -0.31350064277648926 0.08472395688295364 0.10754208266735077 -0.24775025248527527 -0.2729313373565674 -0.02977686934173107 0.12721025943756104 0.15656131505966187 0.17859408259391785 -0.22379612922668457 0.1734742820262909 9.688539430499077E-4 -0.01155559066683054 0.0033628917299211025 0.088747039437294 -0.026121530681848526 -0.22365118563175201 -0.008831390179693699 0.1074773371219635 -0.12405446171760559 0.08099456131458282 -0.0011748585384339094 0.18473981320858002 -0.14926165342330933 0.023743148893117905 -0.23068740963935852 -0.18111972510814667 -0.33306077122688293 -0.051242027431726456 -0.18865010142326355 0.026958348229527473
840 0.04605087637901306 0.017512908205389977 0.02664717100560665 0.05289359390735626 -0.012085639871656895 -0.004349322523921728 -0.03299946337938309 -0.023321261629462242 0.01773914322257042 0.06067582592368126 -0.007404753006994724 -0.025307752192020416 -0.003224229207262397 0.05377364158630371 0.021965838968753815 0.02316407673060894 -0.02832595445215702 -0.014548495411872864 -0.010965969413518906 -0.04451688006520271 -0.028152095153927803 0.016476601362228394 -0.02306489460170269 0.022432180121541023 0.0021713280584663153 0.01083431951701641 -0.005616593174636364 0.004559092223644257 0.009577400051057339 -0.044922973960638046 0.0311809703707695 4.0756678208708763E-4 0.008074101991951466 0.012159564532339573 -0.025685841217637062 0.01492970809340477 0.02683986723423004 -0.01578417234122753 -0.02692057192325592 0.0065808724611997604 7.520870422013104E-4 0.0412537045776844 -0.0021434049122035503 -0.022758416831493378 0.004775709006935358 -0.014147339388728142 0.005535682663321495 -0.026603301987051964 -0.036766864359378815 -0.03978490084409714 0.028499342501163483 0.020195266231894493 0.04770985245704651 0.004344711545854807 0.01629629358649254 -0.02255440317094326 -0.014255497604608536 -0.014683671295642853 -0.006034581921994686 -0.004877248778939247 0.009403516538441181 -0.011258216574788094 -0.03690886124968529 -0.02055422030389309 5.909153260290623E-4 -0.0016572494059801102 -0.03010215051472187 0.023284848779439926 -0.05415106937289238 -0.056892212480306625 0.028191696852445602 0.07169078290462494 -0.028492499142885208 -0.06822430342435837 -0.009241906926035881 0.0028250496834516525 0.022987527772784233 0.009073798544704914 -0.014257943257689476 -0.01465875469148159 -0.0031470302492380142 0.0018509282963350415 0.009713130071759224 0.010190397500991821 -0.028569703921675682 -0.01833922043442726 0.0168989859521389 -0.023386996239423752 -0.015843814238905907 0.01013871654868126 -0.02646065130829811 -0.030383562669157982 -0.00512496754527092 -0.03466477245092392 -0.03211182355880737 -0.019682003185153008 -0.02291962131857872 0.015594324097037315 0.01883595995604992 0.015603553503751755
232 -0.08528801798820496 0.08874969184398651 0.09623502194881439 0.21090860664844513 0.14561636745929718 0.005610525608062744 -0.49324434995651245 0.47261911630630493 0.26156380772590637 0.5158921480178833 -0.1761113852262497 -0.009522054344415665 0.2697063088417053 0.40845662355422974 0.09669756889343262 0.1941768229007721 0.12404054403305054 -0.25487518310546875 -0.24748574197292328 -0.14406174421310425 -0.21578297019004822 0.6424295902252197 -0.18408238887786865 0.10804801434278488 -0.4695562720298767 -0.05142216756939888 0.05977489799261093 0.2886328399181366 -0.08111576735973358 0.3575894236564636 0.3000142574310303 -0.05090233311057091 -0.2860589921474457 0.3334520757198334 -0.339158296585083 -0.12217061966657639 -0.12055305391550064 0.0207979716360569 -0.019593393430113792 -0.09638743102550507 0.5338091850280762 0.02501426823437214 -0.15092627704143524 -0.15295809507369995 -0.2339455783367157 0.06087477132678032 0.7217540740966797 -0.4216304123401642 -0.1953824907541275 0.03250958397984505 0.5001561045646667 0.20842832326889038 -0.4328726530075073 0.2491895854473114 0.35567405819892883 0.29456597566604614 -0.5855889320373535 0.23483209311962128 0.17394888401031494 0.29953622817993164 -0.23201780021190643 -0.22265329957008362 -0.07273751497268677 0.028178991749882698 -0.11071224510669708 0.03205292299389839 -0.18826265633106232 0.0036430396139621735 0.12198381125926971 -0.2922104299068451 0.09482818841934204 0.18872657418251038 0.03138405457139015 0.04537195339798927 -0.09903308004140854 -0.23025396466255188 0.19365565478801727 -0.40116554498672485 -0.35912024974823 0.2000468373298645 0.4423518776893616 -0.41305097937583923 0.04831056296825409 0.045317117124795914 -0.5540140271186829 0.4465870261192322 0.49108585715293884 0.046496350318193436 0.03368721529841423 -0.2793179452419281 -0.14924311637878418 -0.3864777684211731 0.22722235321998596 -0.34466928243637085 0.3561112880706787 -0.0937490314245224 -0.2160310000181198 -0.19514529407024384 0.29133346676826477 0.07924217730760574
139 0.2922500669956207 -0.14424948394298553 0.08276613056659698 -0.27319642901420593 0.17777347564697266 -0.11022821068763733 0.26393458247184753 0.030205918475985527 0.42254239320755005 -0.1904325932264328 -0.531761109828949 -0.2682090699672699 0.13324671983718872 -0.19285006821155548 0.01966824382543564 0.22599127888679504 -0.03876255452632904 -0.18159863352775574 -0.2010641098022461 -0.073459692299366 -0.014010505750775337 -0.19212184846401215 0.03809318691492081 -0.13047878444194794 0.033943865448236465 -0.0873679593205452 0.03379640728235245 0.20431870222091675 0.10002919286489487 0.05135170370340347 -0.08947444707155228 0.09881506860256195 0.38882070779800415 -0.0833246111869812 -0.22205844521522522 -0.30458706617355347 0.030168013647198677 -0.24090918898582458 0.0322718545794487 0.06615520268678665 -0.274951696395874 0.0545465350151062 -0.016820194199681282 -0.008848211728036404 -0.4492662250995636 0.018089862540364265 -0.002735983347520232 -0.02370452880859375 0.2739574909210205 -0.0014192957896739244 0.21895629167556763 -0.10241615027189255 0.03561927005648613 0.17793799936771393 -0.14223411679267883 0.09577882289886475 -0.1133958026766777 0.0569305382668972 -0.16316427290439606 -0.0659567341208458 0.11672545969486237 0.17916640639305115 -0.06731310486793518 -0.19705474376678467 0.21330441534519196 0.09202432632446289 0.21850822865962982 -0.12256813794374466 -0.10972702503204346 0.20144177973270416 0.03375113755464554 -0.042583856731653214 0.07932355999946594 0.15999121963977814 0.10706508904695511 0.19526131451129913 0.09273426234722137 0.06429234147071838 -0.22148562967777252 0.5123500227928162 0.3479596972465515 -0.16452591121196747 0.06230372563004494 0.06710387766361237 0.06463225185871124 -0.1884196698665619 0.21839508414268494 0.3473772704601288 -0.0628179982304573 0.1783677190542221 0.43940243124961853 -0.25955191254615784 0.054588500410318375 -0.05367106571793556 -0.30266374349594116 -0.2499299794435501 0.07446411997079849 -0.08692607283592224 0.005194836761802435 -0.48066800832748413
359 0.0795208215713501 -0.06886999309062958 -0.1370709091424942 0.10230399668216705 0.21178945899009705 -0.15979622304439545 -0.3534880578517914 -0.24369296431541443 0.15995943546295166 0.16713333129882812 0.1347646266222 -0.13324537873268127 -0.20798079669475555 -0.011996717192232609 0.20184287428855896 -0.16152992844581604 0.14297406375408173 0.38740941882133484 -0.2291448414325714 -0.14330469071865082 -0.14510777592658997 0.04440655559301376 -0.37815338373184204 0.2199089676141739 0.2904284596443176 0.25829198956489563 0.31664150953292847 0.2775425314903259 -0.0014682967448607087 -0.2544669210910797 0.06721239537000656 -0.0821734294295311 0.28367435932159424 0.33406850695610046 -0.3993823528289795 -0.06979908049106598 0.20997320115566254 0.24838010966777802 -0.23087982833385468 0.2122081071138382 0.058447711169719696 0.4617064297199249 -0.06761002540588379 0.24952614307403564 0.46318602561950684 0.01768435537815094 0.03563573211431503 -0.25420472025871277 -0.34894704818725586 -0.30490705370903015 0.0798461064696312 -0.0995587632060051 -0.12521100044250488 -0.12073180824518204 0.09276490658521652 0.10282408446073532 -2.4248758563771844E-4 -0.12154421210289001 0.15396900475025177 -0.320707231760025 -0.10589732974767685 0.20716449618339539 0.34407177567481995 0.4611119031906128 -0.16804717481136322 0.24147625267505646 -0.053983960300683975 0.0069440072402358055 0.1150735542178154 -0.6002465486526489 -0.1646745353937149 -0.1090741977095604 0.11608493328094482 -0.505436360836029 -0.13027386367321014 -0.18462972342967987 0.18680855631828308 0.45519664883613586 -0.13817299902439117 0.13160668313503265 -0.13335289061069489 -0.40238243341445923 0.36041340231895447 -0.10202682018280029 -0.18745219707489014 0.03247864916920662 -0.051167093217372894 0.01961318589746952 0.05494493991136551 0.16584907472133636 0.4167705178260803 0.5933920741081238 -0.35660305619239807 0.22122229635715485 -0.16945266723632812 0.2423907369375229 -0.2180761992931366 -0.24433867633342743 0.1366945058107376 -0.005846310406923294
861 0.0073302509263157845 -8.367295376956463E-4 -0.013625357300043106 4.3361849384382367E-4 -1.6158167272806168E-4 -0.0034070392139256 -0.008269838988780975 -0.006694975774735212 0.007044942583888769 -4.5245815999805927E-4 -0.015654228627681732 0.014576666988432407 0.007008897140622139 0.0066282013431191444 -0.011446533724665642 0.011746367439627647 0.0018480077851563692 -0.011746344156563282 7.194397039711475E-4 0.0059212855994701385 -0.020731262862682343 -0.0023555648513138294 0.008371382020413876 -0.002454688772559166 -0.0068924399092793465 0.0057169850915670395 0.0057480898685753345 0.0023611264768987894 0.001360453898087144 -0.013622310012578964 0.003154449164867401 0.005324802827090025 4.520113579928875E-4 0.003919657319784164 -0.004003313835710287 -0.013217492960393429 0.0038353842683136463 4.1324086487293243E-4 -0.008165005594491959 -7.009217515587807E-4 -0.004796492867171764 0.010766695253551006 -0.015173090621829033 -0.005696403793990612 -0.0054862238466739655 -0.005234211217612028 -0.012838182039558887 -0.005526180379092693 0.01101238839328289 -0.01467599906027317 0.002243815688416362 0.0027193676214665174 0.01183327753096819 -0.008338028565049171 0.0014706305228173733 -0.005935110151767731 -0.007385985925793648 -0.004617431666702032 0.0021608888637274504 -0.0014180695870891213 -0.01061388198286295 -0.015267068520188332 -0.0011145197786390781 -0.013653973117470741 -0.005157883279025555 0.0046642376109957695 0.00880563072860241 -0.003918248228728771 -0.0036269386764615774 -0.013603722676634789 1.521366648375988E-4 0.0020359340123832226 -0.012955766171216965 -0.015772495418787003 0.007378552109003067 0.008364669978618622 0.0061072236858308315 0.018935926258563995 -0.014187713153660297 0.024322308599948883 0.004092324525117874 -0.015260662883520126 0.016163017600774765 0.0018337997607886791 0.010173091664910316 -0.009931620210409164 0.0011788435513153672 0.003043517004698515 -0.011814601719379425 0.0041997493244707584 0.013298114761710167 0.006972791161388159 -0.007621167227625847 -0.020204991102218628 -0.027316613122820854 -0.003316410817205906 -0.018358543515205383 0.014981182292103767 -0.019755305722355843 -9.704343974590302E-4
523 -0.032148633152246475 0.0043912059627473354 -4.643190186470747E-4 0.006478297058492899 0.04099434241652489 -0.022963613271713257 -0.06301660090684891 0.05224614590406418 0.02041636034846306 0.060052547603845596 0.005639226175844669 -0.0333542674779892 0.00776646239683032 0.05086537078022957 -0.004159627947956324 0.01891992799937725 -0.015573062933981419 -0.018283026292920113 0.0027087589260190725 -0.027185961604118347 -0.028633195906877518 0.04752611741423607 -0.025816934183239937 0.051422253251075745 -0.0757347047328949 0.004807234276086092 0.04179934039711952 0.06488499045372009 -0.02087635174393654 0.0198389682918787 0.01362062431871891 -0.04256878048181534 -0.039101742208004 0.054554108530282974 -0.07015074789524078 0.004892171360552311 -0.00785356480628252 -0.0035177194513380527 -0.01531788520514965 -0.009254730306565762 0.05253271013498306 0.041634466499090195 -0.019447391852736473 -0.01487363688647747 -0.006199972704052925 -0.030733199790120125 0.033965371549129486 -0.08051322400569916 -0.04200146719813347 -0.0038596387021243572 0.09660563617944717 0.03605945035815239 -0.05468224361538887 -0.01415117084980011 0.04596548527479172 0.015549472533166409 -0.0422884039580822 0.02633373625576496 -0.015761690214276314 0.04520445689558983 -0.014351907186210155 -0.03186948969960213 -0.02277340181171894 0.022732950747013092 -0.01951603777706623 0.05225527286529541 -0.008062884211540222 0.004536856897175312 -0.006805425509810448 -0.057020384818315506 0.0017100006807595491 0.03555002063512802 -0.021526556462049484 -0.018715262413024902 -0.02357272431254387 -0.031329553574323654 0.06837188452482224 -0.016976619139313698 -0.061241865158081055 0.04458006098866463 0.09586334228515625 -0.021741723641753197 -0.028313951566815376 0.0404193215072155 -0.07831798493862152 0.012712339870631695 0.07570541650056839 0.020567715167999268 -0.026370150968432426 -0.04089661315083504 -0.009968817234039307 0.005449200514703989 -0.03185185790061951 -0.05881379917263985 0.012180063873529434 -0.043626368045806885 -0.095243901014328 -0.029815101996064186 0.030177608132362366 -0.02857843227684498
779 0.029743842780590057 0.03496713191270828 0.012212476693093777 0.10847936570644379 -0.031400416046381 -0.03768241032958031 -0.021487824618816376 -0.056440189480781555 0.010821959935128689 0.04427443444728851 0.009324179962277412 -0.04523875564336777 -5.929393955739215E-5 0.029681779444217682 0.019345585256814957 0.007494717836380005 -0.001028223428875208 0.05309699848294258 -0.019216369837522507 -0.02535315975546837 -0.048078954219818115 0.010224503464996815 -0.045530106872320175 0.017406662926077843 0.04936099424958229 0.04659983515739441 0.019972063601017 0.02118159830570221 -0.05318957194685936 -0.027602972462773323 0.04158138483762741 -0.0032324434723705053 0.038683682680130005 0.03775462508201599 -0.0504239983856678 -0.022207463160157204 0.06554746627807617 -0.024933988228440285 -0.031240608543157578 0.03243137151002884 -0.013871372677385807 0.09564097225666046 0.005362088326364756 0.019115615636110306 0.058739788830280304 -0.01448747143149376 0.0038536852225661278 -0.01501975953578949 -0.012052075937390327 -0.0884624496102333 0.007613013964146376 -0.0015546068316325545 0.06895626336336136 -0.043596502393484116 -0.03487236425280571 -0.0368710532784462 -0.014804281294345856 -0.016908155754208565 0.02368006482720375 -0.03891216218471527 -0.022266920655965805 0.021137919276952744 -0.04037243127822876 -0.026050599291920662 -0.04681849852204323 0.03126223757863045 -0.032710541039705276 0.051460281014442444 -0.016342949122190475 -0.0887497067451477 0.04208835959434509 -0.0019010109826922417 -0.08029618114233017 -0.11561021953821182 0.0034382641315460205 0.007699164561927319 0.03286188095808029 0.053312014788389206 0.016890481114387512 -0.02465912327170372 -0.03842303901910782 -0.03132766857743263 0.015835467725992203 0.013417735695838928 -0.0278024822473526 0.03763824701309204 -0.021256357431411743 -8.87481146492064E-4 0.007395091932266951 0.021236320957541466 -0.039783503860235214 0.03473491966724396 0.008074435405433178 -0.005973509978502989 -0.024775957688689232 0.032634999603033066 -0.04347354546189308 -0.014689039438962936 0.07103272527456284 0.025699101388454437
244 0.2528473138809204 0.3861962556838989 0.4380195736885071 0.046553052961826324 -0.3467058837413788 -0.3060358464717865 -0.25119832158088684 0.2556011974811554 -0.14754590392112732 0.029026096686720848 0.1526205837726593 -0.12069772183895111 -0.038692690432071686 0.36580178141593933 0.2736627757549286 -0.32050371170043945 -0.4968055784702301 -0.01247359812259674 0.2769887447357178 0.14422716200351715 -0.24849753081798553 -0.47798869013786316 0.2535223960876465 0.09197039157152176 0.3140753507614136 -0.22501730918884277 0.057736463844776154 -0.1386532336473465 -0.39012303948402405 -0.05937352031469345 -0.0011451736791059375 -0.06536409258842468 0.13249343633651733 -0.26374369859695435 7.174762868089601E-5 -0.04331567883491516 -0.21209700405597687 -0.11465451866388321 -0.10205428302288055 0.25424614548683167 -0.11183042824268341 0.11857074499130249 0.16842716932296753 0.0906718298792839 -0.23963233828544617 0.03025107830762863 -0.4179021120071411 -0.04538455978035927 -0.1642511785030365 0.06606925278902054 0.1406945139169693 0.08498941361904144 -0.1903657466173172 -0.3778926730155945 0.12552374601364136 -0.45925435423851013 -0.36185505986213684 -0.18670381605625153 -0.19879482686519623 -0.28483837842941284 -0.40896376967430115 -0.09657979756593704 0.06659621745347977 0.10148884356021881 -0.13273419439792633 -0.10981857776641846 -0.20034921169281006 -0.013601514510810375 0.03941087797284126 -0.22442053258419037 0.1522190421819687 -0.21172329783439636 -0.27245670557022095 0.28692734241485596 -0.11883240938186646 0.045328643172979355 0.11319299042224884 -0.232137992978096 -0.18758846819400787 -0.1497562676668167 -0.06814546883106232 0.6247021555900574 -0.23648954927921295 -0.1124705970287323 -0.06938834488391876 -0.4289664924144745 -0.06844610720872879 -0.24393898248672485 0.4543822407722473 0.03268469125032425 0.07947190850973129 -0.3924967646598816 -0.14664705097675323 0.15615637600421906 0.2356085181236267 -0.37630635499954224 -0.008853008039295673 -0.18497346341609955 0.09428776055574417 -0.3902643620967865
449 0.09824085235595703 0.006814594846218824 0.03717099130153656 0.12817224860191345 -0.049328673630952835 -0.10377109050750732 -0.08432898670434952 0.02676299773156643 0.05460747703909874 0.054548271000385284 -0.03600510582327843 -0.04457125440239906 0.04506801441311836 0.035365838557481766 0.050821129232645035 0.06126803532242775 -0.04744011163711548 0.009004822000861168 0.03493286296725273 -0.044404275715351105 -0.042172521352767944 0.0473610945045948 0.008174123242497444 0.005051156040281057 -0.03927452489733696 0.03891797736287117 -0.03444882482290268 0.06630672514438629 -0.05532366409897804 0.012601233087480068 0.006654000841081142 -0.061214324086904526 0.030419277027249336 0.02153157629072666 -0.05345378816127777 -0.030851859599351883 0.02095525898039341 -0.06080556660890579 -0.03135017678141594 -0.012034120969474316 -1.1894752969965339E-4 -0.04579606652259827 0.04466162994503975 -0.04312102124094963 -0.0643753930926323 0.0016529301647096872 0.03842821717262268 -0.09143989533185959 -0.02010951191186905 -0.04343739151954651 0.08080828189849854 0.014521127566695213 0.05350274592638016 -0.05681455507874489 0.030885647982358932 0.019431963562965393 -0.086741141974926 0.04427310451865196 -0.10944708436727524 -0.006434604525566101 -0.11348883807659149 -0.018802175298333168 -0.012442872859537601 -0.02351013757288456 0.07344379276037216 -0.012091492302715778 0.07247399538755417 0.03239923343062401 -0.008658723905682564 -0.06252899020910263 0.05385034531354904 0.06067249923944473 -0.02440844662487507 -0.01282978244125843 0.07094324380159378 0.062256164848804474 0.1081114187836647 0.014703230932354927 -0.05850467085838318 0.1147424504160881 0.10251246392726898 -0.007646612357348204 0.02960204891860485 0.02059752494096756 -0.05870109796524048 -0.03397991135716438 0.05093894526362419 0.0782478004693985 -0.06472503393888474 0.01728636398911476 0.055253300815820694 -0.019266825169324875 0.013907750137150288 -0.09283434599637985 -0.005443365778774023 -0.09717315435409546 -0.16192132234573364 8.784160309005529E-5 0.07512772083282471 -0.02333562821149826
15 0.18130998313426971 -0.40099650621414185 0.06845130026340485 0.0700126439332962 -0.014115899801254272 0.30526816844940186 0.46700596809387207 0.04916299507021904 -0.10463425517082214 0.07477502524852753 -0.2079201638698578 0.0012717409990727901 -0.051246706396341324 -0.1120820939540863 0.048906274139881134 -0.1879207342863083 -0.10792863368988037 0.19503308832645416 1.774649426806718E-4 5.547524197027087E-4 -0.3280235230922699 0.19626908004283905 -0.1380864977836609 -0.12364461272954941 0.4647366404533386 -0.15772195160388947 -0.023346617817878723 0.07182735949754715 0.062455277889966965 0.24030393362045288 -0.06153840199112892 0.049778856337070465 -0.04023916646838188 0.11204840987920761 -0.15147517621517181 -0.10285215824842453 0.002279758919030428 0.07988664507865906 0.18750332295894623 0.1046111136674881 -0.0976288691163063 0.003992180339992046 -0.077415831387043 0.17299450933933258 0.042742401361465454 -0.022133799269795418 0.13825954496860504 -0.04878413677215576 -0.13806188106536865 -0.12301313132047653 -0.10128126293420792 -0.07720662653446198 -0.08732014149427414 -0.043111737817525864 0.08574333786964417 0.2960647940635681 -0.033458344638347626 0.052018728107213974 -0.24682362377643585 0.06607021391391754 -0.053523242473602295 -0.09922729432582855 -0.012219855561852455 -0.0875166580080986 -0.29099148511886597 0.09159989655017853 -0.0715622678399086 -0.15869127213954926 0.184294655919075 -0.009526676498353481 -0.14597545564174652 -0.004960475955158472 -0.004324584733694792 0.2680355906486511 -0.016953855752944946 -0.006607345305383205 -0.1336769014596939 -0.08367087692022324 -0.1765381097793579 -0.18485689163208008 0.10130888968706131 0.065797358751297 -0.4293553829193115 0.19493624567985535 0.35778629779815674 -0.08934202790260315 -0.33530116081237793 0.01820097491145134 0.04187214374542236 0.14359024167060852 -0.009685350582003593 -0.06954904645681381 -0.13636471331119537 0.48235413432121277 0.009065455757081509 0.05426224693655968 0.032644063234329224 -0.2199488878250122 -0.109987773001194 0.0063055893406271935
850 0.011140106245875359 0.020985370501875877 -0.03181394934654236 0.04609246924519539 0.003934020642191172 -0.028388697654008865 -0.02723190002143383 0.01993773691356182 0.03746654465794563 0.02693266235291958 6.136722513474524E-4 -0.0070152366533875465 -0.0030767275020480156 0.030724981799721718 0.015945957973599434 0.03126254305243492 -0.02071215771138668 0.009584317915141582 -0.020666228607296944 -0.018303724005818367 -0.05568476393818855 0.04048914834856987 8.720574551261961E-4 -0.0019229259341955185 0.032225102186203 0.021064387634396553 0.003954008687287569 0.008931106887757778 -0.02671154960989952 -0.02843375876545906 0.01083025150001049 -0.007688744459301233 -0.003364256815984845 0.0360061451792717 -0.017698107287287712 -0.008044516667723656 0.015024683438241482 -0.0012673172168433666 0.0022788261994719505 0.011982952244579792 0.013455425389111042 0.04538523778319359 -0.006639593280851841 0.006030695047229528 -0.0019142518285661936 -0.02252141386270523 0.015290497802197933 -0.029402006417512894 -0.009137979708611965 -0.010067112743854523 0.01742478460073471 0.005880450829863548 0.05101678892970085 -0.018019456416368484 -0.011897156946361065 -0.015325015410780907 -0.016065869480371475 -0.017330756410956383 0.008221417665481567 0.01740995980799198 -0.038280341774225235 -0.03269490227103233 -0.05441873520612717 -0.03646630793809891 -0.014057764783501625 0.016510358080267906 -0.04188096150755882 0.0389215461909771 -0.01261188555508852 -0.035892438143491745 0.04467381536960602 0.030384495854377747 -0.0569874532520771 -0.09280816465616226 0.002963919658213854 0.03916080668568611 0.01731891743838787 0.03812582790851593 -0.01262631919234991 0.0036721257492899895 -0.0018839816330000758 0.017845649272203445 0.010022909380495548 0.03481217473745346 -0.014889678917825222 -0.009164647199213505 0.02145131304860115 0.012425428256392479 -0.046702414751052856 0.039332978427410126 -0.025562206283211708 -0.022576451301574707 0.010604851879179478 -0.0060985940508544445 -0.011148234829306602 -0.02251358889043331 -0.0674799382686615 0.006885482929646969 -0.0022404221817851067 0.007025957573205233
363 0.17169040441513062 0.14838315546512604 0.11811605840921402 0.2899746000766754 -0.019643712788820267 -0.022706087678670883 0.23749025166034698 -0.14171355962753296 0.15202456712722778 0.025093471631407738 -0.19456584751605988 0.023617897182703018 -0.19590362906455994 0.08728092908859253 0.038053739815950394 0.3226149380207062 0.0638393983244896 0.014762062579393387 -0.11849651485681534 -0.2352413833141327 -0.3123212456703186 0.006711357738822699 0.051533110439777374 0.03831322863698006 0.10381809622049332 0.044193334877491 -0.012593059800565243 -0.08476889133453369 -0.21265976130962372 -0.1647985428571701 0.06920018792152405 0.04259532317519188 0.08079439401626587 0.12036841362714767 -0.028321044519543648 -0.12291829288005829 0.23311936855316162 -0.01538893673568964 -0.08619419485330582 -0.02587132528424263 -0.006189219653606415 0.43731415271759033 -0.03079141676425934 -0.025699671357870102 -0.10483034700155258 -0.020648373290896416 -0.06084105744957924 0.12209486216306686 -0.07016396522521973 -0.3684453070163727 0.07417893409729004 0.07148746401071548 0.5201215744018555 -0.005789490882307291 -0.16884745657444 -0.23818403482437134 -0.014885122887790203 -0.06389230489730835 -0.027978165075182915 -0.0804886668920517 -0.05072377249598503 -0.2242765724658966 -0.39187100529670715 -0.24897651374340057 0.00631787208840251 -0.033985793590545654 -0.058478064835071564 0.10695852339267731 -0.16633638739585876 -0.295320063829422 0.19188576936721802 0.1603001058101654 -0.23910528421401978 -0.46893757581710815 0.06731970608234406 0.2874326705932617 -0.01300112809985876 0.16883069276809692 0.023437662050127983 -0.144708052277565 -0.06399740278720856 0.07338753342628479 0.15774588286876678 0.20620179176330566 -0.0819818377494812 -0.17827187478542328 -0.08935407549142838 -0.15622082352638245 -0.20504185557365417 0.1321740448474884 -0.17677341401576996 -0.10748787224292755 0.004430646542459726 -0.12922747433185577 -0.36700841784477234 -0.07991496473550797 -0.010407126508653164 -0.02295035682618618 -0.17876975238323212 0.19344890117645264
131 0.2857998311519623 0.011370486579835415 -0.2192602902650833 0.6193896532058716 -0.08148947358131409 0.20401369035243988 0.2656186819076538 -0.37050095200538635 -0.012978198006749153 -0.06750582903623581 -0.07859185338020325 -0.023111339658498764 -0.08736874908208847 0.13058482110500336 0.06350252777338028 0.14651232957839966 0.07853570580482483 -0.1755559742450714 -0.027488116174936295 -0.02288363315165043 -0.06908034533262253 -0.01745316945016384 -0.13736656308174133 0.2200663983821869 0.04092990607023239 -0.01623356342315674 0.032503753900527954 0.029441624879837036 -0.08158528059720993 -0.2104753702878952 0.17131169140338898 0.04751897230744362 -0.13375671207904816 -0.2045142948627472 0.42212992906570435 0.08532117307186127 0.15105962753295898 -0.02435089834034443 -0.08674268424510956 0.06398402154445648 0.016391899436712265 0.2719896137714386 -0.03184125944972038 0.03705188259482384 0.0857074111700058 0.18347907066345215 -0.06767198443412781 0.3691283166408539 -0.02307402342557907 -0.15909403562545776 0.03744618222117424 0.09782487899065018 0.3212014138698578 0.2543852627277374 0.039077386260032654 0.1290212720632553 0.017787223681807518 -0.18488316237926483 -0.12389867752790451 0.009978187270462513 0.09680860489606857 -0.2226758897304535 -0.47282058000564575 -0.19849614799022675 -0.06212102621793747 -0.2121962010860443 0.18523000180721283 -0.259118914604187 -0.120280921459198 -0.34240078926086426 0.09512095153331757 -0.0196957029402256 -0.26765871047973633 0.06774241477251053 0.12250762432813644 0.055113766342401505 0.08118074387311935 -0.052512895315885544 0.20760853588581085 -0.4812348484992981 -0.14553047716617584 -0.007505520712584257 0.19362711906433105 0.2459718883037567 -0.017660386860370636 0.06651955097913742 -0.2616824209690094 -0.1866513043642044 -0.1856960952281952 -0.10767749696969986 -0.05438721552491188 -0.28907978534698486 -0.0744304358959198 -0.4313220679759979 -0.3350357115268707 -0.044485509395599365 -0.03021499328315258 -0.09772205352783203 0.48877736926078796 0.3687075078487396
306 0.19816598296165466 0.037597499787807465 -0.07416243106126785 0.28512877225875854 -0.2179163247346878 -0.05343916639685631 -0.12557031214237213 -0.16987895965576172 0.19026263058185577 -0.0440472774207592 0.13233156502246857 -0.10645411163568497 0.08934826403856277 0.06324390321969986 0.09223877638578415 0.1699562966823578 -0.10707974433898926 -0.053946081548929214 -0.024741414934396744 -0.11699733138084412 -0.19410964846611023 0.09115886688232422 0.0538448728621006 -0.029349474236369133 0.13195949792861938 4.819716850761324E-4 -0.12589149177074432 -0.006201812531799078 0.0308066476136446 -0.2835811376571655 0.008949600160121918 0.148084819316864 0.13329164683818817 0.10169550776481628 -0.11689943820238113 -0.1035010889172554 0.13929013907909393 0.042987849563360214 0.14260725677013397 -0.0031216908246278763 -0.08364960551261902 0.06518077850341797 0.04988385736942291 -0.15254370868206024 0.02907484583556652 -0.1218649223446846 0.11102952808141708 -0.11267898231744766 -0.05101894959807396 -0.22638238966464996 0.10185958445072174 0.22470994293689728 0.41038575768470764 -0.20396150648593903 0.1160498633980751 -0.09086449444293976 -0.13436231017112732 -0.034571561962366104 -0.1295795887708664 0.0822252705693245 -0.13753612339496613 -0.21538183093070984 -0.2719336748123169 -0.18600790202617645 -0.04336811974644661 0.05149007588624954 -0.13210134208202362 0.19465702772140503 -0.06802898645401001 -0.28391730785369873 0.14109495282173157 0.26322701573371887 -0.1696772426366806 -0.3048345744609833 0.3157641887664795 0.035968512296676636 -0.06486309319734573 0.1735074371099472 -0.21220660209655762 -0.043345849961042404 -0.041750986129045486 0.060806918889284134 0.11522916704416275 0.16109220683574677 -0.12135439366102219 -0.18394605815410614 -0.19509993493556976 -0.024314209818840027 -0.25351423025131226 0.055451203137636185 -0.00764265563338995 -0.027877798303961754 0.0657154992222786 -0.13476787507534027 -0.03832327201962471 -0.2983177900314331 -0.07758693397045135 -0.04267991706728935 -0.1833321750164032 0.04822085052728653
793 0.03242858499288559 0.013106807135045528 -0.004236697219312191 0.061913296580314636 -9.831675561144948E-4 0.0064329905435442924 0.025831663981080055 -0.030534125864505768 0.005574765149503946 0.02864072285592556 -0.015088235959410667 -0.012601122260093689 -0.012619780376553535 0.030865222215652466 0.005151720717549324 0.03352976217865944 -0.014904550276696682 0.0018728086724877357 -0.009083651937544346 -0.038761239498853683 -0.04900849983096123 0.02067635767161846 0.010939820669591427 -0.00504401046782732 0.00853822473436594 -0.001300220494158566 -0.007722152397036552 -0.01980653591454029 -0.010862043127417564 -0.035543713718652725 0.015218026004731655 -0.009096338413655758 -0.024737879633903503 0.03129175305366516 0.014018028043210506 0.01654045283794403 0.04816393554210663 -0.034302689135074615 -0.016350651159882545 -0.001948671881109476 -0.02504926174879074 0.029405897483229637 0.0037404478061944246 -0.00596967525780201 0.010047492571175098 0.0025981750804930925 0.029870225116610527 0.04393888637423515 -0.006435794290155172 -0.06483723968267441 -0.021434413269162178 1.3583654072135687E-4 0.0710960179567337 0.011706547811627388 -0.017568932846188545 -0.02286646142601967 0.00947324838489294 0.004161466844379902 -1.193871721625328E-4 0.00900998990982771 0.018660183995962143 -0.01562730222940445 -0.040715306997299194 -0.0528847761452198 -0.0182990450412035 -0.017799939960241318 -0.007699866313487291 0.030997125431895256 -0.05179886519908905 -0.03426951915025711 0.009078283794224262 -0.004667553119361401 -0.024746421724557877 -0.0455012172460556 -0.02320023626089096 0.04836782068014145 -0.002088080858811736 0.019744286313652992 0.022811133414506912 -0.04683518409729004 6.55600568279624E-4 -0.00699507026001811 -0.014821736142039299 0.02595415897667408 -0.023780016228556633 -0.01746915653347969 -0.0028883095365017653 -0.03155047446489334 -0.02671748958528042 0.015415011905133724 -0.026535138487815857 -0.057598553597927094 -0.002612902782857418 -0.04182286188006401 -0.03017888404428959 0.002026698086410761 -0.003138094674795866 -0.009905636310577393 0.0180553887039423 0.05535738170146942
270 0.24962876737117767 -0.00805357564240694 -0.02676205150783062 0.3129105567932129 -0.12419618666172028 0.20415930449962616 0.1497703641653061 -0.14041613042354584 0.1421288251876831 0.20583626627922058 -0.03654992952942848 -0.11390199512243271 -0.12422645092010498 0.013756446540355682 0.13306169211864471 0.10669290274381638 -0.04708166420459747 0.2004867047071457 -0.2799418270587921 -0.09356845170259476 -0.12683992087841034 0.1302551031112671 -0.03793745115399361 -0.0638660416007042 0.22525867819786072 -0.02759222686290741 -0.08574522286653519 -0.02601737342774868 -0.02114238776266575 -0.27048054337501526 -0.004529780242592096 0.07609231024980545 0.019943390041589737 0.2001100480556488 0.005422920919954777 -0.013286743313074112 0.3374987840652466 0.02785896509885788 0.0857483297586441 -0.032740019261837006 -0.09251103550195694 0.18193109333515167 -0.03960248455405235 -0.13173918426036835 0.18759527802467346 -0.02116278000175953 0.07834754884243011 0.031889986246824265 -0.09426942467689514 -0.22563502192497253 -0.055745434015989304 0.05744125321507454 0.41235801577568054 0.006050276104360819 -0.13233380019664764 -0.02770485356450081 -0.04399852082133293 -0.1483146697282791 0.03988245129585266 0.09289097040891647 -0.07813318073749542 -0.17216527462005615 -0.30113011598587036 -0.07548580318689346 -0.10772548615932465 0.04132210463285446 -0.14924578368663788 0.1310950517654419 -0.13627324998378754 -0.2818642854690552 0.23339612782001495 0.22488820552825928 -0.12171006202697754 -0.4358782172203064 0.12332210689783096 0.17054039239883423 -0.07606150954961777 0.13084913790225983 -0.003698953427374363 -0.3018496036529541 -0.20757080614566803 0.09611168503761292 -0.07057179510593414 0.1283331662416458 -0.08822552114725113 -0.10947711020708084 -0.06949244439601898 -0.1772231012582779 -0.2455325573682785 0.18869709968566895 -0.196125328540802 -0.1079433262348175 0.04218580201268196 -0.07077222317457199 -0.14467337727546692 -0.15595492720603943 -0.12138453125953674 -0.08957108110189438 -0.02897675707936287 0.22356346249580383
384 -0.09769900143146515 -0.26420852541923523 0.12561975419521332 0.04953750595450401 -0.20138251781463623 0.1594575196504593 -0.145169198513031 -0.11361176520586014 0.1248890683054924 -0.14175736904144287 -0.10464003682136536 -0.20075467228889465 0.22440887987613678 -0.12342281639575958 -0.030755363404750824 0.19183069467544556 0.19618076086044312 -0.18288815021514893 -0.06735342741012573 0.09550468623638153 -0.044590212404727936 -0.24283458292484283 0.11320357024669647 -0.1073278933763504 -0.015143971890211105 0.143119215965271 -0.07573597133159637 0.3048767149448395 -0.07599206268787384 -0.05394653230905533 -0.11882439255714417 -0.1209351196885109 0.20419909060001373 -0.05093712732195854 0.027124911546707153 -0.3004579544067383 0.1777927279472351 -0.20921438932418823 0.24255357682704926 0.1581782102584839 -0.4246166944503784 -0.10286019742488861 -0.11511880159378052 -0.122649185359478 -0.21041016280651093 0.025775233283638954 0.08051970601081848 -0.03941572830080986 0.4484834372997284 -0.1271626055240631 0.09750580787658691 -0.021734114736318588 0.14539735019207 0.05779186263680458 -0.08517871797084808 0.35305890440940857 -0.48657113313674927 0.07562613487243652 -0.2823515236377716 0.028153741732239723 -0.18304456770420074 0.09556864202022552 -0.05459805205464363 -0.33921322226524353 0.16747090220451355 0.1318131685256958 0.4712209403514862 -0.24213773012161255 0.022360488772392273 0.06002003327012062 0.2705588638782501 -0.13953614234924316 -0.24999913573265076 0.09081901609897614 0.5365973711013794 0.20753248035907745 0.05257334187626839 0.11538738757371902 -0.048651959747076035 0.33614930510520935 0.3071867525577545 -0.07952280342578888 -0.1421501785516739 0.2989795506000519 0.005684816278517246 0.15238189697265625 -0.11476346105337143 0.2919860780239105 -0.09360340237617493 0.1349620819091797 0.31791162490844727 -0.0024159320164471865 0.29463061690330505 -0.18159756064414978 -0.09147060662508011 -0.2832411229610443 -0.09778808057308197 0.06291265040636063 0.24562351405620575 -0.3797723650932312
568 -0.04624737426638603 -0.04659917205572128 0.05217694863677025 -0.0206783264875412 0.061085231602191925 -0.015298934653401375 -0.04591631889343262 0.09907529503107071 -0.038679495453834534 0.03253709897398949 0.04057808220386505 -0.07631123065948486 -0.16170108318328857 -0.03355080634355545 -0.028170378878712654 0.012701853178441525 -0.048864949494600296 -0.00746301282197237 -0.02265465259552002 -0.013762789778411388 -0.03267649933695793 0.014988589100539684 -0.040969353169202805 0.1641102433204651 -0.06094681844115257 0.02609223872423172 0.09667329490184784 -0.044559869915246964 -0.012583202682435513 -0.01387746725231409 0.018562456592917442 -0.062247518450021744 -0.018447376787662506 0.0468255952000618 -0.08793463557958603 -0.0733972117304802 -0.0362018384039402 0.0387703962624073 -0.029417380690574646 -0.08256553113460541 0.034741081297397614 0.07829556614160538 -0.011685371398925781 -0.0020076201763004065 -0.062134187668561935 0.01779346726834774 -0.00955780129879713 -0.087690070271492 -0.09710555523633957 0.01968766190111637 0.11339395493268967 0.047337427735328674 -0.10193488746881485 -0.1020672619342804 0.09594714641571045 -0.09864767640829086 -0.08547968417406082 -0.05816565826535225 0.01532351691275835 0.052499812096357346 0.002106661209836602 -0.07702772319316864 0.04650099575519562 0.1772703230381012 -0.09657642245292664 0.03461316600441933 -0.004250549711287022 -0.045803457498550415 0.037574153393507004 -0.056016456335783005 -0.009239728562533855 0.03877248242497444 0.06004897132515907 0.05504826828837395 -8.437063661403954E-4 -0.0012297267094254494 -0.05391741171479225 -0.06182407587766647 -0.040331482887268066 -0.012603579089045525 0.03456277400255203 0.019345935434103012 0.04340878501534462 0.1038912981748581 -0.11500861495733261 -0.10104282200336456 -0.03162570297718048 -0.07721062749624252 -0.048120710998773575 -0.13337330520153046 0.05850224569439888 0.021922642365098 -0.21323448419570923 -0.0954415574669838 -0.04875482991337776 -0.1609022319316864 0.011981755495071411 -0.08423729240894318 0.04763629287481308 0.009101921692490578
367 0.10661552846431732 0.004196148365736008 0.17039097845554352 0.29208770394325256 -0.0083472840487957 0.07177615165710449 0.25177520513534546 -0.2557410001754761 0.11172950267791748 0.0013683631550520658 -0.072951540350914 -0.08152278512716293 -0.25150546431541443 -0.03044118918478489 -0.03717498108744621 0.310319721698761 0.11473067849874496 0.04626152291893959 -0.1258339136838913 -0.21091797947883606 -0.2010369449853897 -0.10510531812906265 0.011163201183080673 0.017179865390062332 0.1733364760875702 0.035936739295721054 -0.07728910446166992 -0.1523464322090149 -0.16023564338684082 -0.14296191930770874 0.01398034580051899 -0.08733586221933365 0.029657918959856033 0.09120985865592957 0.07029832154512405 -0.03163633123040199 0.20869866013526917 0.05055291950702667 -0.027132896706461906 0.01732279546558857 -0.057001546025276184 0.31854504346847534 0.010669373907148838 -0.04462989792227745 0.01734631508588791 -0.05741296708583832 -0.06067969650030136 0.24235083162784576 -0.026996703818440437 -0.2718426585197449 -0.007584983482956886 0.056340839713811874 0.41756850481033325 0.024047037586569786 -0.1344822496175766 -0.2185285985469818 0.0739751085639 -0.07056280225515366 0.01902989111840725 -0.12000782787799835 0.13812784850597382 -0.11194352060556412 -0.2879530191421509 -0.20646938681602478 -0.02923637256026268 -0.05069988965988159 -0.08878453075885773 0.048567257821559906 -0.2363900989294052 -0.09159767627716064 0.09147944301366806 0.010099846869707108 -0.12578298151493073 -0.3946782946586609 0.08982355892658234 0.20970706641674042 -0.15641653537750244 0.12993194162845612 0.1763152778148651 -0.24061132967472076 -0.07538442313671112 0.1831061691045761 0.043107058852910995 0.23920024931430817 -0.04111739248037338 -0.12438450753688812 -0.16122888028621674 -0.2939221262931824 -0.18160654604434967 0.09081338346004486 -0.19370406866073608 -0.22033216059207916 -0.030518285930156708 -0.16172628104686737 -0.25342389941215515 -0.02362535148859024 0.19170071184635162 0.058988217264413834 -0.04346032068133354 0.22062043845653534
327 0.0925932228565216 0.3868730068206787 0.01753842458128929 0.15680672228336334 -0.10316895693540573 -0.07800421863794327 -0.11570028215646744 -2.4294423928949982E-4 0.16246089339256287 0.02748005837202072 0.0190435778349638 -0.11082606762647629 0.09975524991750717 0.20929297804832458 0.07113490253686905 0.012888827361166477 -0.2257392704486847 -0.12300213426351547 -0.05218605697154999 -0.1407952755689621 -0.11885199695825577 0.147812157869339 0.06112657114863396 -0.11072218418121338 0.07465199381113052 -0.040842752903699875 -0.0484444759786129 0.027159277349710464 0.09649297595024109 -0.15877874195575714 0.10188378393650055 0.1958368718624115 0.1278710961341858 0.06431245803833008 -0.15987621247768402 -0.10361669957637787 -0.0797676369547844 0.10982733964920044 -0.006752476096153259 0.03747129812836647 0.05030086264014244 0.10064295679330826 -0.1040268987417221 -0.12234028428792953 0.034313105046749115 -0.14071500301361084 0.09595127403736115 -0.09499827027320862 -0.06918194144964218 -0.014176592230796814 0.07621164619922638 0.18242982029914856 0.15414682030677795 -0.16898581385612488 0.1154639944434166 -0.020105984061956406 0.05332724750041962 0.07199538499116898 0.0597744956612587 0.03259924054145813 -0.06298934668302536 -0.211847722530365 -0.20907951891422272 -0.12101907283067703 -0.05804726108908653 0.04733850806951523 -0.16094039380550385 0.2619084119796753 -0.046886757016181946 -0.10942764580249786 -0.021198639646172523 0.12698258459568024 -0.16451920568943024 -0.10802161693572998 -0.002357430988922715 -0.08470135182142258 -0.02579117752611637 0.06314653903245926 -0.07758203148841858 0.012680319137871265 -0.0691177099943161 0.1142943948507309 0.023831773549318314 0.005756243132054806 0.04001623019576073 -0.15040402114391327 -0.031857237219810486 0.018796350806951523 -0.027604568749666214 -0.04128866642713547 -0.09405220299959183 -0.09757649898529053 0.04138125479221344 -0.0830685943365097 -0.07310265302658081 -0.14730560779571533 -0.18052946031093597 -0.054691214114427567 -0.2212432324886322 -0.05161597207188606
98 -0.12377315014600754 0.1922646462917328 0.008731826208531857 0.09001719206571579 -0.057498205453157425 0.08854436874389648 -0.01370506826788187 -0.05706360191106796 0.04374202713370323 -0.036271173506975174 -0.10974232107400894 -0.16581271588802338 -0.07411305606365204 0.2719098627567291 0.15034343302249908 -0.0747767835855484 -0.16062124073505402 -0.12946262955665588 -0.025521578267216682 -0.11948629468679428 0.2540026009082794 0.07229568064212799 0.10888367146253586 -0.18739843368530273 0.20137141644954681 -0.2477239966392517 -0.06441820412874222 -0.04632389545440674 0.1394980251789093 -0.1494373232126236 0.0437292605638504 0.05767374858260155 0.14158666133880615 -0.04250229895114899 -0.0714421272277832 -0.1716965287923813 -0.2778363823890686 0.1470595747232437 0.08546984195709229 0.0269915834069252 0.038228027522563934 0.118658147752285 -0.16380850970745087 0.019718576222658157 -0.04730704054236412 -0.17871631681919098 -0.060976505279541016 0.043734632432460785 -0.10021805763244629 0.16096363961696625 -0.027578888460993767 0.2522881329059601 0.04307881370186806 -0.14460285007953644 -0.06955843418836594 0.18539947271347046 0.15604594349861145 0.06464832276105881 -0.09420420974493027 0.011323463171720505 0.008253287523984909 -0.1796812117099762 -0.0735243409872055 -0.11498159915208817 0.07888627797365189 -0.009517627768218517 -0.037102170288562775 -0.07593391835689545 0.013271305710077286 -0.0877276137471199 -0.06694662570953369 0.13377732038497925 -0.032804831862449646 0.16469281911849976 0.11080772429704666 -0.05311090871691704 0.15888437628746033 -0.0048314654268324375 0.07159928977489471 -0.025996729731559753 -0.013961229473352432 0.3854413330554962 -0.07112907618284225 -0.17530719935894012 0.1573188155889511 -0.09233763068914413 -0.1859605759382248 0.16805092990398407 0.088307686150074 -0.06563844531774521 -0.06181597709655762 0.23938490450382233 0.027370518073439598 -0.011392598040401936 -0.28493136167526245 -0.26575618982315063 -0.014304249547421932 -0.22281742095947266 -0.2288769632577896 -0.05987757444381714
325 0.016772514209151268 0.06605630367994308 -0.024043558165431023 0.08145895600318909 -0.12498551607131958 0.15330113470554352 0.018818967044353485 -0.10747546702623367 0.01736910454928875 9.982878109440207E-4 -0.1316746473312378 -0.033354151993989944 -0.027196288108825684 0.12050621211528778 0.088750921189785 -0.03335888311266899 -0.04268389940261841 -0.23019808530807495 -0.06572142988443375 -0.05766581371426582 0.19990922510623932 0.06777364015579224 -0.019615933299064636 -0.2074998915195465 0.09350786358118057 -0.11597922444343567 -0.12582631409168243 -0.04590495303273201 0.17407096922397614 -0.04231046885251999 0.06309468299150467 0.11085528880357742 0.04674534499645233 -0.056383099406957626 -0.09744792431592941 -0.09147254377603531 -0.049125734716653824 0.09157617390155792 0.07004736363887787 0.03799597546458244 -0.002929692156612873 0.07166787981987 -0.19003215432167053 0.09937285631895065 0.06273065507411957 -0.0886790007352829 -0.039438966661691666 0.056712616235017776 -0.08596092462539673 0.03965483233332634 0.007379828952252865 0.11945407837629318 0.013833247125148773 0.012398953549563885 0.017909830436110497 0.10766799002885818 4.188896855339408E-5 0.10793609917163849 -0.018770547583699226 -0.05162305012345314 0.08340486139059067 -0.10253536701202393 -0.035524286329746246 0.013304639607667923 6.841361755505204E-4 0.025296514853835106 0.03503923863172531 -0.09152788668870926 0.08038982003927231 0.01242806762456894 -0.045917704701423645 0.03965950384736061 0.0076567865908145905 0.13926208019256592 0.1281101405620575 -0.03763454779982567 0.07737991958856583 -0.11716780066490173 0.03691781684756279 0.03648281469941139 -0.06716056168079376 0.16194544732570648 0.014553855173289776 -0.13160666823387146 0.07690201699733734 0.0831078588962555 -0.16178807616233826 0.10474986582994461 0.09883072227239609 -0.0685182586312294 -0.06260355561971664 0.24227698147296906 0.05093507468700409 -0.007307799533009529 -0.1732076108455658 -0.07319945842027664 0.12898528575897217 -0.02750535123050213 -0.18448446691036224 0.1041378304362297
