842 100
60 -0.13082121312618256 0.055275809019804 0.13183733820915222 -0.3172589838504791 0.20389384031295776 -0.10201814770698547 -0.24875840544700623 -0.11125704646110535 -0.18365342915058136 0.19809748232364655 -0.032201603055000305 0.04441548511385918 0.21117304265499115 0.03333691507577896 -0.014943593181669712 0.2020358443260193 0.08774597942829132 -0.07552536576986313 0.03109564632177353 0.014998425729572773 0.2806553840637207 0.007588909938931465 0.1322554051876068 -0.03661872074007988 0.12973342835903168 -0.23756904900074005 -0.13568784296512604 0.014401927590370178 -0.008467443287372589 0.10509414225816727 -0.237202450633049 0.2491484135389328 -0.22852292656898499 0.11260784417390823 -0.19917811453342438 -0.1101875901222229 -0.0982632040977478 0.0015079878503456712 0.2885132431983948 -0.17523157596588135 0.02703632414340973 0.03748277202248573 -0.058007244020700455 -0.22333960235118866 0.15094426274299622 -0.16506439447402954 0.07091157138347626 -0.022835012525320053 0.02873574197292328 -0.09591939300298691 -0.29780277609825134 -0.2744227349758148 0.050901081413030624 -0.012750331312417984 0.026088882237672806 -0.3848554790019989 -0.12984490394592285 -0.19261634349822998 0.024746188893914223 -0.0840701013803482 -0.1445581465959549 -0.09665722399950027 0.07954290509223938 -0.1823553591966629 -0.04341119900345802 0.02430194616317749 -0.11723582446575165 -0.05040191113948822 -0.04499223828315735 -0.10785391926765442 -0.04832544922828674 0.10237319022417068 -0.12953320145606995 -0.1572868376970291 -0.12747852504253387 -0.04619098827242851 -0.16282962262630463 -0.056838467717170715 0.14367829263210297 0.04431555047631264 0.08513158559799194 0.13900719583034515 0.05041448026895523 -0.20261813700199127 0.21602724492549896 -0.13576775789260864 0.011325854808092117 0.34503161907196045 -0.09135507792234421 0.08284314721822739 0.2905413508415222 0.21033549308776855 0.054176993668079376 -0.1334468126296997 0.30191725492477417 0.061177466064691544 -0.10709375143051147 0.1488722562789917 -0.02361413836479187 0.13187816739082336
691 -0.1318081021308899 -0.04976794868707657 0.029669230803847313 0.04588416963815689 0.018313787877559662 -0.10408347100019455 -0.03633284196257591 -0.0056552221067249775 -0.07330050319433212 -0.00746696162968874 -0.12985213100910187 -0.05002531036734581 0.10963744670152664 0.018626410514116287 -0.009274422191083431 0.08385051786899567 0.024379057809710503 0.0604671947658062 0.05684908479452133 -0.06231991946697235 -0.04271746426820755 -0.09082771837711334 -0.061039917171001434 -0.0155140096321702 0.05562463775277138 0.08993268758058548 0.09604772925376892 -0.11361843347549438 0.05264502018690109 0.08374947309494019 -0.03538220375776291 -0.07414454221725464 0.05303476005792618 -0.11780402064323425 -0.009472266770899296 -0.01739339902997017 0.013668837957084179 0.0704001784324646 -0.077003613114357 0.014361674897372723 0.014088309369981289 -0.1243194192647934 0.02723946049809456 0.1669187992811203 -0.006195429712533951 -0.06683661788702011 0.02782190404832363 0.0597868412733078 -0.030552618205547333 -0.10276643931865692 0.10799748450517654 0.037851497530937195 0.0711139515042305 -0.11781784147024155 0.022548021748661995 0.005351267755031586 0.020996177569031715 -0.017908422276377678 -0.0050957039929926395 -0.025214960798621178 0.001432766206562519 -0.02617669850587845 2.2933678701519966E-4 0.008250818587839603 -0.004146312363445759 -0.08737456053495407 -0.008553018793463707 -0.03473155200481415 -0.05658523365855217 -0.035731635987758636 -0.039574816823005676 0.02827570214867592 -0.08338566869497299 -0.041497211903333664 0.14522753655910492 0.09561337530612946 -0.02114817127585411 -0.08380025625228882 -0.030239375308156013 -0.09513325244188309 0.07531723380088806 0.08758623898029327 -0.10118084400892258 0.02653932012617588 0.11170464754104614 -0.07264552265405655 0.03465605154633522 -0.06192780286073685 0.009873696602880955 0.05100665241479874 -0.0359409898519516 0.06905929744243622 0.07953431457281113 -0.03784484788775444 -0.04734635353088379 -0.07160868495702744 -0.017749691382050514 0.027677232399582863 -0.05735521391034126 0.03895729035139084
800 -0.03303498029708862 0.004648466128855944 -0.00543845072388649 0.0043505411595106125 0.015227535739541054 -0.026528440415859222 -0.0060919346287846565 -2.9827060643583536E-4 -0.01381881907582283 0.004314146004617214 -0.04769235476851463 -0.02843126840889454 0.03894165903329849 0.005334889981895685 0.024775639176368713 0.004531831480562687 -0.009086131118237972 0.006087517365813255 0.02764374390244484 -0.0183368232101202 -0.0017812809674069285 -0.0297872181981802 -0.015014083124697208 -0.021162325516343117 9.942753240466118E-5 0.03811703994870186 0.025902800261974335 -0.012524612247943878 0.0401616133749485 0.031220678240060806 -0.014921827241778374 -0.00827094353735447 0.04399570822715759 -0.03842776268720627 0.023765822872519493 -0.01788262464106083 -0.013571894727647305 0.02384047769010067 -0.026644693687558174 0.026853425428271294 8.465932914987206E-4 -0.03298298642039299 -0.008174813352525234 0.043297506868839264 -0.005375848151743412 -0.00850402470678091 4.355267155915499E-4 0.019839324057102203 0.01519884541630745 -0.03724977746605873 0.040093716233968735 0.011580044403672218 0.020691562443971634 -0.014943023212254047 0.012715322896838188 0.02732294425368309 0.0076824817806482315 -0.007278456352651119 -0.01515958085656166 0.013740967027842999 -0.012585559859871864 0.001867044367827475 -0.024041198194026947 -0.01797696016728878 -0.013090617023408413 0.005880389362573624 -0.0336998887360096 4.5694014988839626E-4 -0.03360838443040848 -0.02307158149778843 -0.002088946755975485 -0.014395267702639103 -0.034731920808553696 -0.0015625576488673687 0.0576469786465168 0.0251824539154768 0.01611104980111122 -0.010247265920042992 -0.008601518347859383 -0.021255211904644966 0.04749709740281105 0.05175868794322014 -0.05254880711436272 -0.0028027817606925964 0.05432012677192688 -0.009513745084404945 0.018684662878513336 -0.031228873878717422 0.003762231906875968 0.018661201000213623 -0.012571141123771667 0.035928353667259216 0.0627501904964447 -0.03506467491388321 0.010642830282449722 -0.03850000351667404 -0.014724713750183582 0.017925376072525978 -0.008765110746026039 0.014910203404724598
458 -0.12237527966499329 0.008744004182517529 -0.0059128752909600735 0.040163613855838776 0.04340839385986328 -0.010489161126315594 -0.05510139465332031 0.0991920605301857 -0.041394319385290146 -0.024585910141468048 -0.059220802038908005 0.01955847069621086 0.026021817699074745 0.03424212336540222 -0.01860894076526165 0.10998080670833588 -9.374507935717702E-4 0.10056349635124207 -0.037354834377765656 -6.59747573081404E-4 0.05053700879216194 -0.003755684243515134 -0.07451751828193665 -0.020125530660152435 -0.04151729494333267 0.038215748965740204 0.06267239153385162 -0.03318112716078758 0.01740693673491478 0.04670380800962448 0.017921598628163338 0.023206358775496483 0.021263372153043747 -0.024609610438346863 -0.04161085933446884 -0.054795846343040466 -0.014268207363784313 0.09054326266050339 -0.0027152253314852715 -0.019951382651925087 0.04572980850934982 -0.08837540447711945 0.04752512648701668 0.10822447389364243 0.028666365891695023 -0.07051589339971542 -0.04655371606349945 0.0051950872875750065 0.07850348949432373 -0.06915879249572754 0.039186347275972366 -0.007505846209824085 0.08656036853790283 -0.04343327879905701 0.026529215276241302 0.013382486999034882 0.0279008150100708 -0.0302012637257576 -0.0038161342963576317 -0.037929467856884 -0.008203904144465923 -0.030993329361081123 0.00385852437466383 -0.0404178760945797 -0.05504823848605156 -0.05102851241827011 -0.03755807876586914 -0.05886377766728401 -0.06442874670028687 -0.05521414428949356 0.0027705770917236805 0.07618436217308044 -0.11370117217302322 -0.06550319492816925 0.018436139449477196 0.11759541928768158 -0.013219814747571945 0.009389638900756836 0.0513266958296299 0.044205546379089355 -0.002308337017893791 0.07021044939756393 -0.09273383021354675 -0.008357747457921505 0.07496999204158783 -0.09604667127132416 0.01666698418557644 -0.10530353337526321 -0.03191114962100983 0.04898078367114067 -0.014849768951535225 0.07383917272090912 0.11434998363256454 -0.05970720201730728 0.007828470319509506 -0.11474030464887619 -0.038007717579603195 0.060475047677755356 0.0679389163851738 -0.001777871511876583
433 0.06688839942216873 -0.043739184737205505 -0.14234988391399384 -0.09812583029270172 -0.04527558013796806 -0.18329106271266937 0.06260258704423904 0.12695150077342987 -0.008086510002613068 0.08687831461429596 -0.008429789915680885 0.08481419086456299 -0.03162825107574463 0.052198465913534164 0.08998309820890427 0.12554998695850372 -0.00927207712084055 -0.05967134237289429 -0.1187274381518364 -0.018760761246085167 -0.003235568990930915 -0.022609269246459007 0.12257278710603714 0.09489725530147552 -0.1094440221786499 0.03853488713502884 -0.07968706637620926 0.09085150808095932 0.24399614334106445 0.0996837392449379 -0.05472790077328682 0.014992307871580124 -0.04859615117311478 -0.2379295825958252 -0.2015186995267868 0.07259581983089447 0.08143065869808197 -0.16308240592479706 0.04976150020956993 0.12148326635360718 -0.019882598891854286 -0.21818101406097412 -0.008765436708927155 0.19560809433460236 0.03816067427396774 0.04159804806113243 -0.1230517029762268 0.09202897548675537 0.03752296417951584 -0.19501449167728424 0.26209554076194763 -0.09103667736053467 -0.0013991661835461855 0.0021225339733064175 -0.17168326675891876 0.10707519948482513 -0.023463239893317223 0.06568686664104462 -0.22092264890670776 -0.03034624457359314 0.008458936586976051 -0.08768325299024582 0.009398406371474266 -0.19335031509399414 0.12449757754802704 0.10465092957019806 0.055532507598400116 0.012532743625342846 -0.05301758274435997 -0.094117172062397 0.1923748403787613 0.018760941922664642 0.0823497325181961 0.041267432272434235 0.008959019556641579 0.24598288536071777 -0.08528270572423935 -0.024956366047263145 -0.07869353890419006 -0.14639659225940704 -0.07735121250152588 0.09204167872667313 -0.06936821341514587 -0.2355451136827469 0.24147289991378784 -0.08279382437467575 0.10276735574007034 -0.11394066363573074 0.05042949691414833 -0.05380912125110626 -0.10884390026330948 0.2987041473388672 0.22140179574489594 0.010612315498292446 -0.05108405277132988 -0.23055900633335114 0.035802386701107025 0.11487078666687012 0.07655195146799088 0.1659460961818695
184 0.009378650225698948 -0.1905638873577118 0.20609453320503235 0.23535814881324768 0.2796092629432678 0.176406130194664 -0.20958372950553894 0.1942950338125229 -0.1749773621559143 -0.41167736053466797 -0.1348312646150589 0.04631541669368744 -0.24870115518569946 -0.1862572580575943 -0.13917960226535797 0.3710634708404541 -0.04507726430892944 0.3820689916610718 0.036416295915842056 0.05489552021026611 0.22691850364208221 0.2566125690937042 -0.2490515559911728 0.16827048361301422 0.04766415059566498 -0.12556354701519012 0.11555706709623337 0.3384183347225189 0.2772113084793091 -0.05412428826093674 0.24417439103126526 0.25882792472839355 0.2094036340713501 -0.02363508939743042 -0.05010997876524925 -0.3901805281639099 -0.10839410126209259 -0.11211305111646652 0.009755095466971397 0.08503270894289017 -0.07335583120584488 0.14957721531391144 -0.02175082080066204 0.037290915846824646 0.024570247158408165 -0.05885656177997589 -0.12285630404949188 -0.013592474162578583 0.21368466317653656 0.22224150598049164 -0.18240143358707428 -0.204039067029953 -0.23788496851921082 0.2158297747373581 0.05684874206781387 0.08688345551490784 0.08032778650522232 0.14721223711967468 0.08513189107179642 0.05824875459074974 -0.27401483058929443 -0.1114535704255104 -0.20296864211559296 -0.32871517539024353 -0.28843241930007935 -0.19611626863479614 -0.13367702066898346 0.004431210923939943 -0.2492571920156479 -0.1642606407403946 -0.24609291553497314 0.03633788973093033 -0.31761008501052856 -0.035241711884737015 -0.13953560590744019 0.011405888013541698 0.03842219337821007 0.11835005134344101 0.15893159806728363 0.28250864148139954 -0.07461772859096527 -0.013225527480244637 0.19113199412822723 -0.22423535585403442 0.018096957355737686 -0.2701418101787567 -0.10437887907028198 -0.032363008707761765 -0.2782990634441376 -0.15654774010181427 -0.03124242089688778 0.3442223072052002 0.1362161934375763 -0.3332321047782898 -0.02873733453452587 0.2677810788154602 -0.3065139949321747 0.12120144069194794 -0.019007515162229538 -0.25757959485054016
686 -0.05897124856710434 0.011580205522477627 0.00862070545554161 0.02894924022257328 -0.0035232719965279102 -0.07645051926374435 -0.051947496831417084 0.02594931051135063 -0.05215107277035713 0.0014036005595698953 -0.07332507520914078 -0.017535323277115822 0.07627184689044952 0.008214482106268406 -0.009139856323599815 0.07296232879161835 0.051432617008686066 0.028353027999401093 0.0034215410705655813 -0.026157371699810028 0.018136700615286827 -0.014227531850337982 -0.03957602381706238 0.0028218519873917103 0.03899421542882919 0.020384399220347404 0.07905378192663193 -0.031041612848639488 0.08184375613927841 0.059571266174316406 -0.04555385932326317 -0.011424949392676353 -0.006327963899821043 -0.03687860444188118 -0.0821017324924469 -0.06848534941673279 0.022016704082489014 0.007886228151619434 0.03749610111117363 -0.02357334829866886 -0.016619225963950157 -0.08221235871315002 -0.002095029456540942 0.10185330361127853 0.024444185197353363 -0.05658387765288353 -0.006817808840423822 0.010183622129261494 -0.03092472068965435 -0.09128505736589432 0.02784513123333454 -0.04223557189106941 0.022266799584031105 -0.07329456508159637 -0.024636566638946533 -0.013998367823660374 -0.011200951412320137 -0.016331873834133148 -0.011835389770567417 -0.04085972160100937 -0.02558508887887001 -0.01821242831647396 0.049478258937597275 -0.040632057934999466 -0.009076746180653572 -0.04654999077320099 -0.04962801933288574 -0.007998819462954998 -0.0278567373752594 -0.03057851642370224 -0.00499299168586731 0.042584847658872604 -0.04402099549770355 -0.09989888221025467 0.016859523952007294 0.01862538792192936 -0.019616125151515007 -0.05439193546772003 0.0019516056636348367 -0.045331940054893494 0.0542367659509182 0.06351034343242645 -0.022156285122036934 -0.027630822733044624 0.05919841304421425 -0.04932516813278198 0.031753551214933395 -0.03431684151291847 -0.023086044937372208 0.0193020012229681 0.051567208021879196 0.047591373324394226 0.09519689530134201 -0.056400325149297714 0.008858106099069118 -0.033444058150053024 -0.001816556672565639 0.05265185981988907 -0.07248032838106155 0.023211384192109108
166 0.03902390971779823 0.2410639226436615 -0.11476298421621323 0.4558059573173523 0.09585463255643845 -0.13610173761844635 0.1546272188425064 0.11486399918794632 0.1588377058506012 0.18833689391613007 -0.3512771725654602 0.030131790786981583 -0.2603447735309601 0.07080134749412537 0.2048516422510147 -0.037404417991638184 0.07999853789806366 0.06014179065823555 -0.10654871165752411 0.04005246236920357 0.21942676603794098 -0.1032831221818924 -0.00949457660317421 -0.18275396525859833 0.09853044152259827 0.09461212903261185 0.16430217027664185 0.10509192943572998 0.4702295660972595 0.12448100745677948 -0.1078379675745964 0.20806260406970978 0.3465158939361572 0.09918305277824402 0.06545433402061462 -0.3283178210258484 -0.37746894359588623 -0.2119589000940323 0.010767034254968166 -0.037839848548173904 -0.2672693729400635 -0.16697831451892853 -0.50059974193573 -0.09357798844575882 0.09112318605184555 0.1272123157978058 -0.026307472959160805 0.1206967756152153 0.09447330236434937 -0.3768220543861389 0.053669072687625885 -0.33043432235717773 -0.09647930413484573 0.12229472398757935 -0.10799460113048553 0.1774238497018814 0.09071769565343857 0.032576192170381546 -0.09460069239139557 0.15273067355155945 -0.03381391242146492 0.1212306022644043 0.012839051894843578 -0.28637659549713135 -0.0689738541841507 0.05228080227971077 -0.6383954286575317 0.2551031708717346 -0.09285012632608414 -0.06797274947166443 0.15931609272956848 -0.0905083566904068 0.09989253431558609 -0.23751819133758545 0.055781666189432144 -0.4382782280445099 0.3707667589187622 0.06008836254477501 0.19199390709400177 0.40812015533447266 0.32644546031951904 0.22636130452156067 0.11832724511623383 -0.07411066442728043 -0.26149600744247437 0.05057179927825928 0.06167598441243172 -0.22790823876857758 -0.5795397162437439 0.05705009773373604 0.13186393678188324 -0.44792890548706055 -0.20250587165355682 -0.3974982798099518 -0.27702170610427856 0.013287607580423355 -0.2989112138748169 0.12882564961910248 -0.11648067831993103 0.24702616035938263
717 -0.06589997559785843 -0.059910114854574203 -0.04475240781903267 -0.0393003486096859 0.002914565149694681 -0.04104159399867058 -0.012981809675693512 0.0041464162059128284 -0.024395130574703217 -0.0028984579257667065 -0.010730489157140255 0.042217765003442764 0.07005006074905396 0.0289506446570158 0.024724455550312996 0.051595211029052734 0.018254462629556656 -0.05735274776816368 0.013939830474555492 -0.026273636147379875 0.03804852068424225 0.0033107856288552284 -0.005015548784285784 0.03222618252038956 -0.013567131012678146 -0.014418371953070164 -0.021558035165071487 0.03717513009905815 0.03959054872393608 0.029489869251847267 -0.059802766889333725 0.021659938618540764 -0.03762942925095558 -0.04023187980055809 -0.034594062715768814 0.004311375319957733 0.003292656736448407 -0.0014274588320404291 -0.0041423579677939415 -0.023423876613378525 0.008846214972436428 -0.031189845874905586 0.038764309138059616 0.07411893457174301 -2.973201626446098E-4 -0.006347158923745155 -0.006355923600494862 0.016739647835493088 -0.022224891930818558 -0.04965423792600632 0.03514932841062546 -0.012288473546504974 0.05752110108733177 -0.02573961205780506 -0.01463217381387949 -0.003840354736894369 -0.04166238382458687 -0.013818062841892242 -0.018798688426613808 -0.054822154343128204 -0.00449288310483098 -0.006820162758231163 0.0596277117729187 -0.06158357858657837 0.013333824463188648 -0.006353322882205248 0.0029147027526050806 -0.005517791025340557 -0.024099476635456085 -0.03600575029850006 -0.0025696828961372375 0.031841810792684555 0.007791598793119192 -0.005069310776889324 -0.02164474129676819 0.060645394027233124 -0.047485023736953735 0.005302178207784891 0.009448816068470478 -0.04474639892578125 -0.009349566884338856 0.026777008548378944 -0.03173859789967537 -0.02946612611413002 0.06173758581280708 -0.049929793924093246 0.021209724247455597 -0.005017430055886507 0.040182776749134064 -0.009647881612181664 -0.012228037230670452 0.0884815976023674 0.016487497836351395 0.004697694443166256 0.053585413843393326 -0.03220883384346962 0.04946530610322952 0.04081272333860397 0.001255978480912745 0.05167350918054581
185 0.20656710863113403 -0.12764491140842438 0.1446284055709839 0.21612729132175446 0.2774747610092163 0.12436891347169876 -0.14332006871700287 0.1535196304321289 -0.15052174031734467 -0.3815988600254059 -0.0973288044333458 0.1621139496564865 -0.31973588466644287 -0.15732792019844055 -0.20198512077331543 0.4611731171607971 -0.0395040288567543 0.387167751789093 -0.11952093988656998 0.13226595520973206 0.11267608404159546 0.2832566797733307 -0.11021851003170013 0.18091940879821777 -0.034058522433042526 -0.1716919243335724 0.02324065752327442 0.3029690086841583 0.30332961678504944 -0.07287158071994781 0.1900196224451065 0.3104338049888611 0.04968723654747009 -0.11295375227928162 -0.11384057998657227 -0.2534734010696411 -0.10216424614191055 -0.17053259909152985 0.06213515251874924 0.07267129421234131 -0.026907945051789284 0.14357495307922363 -0.008889640681445599 0.07458405941724777 0.03748338669538498 0.042549978941679 -0.15791703760623932 0.052450381219387054 0.25542426109313965 0.21113108098506927 -0.15866504609584808 -0.319050133228302 -0.13878343999385834 0.19774329662322998 0.11191731691360474 0.038741327822208405 0.033456381410360336 0.16480298340320587 0.08925018459558487 -0.004140038974583149 -0.32117554545402527 -0.23365847766399384 -0.17669124901294708 -0.27739277482032776 -0.16485215723514557 -0.10363002866506577 -0.04598892480134964 -0.009948884136974812 -0.28664591908454895 -0.1984289139509201 -0.24687518179416656 0.18243514001369476 -0.305376797914505 -0.05222110077738762 -0.2183520346879959 0.03717745095491409 -0.036116570234298706 0.08237051963806152 0.17255589365959167 0.2789169251918793 -0.13687287271022797 0.055751021951436996 0.2424040287733078 -0.32072779536247253 0.07579337060451508 -0.2397194653749466 -0.062428850680589676 0.012014159932732582 -0.2617855966091156 -0.30486711859703064 -0.07756886631250381 0.3894781768321991 0.016934765502810478 -0.23846469819545746 -0.08672194182872772 0.3027302622795105 -0.35654911398887634 0.112430140376091 0.05575617402791977 -0.26520395278930664
34 -0.02257215417921543 -0.07687642425298691 -0.03954034671187401 -0.24291768670082092 0.12783728539943695 0.05840722844004631 -0.15828540921211243 -0.11698225885629654 -0.2550199031829834 0.25787362456321716 0.11440485715866089 0.014823242090642452 0.09485317021608353 0.025325236842036247 0.03120701014995575 0.1116328239440918 -0.03528725355863571 -0.06713647395372391 -0.016965001821517944 -0.04440819472074509 0.31107714772224426 -0.05314623937010765 0.25740674138069153 -0.055893365293741226 0.16945503652095795 -0.2728610932826996 -0.27064254879951477 0.03201454132795334 -0.17229919135570526 0.11403778195381165 -0.3375692665576935 0.2738622725009918 -0.27820420265197754 0.04835544899106026 -0.19331592321395874 -0.018310170620679855 -0.12047229707241058 0.05584734305739403 0.24440088868141174 -0.1386033147573471 0.11261601746082306 0.12537424266338348 -0.05031498149037361 -0.22986118495464325 0.07806015759706497 -0.1721792072057724 0.07373164594173431 -0.02906331606209278 0.10092327743768692 -0.026345588266849518 -0.24250590801239014 -0.10962478071451187 -0.017948796972632408 -0.04855789989233017 0.053854912519454956 -0.3422970175743103 -0.0809212327003479 -0.062276531010866165 0.1148122027516365 -0.09624169021844864 -0.0072084409184753895 -0.061189915984869 0.07924988120794296 -0.12783992290496826 -0.13860265910625458 0.13366195559501648 -0.03232323005795479 0.04351659119129181 -0.03770626336336136 0.07449832558631897 0.010588052682578564 0.037941183894872665 0.002229964593425393 0.10835196822881699 -0.024470414966344833 0.09931031614542007 -0.1559305340051651 -0.08150266855955124 0.10486750304698944 0.08144088089466095 -0.031978804618120193 0.04515942931175232 -0.058197297155857086 -0.12584227323532104 0.0974041149020195 -0.10530571639537811 -0.032124411314725876 0.30038735270500183 -0.12992322444915771 0.04786333814263344 0.23020882904529572 -0.008418356068432331 -0.009941192343831062 -0.014873852953314781 0.19253182411193848 -0.16775193810462952 -0.11655911803245544 0.017076591029763222 0.207881897687912 0.3074033856391907
645 0.06482768803834915 0.1126619279384613 0.022851288318634033 0.12430529296398163 0.039199281483888626 0.0356360487639904 0.10568153858184814 0.010695775970816612 0.059596288949251175 0.03410603851079941 -0.1331411898136139 0.04898018017411232 -0.15556643903255463 0.0030781920067965984 0.06662468612194061 0.011510306969285011 0.00887385942041874 0.056167442351579666 -0.0015965625643730164 -0.03353501856327057 0.049331557005643845 0.02572052925825119 -0.03943982720375061 -0.051959577947854996 0.08115827292203903 0.05587514489889145 0.06699633598327637 0.03421330079436302 0.1614566296339035 0.037416908890008926 0.024943862110376358 0.06655612587928772 0.1266932636499405 -0.022314496338367462 0.050366535782814026 -0.11551060527563095 -0.09978052973747253 -0.09070257097482681 -0.048310648649930954 0.015023372136056423 -0.035563793033361435 -0.04900554195046425 -0.07115884125232697 -0.012831507250666618 0.004742547404021025 0.0701356828212738 -0.03046061471104622 0.05697547644376755 0.029149716719985008 -0.05329824611544609 0.0968957468867302 -0.07308436930179596 -0.0419958233833313 0.10134857147932053 -0.06090875342488289 0.14607754349708557 0.10279932618141174 0.019112946465611458 -0.030970867723226547 0.023966288194060326 -0.03659723699092865 0.08947743475437164 -0.00725617865100503 -0.07864101231098175 0.021947793662548065 -0.0054227993823587894 -0.12455835193395615 0.1448475569486618 0.0014009614242240787 -0.03867441043257713 0.06304726004600525 -0.059838585555553436 -0.004180777817964554 -0.037779007107019424 -0.048173125833272934 -0.20228980481624603 0.20560365915298462 -0.02474171854555607 0.05189553648233414 0.13845044374465942 0.11245756596326828 0.10937032103538513 0.07204082608222961 -0.030708590522408485 -0.03286083787679672 -0.015616674907505512 0.027878517284989357 -0.04497051239013672 -0.16910412907600403 -0.02354596182703972 -0.027081651613116264 -0.12922576069831848 -0.1449558585882187 -0.03166921064257622 -0.1425597369670868 0.022862587124109268 -0.12251357734203339 0.045857023447752 -0.023661503568291664 0.074593685567379
142 0.3515443503856659 0.06887880712747574 -0.026280388236045837 0.13164734840393066 0.15306247770786285 -0.17761482298374176 0.18872135877609253 -0.0037610053550451994 0.012410515919327736 -0.11043164134025574 0.14482034742832184 -0.0981481671333313 -0.3231429159641266 -0.1566815823316574 -0.06182461231946945 -0.07199283689260483 0.0379624143242836 0.09975315630435944 -0.3787315785884857 0.4042738676071167 -0.34570106863975525 0.14620721340179443 0.398882120847702 -0.026987627148628235 -0.08025524020195007 -0.29529449343681335 -0.29974573850631714 -0.0557260736823082 -0.2993384599685669 0.003854956943541765 3.8316630525514483E-4 0.015596840530633926 -0.3611206114292145 0.1947600394487381 -0.13896140456199646 -0.11780054867267609 -0.24653135240077972 0.19019845128059387 -0.22821101546287537 -0.0016056934837251902 0.12966756522655487 -0.08729494363069534 -0.3533549904823303 -0.10628817975521088 0.14669367671012878 0.02311941422522068 -0.004212928470224142 0.25936567783355713 0.16892020404338837 -0.3597806692123413 -0.15655186772346497 -0.19343921542167664 0.15521979331970215 -0.08014112710952759 0.1701717972755432 -0.22713077068328857 -0.2074824869632721 -0.2661411464214325 -0.18619415163993835 0.018490953370928764 -0.25163233280181885 -0.22419828176498413 -0.16016031801700592 0.13120029866695404 0.1275375485420227 0.352560818195343 0.1094072088599205 -0.3685063123703003 -0.19657309353351593 -0.29443585872650146 -0.3138241767883301 0.19009354710578918 0.11973096430301666 0.00488477386534214 0.32649102807044983 -0.0045093633234500885 -0.03896600008010864 0.22000375390052795 0.11490781605243683 -0.05939599126577377 0.04595932364463806 -0.04049715772271156 0.1306176334619522 0.004565911367535591 -0.10417570173740387 -0.25971052050590515 -0.26224637031555176 0.11746726930141449 -0.10336801409721375 0.03784453123807907 -0.023169472813606262 -0.15317128598690033 -0.16848117113113403 -0.23570787906646729 -0.16391491889953613 -0.06693578511476517 -0.34944382309913635 -0.234856978058815 0.19124208390712738 0.3527371883392334
940 0.020630283281207085 0.006907935254275799 -0.012487544678151608 0.0037911441177129745 -0.012114886194467545 -0.02915317751467228 -2.110546047333628E-4 -0.007399853318929672 -0.02168232761323452 0.0031792912632226944 -0.013738121837377548 0.0047845677472651005 0.0302007794380188 0.0037118825130164623 -0.009890196844935417 0.02909567579627037 0.012982922606170177 0.0067475526593625546 0.010803965851664543 -0.010061231441795826 -0.009187435731291771 -0.006942761596292257 0.023487770929932594 0.01624160073697567 0.013103083707392216 0.0030956498812884092 0.003664282849058509 -0.008366595953702927 0.031854297965765 0.010894615203142166 -0.0140554029494524 -0.027497781440615654 -0.018974052742123604 -0.0471104271709919 -0.012779814191162586 -0.01405783649533987 0.003700409783050418 -0.011189859360456467 0.008041082881391048 0.002665684325620532 -0.01679937168955803 -0.032321471720933914 0.017592670395970345 0.03693559765815735 -0.009387764148414135 -0.027089955285191536 -0.007624395657330751 0.02337339147925377 0.016588177531957626 -0.029938047751784325 0.029850851744413376 -0.012202980928122997 0.0019343785243108869 -0.009586084634065628 -0.014752143993973732 -0.008733760565519333 -0.019405124709010124 0.0016084237722679973 0.007412587758153677 -0.016738509759306908 -0.02706758864223957 -0.02950112149119377 0.026721620932221413 -0.021002456545829773 0.011430473998188972 -0.020323678851127625 0.008535118773579597 -0.005081403534859419 -0.01632329635322094 -0.023099277168512344 0.005115143489092588 0.012847407720983028 -0.013029197230935097 -0.025196317583322525 0.003159844782203436 0.04848435893654823 -0.03521295264363289 -0.017655929550528526 -0.004603799898177385 -0.025168471038341522 -0.010902272537350655 0.013107380829751492 -0.02374676987528801 -0.02045639231801033 0.04503684118390083 -0.005518041085451841 0.030310675501823425 -0.024970708414912224 0.006183455232530832 0.0030650082044303417 0.018870018422603607 0.02595840021967888 0.032094214111566544 -0.02059495635330677 0.007784935180097818 -0.03003481775522232 0.008913413621485233 0.015224411152303219 -0.0016309544444084167 0.041560444980859756
268 -0.23114614188671112 -0.1430627405643463 -0.035712312906980515 -0.09786374866962433 0.09875275939702988 -0.3449447453022003 -0.12232889980077744 -0.16069430112838745 -0.07031849771738052 0.10880838334560394 -0.286482572555542 -0.09764069318771362 0.3460627794265747 0.030066195875406265 0.11223839968442917 0.1387866884469986 0.08363686501979828 -0.1388043761253357 0.2691010534763336 -0.1570863127708435 -0.09542064368724823 -0.2501184940338135 0.003392335958778858 -0.042931921780109406 0.02857714518904686 0.06114337593317032 0.024783166125416756 -0.20760515332221985 0.13429760932922363 0.135498046875 -0.10635290294885635 -0.005941761191934347 0.08141974359750748 -0.13344743847846985 0.1306152492761612 0.06372953206300735 0.0419633612036705 0.28153541684150696 -0.1954430788755417 0.07065656781196594 -0.031002065166831017 -0.17579247057437897 0.023730875924229622 0.3811650574207306 -0.12453605234622955 0.05832275003194809 0.08764956891536713 0.15963727235794067 -0.10499490797519684 -0.11859869211912155 0.17579327523708344 0.059412505477666855 0.28727445006370544 -0.3107033967971802 0.15408842265605927 0.029077570885419846 -0.12433107942342758 -0.1587645560503006 -0.006672757677733898 -0.03178471699357033 -0.07877989858388901 -0.012662849389016628 0.01734188199043274 -0.0803932398557663 0.0435810424387455 -0.10760363936424255 -0.07669886201620102 -0.11868096143007278 -0.18755711615085602 -0.15173009037971497 -0.11709071695804596 0.020635342225432396 -0.062465645372867584 -0.025614356622099876 0.32045015692710876 0.2841096520423889 -0.09117680042982101 -0.08492984622716904 -0.012050352059304714 -0.4081856608390808 0.054486941546201706 0.2437182366847992 -0.3091215491294861 0.08116646856069565 0.2788587510585785 -0.0664137750864029 0.07176615297794342 -0.12284598499536514 0.2489675134420395 0.10622955113649368 -0.02291712537407875 0.22335407137870789 0.37865686416625977 -0.10745055973529816 0.1255706548690796 -0.1399984061717987 0.054333075881004333 0.14025448262691498 -0.06226705387234688 0.1309497207403183
69 -0.008577677421271801 0.0015159464674070477 0.03433293104171753 -0.23971262574195862 0.10145027935504913 0.0916445404291153 -0.19294671714305878 -0.015102021396160126 -0.19459779560565948 0.11861256510019302 0.015370677225291729 0.07981213927268982 0.04329860210418701 0.07133769989013672 0.09532266855239868 0.0893985852599144 0.010104899294674397 0.027752524241805077 -6.309379241429269E-4 0.028953613713383675 0.3878658711910248 0.021410292014479637 0.2056424617767334 0.03438689559698105 0.0803583562374115 -0.3213513493537903 -0.15465815365314484 0.03820588067173958 -0.0971817895770073 0.07373744994401932 -0.35375869274139404 0.2595342993736267 -0.20429110527038574 0.17071369290351868 -0.22605262696743011 -0.08820407092571259 -0.1217150017619133 0.044562652707099915 0.20004771649837494 -0.1258608102798462 0.0680450052022934 0.2333666831254959 -0.1411053091287613 -0.28581351041793823 0.1442093402147293 -0.09836800396442413 -0.07143612951040268 -0.03124506026506424 0.08553693443536758 -0.01768309995532036 -0.11586674302816391 -0.22583317756652832 -0.050955843180418015 -0.09510161727666855 -0.047332409769296646 -0.3710239827632904 -0.10708267241716385 -0.07593455165624619 0.1019877940416336 -0.054355841130018234 -0.12223318219184875 -0.08720523864030838 0.030960148200392723 -0.14992894232273102 -0.19312673807144165 0.11173083633184433 -0.01221823412925005 -0.02659410610795021 -0.06769167631864548 0.07028935849666595 -0.025555793195962906 0.024667585268616676 0.05331330746412277 -0.011644215323030949 -0.15537719428539276 0.09184210747480392 -0.08723440021276474 -0.012100224383175373 0.11946121603250504 0.16854311525821686 0.09490874409675598 0.012015472166240215 0.033786945044994354 -0.13987907767295837 0.037121862173080444 -0.12703141570091248 -0.011720266193151474 0.22653186321258545 -0.11587928235530853 -0.024294346570968628 0.26557424664497375 0.16195231676101685 0.1856827288866043 -0.06169334426522255 0.21451492607593536 -0.0026593361981213093 -0.10591691732406616 0.04580473154783249 0.20770154893398285 0.196246936917305
487 -0.08802001923322678 -0.06967072933912277 -0.004775457549840212 -0.06927186250686646 0.018254157155752182 -0.10731549561023712 -0.018716182559728622 0.11869001388549805 0.009380142204463482 -0.02741546370089054 0.022405894473195076 0.03576960787177086 -0.010041029192507267 -0.08214326202869415 -0.04462512210011482 0.05242931470274925 0.061382316052913666 -0.005787895061075687 -0.03532049432396889 0.039582524448633194 0.034674834460020065 0.03853563591837883 0.01757594756782055 0.01242909673601389 -0.10060261189937592 -0.008229798637330532 0.04980813339352608 0.007701711729168892 0.08757632225751877 0.08715468645095825 0.020662400871515274 -0.058990515768527985 -0.12519463896751404 0.04899827018380165 -0.03893034905195236 -0.015539975836873055 0.02586686611175537 -0.008548621088266373 -0.013884592801332474 -0.015948839485645294 -0.02647828869521618 -0.11666741222143173 -0.04076150059700012 0.11469105631113052 0.004801996052265167 0.023917721584439278 0.053528793156147 0.033580563962459564 0.015807289630174637 -0.02376377023756504 -0.07989837229251862 -0.10934378951787949 0.06512846797704697 -0.060972072184085846 -0.007269382476806641 -0.05578397959470749 -0.04788169264793396 -0.0635322704911232 -0.06411618739366531 -0.06475405395030975 0.011310580186545849 0.04193851351737976 0.04013000801205635 -0.07467019557952881 -0.02294810488820076 -0.07023540139198303 0.027180267497897148 -0.07652539014816284 -0.020771518349647522 -0.06076428294181824 -0.02336699701845646 0.050868526101112366 0.06718061119318008 -0.07329071313142776 -0.04611095041036606 -0.03634843975305557 -0.043464649468660355 -0.0513041689991951 0.06990013271570206 0.011849227361381054 -0.0063161165453493595 -0.048549797385931015 0.006503967568278313 0.0471721813082695 4.8691374831832945E-4 0.004815654829144478 0.023971684277057648 0.018119346350431442 0.1068018227815628 0.10889220237731934 -0.011406040750443935 0.06449232995510101 0.10034611076116562 -0.053868625313043594 0.04217299446463585 -0.0870102047920227 0.0774933323264122 0.05805917829275131 -0.13922952115535736 -0.0770387127995491
572 0.010229649022221565 0.04897744581103325 -0.010535702109336853 0.04697597399353981 0.0071905688382685184 -0.046202708035707474 -0.006697622127830982 -4.567700671032071E-6 -0.0039081573486328125 0.020441683009266853 -0.028193838894367218 -0.004535962361842394 0.014185446314513683 -0.015455103479325771 0.01907695084810257 -0.004127167165279388 0.02960428036749363 0.003483954118564725 -9.805841837078333E-4 0.028068620711565018 0.057333990931510925 3.1381126609630883E-4 -0.009337861090898514 -0.0010626129806041718 -0.009208422154188156 -0.02028881572186947 0.017804574221372604 4.1265744948759675E-4 0.047008298337459564 -0.026949442923069 0.014737939462065697 0.02371225692331791 0.019177500158548355 -0.010485910810530186 -0.0029454051982611418 -0.01730962097644806 -0.027420658618211746 -0.04270269721746445 0.02901436574757099 0.013567060232162476 -0.06791748851537704 0.028439564630389214 -0.03583480790257454 -0.022834734991192818 -0.02444719895720482 -0.018803205341100693 0.012190462090075016 0.011949686333537102 0.025030525401234627 -0.0034128909464925528 -0.0151712941005826 -0.041140832006931305 -0.0300897229462862 -0.011088225990533829 0.007125681731849909 0.002661090809851885 2.0349214901216328E-4 0.060452599078416824 0.037817325443029404 0.01832658424973488 -0.013406963087618351 -0.031044377014040947 -0.0036748466081917286 -0.050170041620731354 -0.022676484659314156 0.021426698192954063 -0.0650845617055893 0.028829140588641167 -0.012686978094279766 -0.0029872790910303593 0.008473838679492474 -0.013411931693553925 0.00490094069391489 -4.060378414578736E-4 0.020838389173150063 -0.039674121886491776 0.030755912885069847 0.025900479406118393 0.0025284301955252886 0.04569951817393303 -0.04038543999195099 -0.0058943177573382854 0.031352754682302475 -0.05890188366174698 -0.04723735898733139 0.027211816981434822 2.6402075309306383E-4 -0.00545289134606719 -0.03313802555203438 -0.054756149649620056 0.051523417234420776 -0.04049215093255043 -0.04663992300629616 -0.05112432315945625 0.020817041397094727 0.055607788264751434 -0.006716740317642689 0.05616262927651405 0.0024445834569633007 -0.021524703130126
666 -0.0013263237196952105 0.004313517827540636 1.069576246663928E-4 -0.0074116503819823265 -0.0050531188026070595 -0.012860652059316635 0.0041170790791511536 0.004829241894185543 0.004400848876684904 -0.00868314877152443 0.0013882106868550181 -0.005907155107706785 0.01816830039024353 0.002363764215260744 -0.007976516149938107 -0.009297003038227558 0.005597226321697235 4.289872304070741E-4 -0.0038531546015292406 0.006249918136745691 -0.0048538451083004475 -0.0017192953964695334 -0.004129844252020121 0.0031905057840049267 -0.016221722587943077 -0.004469150677323341 -0.0010572804603725672 0.006303668022155762 0.015963509678840637 -0.012933148071169853 0.01374074723571539 -0.005296950228512287 -0.00225629098713398 0.0019517261534929276 -0.010068662464618683 -0.0018554450944066048 0.0070380717515945435 -0.010286541655659676 0.013985703699290752 0.013423582538962364 -0.027931690216064453 8.119205012917519E-4 -0.002041054191067815 0.004100947640836239 0.0011039781384170055 -0.010441741906106472 0.00612145708873868 0.004312586504966021 0.005057685077190399 0.004148544743657112 -0.008229591883718967 -0.0052637979388237 -0.0014159876154735684 0.010056469589471817 -0.0019838507287204266 -0.008454252034425735 -0.006354575045406818 0.01811561919748783 -0.005779411178082228 8.903244743123651E-4 0.008438869379460812 -0.009403521195054054 -0.005427863448858261 -0.0017960118129849434 0.005363865755498409 4.730871878564358E-4 -0.004136945120990276 -0.0021289195865392685 0.001347252051346004 -0.0097432816401124 0.008818857371807098 0.004065984394401312 -0.0043437667191028595 -0.01599087007343769 0.009931046515703201 0.004648396745324135 -0.006726948544383049 -0.002204363467171788 -0.006512429565191269 -0.005803823471069336 -0.014437989331781864 -0.008893006481230259 0.007716753054410219 -0.01616472750902176 -0.004684204235672951 0.005728066898882389 0.00610222527757287 -0.004052366130053997 0.002030466217547655 -0.010734405368566513 0.007285181432962418 -0.01222322229295969 -0.005762084387242794 -0.014524036087095737 5.237185396254063E-4 0.014558893628418446 -0.0042900824919342995 0.0023594272788614035 -7.067597471177578E-4 -0.019531622529029846
30 -0.011320221237838268 0.3259521722793579 0.1763373464345932 0.25860509276390076 0.027675233781337738 -0.11238283663988113 -0.17663177847862244 -0.06313960999250412 -0.023420879617333412 0.08973290026187897 -0.2055417001247406 0.07401218265295029 -0.35611268877983093 0.10090727359056473 -0.055545780807733536 0.018737277016043663 0.09964797645807266 0.11883851140737534 -0.13611772656440735 0.09846513718366623 0.1912386268377304 -0.1348692625761032 0.22220350801944733 -0.23703816533088684 0.0877058282494545 -0.08806311339139938 0.18671715259552002 -0.09145350754261017 0.09136951714754105 -0.06899406760931015 -0.4815331697463989 0.16049282252788544 -0.15190711617469788 0.19551359117031097 0.026942173019051552 -0.1441878378391266 0.021810248494148254 -0.06738822162151337 -0.15939249098300934 0.019900571554899216 -0.13234969973564148 0.08673222362995148 -0.6384240388870239 -0.08408788591623306 0.14053426682949066 0.08906546980142593 0.010000222362577915 0.16251395642757416 0.24277165532112122 -0.15333300828933716 -0.021785780787467957 -0.21773923933506012 -0.17764973640441895 -0.02855154313147068 -0.221510648727417 -0.12485114485025406 0.10430295765399933 -0.12914405763149261 -0.19710694253444672 0.1162794977426529 0.062448900192976 -0.020272664725780487 -0.06576816737651825 0.013664350844919682 -0.22519496083259583 -0.11119651049375534 -0.01357138343155384 -0.16493138670921326 0.18933944404125214 -0.03710315003991127 0.2257554680109024 -0.18247215449810028 0.08951257169246674 -0.023116016760468483 -0.08075735718011856 0.015150568448007107 0.248641699552536 -0.18241700530052185 0.19585929811000824 0.2440032809972763 0.13341295719146729 0.17737255990505219 0.24871766567230225 0.10878082364797592 -0.01177345123142004 -0.17431604862213135 0.11098803579807281 -0.009672346524894238 -0.3421629071235657 0.17435100674629211 0.04564927890896797 -0.44696614146232605 0.05652979388833046 0.04474782198667526 -0.3642691969871521 -0.2807985544204712 -0.2971333861351013 -0.1588103473186493 -0.18596585094928741 0.09998293220996857
677 -0.07346323132514954 0.00946068111807108 0.048996180295944214 0.007260174490511417 0.017082391306757927 -0.149303138256073 -0.09598138183355331 -0.030670274049043655 -0.06693097949028015 -0.008115425705909729 -0.13041722774505615 -0.04815268516540527 0.12148645520210266 0.034388333559036255 -0.013760053552687168 0.1254325956106186 0.06649792194366455 0.026358628645539284 0.06847212463617325 -0.05308930575847626 -0.025230025872588158 -0.05594877898693085 -0.030052989721298218 -0.02625366486608982 0.040151894092559814 0.06757467985153198 0.05789360776543617 -0.081341952085495 0.05924094095826149 0.06495478749275208 -0.052330583333969116 -0.04600026085972786 0.0029524711426347494 -0.07671535760164261 -0.02571069821715355 -0.05834631249308586 -0.015452726744115353 0.08964119106531143 -0.025799984112381935 -0.0033201465848833323 0.018013350665569305 -0.11154565960168839 0.048346761614084244 0.11309519410133362 -0.020161326974630356 -0.0836481899023056 0.0077634346671402454 0.06093335151672363 0.006018799729645252 -0.11116810142993927 0.07171233743429184 0.03386522829532623 0.07292794436216354 -0.07064296305179596 -1.836578594520688E-4 -0.003500228514894843 0.0044757528230547905 -0.06453695148229599 -0.012265913188457489 -0.017068862915039062 -0.026303354650735855 -0.04263211414217949 0.025563420727849007 0.010458939708769321 0.00741423387080431 -0.0738229900598526 -0.031556420028209686 -0.05358259379863739 -0.028763558715581894 -0.0685393363237381 0.006255884189158678 0.053422264754772186 -0.09472835808992386 -0.09372400492429733 0.076100654900074 0.1402033269405365 -0.023765061050653458 -0.06664096564054489 -0.027614107355475426 -0.07772654294967651 0.04068862646818161 0.11048201471567154 -0.08046755194664001 -0.0032265796326100826 0.09459413588047028 -0.10840261727571487 0.02410798706114292 -0.05881323665380478 -0.0014289255486801267 0.035830941051244736 0.052451618015766144 0.05667630210518837 0.052940815687179565 -0.05567320063710213 -0.005760082043707371 -0.06035250425338745 0.001459454302676022 0.034951891750097275 0.03737421706318855 0.06739678978919983
482 -0.17601150274276733 -0.11508028209209442 0.05771402642130852 0.021460868418216705 0.0313689224421978 -0.11959937959909439 -0.11923915147781372 0.02453470230102539 -0.13663503527641296 -0.01411863137036562 -0.1019604355096817 -0.029144998639822006 0.18928799033164978 -0.03491532430052757 -0.02673947811126709 0.1016508936882019 0.03554137796163559 0.07028605788946152 0.04545825719833374 -0.06786534935235977 0.0794973149895668 -0.026641538366675377 -0.1099933609366417 -0.011297616176307201 -0.005142856389284134 0.050540413707494736 0.10577841848134995 -0.01946653239428997 0.09394323825836182 0.10432696342468262 -0.014459737576544285 -0.04678620770573616 0.04195001721382141 -0.05694834515452385 -0.03680367022752762 -0.08200975507497787 0.023081528022885323 0.05473000556230545 -0.04630950093269348 -0.014025255106389523 -0.015539214015007019 -0.15151740610599518 0.09095008671283722 0.15456520020961761 0.03654927760362625 -0.08675320446491241 0.014715728349983692 0.07914964109659195 0.0038670538924634457 -0.01564377173781395 0.038280561566352844 -0.004645117558538914 0.14724300801753998 -0.06613557785749435 0.036392226815223694 -0.05185110494494438 -0.01673003099858761 -0.08039618283510208 -0.08468176424503326 -0.0398869663476944 -0.09170815348625183 -0.029411688446998596 -0.028558548539876938 -0.09960539638996124 -0.04343074560165405 -0.11008144915103912 -0.08943541347980499 -0.08981397747993469 -0.092156320810318 -0.12297616899013519 -0.0536438412964344 0.05494098737835884 -0.15700379014015198 -0.09029435366392136 0.05383336916565895 0.0912690982222557 -0.0592140331864357 -0.08042170107364655 -0.0205476563423872 -0.08499856293201447 0.11976008117198944 0.1409173160791397 -0.09552144259214401 0.02761719934642315 0.1540675163269043 -0.05520189553499222 0.041852694004774094 -0.03206813335418701 0.010883566923439503 0.13654503226280212 -0.02209610678255558 0.11453637480735779 0.14209476113319397 -0.11815900355577469 0.09740667045116425 -0.14009301364421844 0.06406714022159576 0.07128894329071045 -0.08600717782974243 -0.02297404408454895
662 -0.13537630438804626 -0.04388583451509476 9.865963365882635E-4 0.04232020676136017 0.008723001927137375 -0.2253938764333725 -0.05802217125892639 -0.06923265010118484 -0.13378562033176422 -0.024058889597654343 -0.1742863953113556 -0.052946485579013824 0.16760499775409698 0.0601365752518177 -0.036843135952949524 0.12858735024929047 0.032147035002708435 0.0027503743767738342 0.10782844573259354 -0.05243769660592079 -0.038078706711530685 -0.08453495800495148 -0.005679262336343527 -0.020838959142565727 0.05327029153704643 0.005331048276275396 0.05120040848851204 -0.05849866196513176 0.13956832885742188 0.052760906517505646 -0.06706693768501282 -0.051039110869169235 0.013751267455518246 -0.18313691020011902 -0.04351106658577919 -0.023417431861162186 0.018687261268496513 0.08102952688932419 -0.043336182832717896 0.03012908063828945 -0.01853831857442856 -0.1703106164932251 -0.003928631078451872 0.16379590332508087 -0.07082542032003403 0.012632228434085846 0.001965678995475173 0.10397258400917053 0.004213117063045502 -0.18422289192676544 0.09144130349159241 0.07678866386413574 0.06167442351579666 -0.11516253650188446 -0.028254691511392593 -0.038447242230176926 -0.03963931277394295 0.012943664565682411 -0.04792984947562218 0.017575707286596298 -0.0918336883187294 -0.08402537554502487 -0.027736864984035492 -0.08256898075342178 0.0938282236456871 -0.018683552742004395 -0.042981963604688644 -0.06287463754415512 -0.10406447947025299 -0.08543328940868378 -0.07200314104557037 0.044518306851387024 -0.08498086035251617 -0.06262779235839844 0.10791274160146713 0.1871858835220337 -0.08102690428495407 -0.0791865810751915 -0.061531201004981995 -0.12501119077205658 0.04727883264422417 0.1332598328590393 -0.11411440372467041 -0.0012604830553755164 0.1751420646905899 -0.09445556253194809 0.13159488141536713 -0.04880118370056152 0.010440393351018429 0.06534216552972794 -0.01236930675804615 0.13082721829414368 0.07661817222833633 -0.062024686485528946 -0.06250186264514923 -0.12400906533002853 0.0035430477000772953 0.05475572869181633 -0.041445355862379074 0.1186007559299469
375 -0.18303672969341278 -0.17689786851406097 -0.0021928702481091022 0.03204090893268585 0.13142190873622894 -0.2222844958305359 -0.24665988981723785 -0.16358651220798492 -0.129787415266037 0.05319220572710037 -0.1316184252500534 -0.0674343854188919 0.17143508791923523 -0.1415611207485199 0.006700684316456318 0.24793802201747894 0.0633825957775116 -0.04533553496003151 0.2292754203081131 -0.13260135054588318 -0.05714935064315796 -0.14860571920871735 0.07277490198612213 -0.013659579679369926 0.05325974524021149 0.05471242591738701 -0.14285753667354584 0.11239336431026459 0.016411414369940758 0.15072453022003174 -0.24888041615486145 -0.06285104900598526 0.07406263798475266 -0.1379956752061844 0.007423848379403353 0.04533533751964569 -0.0945831909775734 0.12206269055604935 -0.03340712934732437 0.09954263269901276 0.1129821240901947 -0.08823186904191971 0.12090858072042465 0.23728306591510773 -0.1525842398405075 0.016628365963697433 -0.0666431114077568 0.16215704381465912 -0.03531555458903313 -0.047598935663700104 0.11765698343515396 0.15516974031925201 0.09969544410705566 -0.15760864317417145 0.13168321549892426 -0.013512191362679005 0.03532895818352699 -0.21260860562324524 -0.10297565162181854 0.036449626088142395 -0.1156761571764946 -0.032625362277030945 -0.041743602603673935 0.060392506420612335 -0.14242346584796906 0.06554071605205536 0.009745785966515541 -0.14837786555290222 -0.12506923079490662 -0.117024727165699 -0.1165117472410202 -0.12896859645843506 -0.25531935691833496 0.11666926741600037 0.378166139125824 0.3241526782512665 -0.1721121221780777 -0.13259544968605042 -0.043832674622535706 -0.14003747701644897 0.08776793628931046 0.18650250136852264 -0.30331602692604065 0.13979563117027283 0.19944602251052856 -0.011639779433608055 -0.021935783326625824 -0.06571997702121735 0.056969478726387024 0.10920179635286331 -0.037374455481767654 0.15654587745666504 0.18739169836044312 -0.010490531101822853 0.14049841463565826 -0.2988044321537018 0.05104866996407509 -0.032298214733600616 0.029603607952594757 -0.16179394721984863
186 0.10465622693300247 -0.1405058205127716 0.15085136890411377 0.2752818763256073 0.28741952776908875 0.13258881866931915 -0.07261079549789429 0.15615034103393555 -0.1529841125011444 -0.38233688473701477 -0.17057882249355316 0.11034254729747772 -0.23509618639945984 -0.09972400963306427 -0.08495703339576721 0.3956814110279083 -0.028962427750229836 0.3827398419380188 -0.027674823999404907 0.10444019734859467 0.07435116916894913 0.22081950306892395 -0.14665500819683075 0.18405437469482422 0.009617844596505165 -0.11622539907693863 0.034788988530635834 0.25505679845809937 0.2122843861579895 -0.09732293337583542 0.1135530024766922 0.2659558951854706 0.15603582561016083 -0.11276544630527496 -0.047588691115379333 -0.3204286992549896 -0.2174052894115448 -0.11734595149755478 -0.06788680702447891 0.09044557064771652 -0.017561927437782288 0.1407175064086914 -0.039083536714315414 0.014530651271343231 0.0031537876930087805 0.01983686164021492 -0.17607934772968292 0.0035315016284585 0.22345608472824097 0.09959456324577332 -0.008757274597883224 -0.25248464941978455 -0.16031403839588165 0.17787156999111176 0.0642290860414505 0.06153738871216774 0.08289860934019089 0.20225998759269714 0.09308817982673645 0.049322422593832016 -0.27510008215904236 -0.16985203325748444 -0.20998410880565643 -0.2412598431110382 -0.1916191130876541 -0.06075267493724823 -0.09543360024690628 -0.03273563086986542 -0.32157695293426514 -0.1914515644311905 -0.3116447329521179 0.0901138186454773 -0.2519760727882385 -0.04730338975787163 -0.11335967481136322 0.0325494185090065 0.06610044836997986 0.17768262326717377 0.16451776027679443 0.269214391708374 -0.019524868577718735 0.04350782930850983 0.16355670988559723 -0.24307633936405182 0.06826923042535782 -0.2780022919178009 -0.040652550756931305 -0.0646655336022377 -0.30117639899253845 -0.22908540070056915 -0.08774098753929138 0.3254694938659668 0.02121097221970558 -0.32066360116004944 -0.18913713097572327 0.2802051305770874 -0.3613493740558624 0.020748788490891457 0.04530008137226105 -0.1966208666563034
257 -0.1763247847557068 0.0712810531258583 -0.08857128769159317 0.007016455754637718 0.02399487979710102 -0.27560368180274963 -0.08519715815782547 0.044331032782793045 -0.12608885765075684 -0.020558761432766914 -0.0872555822134018 -0.0032975326757878065 0.20486769080162048 0.08830899745225906 -0.03541773930191994 0.2019813507795334 0.1501617282629013 -0.0035930282901972532 0.023012442514300346 -0.005167472641915083 0.06313517689704895 0.002835905412212014 -0.008670340292155743 0.03372761607170105 -0.020788149908185005 -0.055258382111787796 0.022357454523444176 0.03291631489992142 0.2864972949028015 -0.0010173970367759466 0.05219103395938873 0.12574990093708038 -0.03271599858999252 -0.26604074239730835 -0.23575572669506073 -0.11332694441080093 -0.01657813973724842 -0.09253977239131927 -0.027919773012399673 -0.00641340296715498 -0.08613167703151703 -0.23087315261363983 0.12219833582639694 0.17288607358932495 0.13520734012126923 -0.17191463708877563 -0.024907298386096954 0.12091571092605591 0.06694641709327698 -0.18269342184066772 0.18000701069831848 -0.2028634250164032 0.11389739066362381 -0.07055102288722992 -0.06307709962129593 -0.01729758083820343 -0.021588757634162903 0.04580254480242729 -0.1720343381166458 -0.09616509824991226 -0.012149780057370663 -0.10962571203708649 0.03211523965001106 -0.2809441387653351 0.0020032678730785847 -0.032085269689559937 -0.18787935376167297 -0.13001884520053864 -0.09275585412979126 -0.35493361949920654 0.12511126697063446 0.11068572103977203 -0.17668913304805756 -0.11932463943958282 0.038630273193120956 0.1430642306804657 -0.03827080503106117 0.0269793514162302 -0.010083330795168877 -0.13457834720611572 -0.08927123248577118 0.16327573359012604 0.017913928255438805 -0.33355510234832764 0.2607167959213257 -0.15926992893218994 0.06913337111473083 -0.1339300125837326 -0.0398351214826107 -0.03132905438542366 0.11367236822843552 0.13938048481941223 0.08058667927980423 -0.1815226674079895 0.07093542069196701 -0.06250381469726562 0.18780425190925598 0.20530588924884796 0.07071468979120255 0.21068266034126282
840 -0.0055122580379247665 -0.01533472165465355 0.00977063924074173 0.027178436517715454 0.01880132220685482 -0.06120697408914566 -0.03997616842389107 -0.019819404929876328 -0.03455112501978874 0.01623408868908882 -0.04232458397746086 -0.017647122964262962 0.038552846759557724 0.0031875476706773043 -0.017744434997439384 0.04141680896282196 0.008409468457102776 -0.006302068941295147 0.028084630146622658 -0.016620658338069916 -0.0039468202739953995 -0.03895539790391922 0.0063161179423332214 -0.008720854297280312 0.012846223078668118 0.015306209214031696 -0.011657283641397953 -0.01649491861462593 0.024145128205418587 0.017231477424502373 -0.01036587543785572 0.013025208376348019 0.028006451204419136 -0.0393337719142437 0.030095349997282028 -0.015595217235386372 -0.01566331461071968 0.015833985060453415 -0.029664229601621628 0.004333634860813618 0.0018784108106046915 -0.047947727143764496 0.002699941862374544 0.023123713210225105 -0.011110692285001278 0.002968109678477049 -0.0037239547818899155 0.022932853549718857 -0.004998947028070688 -0.020846568048000336 0.03317410871386528 0.00487354164943099 0.024066627025604248 -0.013940518721938133 0.008085627108812332 0.004501592367887497 0.0034007388167083263 0.00155016896314919 -0.024733014404773712 0.022785255685448647 -0.018656209111213684 -0.01950889453291893 -0.03013499267399311 -0.009048395790159702 -0.012369213625788689 -0.008978641591966152 -0.03392685949802399 -0.03652248904109001 -0.022508589550852776 -0.03890306502580643 0.0060888370499014854 0.0037582318764179945 -0.033964451402425766 0.00290597858838737 0.05337704345583916 0.059582702815532684 0.0011257885489612818 -0.01095823384821415 -0.0038254782557487488 -0.030686402693390846 0.018020642921328545 0.058662425726652145 -0.03203125298023224 -0.002816541586071253 0.0435471311211586 -0.019772451370954514 0.01679527945816517 -0.026730189099907875 -0.0013633808121085167 0.018216803669929504 0.0011355789611116052 0.021624626591801643 0.011528825387358665 -0.026529161259531975 -0.012370125390589237 -0.03497182950377464 0.007760700304061174 -0.009205231443047523 0.023122508078813553 0.012368567287921906
232 0.06756971031427383 -0.20398619771003723 0.18042732775211334 0.5664631128311157 0.3009960651397705 0.45926588773727417 -0.21248063445091248 -0.022706791758537292 -0.18894632160663605 -0.5969356298446655 -0.2782716453075409 0.2688319981098175 -0.3469328284263611 -0.08171223849058151 -0.4180201590061188 0.503032386302948 -0.18534182012081146 0.3877383768558502 0.09026002138853073 -0.03338449075818062 0.07093660533428192 0.47610536217689514 -0.27403974533081055 0.2409094274044037 0.14913496375083923 -0.31704452633857727 -0.03194297477602959 0.4913393259048462 0.36982858180999756 -0.08986513316631317 0.22733528912067413 0.5421248078346252 0.2433299422264099 -0.23518721759319305 0.2154826670885086 -0.32882794737815857 -0.056148894131183624 -0.13904759287834167 -0.08130501955747604 5.057951202616096E-4 0.103141650557518 -0.0026303245685994625 0.27354517579078674 0.2642492353916168 -0.03477735444903374 0.34237101674079895 -0.21651378273963928 0.009277288801968098 0.09643829613924026 0.4332616925239563 -0.1785057932138443 -0.1789780557155609 -4.098942445125431E-4 0.5084574818611145 0.11847111582756042 0.18717767298221588 0.03567276895046234 0.24367956817150116 0.12394686788320541 -0.03966708481311798 -0.4304238259792328 -0.20796923339366913 -0.2757433354854584 -0.37157437205314636 -0.2158123403787613 -0.3538229167461395 -0.007043586112558842 0.04556150361895561 -0.2877187132835388 -0.30710819363594055 -0.435271680355072 0.10555090010166168 -0.4431050717830658 0.02554350718855858 -0.4270573854446411 -0.024539543315768242 -0.0723746120929718 0.10303270071744919 0.34729915857315063 0.2579396367073059 0.11429151147603989 0.23533302545547485 0.32725977897644043 -0.1046866625547409 0.1897951364517212 -0.3705228865146637 0.052489541471004486 -0.0753091350197792 -0.3922157883644104 -0.42962831258773804 -0.23958677053451538 0.36933866143226624 0.13627050817012787 -0.24013224244117737 -0.019391687586903572 0.45789045095443726 -0.414800763130188 0.04390697181224823 -0.11309395730495453 -0.2558347284793854
139 -0.11281529068946838 -0.20526400208473206 0.06042574718594551 0.2208242118358612 -0.23356062173843384 0.15705905854701996 -0.009800927713513374 -0.054232265800237656 -0.13982626795768738 -0.1441560834646225 0.17470575869083405 0.07120121270418167 0.0686626061797142 -0.2033652812242508 -0.3085789978504181 -0.2104576975107193 5.543220322579145E-4 0.10813268274068832 -0.1871412694454193 0.20053178071975708 -0.09340213984251022 -0.07610777020454407 -0.27336615324020386 0.12192215770483017 -0.0025274690706282854 -0.08499332517385483 0.09468784928321838 -0.11875443905591965 -0.14722546935081482 -0.10972040891647339 0.02855706959962845 -0.09962639957666397 -0.3301866352558136 0.013802197761833668 -0.26910436153411865 0.03407275676727295 0.2001388669013977 -0.05655216425657272 -0.21015910804271698 -0.23308099806308746 -0.09729233384132385 -0.17965348064899445 -0.008054714649915695 0.27868667244911194 0.32767000794410706 -0.5426476001739502 0.5248640179634094 -0.07272887229919434 0.1519143432378769 0.18762445449829102 -0.3187248706817627 -0.1878361999988556 0.17590390145778656 -0.028147416189312935 0.049489136785268784 -0.04431680589914322 0.1619696319103241 -0.04217562451958656 -0.1758093237876892 -0.17536786198616028 0.3580770790576935 0.1450205296278 0.052505265921354294 -0.18457993865013123 -0.09392660856246948 -0.2897323668003082 -0.22432385385036469 -0.23845483362674713 0.20790864527225494 -0.4821001887321472 0.1615525633096695 0.04782840982079506 0.2373296171426773 -0.1937275528907776 -0.027725040912628174 0.07817169278860092 0.13377201557159424 0.18593154847621918 0.17997200787067413 0.13265830278396606 0.07670161128044128 -0.030019486322999 0.12115487456321716 0.16610999405384064 0.23444122076034546 0.06432828307151794 0.10198520123958588 0.22919410467147827 0.11294028162956238 0.05103147774934769 -0.08703508228063583 -0.14665444195270538 0.39717939496040344 -0.06180291995406151 0.27571433782577515 -0.28854259848594666 -0.4379633963108063 -0.14998479187488556 -0.2890293598175049 -0.21746055781841278
359 -0.1467483937740326 0.23331648111343384 0.24486827850341797 0.12809760868549347 0.07985338568687439 -0.4533194899559021 -0.2500491440296173 -0.06613773107528687 -0.20283015072345734 -0.01593705825507641 -0.2816942632198334 -0.48731207847595215 0.4853185713291168 0.08499650657176971 -0.017053497955203056 -0.16007837653160095 0.05487397313117981 -0.21996094286441803 0.0749882161617279 0.15970167517662048 -0.02901425212621689 -0.021470384672284126 -0.1219790056347847 0.07358178496360779 -0.030040530487895012 -0.3596014976501465 -0.24060839414596558 -0.13881918787956238 0.41037997603416443 -0.4074556529521942 0.3060421943664551 0.0750199556350708 0.09638458490371704 -0.1555922031402588 -0.14808696508407593 0.12182215601205826 0.2798979878425598 -0.05201452225446701 0.6054137945175171 0.2308531552553177 -0.49888667464256287 -0.3346179723739624 -0.3000560700893402 0.15045352280139923 0.06408753991127014 -0.05645504221320152 -0.0055053019896149635 0.2191939353942871 -0.05968049168586731 -0.09070328623056412 -0.13817845284938812 0.01674589514732361 -0.12475791573524475 0.1558663249015808 0.01864941604435444 0.1394568532705307 -0.0438932366669178 0.22147570550441742 0.05875110998749733 0.2103908210992813 -0.09400387853384018 -0.4947547912597656 -0.22791558504104614 -0.22079125046730042 0.04104393348097801 -0.03646525368094444 -0.19455131888389587 -0.20712319016456604 -0.042145129293203354 -0.12294460833072662 0.49940505623817444 0.025091100484132767 -0.07716696709394455 -0.04109353944659233 0.018723979592323303 0.2950693368911743 -0.20172077417373657 0.103609599173069 -0.00895287562161684 -0.07664608955383301 -0.49321436882019043 -0.07811491191387177 0.20439516007900238 -0.47630250453948975 -0.3295084834098816 -0.19105182588100433 -0.15508504211902618 -0.14806975424289703 -0.07378722727298737 -0.2779398560523987 0.3525629937648773 -0.43395498394966125 -0.3962068259716034 -0.4829586446285248 0.23991841077804565 0.4682275354862213 0.2408677041530609 0.2871118485927582 0.11533036828041077 0.025859102606773376
861 -0.01810213178396225 -0.02302500419318676 0.003382621333003044 -0.007622690871357918 -0.011617658659815788 -0.01962403580546379 -0.002923954278230667 0.015864642336964607 -0.002261679619550705 -0.0016098804771900177 -8.001653477549553E-4 -5.898918025195599E-4 5.115810199640691E-5 0.008114023134112358 -0.0026006330735981464 0.008072316646575928 0.009209045208990574 -0.0036537344567477703 -0.0020537818782031536 -9.895511902868748E-4 0.0010895077139139175 0.0030049970373511314 -0.007859275676310062 0.0014169835485517979 -0.004872945602983236 6.708055734634399E-4 0.005559747107326984 0.013741591945290565 0.0031910473480820656 -1.947353594005108E-4 2.833775943145156E-4 -0.011732883751392365 -0.008302593603730202 0.008488219231367111 -0.015241449698805809 -0.003050717990845442 0.006040957756340504 -0.005769807379692793 -0.004831071011722088 -0.006824880372732878 -0.012381157837808132 -0.019047178328037262 -0.0014001601375639439 0.022663693875074387 0.00748736597597599 0.0038667223416268826 0.00404481403529644 -0.005758731160312891 0.005801068618893623 -0.012766172178089619 -0.009875149466097355 -0.02114260382950306 0.018028046935796738 -0.01300880778580904 -0.009973200969398022 -0.019852835685014725 -0.01283280923962593 -0.006763853132724762 -0.015391278080642223 -0.0020470614545047283 0.006441046018153429 -0.0012238561175763607 0.004634074866771698 -0.016795532777905464 -0.003764393273741007 -0.017840281128883362 -0.010429689660668373 -0.01979932002723217 -0.012001627124845982 -0.008015823550522327 -0.008324148133397102 0.01730744168162346 0.0012118734885007143 -0.020795803517103195 -0.006616550963371992 0.011171488091349602 -0.015938198193907738 0.0038114634808152914 -0.005660257302224636 -0.011569245718419552 0.002601551590487361 2.0028604194521904E-4 -0.004686624277383089 -0.003926296718418598 0.013329936191439629 -0.012822065502405167 0.009076762944459915 0.0028578699566423893 0.005149435717612505 0.023523906245827675 0.012065557762980461 0.01672472432255745 0.022382039576768875 -0.01832631416618824 0.01587425358593464 -0.007607768755406141 0.023534752428531647 0.010897196829319 -0.02854366973042488 -0.00510345958173275
523 0.025242643430829048 -0.029350239783525467 0.012965057045221329 0.07270169258117676 0.012230221182107925 0.009146126918494701 -0.003964661620557308 0.0010967509588226676 -0.03345144912600517 -0.03135448321700096 -0.022037623450160027 0.010229352861642838 0.01629873365163803 -0.0018744313856586814 -0.03743357956409454 0.06058594956994057 0.005988326855003834 0.023909537121653557 -0.012230155989527702 -0.018145853653550148 0.015645921230316162 0.03690717741847038 -0.03714703395962715 0.012104951776564121 0.01993555575609207 -0.021840767934918404 0.0032203253358602524 0.04512106254696846 0.046780817210674286 -0.036943066865205765 0.03837548941373825 0.04494470730423927 0.0240495502948761 -0.024655617773532867 -0.010019566863775253 -0.04848034307360649 -0.0021080542355775833 -0.035742565989494324 0.02172090858221054 -0.006300605833530426 -0.03683584928512573 -0.011635473929345608 0.022673552855849266 0.028375744819641113 -0.0017867120914161205 -0.005930226296186447 0.0029043168760836124 0.01919289492070675 0.018141018226742744 0.024111777544021606 -7.49946921132505E-5 -0.04136616736650467 -0.0028491541743278503 0.03588949516415596 0.0037587457336485386 0.008321096189320087 0.011790531687438488 0.05351262167096138 0.01784101501107216 -0.010125298984348774 -0.02937300316989422 -0.026584452018141747 0.0026491491589695215 -0.05237794667482376 0.005776220001280308 -0.05135256424546242 -0.04363774135708809 0.008453086018562317 -0.0206157136708498 -0.05266840383410454 -0.003995071165263653 0.03301117196679115 -0.03232940658926964 -0.05140860751271248 -0.03404691442847252 0.014052660204470158 0.002667250344529748 0.005415116902440786 0.01870294101536274 0.0233710128813982 -0.022741954773664474 0.022579289972782135 0.038313642144203186 -0.03431167080998421 -0.0025733911897987127 -0.03289759159088135 0.016379844397306442 -0.042567070573568344 -0.04911607503890991 -0.01353531889617443 0.02442299760878086 -0.005609259475022554 -0.042152050882577896 -0.03293231502175331 -0.01953062228858471 0.034142084419727325 -0.022040070965886116 0.016848867759108543 -0.007709082216024399 0.006496497895568609
779 -0.07017596811056137 0.015926873311400414 0.010114837437868118 0.059242308139801025 0.04104730114340782 -0.0704057589173317 -0.040939636528491974 -0.031484272330999374 -0.00647890567779541 0.015672221779823303 -0.07146485894918442 -0.011657016351819038 0.07401908934116364 0.04346437007188797 -0.003639287780970335 0.021630309522151947 0.017794134095311165 -0.037057872861623764 0.026169998571276665 -0.015310944989323616 0.011753770522773266 -0.03989311307668686 -0.02947108820080757 -0.023108363151550293 -0.005581935867667198 0.005361874587833881 -0.027302170172333717 -5.920820403844118E-4 0.05641666427254677 -0.013350543566048145 -0.006851930171251297 0.02789895236492157 0.07575473934412003 -0.030576510354876518 0.028044376522302628 0.03332676365971565 0.0165582075715065 0.008377115242183208 -0.004950893577188253 0.019902732223272324 -0.04677457734942436 -0.0614994540810585 -0.02257932908833027 0.050431717187166214 0.02005700394511223 0.019420886412262917 0.0014636743580922484 0.04214487597346306 -0.0415852889418602 -0.0417187362909317 0.014619670808315277 0.013852336443960667 0.036713629961013794 -0.015111185610294342 0.012240443378686905 0.017255114391446114 -0.04869214445352554 0.0026316489093005657 -0.04550280049443245 -3.046458587050438E-4 0.017136316746473312 -0.05572793260216713 -0.01632103882730007 -0.01144485268741846 0.001626079436391592 -0.04988472908735275 -0.06390506029129028 -0.02620236575603485 -0.026068560779094696 -0.0229227002710104 0.04100102558732033 9.758698870427907E-4 -0.030237698927521706 -0.018806541338562965 0.07523379474878311 0.0648358166217804 -0.06494829803705215 -6.761663826182485E-4 -0.011144769378006458 -0.05396256968379021 0.012717599980533123 0.054746128618717194 -0.017456907778978348 -0.0463932529091835 0.0023811606224626303 -0.05318282172083855 -0.00899148266762495 -0.0866926982998848 -0.013169040903449059 -0.024738553911447525 0.025640057399868965 -0.027984920889139175 -9.216187754645944E-4 -0.05905046686530113 0.007115392945706844 8.085044100880623E-5 0.015925588086247444 0.048721104860305786 0.046372223645448685 0.050717707723379135
244 0.36726057529449463 0.3135663866996765 0.13215143978595734 0.0596049502491951 0.03076951391994953 -0.12415961176156998 0.016473200172185898 0.23910869657993317 0.13577833771705627 0.1620808243751526 -0.3248811364173889 0.05298253893852234 -0.36231324076652527 0.06206798180937767 0.08412656933069229 0.012124580331146717 0.1655171513557434 0.10896904766559601 -0.35117247700691223 0.12805922329425812 0.39481404423713684 -0.23661871254444122 0.21972018480300903 -0.35878825187683105 0.0853092297911644 0.0074672335758805275 0.3457004725933075 -0.2630707919597626 0.5150255560874939 0.3271995186805725 -0.40517735481262207 0.2359458953142166 -0.047320667654275894 -0.03049997054040432 -0.17392979562282562 -0.03130006790161133 0.01337332371622324 -0.16693387925624847 -0.10796882212162018 0.03905174881219864 -0.057534992694854736 -0.1659233272075653 -0.6579526662826538 -0.03442199528217316 0.304390013217926 0.016240976750850677 0.017423493787646294 0.34817203879356384 0.2508130669593811 -0.2792580723762512 0.2504853904247284 -0.3141273856163025 -0.24725936353206635 0.0654059574007988 -0.2732255756855011 0.11590085923671722 0.11641997843980789 -0.057126473635435104 -0.3599781095981598 -0.07777541130781174 0.0803673192858696 0.008655674755573273 -0.11928316205739975 -0.0836411863565445 -0.024976760149002075 0.023772018030285835 -0.10964777320623398 0.10222326964139938 0.25023940205574036 0.0478600449860096 0.5993971228599548 -0.18351617455482483 0.09093064069747925 0.003113741287961602 -0.2888668179512024 -0.33723288774490356 0.34722423553466797 -0.3512985408306122 0.15347661077976227 0.32513728737831116 0.297789603471756 0.3612006902694702 0.015292194671928883 -0.0605042390525341 0.16576285660266876 0.09251532703638077 0.3133920431137085 -0.07188691198825836 -0.22876957058906555 0.21406756341457367 -0.15065334737300873 -0.14426012337207794 0.04417955130338669 -0.07802276313304901 -0.5809134840965271 -0.2404675930738449 -0.35374051332473755 0.16819900274276733 0.026894310489296913 0.435566246509552
449 -0.07850195467472076 -0.016011975705623627 0.0135863171890378 0.14796794950962067 0.01891980692744255 0.042786605656147 0.004854150582104921 0.09296926856040955 -0.05069444328546524 -0.08299439400434494 -0.016608575358986855 0.016879064962267876 -0.007202862296253443 0.004971163347363472 -0.027354653924703598 0.08473734557628632 4.7268980415537953E-4 0.0658804252743721 -0.06838259100914001 -0.007250441703945398 0.01386055164039135 0.04577647149562836 -0.11104536056518555 -0.023333892226219177 -0.05887346714735031 0.0036267011892050505 0.07728936523199081 0.04062742367386818 0.08505426347255707 0.02818959206342697 0.04875762760639191 0.08235115557909012 0.04588165879249573 0.009523813612759113 -0.004519242327660322 -0.06715236604213715 0.014725026674568653 0.00874481163918972 -0.021537939086556435 0.013568486087024212 -0.044292449951171875 -0.08394734561443329 0.01954999938607216 0.14212684333324432 0.06262671202421188 -0.038265079259872437 0.0236264169216156 0.012373914942145348 0.031560949981212616 -0.0210151057690382 0.02279849164187908 -0.07041645050048828 0.04489196464419365 -0.002145715756341815 0.047273073345422745 0.07047996670007706 0.02124599553644657 0.033296678215265274 0.018871108070015907 -0.08025751262903214 -0.0026722033508121967 0.014290135353803635 0.023087216541171074 -0.044008735567331314 -0.05370716005563736 -0.08671799302101135 -0.08445800095796585 5.151425721123815E-4 -0.054073888808488846 -0.06474777311086655 0.02999779023230076 0.08677377551794052 -0.07761789113283157 -0.07878255844116211 -0.019783630967140198 0.0015127926599234343 0.04247814789414406 0.005975165404379368 0.07574648410081863 0.03197094425559044 0.014512571506202221 0.06939375400543213 -0.00867372751235962 -0.0421980544924736 0.006186783779412508 -0.045772962272167206 -0.0019816774874925613 -0.1314689964056015 -0.04758103936910629 0.0083466786891222 -0.01606096513569355 0.01192114781588316 0.05367173254489899 -0.09168103337287903 -0.023643948137760162 -0.031720712780952454 -0.008076067082583904 0.029019800946116447 -0.04453856498003006 -0.04808494448661804
15 -0.0010375085985288024 -0.03691045939922333 0.2554735839366913 -0.26887601613998413 0.36046528816223145 0.18427588045597076 0.09090251475572586 0.016104210168123245 -0.07107127457857132 -0.1561974287033081 0.3515009880065918 -0.20140120387077332 -0.025919487699866295 0.15686845779418945 0.14525991678237915 -0.04479780048131943 0.05761207640171051 -0.09671521186828613 0.17063620686531067 0.053530678153038025 -0.3068059980869293 -0.005975865293294191 0.07987876236438751 -0.009577065706253052 0.13973940908908844 0.03161042928695679 0.03415509685873985 0.00561063177883625 -0.07953374087810516 -0.23235608637332916 -0.1587439477443695 -0.036713797599077225 -0.0949050560593605 -0.2648524045944214 0.23337727785110474 0.039640069007873535 -0.0045981211587786674 -0.08947883546352386 -0.06108172610402107 0.15526042878627777 0.10690627992153168 0.27864477038383484 -0.26388686895370483 -0.07272423058748245 0.34132590889930725 -0.2760053873062134 0.1910688877105713 -0.007765996735543013 0.1312938928604126 -0.3032577633857727 -0.0732872411608696 0.0869542732834816 -0.31255102157592773 0.12067339569330215 -0.14968715608119965 0.1681775450706482 0.0345415323972702 -0.1775456815958023 0.016921645030379295 -0.16613051295280457 0.22235645353794098 0.16709329187870026 0.27372294664382935 -0.025446560233831406 -0.08310701698064804 0.1416080892086029 0.08983196318149567 -0.08893907815217972 0.010565144009888172 -0.17169557511806488 -0.03926113620400429 -0.46890556812286377 -0.033394716680049896 -0.1230369582772255 0.14552348852157593 -0.14729037880897522 -0.1349944770336151 -0.086479552090168 0.002331322059035301 -0.1049513965845108 -0.176482155919075 -0.13071006536483765 -0.06713254004716873 -0.11582861840724945 0.08052416890859604 -0.18667900562286377 -0.1677100509405136 0.018379241228103638 -0.03602893278002739 0.07064323127269745 0.08732691407203674 0.1836981326341629 -0.09373518824577332 -0.04699373617768288 -0.008632207289338112 0.23788034915924072 -0.13886278867721558 -0.14658112823963165 -0.1429828554391861 0.39762774109840393
850 -0.02736571431159973 -0.02810807339847088 0.0077829509973526 0.018421588465571404 0.006419821176677942 -0.021743493154644966 -0.032508376985788345 0.007354452274739742 -0.031104719266295433 -0.017140120267868042 -0.022365396842360497 -0.009177064523100853 0.035568732768297195 0.011362223885953426 -0.013673209585249424 0.03281215950846672 0.016056733205914497 -0.012290707789361477 0.02654220722615719 -0.02984417974948883 -0.02535567805171013 0.006077340338379145 0.00482019130140543 0.0168460700660944 -0.0011824577813968062 0.002653202973306179 -0.01758260279893875 0.01502083707600832 0.0401264950633049 0.0028149473946541548 -0.010227967984974384 0.013113691471517086 0.008763553574681282 -0.057506151497364044 0.02334076724946499 -0.015957731753587723 -0.004980985075235367 -0.001723086810670793 -0.03060588240623474 0.02308031916618347 -0.008973783813416958 -0.04820481687784195 0.0371374636888504 0.06230808421969414 0.012293867766857147 -0.016522875055670738 -0.00573943555355072 0.02094799093902111 -0.006311147939413786 -0.018893033266067505 0.048912595957517624 -0.005508767906576395 0.03390878811478615 0.004814430605620146 0.012210196815431118 0.019855251535773277 -0.01308216992765665 0.011851449497044086 -0.024747861549258232 -0.03417573496699333 0.002630222588777542 -0.022280579432845116 -0.0032159010879695415 -0.031804364174604416 0.010859163478016853 -0.051830533891916275 -0.014951489865779877 -0.015552716329693794 -0.027055049315094948 -0.05833958461880684 0.0012131740804761648 0.012861807830631733 -0.027847688645124435 -0.017510047182440758 0.01637616753578186 0.06623785197734833 -0.03714490681886673 -0.02333272621035576 0.002940540201961994 -0.05771247297525406 -0.004704389721155167 0.052898235619068146 -0.014172821305692196 -0.028859827667474747 0.07868596166372299 -0.046860359609127045 0.011852388270199299 -0.043747320771217346 0.011629924178123474 -0.0031570487190037966 -0.01015208475291729 0.026420079171657562 0.03254364803433418 -0.03672679141163826 -0.005793933290988207 -0.024212002754211426 0.007513497490435839 0.007962439209222794 -0.004490661900490522 0.024686016142368317
363 -0.010116500779986382 -0.0538298636674881 0.02340630255639553 0.0981299877166748 0.07751383632421494 -0.421357125043869 -0.14979498088359833 -0.1098167821764946 -0.03209487721323967 0.10195939242839813 -0.34217339754104614 -0.011439500376582146 0.4226144254207611 0.0028378169517964125 0.013140090741217136 0.12425438314676285 0.1859080046415329 -0.037203140556812286 0.19860130548477173 -0.18082775175571442 0.03450757637619972 -0.22875215113162994 -0.04754231125116348 -0.07563012838363647 0.1591806262731552 0.15778395533561707 0.05306711792945862 -0.09592482447624207 0.2131873369216919 0.19067692756652832 -0.06444101780653 -0.11520630121231079 0.20335480570793152 -0.3323356807231903 0.03681659698486328 -0.1133449524641037 -0.03552878648042679 0.07580915838479996 -0.2294173389673233 0.11007289588451385 -0.0856735035777092 -0.1656496822834015 0.11482462286949158 0.272021621465683 -0.10095231980085373 -0.14329315721988678 0.0074182855896651745 0.16357700526714325 -0.07330355793237686 -0.23632818460464478 0.29521721601486206 0.1709093451499939 0.1581605076789856 -0.18043945729732513 -0.05217106640338898 0.0849049761891365 -0.1098194494843483 -0.08262017369270325 -0.3063012361526489 -0.09873628616333008 -0.017819076776504517 -0.06692758202552795 -0.01728975400328636 -0.07256878912448883 0.053786635398864746 -0.08082995563745499 -0.0797790139913559 -0.0706121101975441 -0.10156488418579102 -0.1749938279390335 -0.056396711617708206 -0.09553925693035126 -0.2359595149755478 -0.021855507045984268 0.44342905282974243 0.26253795623779297 -0.13461866974830627 -0.09928997606039047 -0.12286487221717834 -0.36549440026283264 0.04542598873376846 0.33416256308555603 -0.2788693606853485 -0.17046187818050385 0.4235566556453705 -0.18846403062343597 0.06364023685455322 -0.048607878386974335 0.03061395138502121 0.17906436324119568 -0.024949712678790092 0.09415437281131744 0.2871825397014618 -0.0631314292550087 0.03877396881580353 -0.403901070356369 0.09565568715333939 0.1512872576713562 0.020199354737997055 0.004295792896300554
131 0.08546597510576248 0.10427797585725784 0.16965238749980927 0.11756783723831177 0.18909266591072083 -0.3261392414569855 -0.4156608581542969 -0.2603108882904053 -0.2328987717628479 -0.025953564792871475 -0.15114881098270416 -0.09995114803314209 0.277976930141449 0.08368488401174545 -0.07924772053956985 0.1316865086555481 0.2055978626012802 0.024186788126826286 -0.04885634034872055 -0.20379070937633514 -0.14970245957374573 -0.1957480013370514 0.15353164076805115 0.11940911412239075 0.06800726801156998 0.19077134132385254 0.12362203747034073 -0.11342910677194595 -0.13146689534187317 0.11975112557411194 -0.15459488332271576 -0.09483455121517181 0.06521892547607422 -0.06383158266544342 0.0840580090880394 -0.12240159511566162 -0.08530980348587036 0.32513898611068726 -0.12194559723138809 -0.02141641639173031 -0.048017002642154694 -0.07015183568000793 -0.24857866764068604 0.2523319721221924 -0.14097602665424347 0.059133317321538925 -0.03003588132560253 0.07156318426132202 -0.0648815855383873 -0.23313970863819122 -0.03966498002409935 0.34288445115089417 -0.021649552509188652 -0.5326149463653564 -0.07147973030805588 -0.09254111349582672 -0.1947658210992813 -0.35493600368499756 0.09959691017866135 0.06268146634101868 -0.20939551293849945 -0.09703707695007324 -0.013370508328080177 0.22010931372642517 -0.2179117649793625 -0.043176162987947464 0.002189939608797431 -0.15200909972190857 -0.21467462182044983 0.23406557738780975 -0.3174052834510803 -0.03108646348118782 -0.4067821502685547 0.09854837507009506 0.20115329325199127 0.4353463053703308 -0.25078168511390686 -0.3347666263580322 -0.2350948601961136 -0.18470194935798645 0.17878665030002594 0.40276890993118286 -0.39381131529808044 0.17356355488300323 0.09334684163331985 -0.1309364140033722 0.13061273097991943 -0.09296062588691711 5.5822172726038843E-5 0.06736510246992111 0.036309801042079926 0.23802033066749573 0.173508882522583 -0.04316786304116249 0.03926478326320648 -0.08289137482643127 -0.1783534288406372 0.01272586826235056 -0.24649746716022491 -0.16272036731243134
306 -0.24874821305274963 -0.25389376282691956 -0.1122785434126854 -0.01815282180905342 0.1362246423959732 -0.2107270359992981 -0.08623038232326508 0.0715423971414566 -0.14880411326885223 -0.045225467532873154 -0.05882774665951729 0.0755816102027893 0.08389965444803238 0.014555134810507298 -0.055366549640893936 0.2537685036659241 0.0790027603507042 -0.02565288357436657 0.038143813610076904 -0.12392563372850418 -0.05025770887732506 -0.012069406919181347 0.1266113519668579 0.11468087136745453 -0.09588316828012466 -0.10365564376115799 -0.0714021772146225 0.049816858023405075 0.2602277994155884 0.12298683077096939 -0.08741595596075058 0.057329386472702026 -0.12759043276309967 -0.3267284035682678 -0.19733920693397522 0.06499220430850983 0.05708138272166252 0.013764592818915844 -0.0742722824215889 0.11081597208976746 0.05246031656861305 -0.33243855834007263 0.00465805409476161 0.4485973119735718 0.004257760941982269 0.14037850499153137 0.020494719967246056 0.2124645859003067 0.05788188427686691 -0.141740620136261 0.2530806064605713 -0.15414537489414215 0.12786798179149628 -0.2621358633041382 -0.03259252384305 -0.02032557688653469 0.03479408472776413 -0.003169397823512554 -0.14466850459575653 -0.12641099095344543 -0.01525329053401947 -0.010275689885020256 0.023508260026574135 -0.23479124903678894 4.206128651276231E-4 0.02696175128221512 0.05712302774190903 -0.1727202981710434 -0.1604418158531189 -0.21600255370140076 0.10452350229024887 -0.025984974578022957 -0.004441247787326574 0.009851787239313126 0.13386447727680206 0.33651891350746155 -0.12124564498662949 -0.196249321103096 0.03132916986942291 -0.12491793930530548 -0.056599441915750504 0.12273643165826797 -0.19916047155857086 -0.09397542476654053 0.21652016043663025 -0.09576991945505142 0.16167579591274261 -0.0980323851108551 0.061311352998018265 0.0982891172170639 -0.11661412566900253 0.3722899258136749 0.2689550518989563 0.055937446653842926 0.03151345252990723 -0.24914465844631195 0.10037147253751755 0.16692130267620087 -0.01082700863480568 0.02563411369919777
793 -0.01922432892024517 0.004117053467780352 0.0067314463667571545 0.007649741601198912 0.02826162800192833 -0.027858804911375046 -0.03385709226131439 -0.043682876974344254 -0.038007330149412155 0.01666596718132496 -0.031088296324014664 -0.017682598903775215 0.05940457060933113 0.0069405194371938705 -0.004591558128595352 0.04209811985492706 -0.009751036763191223 -0.028061065822839737 0.05137312784790993 -0.040365491062402725 -0.025578759610652924 -0.024286121129989624 0.0015754670603200793 -0.008661115542054176 0.014913809485733509 0.017526064068078995 -0.031951259821653366 0.0019060953054577112 0.01686607301235199 0.03646369278430939 -0.03981652483344078 0.010098118335008621 0.03570733964443207 -0.031350277364254 0.0345015749335289 7.493351586163044E-4 -0.007727124262601137 0.037528324872255325 -0.013622729107737541 0.026442069560289383 0.026315147057175636 -0.04143388941884041 0.026282530277967453 0.028727976605296135 -0.006183466874063015 -0.017317533493041992 -0.010254543274641037 1.724592875689268E-4 -0.03604249283671379 -0.02631182223558426 0.023289529606699944 0.03263577073812485 0.022502467036247253 -0.0026859117206186056 0.010736341588199139 0.008891485631465912 -0.011251433752477169 -0.023396383970975876 -0.014092691242694855 0.00219666282646358 -0.021642586216330528 -0.009698349982500076 -0.012150959111750126 0.025308571755886078 -0.0052956948056817055 -0.011938279494643211 -0.003732501296326518 -0.017738815397024155 -0.012454235926270485 -0.012870244681835175 -0.0014730566181242466 0.0033290607389062643 -0.04220752790570259 0.008829234167933464 0.06377871334552765 0.06200222671031952 -0.02112937532365322 -0.005829780362546444 -0.014447133056819439 -0.05603863671422005 0.051992762833833694 0.05697336792945862 -0.03651805967092514 0.01244710385799408 0.059114985167980194 -0.028828656300902367 -0.011633427813649178 -0.027982624247670174 4.8082065768539906E-4 -0.008405392989516258 -0.015335225500166416 0.018780235201120377 0.03472146391868591 -0.01222405955195427 -0.0016328551573678851 -0.016612032428383827 -0.007261217571794987 -0.03424013778567314 0.015383404679596424 0.025720419362187386
270 -0.15375058352947235 -0.08731339871883392 0.051636386662721634 -0.0396004281938076 0.1234535500407219 -0.2272489219903946 -0.18561822175979614 -0.05636840686202049 -0.1389501690864563 0.028558015823364258 -0.20775677263736725 -0.12317133694887161 0.37738358974456787 -0.005177099257707596 0.11290575563907623 0.14831550419330597 0.052586279809474945 -0.10533112287521362 0.23584102094173431 -0.1936599314212799 0.014010217972099781 -0.26869356632232666 0.0237360168248415 0.09113525599241257 0.08301805704832077 -0.001972298137843609 -0.15769605338573456 -0.16483855247497559 0.17379000782966614 0.11279907822608948 -0.06756637990474701 0.10884873569011688 0.20947511494159698 -0.33954858779907227 0.1654374897480011 -0.003954760264605284 -0.017883621156215668 0.09659942984580994 -0.19929088652133942 0.19443972408771515 0.028941340744495392 -0.08798976242542267 0.10201476514339447 0.26281920075416565 0.06437167525291443 -0.025651369243860245 0.04148826748132706 0.19884522259235382 -0.11324165016412735 -0.11354590207338333 0.3384438753128052 0.05962451547384262 0.09257657080888748 -0.0971139520406723 0.006470009684562683 0.08938857913017273 -0.012116868980228901 -0.025314904749393463 -0.12166541069746017 -0.0823325589299202 -0.015581369400024414 -0.05108260363340378 -0.07621673494577408 -0.14437977969646454 -0.04121356084942818 -0.0699811801314354 0.1038326844573021 -0.09720980376005173 -0.0737762302160263 -0.23938792943954468 -0.05146341025829315 -0.11482188105583191 -0.07630917429924011 0.1109069287776947 0.3515905737876892 0.2884594798088074 -0.011742202565073967 -0.15048761665821075 0.0022544609382748604 -0.36030423641204834 0.014482344500720501 0.22181059420108795 -0.23967231810092926 -0.04864218458533287 0.2587839961051941 -0.2500589191913605 0.036495909094810486 -0.09527847170829773 0.14287254214286804 0.04699581861495972 -0.03405589982867241 0.2657942473888397 0.14900176227092743 -0.032746437937021255 0.03140775486826897 -0.15109366178512573 0.04938708245754242 0.02433953434228897 0.1071564182639122 0.11913173645734787
384 -0.343546062707901 -0.4408722221851349 -0.04819100722670555 -0.0111475745216012 0.17425668239593506 0.2211741805076599 -0.10944917798042297 0.3574620187282562 -0.1789231151342392 -0.14197219908237457 0.03160896524786949 0.04278065264225006 0.07520139962434769 -0.08416091650724411 -0.20163869857788086 0.0011201186571270227 0.016762418672442436 0.12534700334072113 -0.12526598572731018 -0.013067643158137798 0.03669283911585808 -0.01237276941537857 -0.2230597287416458 0.02648794837296009 -0.13230808079242706 0.05518757179379463 0.3090396821498871 -0.17429518699645996 -0.18741489946842194 0.1292363703250885 -0.04965728148818016 -0.03195318207144737 -0.2406875044107437 0.08060099929571152 0.14677894115447998 0.024508941918611526 0.23346871137619019 0.1173352524638176 -0.18661077320575714 -0.1885870397090912 -0.04603511467576027 -0.11624222248792648 -0.0389736108481884 0.4719701111316681 0.01777980476617813 -0.11529242247343063 0.42070502042770386 0.023792222142219543 0.12005609273910522 0.2476198375225067 -0.1919950693845749 -0.29985594749450684 0.2925879657268524 -0.2998707592487335 0.4108418822288513 -0.19813187420368195 0.027579497545957565 0.08608192950487137 0.29217836260795593 -0.270854651927948 0.3070928156375885 0.08061635494232178 0.12102171033620834 -0.11325951665639877 -0.2463003695011139 -0.3950909972190857 -0.17097964882850647 -0.19863809645175934 -0.14253196120262146 -0.05969468131661415 -0.11650052666664124 0.13415515422821045 0.06137250363826752 -0.056848667562007904 0.02408747188746929 -0.038184039294719696 -0.054149553179740906 -0.15949228405952454 0.30817916989326477 0.12277459353208542 -0.029076628386974335 -0.12187376618385315 -0.11197187751531601 0.3149353861808777 -0.007587128784507513 0.184194877743721 0.1613847017288208 -0.07231662422418594 0.026257410645484924 0.2432672381401062 -0.11324390023946762 -0.015881136059761047 0.38199183344841003 -0.19163069128990173 0.07509275525808334 -0.05805199593305588 -0.07709819078445435 0.13447989523410797 -0.5507135391235352 -0.021441487595438957
568 0.16801807284355164 -0.006178654730319977 0.09250080585479736 -0.018789906054735184 -0.02411632426083088 -0.007459799759089947 0.018904278054833412 -0.03871268779039383 -0.06604669988155365 -0.010133879259228706 -0.08958043158054352 -0.07693310081958771 0.022177139297127724 -0.03258063644170761 0.004717616364359856 0.04087045043706894 -0.001149353920482099 0.13263829052448273 -0.06702546030282974 0.0013677636161446571 0.0216570645570755 -0.0609394870698452 -0.03319394215941429 0.02431602217257023 0.11361642926931381 -0.07249049097299576 0.12277637422084808 -0.12425382435321808 0.11719097942113876 -0.045320264995098114 0.04463168606162071 0.013647998683154583 0.08997724950313568 -0.07112006843090057 -0.18222251534461975 -0.06077934801578522 0.07382481545209885 -0.04060839116573334 0.07026184350252151 0.013237268663942814 -0.1007959172129631 0.04878319427371025 -0.07601683586835861 -0.10333970934152603 0.038335464894771576 -0.06323623657226562 -0.036612529307603836 0.04821964353322983 -0.012340598739683628 -0.013802669942378998 0.08074392378330231 -0.07423252612352371 -0.14429576694965363 -0.027720579877495766 -0.03133524954319 -0.039539534598588943 0.009047065861523151 0.11318466812372208 0.02177284099161625 0.017794650048017502 -0.1279095709323883 -0.15008391439914703 -0.0768195241689682 -0.0735466405749321 0.08554168790578842 0.020849741995334625 -0.034708842635154724 0.03731280937790871 -0.06001036986708641 -0.05381156876683235 9.434323292225599E-4 -0.008413484320044518 -0.03660506755113602 -0.06832289695739746 0.012334803119301796 -0.03460191935300827 0.06726207584142685 0.03435015678405762 -0.03832942619919777 -0.02295062504708767 -0.056033454835414886 0.03566744551062584 0.05511883273720741 -0.14093978703022003 0.030146531760692596 0.00792954582720995 0.04336753115057945 0.025295043364167213 -0.07673614472150803 -0.028777306899428368 0.012427271343767643 0.14867523312568665 0.0365133211016655 -0.030475245788693428 -0.09439707547426224 0.10935838520526886 -0.11123761534690857 0.09518226981163025 -0.054801806807518005 -0.020784718915820122
367 -0.03397291526198387 -0.021745670586824417 0.06285751610994339 0.020490841940045357 0.06246044114232063 -0.37390372157096863 -0.13832399249076843 -0.16348373889923096 -0.029210103675723076 0.11499902606010437 -0.3346935510635376 -0.06354937702417374 0.3210322856903076 -0.014514420181512833 0.09764073044061661 -0.05888368934392929 0.07054021954536438 0.0026478241197764874 0.27851244807243347 -0.16024534404277802 0.025012308731675148 -0.22833308577537537 -0.02056010439991951 -0.036101143807172775 0.09200497716665268 0.19344228506088257 -0.01788838766515255 -0.13457360863685608 0.05617314204573631 0.12393438071012497 -0.0450582280755043 -0.26111897826194763 0.266807496547699 -0.07850747555494308 0.1737174391746521 -0.030321603640913963 -0.08761356770992279 0.16150707006454468 -0.18088151514530182 0.15169492363929749 -0.13530957698822021 -0.0815117135643959 0.011253252625465393 0.13988152146339417 -0.12252376973628998 -0.1456175595521927 -0.04284965991973877 0.16629500687122345 -0.04263906553387642 -0.12555980682373047 0.2910406291484833 0.22518430650234222 0.19484423100948334 -0.19833210110664368 -0.006053581368178129 0.026832448318600655 -0.09044697880744934 -0.16404098272323608 -0.208070307970047 -5.49250835319981E-5 -0.003549294313415885 -0.07154939323663712 -0.10702401399612427 0.06658201664686203 0.03285963088274002 -0.09126424044370651 -0.08599531650543213 -0.08481353521347046 -0.12347811460494995 -0.003724100301042199 -0.01727363094687462 -0.1414525955915451 -0.15123265981674194 0.021699633449316025 0.5493955016136169 0.3907838463783264 -0.10222568362951279 -0.12530580163002014 -0.15390385687351227 -0.2119625210762024 0.08712628483772278 0.19730570912361145 -0.30814263224601746 -0.04975569248199463 0.2896529734134674 -0.11225850135087967 0.013633260503411293 -0.042964886873960495 0.03918701037764549 0.15221524238586426 -0.09626438468694687 0.03404386341571808 0.1921355128288269 -0.014599199406802654 0.0712880939245224 -0.36507391929626465 -0.0059648556634783745 0.03609291464090347 0.09230976551771164 -0.05617856979370117
327 -0.13186891376972198 -0.09455227106809616 -0.1629999279975891 0.019393393769860268 0.016588957980275154 -0.0919712483882904 -0.08148683607578278 -0.05639634653925896 -0.044217146933078766 0.12258493900299072 -0.039993345737457275 0.17517265677452087 0.02952035330235958 0.08923866599798203 0.00566097442060709 0.16900333762168884 0.05378282070159912 -0.13888892531394958 0.03939540684223175 -0.12273573130369186 0.126718208193779 0.014529068022966385 0.12135685980319977 0.062218643724918365 0.027569511905312538 -0.1392432600259781 -0.18356817960739136 0.20776471495628357 0.20179063081741333 0.04112162068486214 -0.12419292330741882 0.2658942937850952 -0.06347473710775375 -0.18609561026096344 -0.0843115970492363 -0.11164698004722595 -0.1330610066652298 -0.12194973975419998 -0.058775316923856735 -0.008984128013253212 0.02448485605418682 -0.0783710703253746 0.06433869898319244 0.07874691486358643 0.03782839700579643 0.16512107849121094 -0.10839413851499557 0.015423630364239216 0.018707452341914177 -0.055705778300762177 0.13133497536182404 -0.17772957682609558 0.07758821547031403 -0.003619089489802718 -0.13291093707084656 -0.013857630081474781 -0.06195183843374252 -0.020004000514745712 -0.16398869454860687 -0.07674791663885117 -0.030814344063401222 0.018009884282946587 0.044968508183956146 -0.25839266180992126 -0.06913421303033829 0.04356957599520683 -0.00810038112103939 0.018158895894885063 -0.06950755417346954 -0.19840587675571442 0.022716280072927475 -0.022975513711571693 -0.018540576100349426 -0.0038037472404539585 -0.09019096940755844 0.10888633131980896 -0.06237759441137314 -0.06178950145840645 0.04568709805607796 -0.13208629190921783 0.046923425048589706 0.23744529485702515 0.006011409685015678 -0.18826763331890106 0.24142128229141235 -0.15796051919460297 0.05283532291650772 4.862370842602104E-4 -0.048417218029499054 -0.06166268512606621 0.07488973438739777 0.09977324306964874 0.16512830555438995 -0.03810954466462135 0.11783559620380402 -0.13031309843063354 0.08377263695001602 -0.009154219180345535 0.052418649196624756 0.014611744321882725
98 0.03831491619348526 -0.14580604434013367 -0.023647934198379517 -0.32126790285110474 0.16229593753814697 0.044942256063222885 -0.064695805311203 0.05188078060746193 -0.16569501161575317 0.24524830281734467 -2.63762085523922E-5 0.15736153721809387 0.22064341604709625 0.1047833040356636 0.1179431676864624 0.22021043300628662 -0.010296410880982876 -0.09094464778900146 -0.0802837610244751 -0.049509447067976 0.3127061724662781 -0.07573380321264267 0.08504609763622284 -0.0698191225528717 0.18122504651546478 -0.23854224383831024 -0.12772221863269806 0.020973237231373787 -0.1112692728638649 0.1628207564353943 -0.33581528067588806 0.2735179364681244 -0.2575725317001343 0.02848452515900135 -0.2475934773683548 -0.04629199206829071 -0.07206454873085022 0.05056821182370186 0.25099554657936096 -0.13269831240177155 0.16936475038528442 0.14640408754348755 0.004856053739786148 -0.13150133192539215 -0.0028319444973021746 -0.1254788190126419 0.028612539172172546 -0.10881350934505463 0.04762067645788193 -0.2011154294013977 -0.08129221200942993 -0.10625224560499191 0.009487585164606571 -0.10513473302125931 -0.07398492842912674 -0.27395832538604736 -0.06069948896765709 9.694116306491196E-5 0.09101390838623047 -0.16136661171913147 0.03380438685417175 0.0270704198628664 0.1530543863773346 -0.09038837254047394 -0.022118771448731422 0.16435876488685608 0.08487977087497711 0.057315681129693985 -0.05189628154039383 0.10471723228693008 -0.06904297322034836 0.12434204667806625 -0.033834606409072876 0.018572555854916573 -0.10155221819877625 0.06956019252538681 -0.1185467392206192 0.03088768757879734 0.16291718184947968 0.04616245627403259 -0.0010290996870025992 0.0782923698425293 -0.0611138716340065 -0.21347279846668243 0.2512581944465637 -0.1427052617073059 0.07724606245756149 0.30571430921554565 -0.03246738016605377 0.08135369420051575 0.18316932022571564 0.16037827730178833 0.15571562945842743 0.021241532638669014 0.11770419031381607 -0.308835506439209 -0.18340305984020233 0.0707821324467659 0.0385938361287117 0.19962573051452637
325 0.030558256432414055 -0.06766215711832047 -0.03064744360744953 -0.08115272223949432 0.1931254267692566 0.047855183482170105 -0.10271504521369934 -0.07147908210754395 -0.20568212866783142 0.11304040998220444 0.11905723065137863 0.10267133265733719 0.05057894438505173 -0.047542572021484375 -0.06574658304452896 0.12299032509326935 0.007324755657464266 -0.08785369247198105 0.016475368291139603 -0.03868359699845314 0.14103315770626068 0.02755247987806797 0.15557901561260223 0.026430636644363403 0.0899556577205658 -0.19330595433712006 -0.15925610065460205 0.11171115934848785 -0.09543532878160477 0.07106540352106094 -0.2955535650253296 0.1684938222169876 -0.24074070155620575 0.0029936921782791615 -0.14084887504577637 -0.017818236723542213 -0.020624671131372452 -0.03561089187860489 0.15665438771247864 -0.11076433211565018 0.15046662092208862 0.006957886274904013 0.04790296405553818 -0.10876944661140442 -0.04142165184020996 -0.044681649655103683 0.021092334762215614 0.02869696356356144 -0.026028530672192574 -0.01702294312417507 -0.12672090530395508 -0.06668554991483688 -0.018068043515086174 -0.040055058896541595 0.018651502206921577 -0.17050445079803467 -0.03066146746277809 -0.057216279208660126 0.019939089193940163 -0.07206133008003235 -0.07846818119287491 0.0010513282613828778 0.14854860305786133 -0.10038363188505173 -0.055850800126791 0.1745786964893341 -0.026732049882411957 -0.04084024205803871 0.001747173024341464 -0.052910029888153076 -0.04332900047302246 -0.018944738432765007 -0.017179789021611214 0.03318578377366066 0.05184539780020714 0.004290353506803513 -0.13286006450653076 -0.003170126350596547 0.11625098437070847 0.08990032225847244 -0.026747949421405792 0.030208149924874306 -0.008344069123268127 -0.02285487949848175 -0.004459069576114416 0.025099366903305054 -0.023006096482276917 0.11227061599493027 -0.15451261401176453 0.08972194790840149 0.11564404517412186 0.04376213997602463 0.057798292487859726 0.058286380022764206 0.12736009061336517 -0.18457050621509552 0.016882341355085373 0.033235348761081696 0.06142090633511543 0.14107373356819153
